svm_type c_svc
kernel_type rbf
gamma 0.5
nr_class 61
total_sv 737
rho 0.0914567 0.332526 0.114729 -0.00785382 -0.229087 0.167881 0.187825 0.162093 -0.108618 0.109124 0.163339 -0.222608 -0.0481535 -0.129566 -0.128364 0.0369515 -0.0902413 -0.132827 -0.120673 0.0143306 -0.08837 0.0163493 -0.183526 -0.1867 -0.0944888 0.152062 0.218533 0.209293 -0.257451 0.0295022 -0.165597 -0.162161 -0.238497 -0.178809 0.0724697 -0.15755 0.0333907 0.00673481 0.0481915 0.0728455 0.0935219 -0.0929681 -0.288816 -0.0113443 -0.667572 -0.119976 -0.229945 -0.257358 -0.0282665 0.214683 -0.0608734 0.144369 0.0465702 -0.102494 -0.0907546 -0.05696 -0.0427329 0.146621 -0.584001 -0.0595381 0.282787 0.0597964 -0.094167 -0.308148 0.0928632 0.126719 0.083478 -0.193738 0.0498908 0.106106 -0.295279 -0.133614 -0.212346 -0.219257 -0.0524603 -0.173456 -0.211528 -0.204944 -0.0775098 -0.207386 -0.0691037 -0.18732 -0.262694 -0.191592 0.0940783 0.155579 0.151381 -0.326447 -0.0561075 -0.244856 -0.240626 -0.313513 -0.253275 -0.168367 -0.23836 -0.0446891 -0.0818502 -0.0460523 -0.0105446 0.0113761 -0.175449 -0.351948 -0.10327 -0.0986739 -0.203902 -0.30388 -0.319061 -0.115408 0.131118 -0.168333 0.0745579 -0.0363055 -0.18343 -0.175554 -0.139309 -0.13106 0.0716754 -0.641241 -0.150845 -0.202879 -0.389806 -0.537141 -0.190833 -0.17732 -0.247683 -0.444372 -0.22545 -0.129009 -0.51129 -0.37354 -0.435653 -0.439175 -0.354995 -0.400785 -0.423547 -0.456317 -0.329026 -0.43148 -0.319973 -0.466037 -0.481585 -0.420642 -0.225331 -0.167455 -0.107101 -0.520696 -0.310151 -0.470749 -0.454617 -0.548405 -0.569345 -0.303141 -0.499388 -0.351143 -0.314959 -0.293691 -0.249553 -0.271809 -0.402172 -0.544684 -0.361607 -0.328268 -0.46027 -0.518702 -0.532891 -0.35684 -0.203962 -0.543248 -0.266887 -0.290033 -0.441932 -0.49381 -0.441016 -0.366316 -0.205244 -0.795552 -0.426094 -0.113397 -0.333967 0.0384787 0.0651138 -0.132309 -0.219571 -0.0187923 0.0653038 -0.317817 -0.151979 -0.228332 -0.23221 -0.0861106 -0.19174 -0.22944 -0.231151 -0.102826 -0.207822 -0.103112 -0.277469 -0.302864 -0.224163 -0.769682 0.0891153 0.0931198 -0.347353 -0.086735 -0.268459 -0.258694 -0.327937 -0.271488 -0.074207 -0.255543 -0.0815728 -0.105728 -0.0745659 -0.0479494 -0.0284698 -0.193644 -0.363894 -0.123572 -0.119788 -0.222643 -0.319193 -0.336073 -0.133885 0.023653 -0.1959 0.0174661 -0.0644059 -0.201872 -0.1942 -0.157719 -0.149333 0.00287487 -0.650413 -0.1758 -0.219099 0.154467 0.216868 0.158496 -0.110858 0.107975 0.160908 -0.22411 -0.0456852 -0.122495 -0.114382 0.0435464 -0.0865542 -0.126183 -0.124038 0.0167448 -0.0791499 0.0160398 -0.177784 -0.180986 -0.081402 0.150505 0.190676 0.207013 -0.24778 0.036563 -0.165911 -0.154409 -0.240554 -0.19089 0.066178 -0.154309 0.0313264 0.00808666 0.0474965 0.0728279 0.101874 -0.0948704 -0.278099 -0.00475324 -0.00129638 -0.120272 -0.230065 -0.240098 -0.0276787 0.204936 -0.0544642 0.125898 0.0565873 -0.10213 -0.0882154 0.0241217 -0.0365208 0.133063 -0.573306 -0.0538563 0.407922 0.473949 0.40513 0.130705 0.392528 0.364956 -0.0139354 0.15632 0.0920527 0.116932 0.297634 0.109001 0.0656936 0.0969809 0.224107 0.163009 0.241883 0.0138445 0.0130165 0.129252 0.405978 0.455993 0.447941 -0.0628055 0.266356 0.0656399 0.042983 -0.0287108 0.0433644 0.360631 0.0512182 0.290309 0.222647 0.287886 0.292197 0.32628 0.113878 -0.0858158 0.210874 0.213692 0.147599 -0.0309536 -0.0535545 0.178911 0.510114 0.212127 0.380484 0.252223 0.110215 0.134625 0.162398 0.224999 0.349885 -0.441104 0.202549 0.133772 -0.0400903 -0.273224 -0.0579737 0.0247067 -0.390675 -0.2082 -0.327874 -0.301624 -0.133281 -0.255308 -0.295471 -0.287655 -0.163214 -0.268556 -0.151604 -0.350425 -0.362204 -0.27619 -0.024107 0.0416198 0.0620619 -0.425914 -0.179621 -0.335092 -0.33057 -0.407664 -0.357602 -0.123014 -0.32187 -0.123733 -0.167233 0.00954844 -0.656794 -0.0538955 -0.249138 -0.497843 -0.211214 -0.170639 -0.315972 -0.396532 -0.41348 -0.179048 0.0119249 -0.264146 -0.0187322 -0.0932467 -0.34323 -0.262775 -0.20737 -0.20031 -0.0241421 -0.7118 -0.230689 0.0598208 -0.325197 -0.0863365 0.000958108 -0.461325 -0.267071 -0.341004 -0.225995 -0.165542 -0.297026 -0.345183 -0.343364 -0.197062 -0.18281 -0.149366 -0.410587 -0.428105 -0.31929 -0.0502808 0.0189112 0.0372607 -0.496313 -0.17044 -0.395911 -0.388165 -0.499005 -0.422073 -0.157539 -0.388544 -0.158881 -0.186091 0.526151 -0.116684 -0.10743 -0.314159 -0.512824 -0.224912 -0.190949 -0.38144 -0.462108 -0.333856 -0.228317 -0.0188589 -0.317618 -0.0480269 -0.147818 -0.329265 -0.318631 -0.276463 -0.240281 -0.0153061 -0.754977 -0.261411 -0.273763 -0.0258031 0.0601892 -0.391204 -0.199181 -0.296316 0.250054 -0.125867 -0.253721 -0.298021 -0.287408 -0.151575 -0.280195 -0.142566 -0.352267 -0.351648 -0.285126 0.172182 0.120856 0.0138026 -0.426017 -0.128594 -0.335675 -0.33334 -0.412473 -0.34641 -0.100744 -0.325861 -0.114451 -0.147207 -0.115057 -0.0785102 -0.0543662 -0.253471 -0.44848 -0.174089 -0.164888 -0.308691 -0.400963 -0.416418 -0.177667 0.0826336 -0.264313 0.0129884 -0.0989208 -0.262692 -0.251415 -0.212781 -0.198864 0.00661475 -0.724665 -0.226304 0.237749 0.254511 -0.19154 0.0599467 -0.0117364 0.00549225 0.169569 0.018521 -0.0214377 0.771857 0.117951 0.0347512 0.121453 -0.0696088 -0.0762627 0.0134576 0.270563 0.311993 0.312976 -0.139534 0.146738 -0.0934139 -0.0447443 -0.122705 -0.0649877 0.130442 -0.0468348 0.160024 0.111852 0.168656 0.176294 0.202229 0.0198185 -0.16288 0.101287 0.0980033 0.0242315 -0.118907 -0.136319 0.0779681 0.342461 0.0671589 0.238744 0.14742 0.0104913 0.0238747 0.0614046 0.0817179 0.229538 -0.502519 0.0590455 0.0738638 -0.353912 -0.151545 -0.248547 -0.246119 -0.0754456 -0.197749 -0.240746 -0.248169 0.0364716 -0.21753 -0.0928279 -0.297113 -0.30728 -0.324763 0.0215552 0.107691 0.112894 -0.374244 -0.0780224 -0.292988 -0.275386 -0.360473 -0.293549 -0.0586781 -0.27827 -0.0709577 -0.100034 -0.0627164 -0.0314397 -0.0109616 -0.1993 -0.415641 -0.118996 -0.115378 -0.235364 -0.350049 -0.365826 -0.129924 0.0814839 -0.199293 0.154537 -0.0518399 -0.209795 -0.199694 -0.161341 -0.151198 0.031052 -0.759103 -0.174129 -0.35502 -0.198363 -0.273279 -0.277064 -0.134775 -0.238291 -0.274932 -0.266426 -0.156447 -0.251322 -0.152507 -0.321664 -0.330907 -0.253632 -0.0579313 0.0225893 0.0310171 -0.385644 -0.137674 -0.307467 -0.304411 -0.368634 -0.309855 -0.126151 -0.298939 -0.127511 -0.152471 -0.126911 -0.0976391 -0.0822845 -0.239759 -0.401615 -0.173361 -0.166742 -0.269123 -0.359531 -0.375404 -0.180868 -0.0224249 -0.245437 -0.0388359 -0.113293 -0.247372 -0.235512 -0.20479 -0.194257 -0.0484751 -0.670299 -0.218598 0.167519 0.104846 0.136448 0.300334 0.125122 0.0869437 0.163325 0.224302 0.174167 0.229015 0.0400291 0.0361859 0.165836 0.382922 0.439403 0.43029 -0.0342304 0.262815 0.989176 0.0665058 -0.00470667 0.0544613 0.168073 0.0783618 0.287703 0.220133 0.285713 0.283681 0.319094 0.128724 -0.0550019 0.208217 0.206985 0.163258 -0.00401176 -0.0261759 0.185063 0.501825 0.22069 0.366572 0.252328 0.121063 0.135648 0.170304 0.19626 0.328793 -0.381014 0.18814 -0.0750796 -0.0624049 0.0826854 -0.0398595 -0.0789427 -0.0727457 0.0604235 -0.0289218 0.0591671 -0.127523 -0.130388 -0.0256927 0.193511 0.230096 0.239911 -0.196024 0.0911234 -0.111991 -0.10456 -0.175261 -0.143236 0.123627 -0.102477 0.08054 0.0564533 0.100494 0.120576 0.15035 -0.0412588 -0.226276 0.00681033 0.0381478 -0.706546 -0.168236 -0.190684 0.0344817 0.266765 0.00209514 0.181167 0.0860261 -0.10037 -0.0506291 -0.00710227 0.00581177 0.17026 -0.506445 -0.00800426 0.0143043 0.167146 0.0287873 -0.012907 0.000583774 0.132523 0.0475909 0.138608 -0.0635949 -0.0666368 0.0421314 0.27355 0.331349 0.329384 -0.137215 0.199698 -0.0438586 -0.0372731 -0.113737 -0.0625838 0.224773 -0.0319691 0.158605 0.148011 0.182788 0.216417 0.219603 0.0309523 -0.995783 0.126083 0.114662 0.00759063 -0.108024 -0.13543 0.0914973 0.387799 0.0842758 0.269698 0.161973 0.0171442 0.0386054 0.0690326 0.0837034 0.250182 -0.467715 0.0683501 0.162124 0.012785 -0.0341652 -0.0187167 0.12851 0.0390774 0.131661 -0.0928825 -0.0962226 0.0530589 0.290529 0.367594 0.23922 -0.177478 0.162988 -0.0674323 -0.0630035 -0.145977 -0.0711019 0.240008 -0.0568335 0.155803 0.125414 0.181954 0.193948 0.227681 0.0158975 -0.192348 0.108603 0.113382 0.0211476 -0.138768 -0.164333 0.0843035 0.414857 0.0792368 0.281057 0.16538 0.00436631 0.0198458 0.057969 0.0660353 0.247083 -0.593195 0.0537914 -0.123073 -0.165279 -0.183957 -0.01902 -0.126947 -0.0235199 -0.217124 -0.220557 -0.132941 0.122104 0.158631 0.184232 -0.284292 -0.00789171 -0.238626 -0.195721 -0.31621 -0.251227 0.00103588 -0.215751 0.814898 -0.0308016 0.0121156 0.0404313 0.0593253 -0.126831 -0.311069 -0.0453693 -0.0417652 -0.15049 -0.303343 -0.279881 -0.0620646 0.143812 -0.132635 0.0944107 0.0138997 -0.137305 -0.141876 -0.0978318 -0.0851747 0.101878 -0.625137 -0.121724 -0.0399744 -0.0308466 0.101072 0.0143782 0.0997578 -0.0880553 -0.0907463 0.0203164 0.239439 0.306578 0.290536 -0.157162 0.126026 -0.0689106 -0.0639985 -0.134084 -0.0808837 0.181605 -0.0592702 0.118535 0.0918911 0.143169 0.156257 0.182429 0.000816324 -0.176284 0.0830083 0.0792488 0.00179932 -0.128097 -0.150166 0.0589046 0.32984 0.050614 0.233321 0.134911 -0.00935061 0.000841789 0.0367836 0.0447401 0.208835 -0.46444 0.0334189 0.0112443 0.140044 0.0638725 0.142567 -0.048642 -0.0512951 0.0710384 0.281971 0.351807 0.332494 -0.120737 0.165825 -0.0280938 -0.406047 -0.0945301 -0.0363183 0.233348 -0.0197051 0.157426 0.131527 0.188287 0.198161 0.225083 0.0419839 -0.139716 0.121699 0.119391 0.0550024 -0.08975 -0.113684 0.097889 0.386384 0.104947 0.276235 0.168384 0.032535 0.0408912 0.0760521 0.0849414 0.246099 -0.426348 0.075622 0.129531 0.0503198 0.133394 -0.059584 -0.0645006 0.0290821 0.283433 0.327892 0.326311 -0.129435 0.160376 -0.0373507 -0.0344959 -0.109801 -0.0505315 0.145653 -0.0334317 0.181014 0.125027 0.181766 0.190252 0.21559 0.0308397 -0.153539 0.11395 0.109245 0.0385383 -0.106142 -0.125353 0.0901491 0.363523 0.0814529 0.252608 0.159178 0.0219937 0.0398561 0.0740602 0.0941895 0.240154 -0.488968 0.0751666 -0.101727 -0.00330739 -0.188713 -0.191728 -0.0967646 0.14749 0.222727 0.207489 -0.256444 0.0178512 -0.171356 -0.167606 -0.235806 -0.176927 0.0578467 -0.162254 0.0203821 -0.0104075 0.0313932 0.0532926 0.0748441 -0.103015 -0.272657 -0.0237695 -0.0231081 -0.114971 -0.227931 -0.24638 -0.0412768 0.218346 -0.0730418 0.599366 0.0308666 -0.111828 -0.100019 -0.0633929 -0.0551556 0.129757 -0.561048 -0.0722141 0.117032 -0.122229 -0.12659 0.00594522 0.26227 0.329064 0.310919 -0.20936 0.125607 -0.104003 -0.0939687 -0.185107 -0.110382 0.192989 -0.0888827 0.12285 0.0893188 0.147109 0.160951 0.188401 -0.0174442 -0.232319 0.0774627 0.0794975 -0.018986 -0.177685 -0.931071 0.050664 0.356226 0.0180758 0.24589 0.129823 -0.0272765 -0.0106541 0.0276762 0.0380729 0.26557 -0.616289 0.0162438 -0.191273 -0.198786 -0.101026 0.140252 0.196556 0.192586 -0.263916 0.0213113 -0.176562 -0.171701 -0.243268 -0.19047 0.0567641 -0.169616 0.0224821 -0.00724816 0.0359875 0.0576437 0.080029 -0.103125 -0.285005 -0.0208051 -0.0255449 -0.121028 -0.235627 -0.293216 -0.0406665 0.19013 -0.0801574 0.128318 0.0352865 -0.114622 -0.106135 -0.0636699 -0.0540112 0.205744 -0.572811 -0.0714529 -0.00298315 0.131453 0.337561 0.408518 0.389602 -0.075498 0.21943 0.0219751 0.0274941 -0.0467885 0.0114814 0.135654 0.0289107 0.20609 0.180059 0.242177 0.246326 0.278782 0.0913312 -0.0938572 0.170404 0.168784 0.115847 -0.0441894 -0.0689763 0.1466 0.451101 0.16192 0.331875 0.216112 0.0820724 0.089144 0.124689 0.133875 0.292222 -0.374618 0.127785 0.133477 0.373485 0.420166 0.401367 -0.0683396 0.222774 0.0242633 0.0300335 -0.0409263 0.0143426 0.311882 0.0318843 0.209721 0.183077 0.245727 0.249677 0.284283 0.0940386 -0.0882017 0.173378 0.172037 0.119368 -0.0389904 -0.0636394 0.149488 0.475017 0.164363 0.341715 0.219139 0.0849613 0.0924063 0.127561 0.137904 0.305118 -0.38165 0.134947 0.274359 0.333293 0.312951 -0.221488 0.133193 -0.0921765 -0.103021 -0.185188 -0.109055 0.209984 -0.0832407 0.129519 0.0954434 0.146324 0.16117 0.187329 -0.0225814 -0.231603 0.077614 0.0838025 -0.0256688 -0.177264 -0.209031 0.0474167 0.877702 0.0390566 0.246633 0.128072 -0.0293798 -0.0120729 0.0262328 0.0463915 0.227217 -0.663995 0.0279869 0.0854404 0.0892332 -0.421358 -0.114531 -0.327032 -0.316936 -0.397591 -0.325518 -0.0921228 -0.312844 -0.115813 -0.131579 -0.111208 -0.0775756 -0.059443 -0.241201 -0.428428 -0.162213 -0.155463 -0.279709 -0.386476 -0.404223 -0.173746 0.0356618 -0.253645 -0.00397724 -0.0967489 -0.247795 -0.236835 -0.200805 -0.191289 -0.00498783 -0.713827 -0.222286 0.713278 -0.48443 -0.163896 -0.386823 -0.386866 -0.553103 -0.269541 -0.188949 -0.368745 -0.148695 -0.174968 -0.167519 -0.125494 -0.116002 -0.305063 -0.476389 -0.208124 -0.218456 -0.337495 -0.52028 -0.461961 -0.227692 -0.0548667 -0.326047 -0.0708507 -0.149366 -0.29753 -0.178744 -0.243081 -0.239925 -0.0737583 -0.744842 -0.279364 -0.46512 -0.182501 -0.376398 -0.367691 -0.544373 -0.373997 -0.181341 -0.362523 -0.175721 -0.195578 -0.170489 -0.136849 -0.119075 -0.290522 -0.473895 -0.217347 -0.210924 -0.329688 -0.522471 -0.448159 -0.219424 -0.0638772 -0.311213 -0.074883 -0.149412 -0.299082 -0.289179 -0.256611 -0.243588 -0.081773 -0.729781 -0.272413 0.290306 0.0953229 0.101129 0.0271363 0.0820433 0.405959 0.100012 0.273423 0.2477 0.316532 0.313169 0.352708 0.1602 -0.0203544 0.238276 0.237537 0.199044 0.027509 0.00254208 0.214824 0.527554 0.240108 0.407026 0.282319 0.152181 0.158818 0.193203 0.202668 0.364534 -0.314438 0.199107 -0.20405 -0.196853 -0.274086 -0.254619 0.0322198 -0.192247 0.00838684 0.802175 0.0148485 0.0763746 0.0618068 -0.129197 -0.380914 -0.0541251 -0.036035 -0.19777 -0.264311 -0.283635 -0.0634609 0.186899 -0.102023 0.111719 0.016878 -0.181238 -0.147942 -0.0883169 -0.0749569 0.105164 -0.600017 -0.0947129 0.00566618 -0.0727984 -0.00844462 0.105024 0.0160171 0.224153 0.165816 0.227798 0.232885 0.262033 0.0726077 -0.116857 0.154526 0.151751 0.0920284 -0.0694276 -0.0904143 0.13022 0.433974 0.146343 0.309438 0.200234 0.0628325 0.0771099 0.113145 0.138365 0.280182 -0.454944 0.120376 -0.0735938 -0.0153358 0.275566 0.00229907 0.185305 0.158817 0.220256 0.226786 0.258251 0.0671412 -0.120892 0.148784 0.147578 0.0859367 -0.0693401 -0.094691 0.124167 0.442658 0.137022 0.311259 0.196755 0.0570483 0.0652313 0.101528 0.110978 0.275936 -0.412358 0.102926 0.062784 0.374141 0.0771606 0.312524 0.230377 0.296463 0.29452 0.333404 0.137315 -0.0477689 0.219265 0.221502 0.172647 0.788061 -0.0221276 0.195267 0.530747 0.214167 0.384193 0.263662 0.129573 0.144484 0.187609 0.189721 0.344643 -0.333801 0.186547 0.277705 0.0208544 0.226717 0.209895 0.244117 0.246287 0.27721 0.0838794 -0.110836 0.186997 0.167488 0.0807823 -0.0579736 -0.0746814 0.143623 0.450589 0.144498 0.294738 0.220334 0.0843977 -0.402208 0.12404 0.142192 0.295361 -0.410723 0.120862 -0.252147 0.00343457 -0.0618483 -0.0160384 0.0149663 0.0383427 -0.182361 -0.422907 -0.0842747 -0.081381 -0.21699 -0.359956 -0.383031 -0.100373 0.16618 -0.15499 0.0988262 -0.0117494 -0.192913 -0.17066 -0.12414 -0.107304 0.0882447 -0.725353 -0.128839 0.200609 0.156438 0.218566 0.222956 0.252217 0.0631935 -0.12545 0.146772 0.142509 0.0787166 -0.072753 -0.0953852 0.121546 0.426945 0.105832 0.297103 0.191259 0.0539952 0.0724845 0.102755 0.977809 0.276785 -0.472576 0.118405 -0.0262799 0.011128 0.0354127 0.055104 -0.12167 -0.300928 -0.042979 -0.0369232 -0.144429 -0.297318 -0.27182 -0.0612058 0.131616 -0.126377 0.0849777 0.0116147 -0.13121 -0.127958 -0.0871908 -0.0742798 0.0990851 -0.623219 -0.108301 0.0426497 0.0749248 0.084498 -0.0941254 -0.333307 -0.0219569 -0.0136453 -0.159532 -0.222059 -0.241476 -0.0314905 0.203747 -0.0611057 0.129636 0.0415524 -0.148275 -0.116302 -0.0561384 -0.0441478 0.122135 -0.563371 -0.0615641 0.0284869 0.0594701 -0.154984 -0.336566 -0.0638879 -0.0578611 -0.187835 -0.286208 -0.305958 -0.0798611 0.165038 -0.125728 0.100227 0.00717835 -0.159088 -0.147833 -0.106298 -0.0928115 0.091742 -0.618337 -0.114673 0.0187854 -0.161886 -0.366881 -0.11439 -0.0789793 -0.199064 -0.285908 -0.30339 -0.096163 0.121295 -0.146416 0.0696531 -0.0218719 -0.218767 -0.160702 -0.122169 -0.111263 0.0635518 -0.613103 -0.132327 -0.200839 -0.371695 -0.110709 -0.100922 -0.236984 -0.322732 -0.342683 -0.128973 0.0984945 -0.175494 0.0411983 0.684001 -0.204099 -0.183638 -0.149596 -0.132744 0.0427896 -0.649672 -0.155859 -0.180228 0.0946052 0.0806283 -0.0121255 -0.131481 -0.153414 0.0403011 0.330869 0.0524911 0.233326 0.138202 -0.00478941 0.00104413 0.0420859 0.0468546 0.210713 -0.467272 0.0346411 0.280537 0.26933 0.204644 0.0479808 0.0239369 0.236364 0.54152 0.261375 0.422347 0.299872 0.181768 0.20102 0.223386 0.229427 0.385431 -0.278796 0.223355 0.000585623 -0.12728 -0.211855 -0.23254 -0.0157847 0.237476 -0.0503972 0.15831 0.0590609 -0.945234 -0.084248 -0.0493021 -0.0357514 0.147022 -0.54834 -0.0526595 -0.104309 -0.213953 -0.244422 -0.0190019 0.212234 -0.0483222 0.148849 0.0548618 -0.0923016 -0.0815928 -0.0452965 -0.0334202 0.157372 -0.554132 -0.0495912 -0.164243 -0.189825 0.104331 0.403205 0.0574167 0.265695 0.16614 0.0174359 0.0216241 0.0589179 0.0515056 0.241975 -0.589904 0.0370561 -0.0233098 0.188376 0.50369 0.205579 0.374579 0.254978 0.123796 0.137495 0.177665 0.183245 0.335716 -0.334371 0.182662 0.208865 0.545974 0.216078 0.390138 0.274975 0.146299 0.158254 0.191734 0.200254 0.410839 -0.313151 0.198466 0.240242 -0.0203928 0.162751 0.072705 -0.123844 -0.0574384 -0.0244077 -0.0130522 0.155313 -0.524574 -0.0278678 -0.360465 -0.0360453 -0.141848 -0.359756 -0.334051 -0.266655 -0.256256 -0.0399936 -0.767463 -0.291219 0.222886 0.110241 -0.0609721 -0.0400237 -0.00245411 0.0546174 0.216104 -0.749711 0.677588 -0.0824998 -0.244237 -0.20933 -0.173319 -0.176246 -0.00665001 -0.714953 -0.192822 -0.147028 -0.13551 -0.100615 -0.0843658 0.0803974 -0.585502 -0.102751 0.0168391 0.0482186 0.0550779 0.230988 -0.462723 0.0435227 0.0360499 0.0523426 0.214517 -0.492148 0.0314521 0.0125637 0.178776 -0.520437 -0.00596285 0.170929 -0.563219 -0.0259867 -0.654752 -0.191158 0.743566
label 57 53 0 33 21 5 10 13 18 24 2 8 54 38 37 44 22 7 49 50 40 45 16 27 4 9 59 26 52 3 34 28 23 46 25 6 32 48 60 39 36 29 15 11 56 31 12 20 19 41 35 17 14 55 30 51 47 58 42 1 43
nr_sv 16 16 10 15 12 6 14 7 12 16 13 11 12 20 14 13 10 9 13 17 13 15 11 16 6 11 9 11 14 5 12 15 11 5 20 7 7 17 15 14 13 9 15 10 15 13 8 7 10 17 19 5 15 14 6 18 12 16 14 2 9
SV
0.5 0.5 0.5 0.5 0.5 0.5 0.5 0.5 0.5 0.5 0.5 0.5 0.5 0.5 0.5 0.5 0.5 0.5 0.5 0.5 0.5 0.5 0.5 0.5 0.5 0.5 0.5 0.5 0.5 0.5 0.5 0.5 0.5 0.5 0.5 0.5 0.5 0.5 0.5 0.5 0.5 0.5 0.5 0.5 0.5 0.5 0.5 0.5 0.5 0.5 0.5 0.5 0.5 0.5 0.5 0.5 0.5 0.5 0.3459740583020722 0.5 1:-0.14013 2:0.761229 3:-0.847464 4:0.475939 5:-0.376414 6:-0.016139 7:0.166051 8:-0.691056 9:-1 10:-0.101865 11:-0.313508 12:-0.659961 13:0.11692 14:-0.156542 15:-0.59818 16:-0.720349 17:-0.9955 18:-0.488277 19:-0.519472 20:-0.392395 21:-0.194813 22:-0.000647587 23:0.336467 24:0.621172 25:0.257451 26:-0.333691 27:-0.268597 28:0.407412 29:-0.0573119 30:-0.447296 31:-0.160422 32:-0.102856 33:-0.322172 34:-0.179544 35:-0.0920655 36:0.425685 37:0.47256 38:0.435072 39:0.143899 40:-0.496957 
0 0 0 0 0 0 0 0 0 0 0 0 0 0 0 0 0 0 0 0 0 0 0 0 0 0 0 0 0 0 0 0 0 0 0 0 0 0 0 0 0 0 0 0 0.5 0 0 0 0 0 0 0 0 0 0 0 0 0 0 0 1:-0.059105 2:0.784817 3:-0.694176 4:0.577273 5:-0.208071 6:0.113937 7:0.413336 8:-0.467014 9:-0.606792 10:0.138273 11:0.128386 12:-0.360012 13:0.388601 14:0.085417 15:-0.32415 16:-0.515908 17:-0.690655 18:-0.208303 19:-0.275422 20:-0.135859 21:-0.028446 22:0.153225 23:0.468631 24:0.802976 25:0.421595 26:-0.114656 27:-0.0702577 28:0.597441 29:0.145104 30:-0.251515 31:0.0822633 32:0.00327744 33:-0.128487 34:0.0560394 35:0.145709 36:0.510987 37:0.517874 38:0.488012 39:0.0994619 40:-0.508238 
0 0 0 0 0 0 0 0 0 0 0 0 0 0 0 0 0 0 0 0 0 0 0 0 0 0 0 0 0 0 0 0 0 0 0 0 0 0 0 0 0 0 0 0 0.3023920963415741 0 0 0 0 0 0 0 0 0 0 0 0 0 0 0 1:0.373613 2:0.762084 3:-0.4481 4:0.529297 5:-0.125247 6:0.00422929 7:0.391414 8:-0.435106 9:-0.452915 10:0.107131 11:0.0771377 12:-0.15512 13:0.293744 14:0.242466 15:-0.0707346 16:-0.30468 17:-0.463782 18:-0.306273 19:-0.279934 20:-0.30853 21:-0.211489 22:0.0716663 23:0.436591 24:0.878946 25:0.626952 26:0.0884155 27:0.181133 28:0.70218 29:0.324437 30:-0.0209623 31:0.0946129 32:0.0872865 33:0.000325325 34:0.130739 35:0.156178 36:0.485497 37:0.379746 38:0.357096 39:-0.0864957 40:-0.489241 
0 0 0 0 0 0 0 0 0 0 0 0 0 0 0 0 0 0 0 0 0 0 0 0 0 0 0 0 0 0 0 0 0 0 0 0 0 0 0 0 0 0 0 0 0.2803555542854028 0 0 0 0 0 0 0 0 0 0 0 0 0 0 0 1:-0.0014909 2:0.730409 3:-0.603407 4:0.603398 5:-0.121126 6:0.165332 7:0.494109 8:-0.350353 9:-0.470928 10:0.204663 11:0.183147 12:-0.196705 13:0.358614 14:0.158861 15:-0.27658 16:-0.468016 17:-0.638785 18:-0.192727 19:-0.192352 20:-0.111495 21:-0.0057093 22:0.13694 23:0.492207 24:0.787101 25:0.407785 26:-0.140604 27:-0.0490855 28:0.595043 29:0.104903 30:-0.177483 31:0.0247356 32:-0.0334141 33:-0.136799 34:0.0431888 35:0.143011 36:0.474265 37:0.489058 38:0.503397 39:0.0411062 40:-0.456467 
0.5 0.5 0.5 0.5 0.5 0.5 0.5 0.5 0.5 0.5 0.5 0.5 0.5 0.5 0.5 0.5 0.5 0.5 0.5 0.5 0.5 0.5 0.5 0.5 0.5 0.5 0.5 0.5 0.5 0.5 0.5 0.5 0.5 0.5 0.5 0.5 0.5 0.5 0.5 0.5 0.5 0.5 0.5 0.5 0.5 0.5 0.5 0.5 0.5 0.5 0.5 0.5 0.5 0.5 0.5 0.5 0.5 0.5 0.312021129983571 0.5 1:0.527519 2:0.59938 3:-0.293371 4:0.53167 5:-0.134543 6:0.0211976 7:0.419074 8:-0.216409 9:-0.359001 10:0.152457 11:0.0777411 12:-0.0946493 13:0.194297 14:0.278924 15:0.00183883 16:-0.323024 17:-0.362898 18:-0.128115 19:-0.279485 20:-0.300878 21:-0.137049 22:0.11987 23:0.458579 24:0.940348 25:0.758741 26:0.243022 27:0.288789 28:0.744956 29:0.541642 30:0.185601 31:0.20238 32:0.199673 33:0.181769 34:0.601072 35:0.434512 36:0.54495 37:0.41811 38:0.365969 39:-0.0115786 40:-0.358266 
0.02765909951595079 0.01829171899064953 0.03203208463086722 0 0.02007433772237996 0.01029008182664386 0.007143675599974654 0.01332132370887672 0.02726945563524913 0.02302435508878237 0.03355188969938488 0.03959592448316004 0.01334008968913231 0.02437717963911431 0.01562919024060476 0.02774669243772501 0.0295875860895605 0.03092013263592661 0.02799626021495219 0.02919174205337921 0 0 0.04162698398343311 0.04189084613175058 0.01880537882711008 0.03527931806033241 0.03296944499313254 0.02436137477523544 0.03940209505169042 0 0.035573243609178 0.03232653381182368 0.03208294481059389 0.001930061903738202 0.02499263853055735 0.0317174285888515 0.02722500981677041 0 0.01893378554414486 0.01343018719666232 0.009750161217934162 0.02668490690120929 0.01791075711519948 0 0.284625927304416 0.02111389111188302 0.02800088156357485 0.00150512275567295 0.006713246950173481 0.04137932700474305 0.02457482277602356 0.02659801296659717 0.006223181955134566 0 0 0 0.02028532400517095 0 0.01499765245991257 0.01724785191039854 1:0.226964 2:0.882338 3:-0.604906 4:0.549396 5:-0.235869 6:-0.044357 7:0.333021 8:-0.597872 9:-0.676947 10:0.06747 11:-0.0388949 12:-0.397266 13:0.322149 14:0.0895104 15:-0.217179 16:-0.442837 17:-0.618278 18:-0.325762 19:-0.390846 20:-0.344045 21:-0.215538 22:0.0219809 23:0.472646 24:0.857474 25:0.606309 26:0.0459561 27:0.125518 28:0.768994 29:0.330239 30:-0.150608 31:0.152672 32:0.15573 33:0.00772418 34:0.182505 35:0.238395 36:0.534666 37:0.499161 38:0.483315 39:0.05876 40:-0.522554 
0 0 0 0 0 0 0 0 0 0 0 0 0 0 0 0 0 0 0 0 0 0 0 0 0 0 0 0 0 0 0 0 0 0 0 0 0 0 0 0 0 0 0 0 0.5 0 0 0 0 0 0 0 0 0 0 0 0 0 0 0 1:-0.0572609 2:0.793548 3:-0.692589 4:0.586791 5:-0.188199 6:0.0952855 7:0.452975 8:-0.504626 9:-0.57952 10:0.142774 11:0.1104 12:-0.320288 13:0.378367 14:0.105871 15:-0.322863 16:-0.511587 17:-0.690599 18:-0.219885 19:-0.273732 20:-0.150636 21:-0.0405699 22:0.143046 23:0.46044 24:0.793389 25:0.408965 26:-0.146381 27:-0.0859849 28:0.592389 29:0.0909051 30:-0.218188 31:0.0178963 32:0.01548 33:-0.165671 34:0.0157824 35:0.125083 36:0.501039 37:0.488602 38:0.500549 39:0.0662491 40:-0.482737 
0 0 0 0 0 0 0 0 0 0 0 0 0 0 0 0 0 0 0 0 0 0 0 0 0 0 0 0 0 0 0 0 0 0 0 0 0 0 0 0 0 0 0 0 0.5 0 0 0 0 0 0 0 0 0 0 0 0 0 0 0 1:0.466038 2:0.714652 3:-0.362934 4:0.564232 5:-0.11372 6:0.0342613 7:0.432666 8:-0.382741 9:-0.363442 10:0.0849989 11:0.102085 12:-0.153856 13:0.251474 14:0.255978 15:-0.0633838 16:-0.314924 17:-0.435673 18:-0.264115 19:-0.286878 20:-0.338721 21:-0.203092 22:0.0683749 23:0.394819 24:0.885154 25:0.63994 26:0.135596 27:0.211502 28:0.753861 29:0.394076 30:0.0755133 31:0.143016 32:0.127646 33:0.0643651 34:0.362035 35:0.318356 36:0.549421 37:0.427003 38:0.39007 39:-0.0307611 40:-0.359813 
0.5 0.5 0.5 0.5 0.3434991840880943 0.5 0.5 0.5 0.4112321193308233 0.5 0.5 0.3546511146248313 0.4334837880566496 0.4171744710399745 0.4019255153453662 0.5 0.4197348285021347 0.3955122169424679 0.4052468895445323 0.4729730407342798 0.3904170264891634 0.331640440062781 0.3741736195809501 0.371963585637984 0.4406675041279745 0.5 0.5 0.5 0.3241775593136323 0.5 0.3849211189193887 0.3812239160747797 0.3545122883876298 0.4212572089691519 0.5 0.3831339886206324 0.5 0.5 0.4988044417969279 0.5 0.5 0.419190647865563 0.3421965833687853 0.4507466806664458 0.3410758153753928 0.4279149593131928 0.3630809128749674 0.2972675280385269 0.4407296707860249 0.5 0.4402175005192001 0.5 0.4873926625479866 0.3960336499433499 0.4578578919547644 0.4902853312936842 0.4416570688649085 0.4202249561873439 0.177807056955323 0.438305662250938 1:0.260397 2:0.729252 3:-0.422966 4:0.618375 5:-0.0786914 6:0.146026 7:0.498503 8:-0.254458 9:-0.329475 10:0.246718 11:0.332919 12:0.00748374 13:0.361327 14:0.195002 15:-0.168185 16:-0.492935 17:-0.576853 18:-0.325535 19:-0.237143 20:-0.238315 21:-0.105054 22:0.116621 23:0.445385 24:0.893307 25:0.572133 26:0.0663767 27:0.0849483 28:0.5694 29:-0.0892008 30:-0.435749 31:-0.41296 32:-0.313982 33:-0.198094 34:0.225107 35:0.290239 36:0.56607 37:0.466245 38:0.476157 39:-0.055785 40:-0.490911 
0.2682999859432764 0.4461246554359951 0.2763334773733349 0.2326081864213997 0.06186001313885196 0.3336099342292645 0.3261580518618994 0.334740861603648 0.1187343473882225 0.2935973026486713 0.3017132699323711 0.01665343293525463 0.1462281038668458 0.1801855221780497 0.1102050921019138 0.2672953034054053 0.1146433787092249 0.08443834009356078 0.1116441338913555 0.1881520189396849 0.1250326819027794 0.1439641432523493 0.03840937021365702 0.03627513130650251 0.1455657315617524 0.3106721547654292 0.3589855855553779 0.3452739004017731 0 0.3095014773357884 0.06002179285367444 0.06420109007662698 0.01407427409021381 0.1159553714240078 0.2336499818611689 0.09565567387998507 0.2928025882098045 0.3167175728264405 0.2180919434430383 0.2520387847964128 0.2499046604446425 0.1056657482562467 0.06156077419143867 0.1933616565691077 0.5 0.1187878660521647 0.01995744353099695 0 0.1554948305664103 0.362769622796159 0.1393920569487635 0.2926685344185326 0.2141586749603673 0.130954238279504 0.1750790038985554 0.2031526155935674 0.1941815880379972 0.2350523031710701 0 0.1505473980007828 1:0.423591 2:0.627383 3:-0.361662 4:0.522235 5:-0.1267 6:-0.000745883 7:0.412394 8:-0.296253 9:-0.397387 10:0.12258 11:0.163414 12:-0.0932176 13:0.209769 14:0.250358 15:-0.0541 16:-0.325514 17:-0.423806 18:-0.205364 19:-0.271431 20:-0.270327 21:-0.121693 22:0.132699 23:0.511731 24:0.970535 25:0.755442 26:0.244692 27:0.291534 28:0.846159 29:0.513189 30:0.177341 31:0.240895 32:0.153139 33:0.14942 34:0.562928 35:0.430063 36:0.608952 37:0.483779 38:0.439569 39:0.00312759 40:-0.355902 
0 0 0 0 0 0 0 0 0 0 0 0 0 0 0 0 0 0 0 0 0 0 0 0 0 0 0 0 0 0 0 0 0 0 0 0 0 0 0 0 0 0 0 0 0.5 0 0 0 0 0 0 0 0 0 0 0 0 0 0 0 1:-0.122845 2:0.829644 3:-0.791341 4:0.585849 5:-0.284344 6:0.114747 7:0.333811 8:-0.56564 9:-0.822538 10:0.0537779 11:-0.109556 12:-0.481291 13:0.302882 14:0.0266548 15:-0.407597 16:-0.555886 17:-0.808932 18:-0.287 19:-0.368044 20:-0.240871 21:-0.0633461 22:0.073102 23:0.410537 24:0.663861 25:0.302198 26:-0.291377 27:-0.190261 28:0.483302 29:0.0951031 30:-0.308752 31:-0.00111062 32:-0.00582509 33:-0.27325 34:-0.169543 35:-0.071412 36:0.393864 37:0.416909 38:0.45805 39:0.0769717 40:-0.495128 
0 0 0 0 0 0 0 0 0 0 0 0 0 0 0 0 0 0 0 0 0 0 0 0 0 0 0 0 0 0 0 0 0 0 0 0 0 0 0 0 0 0 0 0 0.2658540895374946 0 0 0 0 0 0 0 0 0 0 0 0 0 0 0 1:0.313138 2:0.712958 3:-0.471654 4:0.492526 5:-0.146634 6:-0.00261178 7:0.39889 8:-0.424843 9:-0.453989 10:0.1125 11:0.144395 12:-0.166831 13:0.298051 14:0.21554 15:-0.112664 16:-0.365537 17:-0.496265 18:-0.270207 19:-0.24349 20:-0.248944 21:-0.0735863 22:0.162156 23:0.576901 24:1 25:0.74415 26:0.233927 27:0.328575 28:0.827746 29:0.449981 30:0.0288354 31:0.173196 32:0.130334 33:0.12074 34:0.431401 35:0.445621 36:0.608985 37:0.52182 38:0.564714 39:-0.0164962 40:-0.392798 
0.1548298128677422 0.266855274497849 0.1641430070669025 0.1251168938426911 0.1394596595837892 0.223737755648325 0.2054358383525285 0.2388115048853897 0.1424618032196719 0.1662985106116969 0.1750537495328374 0.128806177675523 0.1717944713737349 0.1507280525730526 0.1949804589605094 0.1403320638033754 0.1551997482323046 0.134723031445212 0.138451172116058 0.1436809902234152 0.1606829624889477 0.3290346389955061 0.1292084889877257 0.1291352203657597 0.1996665273408701 0.1896957117728314 0.2188791566049597 0.2266075407017228 0.1530273763333705 0.1907287535491609 0.1299001379194251 0.1357962627882335 0.128990002529529 0.1822953295561377 0.146705860193202 0.1261712854959814 0.1420733961392884 0.1807334655099594 0.1317200833978692 0.1797782873681825 0.1569161701818739 0.1409022196723657 0.1537319545706269 0.2082572379599573 0.5 0.1627854119788175 0.1225194101050752 0.1532871326546225 0.173382228187412 0.2632583840647634 0.121282117010979 0.1783384986612194 0.1455367287936278 0.2106142594675184 0.1799258901448188 0.1280402990618072 0.1298817250170242 0.2491596990945046 0.09484635382789476 0.1211216143517869 1:0.0222065 2:0.77544 3:-0.546753 4:0.665673 5:-0.058708 6:0.243284 7:0.57693 8:-0.286826 9:-0.342798 10:0.249919 11:0.2131 12:-0.101665 13:0.360306 14:0.21142 15:-0.234009 16:-0.479189 17:-0.594945 18:-0.245435 19:-0.21821 20:-0.146389 21:-0.0601385 22:0.125984 23:0.425484 24:0.764839 25:0.352902 26:-0.231012 27:-0.107352 28:0.454198 29:0.00925245 30:-0.282281 31:-0.0958604 32:-0.156318 33:-0.230186 34:-0.0300886 35:0.0342207 36:0.395846 37:0.412828 38:0.511357 39:-0.0199248 40:-0.448419 
0.1042593086498521 0.1897763194160459 0.1054614986685701 0.1452759377294396 0.1289714508881036 0.138929762651993 0.171576768487572 0.08745040805813468 0.114286112072091 0.09919910765627693 0.1135429690844805 0.1116366081649468 0.1377927764750766 0.1256154267382546 0.09169159309879296 0.118417069938821 0.1083724441330369 0.1255923006151042 0.1126746339098059 0.1124431562550645 0.2489717343150944 0.393057718378597 0.1069611388079085 0.1070671261190598 0.1036860042341673 0.09958093315588445 0.1138065620157036 0.105973986811564 0.09327576236365587 0.1169131855333117 0.1123920703748308 0.1243371632909231 0.1232091173661485 0.1341840983145709 0.1148182272482988 0.1177729788093638 0.1162702792148986 0.1303993123561594 0.1240485050583589 0.1374841718953011 0.1513452934632416 0.1256496399428197 0.1217699538763737 0.1846095308092527 0.1311318999170476 0.1254778618807348 0.1294356315820373 0.2702266968882197 0.1551941536911277 0.1115587740303071 0.1304732141173621 0.1183709552260803 0.1569852315877159 0.1912788042082618 0.1347684811777612 0.1463604228642169 0.1259640028419973 0.4274667383792793 0.05435374847122654 0.1404411108974562 1:0.020724 2:0.679365 3:-0.566015 4:0.546794 5:-0.122614 6:0.117653 7:0.496232 8:-0.38338 9:-0.462844 10:0.157289 11:0.1233 12:-0.137023 13:0.324133 14:0.223781 15:-0.170901 16:-0.390985 17:-0.474871 18:-0.0795274 19:-0.0862331 20:-0.0289787 21:0.0887712 22:0.227863 23:0.532293 24:0.904165 25:0.528955 26:-0.0415716 27:0.121713 28:0.656274 29:0.352455 30:-0.0135512 31:0.253343 32:0.146627 33:0.0269629 34:0.257422 35:0.247439 36:0.507444 37:0.455565 38:0.496752 39:-0.0475556 40:-0.419579 
0.3535249300719726 0.5 0.3677740070380585 0.2958488274420106 0.1143423686820657 0.3988955652855583 0.4321040068176749 0.400466759722389 0.2036823347194112 0.3657909813461967 0.4015074617577524 0.1175170928324868 0.2492325062971827 0.1886750784044608 0.1949633367812516 0.3138242897532738 0.2171483728324984 0.187836350372101 0.1957522937235111 0.2965634899811503 0.2369904288223679 0.3708864936189417 0.14778135814158 0.1455365753293152 0.2166273425602268 0.3894329265017143 0.4366015187391326 0.4279190787142729 0.0889452207775157 0.3012093802158082 0.162210851023187 0.1640212054818107 0.1058779773770359 0.1521896501716195 0.3409171636434042 0.172157894996291 0.3098677150179024 0.2826117811678248 0.3275506645255544 0.337559645458901 0.3580893224948797 0.2183518308816744 0.06690997907189541 0.273360905629683 0.5 0.1921562256496434 0.1149452179016429 0.1120079520076189 0.2605222650536403 0.4309183435018831 0.2454997928562974 0.387664623726762 0.3263378018119962 0.2011290466493909 0.2181847375663142 0.2594019626158122 0.2592949249891144 0.4957564211167111 0 0.2470462497702584 1:-0.136321 2:0.866592 3:-0.814557 4:0.619821 5:-0.301729 6:0.125963 7:0.320212 8:-0.562495 9:-0.839318 10:0.0394025 11:-0.0928774 12:-0.494831 13:0.298396 14:0.0323549 15:-0.425436 16:-0.550604 17:-0.825778 18:-0.292566 19:-0.37009 20:-0.235877 21:-0.0759297 22:0.0844045 23:0.390934 24:0.69628 25:0.267553 26:-0.286121 27:-0.197386 28:0.480922 29:0.0954624 30:-0.308585 31:0.0296907 32:-0.028515 33:-0.257765 34:-0.190716 35:-0.0709637 36:0.371581 37:0.45249 38:0.426226 39:0.12052 40:-0.488765 
0 0 0 0 0 0 0 0 0 0 0 0 0 0 0 0 0 0 0 0 0 0 0 0 0 0 0 0 0 0 0 0 0 0 0 0 0 0 0 0 0 0 0 0 0.3945646172386721 0 0 0 0 0 0 0 0 0 0 0 0 0 0 0 1:0.366001 2:0.784959 3:-0.418379 4:0.558818 5:-0.114931 6:0.0700898 7:0.422737 8:-0.367151 9:-0.407298 10:0.165292 11:0.14451 12:-0.153227 13:0.316424 14:0.258875 15:-0.0626657 16:-0.332375 17:-0.46527 18:-0.291568 19:-0.301841 20:-0.340036 21:-0.200138 22:0.045573 23:0.43752 24:0.867589 25:0.617609 26:0.030309 27:0.132001 28:0.652212 29:0.234746 30:-0.117874 31:0.0313922 32:-0.0323783 33:-0.0514858 34:0.137051 35:0.158318 36:0.453679 37:0.361661 38:0.441885 39:-0.0986739 40:-0.419364 
-0 0 0 0 0 0 0 0 0 0 0 0 0 0 0 0 0 0 0 0 0 0 0.5 0 0 0 0 0 0 0 0 0 0 0 0 0 0 0 0 0 0 0 0 0 0 0 0 0 0 0 0 0 0 0 0 0 0 0 0 0 1:-0.13148 2:-0.207192 3:0.0237727 4:-0.414319 5:-0.661351 6:0.342097 7:0.357566 8:0.896932 9:0.29969 10:-0.781144 11:-0.61908 12:-0.648489 13:-0.0400627 14:0.560985 15:-0.167495 16:-0.156663 17:-0.10613 18:0.167083 19:0.4544 20:0.615781 21:0.897068 22:0.257003 23:-0.308662 24:-0.753807 25:-1 26:-0.511402 27:0.271909 28:0.710336 29:0.277026 30:-0.806144 31:-0.833577 32:0.195801 33:0.514248 34:0.0403291 35:-0.860639 36:-0.334228 37:0.206036 38:-0.135025 39:-0.0548979 40:0.100566 
-0 0 0 0 0 0 0 0 0 0 0 0 0 0 0 0 0 0 0 0 0 0 0.5 0 0 0 0 0 0 0 0 0 0 0 0 0 0 0 0 0 0 0 0 0 0 0 0 0 0 0 0 0 0 0 0 0 0 0 0 0 1:-0.0951698 2:-0.275727 3:0.0636756 4:-0.426773 5:-0.6192 6:0.348766 7:0.455008 8:0.798398 9:0.43561 10:-0.710004 11:-0.649286 12:-0.584415 13:0.0507313 14:0.522234 15:-0.0728647 16:-0.119379 17:-0.107224 18:0.237861 19:0.505477 20:0.603457 21:0.947766 22:0.285418 23:-0.305504 24:-0.764084 25:-0.949035 26:-0.518464 27:0.239456 28:0.752282 29:0.27222 30:-0.83753 31:-0.876582 32:0.275392 33:0.443266 34:0.0381808 35:-0.937993 36:-0.258076 37:0.120907 38:-0.145157 39:-0.0675001 40:0.10953 
-0 0.07108458806545125 0 0 0 0 0 0 0 0 0 0 0 0 0 0 0 0 0 0 0 0 0.5 0 0 0 0 0 0 0 0 0 0 0 0 0 0 0 0 0 0 0 0 0 0 0 0 0 0 0 0 0 0 0 0 0 0 0 0 0 1:-0.129501 2:-0.213009 3:-0.00217238 4:-0.379534 5:-0.674748 6:0.327955 7:0.419922 8:0.829256 9:0.263662 10:-0.696738 11:-0.573046 12:-0.760485 13:0.109398 14:0.486456 15:-0.143911 16:-0.145465 17:-0.0564245 18:0.10457 19:0.54609 20:0.594973 21:0.941678 22:0.281409 23:-0.267867 24:-0.82537 25:-0.980828 26:-0.441702 27:0.208009 28:0.688561 29:0.398344 30:-0.870193 31:-0.967742 32:0.36022 33:0.492853 34:-0.101159 35:-0.836646 36:-0.21519 37:0.0902184 38:-0.213708 39:-0.016298 40:0.0678812 
-0.5 0.5 0.5 0.5 0.4179712687518522 0.5 0.5 0.5 0.4499224733432063 0.5 0.5 0.3850382529851698 0.4714014998826658 0.5 0.4559528312286518 0.5 0.4393965365061355 0.4247981306986439 0.4427741185139729 0.5 0.5 0.5 0.4372853489760399 0.4012820285383998 0.4980254352463372 0.5 0.5 0.5 0.3646064949721842 0.5 0.4141631118618143 0.410320162050239 0.3664304829204466 0.462424293898083 0.4546468076912153 0.446154701966334 0.5 0.5 0.5 0.5 0.5 0.4455572514922045 0.4638725109160026 0.4900834503994696 0.5 0.4573563774403368 0.3729732152252828 0.3949822177558336 0.4784073520860377 0.5 0.4642243122115929 0.5 0.5 0.4452136558031758 0.4954874894762241 0.4881139828582939 0.5 0.5 0.2324849148533391 0.4872844328142978 1:-0.247129 2:-0.670331 3:0.317282 4:0.79258 5:0.32342 6:-0.0568456 7:0.193819 8:-0.386128 9:-0.0328479 10:-0.147336 11:0.018554 12:0.264036 13:0.169069 14:0.629776 15:0.0375282 16:-0.150271 17:-0.359456 18:-0.645892 19:-0.514549 20:-0.77235 21:-0.512532 22:-0.202034 23:0.0237942 24:0.0014188 25:0.490676 26:0.571276 27:0.61307 28:0.749298 29:1 30:0.354361 31:0.0734461 32:-0.187865 33:-0.0631049 34:-0.15947 35:0.0445415 36:0.143104 37:0.0838212 38:-0.0437922 39:0.211695 40:-0.0700384 
-0 0 0 0 0 0 0 0 0 0 0 0 0 0 0 0 0 0 0 0 0 0 0.5 0 0 0 0 0 0 0 0 0 0 0 0 0 0 0 0 0 0 0 0 0 0 0 0 0 0 0 0 0 0 0 0 0 0 0 0 0 1:-0.0578729 2:-0.288189 3:0.0529992 4:-0.298896 5:-0.610942 6:0.351758 7:0.537167 8:0.847203 9:0.382955 10:-0.672378 11:-0.549834 12:-0.620516 13:0.0929644 14:0.480317 15:-0.000112079 16:-0.164088 17:-0.132484 18:0.205827 19:0.521023 20:0.553313 21:0.864847 22:0.301161 23:-0.384529 24:-0.748674 25:-0.94148 26:-0.53836 27:0.215901 28:0.819449 29:0.16172 30:-0.798117 31:-0.862317 32:0.224662 33:0.26046 34:0.155762 35:-0.884599 36:-0.239693 37:0.116569 38:-0.12048 39:-0.00123855 40:0.206225 
-0 0 0 0 0 0 0 0 0 0 0 0 0 0 0 0 0 0 0 0 0 0 0.5 0 0 0 0 0 0 0 0 0 0 0 0 0 0 0 0 0 0 0 0 0 0 0 0 0 0 0 0 0 0 0 0 0 0 0 0 0 1:0.0214785 2:-0.300128 3:-0.00403299 4:-0.150656 5:-0.521557 6:0.37781 7:0.545701 8:0.914981 9:0.4568 10:-0.549831 11:-0.594543 12:-0.508857 13:0.0901155 14:0.613123 15:0.0253135 16:-0.123333 17:-0.0917393 18:0.193977 19:0.540723 20:0.547807 21:0.908 22:0.285797 23:-0.341028 24:-0.729499 25:-0.880054 26:-0.416057 27:0.223465 28:0.778641 29:0.295247 30:-0.751224 31:-0.799449 32:0.208443 33:0.325378 34:0.118869 35:-0.768574 36:-0.129474 37:0.0554413 38:-0.0369207 39:0.114499 40:0.137338 
-0 0 0 0 0 0 0 0 0 0 0 0 0 0 0 0 0 0 0 0 0 0 0.5 0 0 0 0 0 0 0 0 0 0 0 0 0 0 0 0 0 0 0 0 0 0 0 0 0 0 0 0 0 0 0 0 0 0 0 0 0 1:-0.0357896 2:-0.367334 3:0.0490947 4:-0.453817 5:-0.547932 6:0.298186 7:0.464794 8:0.797451 9:0.351294 10:-0.658043 11:-0.691133 12:-0.58864 13:-0.00204116 14:0.494984 15:-0.12116 16:-0.0523548 17:-0.139769 18:0.0524108 19:0.532681 20:0.679867 21:0.839873 22:0.254666 23:-0.325093 24:-0.729545 25:-0.944666 26:-0.429246 27:0.260403 28:0.698323 29:0.306617 30:-0.662437 31:-0.749254 32:0.180573 33:0.421521 34:0.105043 35:-0.77129 36:-0.155657 37:0.107768 38:-0.168884 39:0.0835125 40:0.186394 
-0.5 0.5 0.5 0.5 0.3979625074342847 0.5 0.5 0.5 0.4744549249303747 0.5 0.5 0.3864885488648124 0.469557042104709 0.4574596028804435 0.4358150654255857 0.5 0.4636836587875 0.4306514183804374 0.4616471186900698 0.5 0.5 0.5 0.4413299220043048 0.396813526680488 0.4596394497870779 0.5 0.5 0.5 0.3654146283718304 0.5 0.4135259718458419 0.4148323232189398 0.3918100563790803 0.4132656263870975 0.5 0.4167507688035724 0.5 0.5 0.5 0.5 0.5 0.4474733235515706 0.3500325060286218 0.4917286540704153 0.5 0.4329890294262077 0.3933514057685577 0.3757780382357958 0.4854789670083491 0.5 0.4585461889287961 0.5 0.5 0.4485928986654734 0.4675998051534735 0.4732828397127272 0.4959142411311565 0.5 0.2110479770011275 0.4655721184872139 1:-0.185456 2:-0.642122 3:0.364663 4:0.655906 5:0.307313 6:-0.0768686 7:0.256149 8:-0.292001 9:0.115009 10:-0.20102 11:0.0701475 12:0.161727 13:0.276926 14:0.633946 15:0.131359 16:-0.192981 17:-0.316071 18:-0.646065 19:-0.470783 20:-0.767136 21:-0.44294 22:-0.22445 23:-0.0389184 24:0.148835 25:0.444675 26:0.472209 27:0.678885 28:0.850192 29:0.897165 30:0.390279 31:0.156372 32:-0.296682 33:0.0895287 34:-0.245333 35:-0.0675247 36:0.346546 37:0.0639316 38:-0.15507 39:0.181835 40:0.116254 
-0 0 0 0 0 0 0 0 0 0 0 0 0 0 0 0 0 0 0 0 0 0 0.5 0 0 0 0 0 0 0 0 0 0 0 0 0 0 0 0 0 0 0 0 0 0 0 0 0 0 0 0 0 0 0 0 0 0 0 0 0 1:-0.058373 2:-0.274447 3:0.00143623 4:-0.314984 5:-0.611433 6:0.33813 7:0.47581 8:0.846258 9:0.321609 10:-0.621718 11:-0.611993 12:-0.579735 13:0.0856443 14:0.529501 15:-0.10117 16:-0.073012 17:-0.10221 18:0.179421 19:0.460642 20:0.686885 21:0.897825 22:0.265864 23:-0.348353 24:-0.690155 25:-0.970345 26:-0.437475 27:0.216883 28:0.705608 29:0.338901 30:-0.751135 31:-0.967849 32:0.255198 33:0.331927 34:0.0762024 35:-0.744684 36:-0.215585 37:0.036267 38:-0.181021 39:0.092137 40:0.152771 
-0.3801328314077559 0.5 0.4442060141318235 0.3782026879444783 0.2884463029216088 0.4614702205218018 0.4785591222865724 0.4556633715145821 0.33560440481861 0.4385567916893415 0.4678786588657999 0.2927452226548631 0.3611413556759838 0.3281338205799502 0.3256088582475043 0.3961998668208825 0.3451307111984068 0.3280939834992818 0.3313354927669737 0.3838162002722081 0.3274691422435346 0.3877097010776966 0.5 0.3073604212766406 0.3377800783066229 0.4616814157793402 0.5 0.4983020546420323 0.2862184741803949 0.39459378867528 0.3144876896730651 0.3173052327465063 0.2887477377266562 0.3107379623165559 0.3141102162756413 0.3164352961653491 0.3995118821547288 0.3825835605349189 0.3980202262433955 0.4130098742943448 0.4220816055406674 0.3428753055759332 0.2701294669946588 0.3729268448417749 0.3772066373281829 0.3313654387439394 0.2852967381450462 0.280101353512397 0.3676915261745313 0.4797279924580994 0.3468383783964957 0.4525048255277695 0.4011799918188693 0.3409652938888079 0.3432835084423695 0.3592988497895617 0.3623858626509356 0.4502641431696704 0.1490436296361035 0.3535402683825153 1:-0.115061 2:-0.25214 3:0.00408902 4:-0.386645 5:-0.67622 6:0.30341 7:0.414206 8:0.844619 9:0.219415 10:-0.691948 11:-0.713399 12:-0.605544 13:-0.0344433 14:0.440368 15:-0.152301 16:-0.0849791 17:-0.209792 18:0.135978 19:0.55534 20:0.465395 21:0.912079 22:0.317024 23:-0.361304 24:-0.891628 25:-0.90269 26:-0.63276 27:0.241348 28:0.684043 29:0.211743 30:-1 31:-0.661745 32:0.107985 33:0.395758 34:-0.160728 35:-0.685994 36:-0.320438 37:0.0694422 38:-0.387568 39:0.114476 40:0.161059 
-0.1991099353784366 0.3683146604600395 0.2375119189914782 0.1937672441167472 0.1496302051083147 0.2571502777662008 0.279886804803255 0.252049805376082 0.1700286432580209 0.2310475135753113 0.2663050108568926 0.1512993607038651 0.1839354856385416 0.1705312572320764 0.1697172840868804 0.2034134586835296 0.1773262233562962 0.1701496825100496 0.1682188010531767 0.198964555861184 0.1628716317772057 0.1984880043549088 0.5 0.1585266201013162 0.1758371015510647 0.2593114350619571 0.3025506414041487 0.2994011972518888 0.1400339971706819 0.2046807982835797 0.1596039752493516 0.1655565650998188 0.1209659308448302 0.1583133109884137 0.5 0.1652927050050995 0.2039121706828534 0.1984661595357234 0.2072977539271204 0.2159936134888281 0.2199526806431995 0.1784108433358765 0.1408289081359375 0.1919196234307764 0.1973849446144413 0.1700475766082111 0.1328713986679939 0.1380988721762646 0.1867346542035638 0.2883515003774723 0.1803309350751173 0.2470986361039914 0.2079079604129368 0.1767461479733219 0.1725773763010703 0.1839133577323676 0.1888675106828862 0.2460378788285272 0.07540542438141992 0.1834098846089108 1:0.15865 2:-0.389462 3:0.0620879 4:0.00154729 5:-0.376089 6:0.500774 7:0.731398 8:0.95193 9:0.6268 10:-0.386583 11:-0.71481 12:-0.38662 13:0.139495 14:0.55764 15:0.0787621 16:-0.107104 17:-0.0907875 18:0.210028 19:0.447767 20:0.620311 21:0.848506 22:0.214837 23:-0.389435 24:-0.658076 25:-0.888402 26:-0.398031 27:0.221931 28:0.740441 29:0.472953 30:-0.623376 31:-0.846507 32:0.228123 33:0.442671 34:0.2223 35:-0.87895 36:0.110488 37:-0.0444046 38:0.00980389 39:0.146377 40:0.271797 
-0.3962081427548964 0.5 0.4617816024212374 0.3972722906508573 0.3030535686756957 0.473497582091105 0.4857682209151397 0.4703741611113841 0.3537859437337504 0.45897730909278 0.477486296100311 0.3098633777163811 0.3799230978611176 0.3452600692722008 0.3419181788699879 0.4154616054085462 0.3613113281998517 0.3457509850943746 0.3485253951734191 0.4046295302739465 0.3492951230271697 0.4076964864530551 0.5 0.3228734445091755 0.3537059861492497 0.4736579951207486 0.4984371034732812 0.4960491927170897 0.2947061555418624 0.4123179788404095 0.3312412418731888 0.3319126547048336 0.3134609562153165 0.3272553107480024 0.4646210031559121 0.3342925623448403 0.4185938100614843 0.4020060127592189 0.4179213386188835 0.4329219903947012 0.4419116788968738 0.3621627735151996 0.2837658263395015 0.3938315423323803 0.3929114623046926 0.3499654908457784 0.3233882522371965 0.3011387409508093 0.3883557559901952 0.4815612774038453 0.3641525382409293 0.4656882894460707 0.4223173841067616 0.3573406453263818 0.3612891097942615 0.3776152204643374 0.3796357960448589 0.4660474110257223 0.1573531365801357 0.3722250820022827 1:-0.170545 2:-0.157101 3:-0.00784323 4:-0.431126 5:-0.711697 6:0.392906 7:0.308546 8:0.871538 9:0.304044 10:-0.788493 11:-0.600131 12:-0.659657 13:-0.0232838 14:0.574743 15:-0.10399 16:-0.173802 17:-0.0288622 18:0.242705 19:0.537673 20:0.630411 21:0.99513 22:0.341786 23:-0.25055 24:-0.72806 25:-0.940491 26:-0.441703 27:0.27083 28:0.873231 29:0.284578 30:-0.730546 31:-0.840786 32:0.511253 33:0.461802 34:0.107992 35:-0.873494 36:-0.157577 37:0.109082 38:-0.188759 39:0.0150605 40:0.0820962 
-0 0 0 0 0 0 0 0 0 0 0 0 0 0 0 0 0 0 0 0 0 0 0.5 0 0 0 0 0 0 0 0 0 0 0 0 0 0 0 0 0 0 0 0 0 0 0 0 0 0 0 0 0 0 0 0 0 0 0 0 0 1:-0.0273934 2:-0.317353 3:0.0142082 4:-0.335337 5:-0.564145 6:0.297092 7:0.526938 8:0.796388 9:0.353309 10:-0.642855 11:-0.483466 12:-0.613592 13:-0.00496805 14:0.525792 15:-0.0319149 16:-0.0829038 17:-0.152274 18:0.138091 19:0.506218 20:0.608113 21:0.907287 22:0.291514 23:-0.373732 24:-0.751126 25:-0.843225 26:-0.520555 27:0.241096 28:0.723671 29:0.312833 30:-0.849906 31:-0.680081 32:0.156833 33:0.422107 34:-0.075577 35:-0.649586 36:-0.115299 37:-0.00791587 38:-0.266347 39:0.189981 40:0.220487 
-0 0.02255227420298248 0 0 0 0 0 0 0 0 0 0 0 0 0 0 0 0 0 0 0 0 0.5 0 0 0 0 0 0 0 0 0 0 0 0.02200616056344658 0 0 0 0 0 0 0 0 0 0 0 0 0 0 0.02552587705156203 0 0 0 0 0 0 0 0 0 0 1:0.198168 2:-0.465948 3:0.0500261 4:-0.0258352 5:-0.342254 6:0.40719 7:0.704934 8:0.975456 9:0.558029 10:-0.422421 11:-0.693003 12:-0.320686 13:0.0496941 14:0.581289 15:0.0824517 16:-0.0662667 17:-0.109894 18:0.0929727 19:0.436458 20:0.617157 21:0.798756 22:0.190218 23:-0.391499 24:-0.681499 25:-0.827234 26:-0.377039 27:0.190584 28:0.658185 29:0.459933 30:-0.726419 31:-0.688245 32:-0.0545808 33:0.402694 34:0.133896 35:-0.682176 36:-0.0885171 37:0.0742851 38:-0.0406223 39:0.269859 40:0.257918 
-0 0 0 0 0 0 0 0 0 0 0 0 0 0 0 0 0 0 0 0 0 0 0.5 0 0 0 0 0 0 0 0 0 0 0 0 0 0 0 0 0 0 0 0 0 0 0 0 0 0 0 0 0 0 0 0 0 0 0 0 0 1:-0.0916166 2:-0.243291 3:0.0270075 4:-0.342976 5:-0.639792 6:0.383119 7:0.444705 8:0.872806 9:0.379866 10:-0.670979 11:-0.648801 12:-0.555172 13:0.0492497 14:0.535506 15:-0.0447442 16:-0.127662 17:-0.0832149 18:0.254177 19:0.532764 20:0.629137 21:0.944861 22:0.285529 23:-0.26752 24:-0.69223 25:-0.957044 26:-0.517313 27:0.320451 28:0.795504 29:0.303011 30:-0.761779 31:-0.871078 32:0.409728 33:0.438722 34:0.0657625 35:-0.889287 36:-0.131911 37:0.0654666 38:-0.139504 39:0.0428772 40:0.0845382 
-0.4331222275077051 0.5 0.5 0.4378789211364756 0.3334839673664709 0.5 0.5 0.5 0.3938377145371396 0.5 0.5 0.3408539859163026 0.4193401923132494 0.3773133294500561 0.3738107153127605 0.4567409483895905 0.3985302986673858 0.3781383249295183 0.386648710326277 0.4431097747757177 0.396897485674835 0.4529641845187786 0.5 0.3564250137926404 0.3866937495296497 0.5 0.5 0.5 0.3418819388721305 0.4522556261948744 0.3684561049719584 0.3623632265333025 0.3811967312054775 0.3638824763550907 0.5 0.3653673854060329 0.4614912165410093 0.4405116793212883 0.4558580414124181 0.4720263693435828 0.4843090506247646 0.3963309510163642 0.3103600879003359 0.4329326612773742 0.4301566362679414 0.384080047145091 0.3695014861923874 0.3442538765730177 0.4313118727059196 0.5 0.399592695094709 0.5 0.4626550344534529 0.3922775677214586 0.403789258985198 0.4169614221284528 0.4165308731190131 0.5 0.1746649175478743 0.4101664192356185 1:0.219861 2:-0.469458 3:0.0250028 4:0.00507155 5:-0.323003 6:0.475668 7:0.73729 8:0.934632 9:0.600569 10:-0.399811 11:-0.694546 12:-0.350393 13:0.0600419 14:0.499002 15:0.141143 16:-0.0301388 17:-0.159556 18:0.124431 19:0.47637 20:0.608328 21:0.82486 22:0.22597 23:-0.463505 24:-0.694796 25:-0.739827 26:-0.396588 27:0.151472 28:0.67906 29:0.500871 30:-0.610061 31:-0.688009 32:0.0155357 33:0.38225 34:0.141625 35:-0.615983 36:-0.0533269 37:0.00314931 38:-0.0331069 39:0.223028 40:0.362695 
-0.2237315988565433 -0.08142726071113236 0.08906216230084461 0.1963209170731212 0.1005501916644517 0.09893100604228303 0.116325217980312 0.09385248685524637 0.1175406581460752 0.09684730994120187 0.08964710720785353 0.0908720905403354 0.1161142819473115 0.0922281465949986 0.07819953332663891 0.1014684982718266 0.05913792878815478 0.07544809613394507 0.09830543848556998 0.08195754832400723 0.104266754942741 0.1380583009715691 0.06615129156643894 0.06393347290366257 0.07949435106955727 0.08843241626270151 0.09613680377393209 0.09603389404225572 0.05978428512437288 0.1109757324315798 0.09454402576446545 0.07205974929779736 0.1024722752183572 0.089131710504174 0.08860117088770469 0.1433042962074565 0.07340985975615089 0.1122134416131913 0.09156134577689491 0.0896817163066012 0.1013856112094798 0.1067441513003586 0.08477754360125728 0.07664535500160635 0.2181738580805969 0.1202064299323723 0.1046268881038194 0.09982179581878418 0.1619342031782463 0.08548208467490961 0.1026660345887143 0.1081769132049106 0.1065599606709961 0.07878932980275667 0.09735046061235375 0.1776120867109778 0.1796223189989015 0.1488876533298267 0.03495013102394838 0.1880229120719555 1:-0.354931 2:0.665156 3:0.420442 4:0.847811 5:0.222027 6:-0.201699 7:0.236097 8:-0.259919 9:-0.316004 10:0.0539134 11:-0.0635187 12:0.0111555 13:-0.0445531 14:-0.326697 15:-0.157006 16:0.194197 17:-0.0471329 18:-0.00942884 19:-0.0511977 20:0.172635 21:0.307593 22:0.303935 23:-0.0238317 24:0.0744479 25:0.0780823 26:-0.268013 27:0.117839 28:0.720287 29:0.506749 30:-0.242234 31:0.275687 32:-0.258042 33:0.253011 34:0.140571 35:0.45881 36:0.644482 37:0.364918 38:0.285365 39:-0.159358 40:-0.0391915 
-0.2680793209555318 -0.3440082523802788 0.3889807154990697 0.441076806850763 0.1823772786732328 0.3591539152928597 0.3664485615687821 0.3427623937366982 0.3271226136929112 0.3475136180635646 0.4013261150104457 0.2311380463076862 0.2869072597607662 0.24745173032276 0.2482537466323056 0.3722587602999791 0.3005314380256978 0.2533413498246864 0.282817208725164 0.2954940939247688 0.2862581639418706 0.3469450381055939 0.2363986710868592 0.2306881677836604 0.2738332046689726 0.3712388626598471 0.4143671443111097 0.4122320912239936 0.2140874367796446 0.3271294372869925 0.254373629502556 0.2399220428795709 0.2336113399102895 0.4368159141106102 0.3203322263080576 0.1881559564102342 0.387130341050325 0.335094455902738 0.3097993555545303 0.3301828004075078 0.3555319457838363 0.2516168485314735 0.2030238803152851 0.2678598230310775 0.2724720147498336 0.2328558395765409 0.2171027588293289 0.2290901293109922 0.2804028767206417 0.3905986416349894 0.1978564179838701 0.4813842379792154 0.3435913847184783 0.2349072045061719 0.4611124907678071 0.4313255066768026 0.2597511144895165 0.3772319538886345 0.08846839513010117 0.241854231216098 1:-0.0561636 2:0.0584405 3:0.518468 4:0.664907 5:0.386362 6:-0.314437 7:0.288737 8:-0.258811 9:-0.299001 10:0.071126 11:-0.216633 12:0.0644555 13:-0.0412771 14:-0.291036 15:-0.199927 16:0.245007 17:-0.0638504 18:-0.148752 19:0.0225003 20:0.0136763 21:0.278904 22:0.304019 23:-0.136093 24:-0.0582969 25:0.0768665 26:-0.3049 27:0.00319228 28:0.53869 29:0.481931 30:-0.454122 31:0.167789 32:-0.658548 33:0.373332 34:-0.159549 35:0.449113 36:0.494705 37:0.272287 38:-0.14594 39:0.214172 40:0.0757398 
-0.1413126226904132 -0.1394656265169251 0.1607762504754962 0.2260156316305351 0.1488746475562917 0.1803863810276278 0.1810906721014797 0.1462928957895764 0.1346523451006611 0.1739348189326492 0.1835159133018479 0.1003063944686329 0.1904445086798818 0.150332368946115 0.1098269090538762 0.2886178284399529 0.1292683340090136 0.1137377691073191 0.1252633761778401 0.1320386960546258 0.1489369507024652 0.225857034532513 0.1080567056266983 0.1082450907881305 0.1129612796734101 0.155747591305698 0.2103384391738273 0.1915447158617183 0.09661338199005258 0.1575629384574348 0.1020986858972472 0.1076407529996076 0.1120484337517861 0.2535842431914646 0.1422009977973145 0.1466066309496314 0.2810719152633063 0.162813741815425 0.1465500464771906 0.1723255797023455 0.1427302868515957 0.1568398522582883 0.1115991248454304 0.2927016970862796 0.1469650503861776 0.1650769227384471 0.1236333468534766 0.1312469191764806 0.1696548957086337 0.1522171877472127 0.09532117975123065 0.1206546232600375 0.137278086853071 0.2773760434278911 0.2704173852876199 0.231303407283238 0.1851712584277051 0.2452171411215617 0.01282295604009567 0.1413899177577524 1:-0.561516 2:0.736847 3:0.434816 4:0.628093 5:0.00279068 6:-0.386732 7:-0.109797 8:-0.486766 9:-0.0763341 10:0.104486 11:-0.535494 12:-0.280437 13:-0.105911 14:-0.363599 15:-0.10337 16:0.142608 17:-0.0432815 18:-0.139475 19:0.087744 20:0.100278 21:0.497739 22:0.240858 23:0.274025 24:-0.121369 25:-0.00905681 26:-0.183399 27:0.215972 28:0.405531 29:0.602388 30:-0.27359 31:-0.0329439 32:0.059674 33:0.0770744 34:0.301749 35:0.201339 36:0.421528 37:0.495671 38:0.175762 39:-0.10292 40:-0.175102 
-0.3111871880512849 -0.3556247167451875 0.3971166304654316 0.3826300300855436 0.2148698208245121 0.3987715142140488 0.414468482167431 0.3648968384399654 0.2887075194536522 0.3723875072299594 0.4287695777455834 0.2265026967273818 0.3130401432392764 0.2682051536689316 0.2612878383907258 0.3699910089393459 0.3086686561874502 0.2671041428505908 0.2897759443311106 0.3159800178691081 0.2899541505237691 0.3363429170036568 0.2460188340604494 0.2403014872206343 0.274970294948263 0.3823498087382515 0.4264189659586749 0.4453476602063979 0.2226590059790619 0.3643184026275489 0.2437686560062217 0.2530629867217488 0.2297165805962003 0.3317968502065691 0.3307651832309998 0.2238798332826085 0.4222437731928605 0.3635115019124407 0.3624871992491073 0.362602176299771 0.4167829631033413 0.2796412867852202 0.2210516013553765 0.3067780292910594 0.3144166505516093 0.2675941704904286 0.2347581325241316 0.2368401817145612 0.3126960299389446 0.3970899608100697 0.2772917635497517 0.4987825758392595 0.384801336882858 0.2662516642607227 0.3834467625011809 0.3436722973567774 0.2950702693512458 0.3941704790514935 0.09863650374156685 0.309246783284449 1:-0.145726 2:-0.000402291 3:0.54502 4:0.548738 5:0.279738 6:-0.512176 7:0.148874 8:-0.235382 9:-0.214256 10:0.0153198 11:-0.195986 12:-0.326432 13:-0.220376 14:-0.00700988 15:-0.392613 16:0.114683 17:0.0803863 18:-0.386933 19:0.0680694 20:0.115643 21:0.211475 22:0.261965 23:0.185912 24:-0.388671 25:-0.0229467 26:0.0656836 27:0.170902 28:-0.0706965 29:0.222536 30:0.462942 31:-0.0338435 32:-0.784479 33:0.454491 34:-0.0738659 35:0.484199 36:0.284141 37:0.519529 38:-0.0690775 39:-0.0250671 40:0.0827085 
-0.5 -0.5 0.5 0.4842217111682188 0.3644014301029194 0.5 0.5 0.5 0.4246914648944313 0.5 0.5 0.3795748145893062 0.4860681366778487 0.438854206513999 0.4372287346767718 0.5 0.4672384524668765 0.4496188417588347 0.4167130498877868 0.5 0.4438742518384145 0.5 0.415990290932804 0.4034009033947502 0.4506745438367279 0.5 0.5 0.5 0.3741093798656048 0.5 0.4108003677215341 0.425374119963215 0.3509547653649479 0.3562530389007794 0.5 0.4181535188850655 0.5 0.5 0.5 0.5 0.5 0.4662102740324184 0.3514380266150081 0.5 0.5 0.4173950493421696 0.3750463922409262 0.3657751440491142 0.4969070567706899 0.5 0.370320079323078 0.5 0.5 0.4364598685334105 0.4077718133171377 0.4481416199412094 0.5 0.5 0.164131725719118 0.4767625476796094 1:-0.620743 2:0.39109 3:0.459266 4:0.238679 5:-0.12505 6:-0.794034 7:-0.355282 8:-0.744781 9:-0.447862 10:-0.0461008 11:-0.552989 12:-0.742149 13:-1 14:0.3199 15:-0.314366 16:-0.225312 17:0.111991 18:-0.0382977 19:-0.0461232 20:0.00837845 21:0.791757 22:0.473586 23:0.17223 24:0.0896552 25:0.146225 26:-0.0982244 27:0.654271 28:0.533966 29:0.752868 30:0.108533 31:0.289544 32:0.168034 33:0.737368 34:0.385751 35:0.432986 36:0.712817 37:0.638614 38:-0.20576 39:0.941314 40:-0.744518 
-0.2297698843397844 -0.2402526641813234 0.2698683390883736 0.5 0.2519414450010573 0.2891520768689436 0.3659500550603932 0.2409850982575711 0.3290407680022543 0.2661635700632319 0.2802945800608759 0.2349661167391256 0.277413112049288 0.2729214083736451 0.1759722399964211 0.5 0.1709190449845745 0.1795390419473104 0.3505389775148388 0.2101711595487625 0.245092309500591 0.3072623606696759 0.1656681146337444 0.1678417927516015 0.1976432363083786 0.2597170987704269 0.3529872863211889 0.2900091775984286 0.148182978239832 0.2484486257340412 0.2606566805325878 0.1708707992586899 0.1830601723354632 0.5 0.2356916642482556 0.5 0.5 0.2521791906290964 0.3020845084149455 0.249405781950302 0.2899924130812856 0.2199570581591735 0.223248224828351 0.2757070667172397 0.2349986718088372 0.2306765898718756 0.1948242793308508 0.2168051070632703 0.2789159874864016 0.2752565004012089 0.5 0.2919287944663578 0.2818342178807537 0.2266783271408006 0.5 0.5 0.5 0.3392915176709065 0.1816990998931055 0.5 1:-0.240777 2:0.0976394 3:0.534353 4:0.617494 5:0.301825 6:-0.585969 7:0.145974 8:-0.379159 9:-0.317796 10:-0.00607371 11:-0.091274 12:-0.114912 13:-0.441228 14:-0.275373 15:-0.0188339 16:0.0517036 17:0.0468029 18:-0.115874 19:-0.042101 20:0.213468 21:0.390321 22:0.372835 23:0.112746 24:-0.0352967 25:-0.010904 26:0.0759019 27:0.286336 28:0.474346 29:0.7436 30:0.0529668 31:0.0853907 32:0.170444 33:0.0815807 34:0.50854 35:0.629839 36:0.458744 37:0.549176 38:0.2955 39:-0.00190176 40:-0.315475 
-0.3175412594102481 -0.3223863446022311 0.3597804619367699 0.2492182090883202 0.2204378589170632 0.3842638308160597 0.3787626296700444 0.3415625787060034 0.3206494240971123 0.3523560564239159 0.3962571315143446 0.2422765878115272 0.3186768560492465 0.2564989511452502 0.2546234512917193 0.3604735032571111 0.2862566272696146 0.2615967718171321 0.3326923766750419 0.3037200867489519 0.2753828359421572 0.3033434240586648 0.2416321958953046 0.2386305045734274 0.2646035329281141 0.3500759917292467 0.400260573068955 0.4091525474333199 0.2179216701080598 0.3474837437442883 0.2571161108712093 0.2471112258548718 0.2148200618608982 0.3204521057123015 0.3209937806662095 0.1967490754009821 0.4092936049113227 0.3308145264910447 0.3250715022450167 0.3602752750648799 0.3397231831392953 0.2849008125176732 0.2038749420714147 0.3083584302766822 0.3181619977008007 0.2790233338230659 0.2305626728479406 0.2309004505410623 0.322668911016099 0.3696156036800324 0.2827414220681576 0.3757230630833633 0.3346282113988036 0.2624767198840085 0.3515696696782762 0.2290064184444237 0.2578673964295064 0.3539785315097809 0.1115812064471769 0.3316761842394143 1:-0.454322 2:0.720149 3:0.45087 4:0.755526 5:0.167493 6:-0.305806 7:0.0818061 8:-0.210918 9:-0.358214 10:0.12337 11:0.146628 12:-0.380973 13:-0.340657 14:0.14544 15:-0.211935 16:-0.0231289 17:0.0741437 18:0.0841558 19:-0.205711 20:0.340258 21:0.173773 22:0.565979 23:-0.107557 24:0.0203308 25:-0.0643795 26:-0.0588992 27:0.298205 28:0.421846 29:0.268524 30:0.112712 31:0.354983 32:-0.483374 33:0.22193 34:0.183443 35:0.716518 36:0.351683 37:0.467532 38:0.332939 39:-0.23435 40:-0.0880432 
-0.05344446982659281 -0.06150782521709873 0.06716889274108885 0.1641565441675691 0.08083283663505052 0.07713028182941319 0.06709791070349942 0.06551790245159494 0.08937754401208588 0.07218858912524109 0.08264580228190742 0.03408822977947278 0.09700616756332017 0.04238136932541176 0.04828432124612701 0.05826517569628276 0.06799123634290741 0.04603396998839063 0.08048980307866541 0.05562632026249415 0.03643469930831764 0.02722306702246877 0.04277270451648488 0.04224413822979754 0.04692013557922536 0.06470577181423254 0.07897546336068856 0.08406918252976089 0.04089410730903247 0.07022141635977357 0.03914941821199544 0.04229243643575494 0.04245727246544394 0.1347314385070527 0.05946125596723112 0 0.0936232745025706 0.08458015477443157 0.05900019751204948 0.07000766269722036 0.1525873771942599 0.05285636819677469 0.03005507698583083 0.1033233423859449 0.05360440634715637 0.07366430370124386 0.04462675805577107 0.02868199229209552 0.07414489456883035 0.06333530361746378 0.04582470806907104 0.06778886069587339 0.1639210734736878 0.09881276046630187 0.07835063231005271 0.1876772246683949 0.004949297654258025 0.04308503983795121 0.02964189790588182 0.1653461979730576 1:-0.500013 2:0.741983 3:0.461648 4:0.618925 5:0.210517 6:-0.459606 7:0.0730923 8:-0.265901 9:-0.255512 10:-0.0612012 11:-0.0422299 12:-0.013558 13:-0.433149 14:-0.156229 15:-0.177274 16:0.091878 17:-0.0520531 18:-0.0207615 19:0.210231 20:-0.0830712 21:0.240668 22:0.431375 23:0.2396 24:0.0111907 25:-0.27115 26:0.0171196 27:0.233033 28:0.273225 29:0.741811 30:-0.109423 31:0.12361 32:-0.25566 33:0.32874 34:0.186587 35:0.298865 36:0.652928 37:0.25684 38:0.322307 39:0.0073373 40:-0.368078 
-0.3759816242101409 -0.4172788323742962 0.4756585851494928 0.348663603842805 0.2516143938722112 0.4827971685344848 0.4932826219672062 0.4429796523244714 0.2935968166417219 0.4553450804686073 0.5 0.2704088183474006 0.3340510514664048 0.30220259127362 0.3122244539726845 0.4149223921558163 0.3322439609964124 0.322613786667141 0.2885852244915011 0.3819396015512335 0.3067388747574035 0.3759261457508213 0.2986314212675209 0.2884160740560583 0.3224659134355528 0.4596977636796916 0.5 0.5 0.2661582433922994 0.3895505710812289 0.2930752368535712 0.3054279056988399 0.2576044898117958 0.2653139875494697 0.4001495726088854 0.2757386544440334 0.401975690999904 0.3850505368137017 0.4083196415647056 0.4375576776816236 0.4230764654248356 0.3213826463649135 0.2431803752717525 0.3288409527218208 0.3791570444382294 0.2834662738842532 0.2733872290069968 0.2498202269021833 0.3399088126045917 0.4783489960076522 0.2666146714040082 0.4338053982286909 0.4131176059474284 0.2804231207800785 0.3181791422997403 0.3155827088106141 0.3598164361801018 0.4664132899095844 0.1150899270534427 0.3190061104574413 1:-0.673398 2:0.746121 3:0.522033 4:0.0877649 5:0.0770098 6:-0.464946 7:-0.393184 8:-0.647929 9:-0.18273 10:0.22815 11:-0.939823 12:-0.336758 13:-0.567721 14:-0.0628531 15:-0.285475 16:0.0848963 17:-0.0689288 18:-0.0353293 19:-0.169384 20:0.160479 21:0.780722 22:0.0541912 23:0.42844 24:-0.108214 25:-0.194906 26:0.149163 27:0.18289 28:0.4464 29:0.74065 30:-0.405407 31:0.00398587 32:0.14913 33:0.445538 34:0.0580287 35:0.124662 36:0.760565 37:0.386468 38:-0.040901 39:0.389478 40:-0.427493 
-0.5 -0.5 0.5 0.5 0.3722108557089114 0.5 0.5 0.5 0.4519563985424061 0.5 0.5 0.3953541335581349 0.5 0.4552405038539619 0.4537565410208567 0.5 0.5 0.4656011217518248 0.4405676806953224 0.5 0.4543096389896122 0.5 0.4320973627574759 0.4200247577495817 0.4670515785757364 0.5 0.5 0.5 0.3889207644724184 0.5 0.4279559190361905 0.4409003603922937 0.3617446060967304 0.3936284781393825 0.5 0.4074120344199884 0.5 0.5 0.5 0.5 0.5 0.485530399931829 0.3666003454081883 0.5 0.5 0.4371562145126549 0.3864935188024626 0.3731637471682358 0.5 0.5 0.3613637232621185 0.5 0.5 0.4617610366160383 0.4588146984486231 0.4912293707107014 0.5 0.5 0.162978157045563 0.4533963147665064 1:-0.387005 2:0.1402 3:0.557494 4:0.135402 5:0.212858 6:-0.703269 7:-0.341829 8:-0.572903 9:-0.282595 10:-0.000847637 11:-0.542888 12:-0.608229 13:-0.60077 14:-0.249699 15:-0.190721 16:-0.148521 17:-0.140627 18:-0.252337 19:-0.278607 20:0.0601783 21:0.2315 22:0.123948 23:0.240296 24:-0.746163 25:-0.00346645 26:-0.217213 27:-0.188206 28:-0.184865 29:0.319467 30:-0.32292 31:-0.401503 32:-0.937316 33:0.28167 34:-0.76494 35:0.323885 36:0.0742818 37:0.0305112 38:-0.369657 39:0.544596 40:-0.263163 
-0.1199967141469407 -0.1492224791392785 -0.3197138421083117 0.1173096298323273 0 0.1596704777293112 0.1796318881297326 0.1573813154731134 0.04479317359322686 0 0.3128282207798027 0.07881237452619873 0.1160519630162087 0.004658138365896876 0.1155376787085316 0.1486360837584789 0.1176498375439081 0.1107082617082578 0.03270595005686532 0.1262505029995258 0.06791729747803744 0.1218829754314893 0.1031002543588274 0.01504754964410901 0 0.2525966682003304 0.2084600016294579 0.2187032012137932 0.02797348601045427 0.1122866415728014 0.07443986712238163 0.104279312263075 0.1077400459160207 0.07739640269463266 0.03222186599034407 0.08328991185662238 0.1610202708243078 0.1115691397536332 0.1284539021879318 0.1054994768761886 0.1357130729750847 0.1141312219999357 0 0.1053258718465136 0.1218898058666321 0.09126297157299913 0.0920031405853572 0.03379707605452698 0.1156385076252218 0.1582053736067945 0.0582405019408327 0.1650846820988957 0.1341461141612484 0.09348903768323397 0.08288075152883248 0.1076011086971866 0.07471123722212843 0.08544222214791644 0.008290482420648476 0.03384491846874003 1:0.681682 2:-0.241125 3:0.276268 4:0.832599 5:0.227814 6:-0.116567 7:0.365562 8:-0.14247 9:-0.257384 10:0.0152656 11:-0.393277 12:-0.0812381 13:0.270253 14:0.466857 15:0.397626 16:0.292013 17:0.0684093 18:-0.289961 19:-0.494735 20:-0.451704 21:-0.340592 22:-0.30675 23:-0.285364 24:-0.115479 25:0.344381 26:0.327998 27:0.105397 28:0.498402 29:0.407958 30:-0.174605 31:-0.272096 32:-0.0586595 33:0.347517 34:0.175184 35:-0.207194 36:-0.193751 37:-0.540576 38:-0.384981 39:-0.402621 40:-0.583694 
-0 -0 -0 0 0 0 0 0 0 0 0 0 0 0 0 0 0 0 0 0 0 0 0 0 0 0.09740731916718028 0 0 0 0 0 0 0 0 0 0 0 0 0 0 0 0 0 0 0 0 0 0 0 0 0 0 0 0 0 0 0 0 0 0 1:-0.345949 2:-0.461196 3:0.372496 4:0.78646 5:-0.0120975 6:-0.414919 7:0.148521 8:-0.0514586 9:-0.207835 10:0.352553 11:0.177431 12:0.324554 13:0.406559 14:0.572151 15:0.818006 16:0.85798 17:0.679255 18:0.470182 19:-0.0601048 20:-0.363961 21:-0.86044 22:-0.902625 23:-0.753985 24:-0.277608 25:-0.039239 26:-0.21646 27:-0.269933 28:-0.0415929 29:-0.0571038 30:-0.384495 31:0.0372621 32:0.649989 33:0.74649 34:0.804063 35:0.0673321 36:-0.0393011 37:-0.578653 38:-0.167294 39:-0.106201 40:-0.385167 
-0.4595077239315755 -0.4882209183140178 -0.5 0.4601424585037107 0.3442424632147618 0.5 0.5 0.5 0.4009741541962904 0.4991915510013324 0.5 0.3528728734299462 0.4401442571755145 0.399985102365463 0.3981612511093373 0.4746800252627584 0.4195044229400384 0.3994425110102018 0.3943691306178577 0.4656707521158494 0.4088062213208083 0.4649132328839045 0.3748886229008797 0.38104005406129 0.3983395688060219 0.5 0.5 0.5 0.3401014700651842 0.4738674642714739 0.3767949817673013 0.3845635174357647 0.3480678353424759 0.3769903812877387 0.4784742093669767 0.3861821141367108 0.4767766607378778 0.4641020375545796 0.4806660918010279 0.4950741103905351 0.5 0.4184049115715289 0.3303452460927225 0.4553190593674024 0.4566344809703109 0.4035042733564165 0.3532819544988436 0.3423509869614746 0.4491569287755661 0.5 0.4129089979143061 0.5 0.4848476195981128 0.4142833071043929 0.4166389453605417 0.4375202566762215 0.4400658508179782 0.5 0.1796220311607238 0.4209589671440638 1:-0.559096 2:-0.410507 3:0.359981 4:0.627173 5:-0.0757326 6:-0.59433 7:-0.103885 8:-0.130495 9:-0.397843 10:0.30843 11:0.345109 12:0.173651 13:0.453623 14:0.567382 15:0.812355 16:0.891933 17:0.954165 18:0.802183 19:-0.122425 20:-0.501615 21:-0.861839 22:-0.856122 23:-0.659906 24:-0.396583 25:-0.039672 26:-0.086083 27:-0.22499 28:-0.123719 29:-0.385606 30:-0.572007 31:0.111426 32:0.903439 33:0.664162 34:0.737174 35:-0.0440207 36:0.0636576 37:-0.610568 38:-0.0731498 39:0.0379886 40:-0.460018 
-0.1871310888907389 -0.2011596267381194 -0.2948978672818369 0.1872094706996477 0.1582405339927832 0.234446773078138 0.2460297092168011 0.3152667110813487 0.2278344832673258 0.1942767142289726 0.2506817203676104 0.1746898943975856 0.1804888879941995 0.1646104929528386 0.1611899520529786 0.1977440024570782 0.1720262005410477 0.1615903243206528 0.2144918363137421 0.1895995443631755 0.1718873466543246 0.1970812201801978 0.152517146633293 0.290689522705408 0.1678543735084713 0.3326297310901636 0.256436146320732 0.2559688479090106 0.1463357593124262 0.1941601904856952 0.1894750002236007 0.1563228206342318 0.1434742676711327 0.1655790384581191 0.2003828746162825 0.1597465481806024 0.2001273587318728 0.1913899306617434 0.1949602097334036 0.2012503321533742 0.204426056681339 0.1701474530607651 0.1361032090081923 0.1826252911238417 0.185972683377042 0.1640106315687037 0.1445895913580964 0.1410719020063259 0.1823193691434676 0.282918199742013 0.1866980029095282 0.2267997607591913 0.1976242074308849 0.1688693997419687 0.1832554784910045 0.1778060240175116 0.1827954408900157 0.2221535888363494 0.08097564446383251 0.1994869292468779 1:-0.136931 2:-0.592828 3:0.28278 4:0.839693 5:0.117247 6:-0.34973 7:0.189589 8:-0.0529965 9:-0.0817245 10:0.319942 11:0.267395 12:0.25089 13:0.276513 14:0.619097 15:0.859097 16:0.791385 17:0.529585 18:0.332257 19:-0.108868 20:-0.441254 21:-0.776524 22:-0.77439 23:-0.684654 24:-0.5349 25:-0.124098 26:-0.222825 27:-0.19519 28:0.0798253 29:-0.0311648 30:-0.227074 31:0.0407623 32:0.574907 33:0.785354 34:0.547749 35:0.207427 36:0.014842 37:-0.379305 38:-0.31155 39:-0.136075 40:-0.186171 
-0.4390896246462233 -0.4666011253874084 -0.5 0.4405683971232671 0.3242801267853178 0.5 0.5 0.5 0.3712655554020201 0.4759727825173509 0.5 0.328169021614108 0.4202463409993457 0.3821645845302423 0.3814040520194383 0.4535522736836793 0.4010367052650415 0.3830023472868866 0.3701666494285092 0.445250579621869 0.3915400656535228 0.4430825832993247 0.3588007622012183 0.3089568993592559 0.3811449152492265 0.5 0.5 0.5 0.3199750458338213 0.4533846394974154 0.3516351247239753 0.3680862430727045 0.3331767884916387 0.3594642284853133 0.4540738111054306 0.3681145058634023 0.4565301568165615 0.443317744499834 0.4591772102294466 0.472055047236548 0.4840593350857488 0.4003338372653684 0.313849807908029 0.4348821978506585 0.4371150922461742 0.3861684069458929 0.3369430354799692 0.3282477584857384 0.4300798709674919 0.5 0.3982461317676592 0.5 0.4650492695238129 0.3960637915819132 0.3975696253662798 0.4176046935486066 0.4210228883216631 0.5 0.1730763240372315 0.4028240021370765 1:-0.491008 2:-0.671181 3:0.391326 4:0.500813 5:-0.0263312 6:-0.73919 7:-0.106903 8:-0.258559 9:-0.275877 10:0.314801 11:0.105844 12:0.179492 13:0.244808 14:0.641885 15:0.930538 16:0.945058 17:0.783491 18:0.564706 19:-0.0411603 20:-0.468541 21:-0.915335 22:-0.84462 23:-0.7104 24:-0.467325 25:0.013636 26:-0.00812694 27:-0.206223 28:-0.388179 29:-0.334371 30:-0.237762 31:0.241098 32:0.256317 33:1 34:0.862768 35:0.256124 36:-0.221647 37:-0.37478 38:-0.318376 39:-0.0401272 40:-0.394022 
-0.4534413497056106 -0.4845600401378644 -0.5 0.4598637695353736 0.3728278091949296 0.5 0.5 0.4402436035730843 0.4333140898375309 0.5 0.5 0.3626124337990966 0.4335284131572356 0.4646267408760383 0.391046155603715 0.5 0.4139124689946531 0.3926451188153656 0.4344264895771695 0.4497676900182837 0.3975976625454252 0.4265818369280469 0.3668780628362812 0.3494171989592437 0.4590376144766231 0.1689464812429314 0.5 0.5 0.3183757575221111 0.5 0.3877965659808135 0.3784368054308124 0.3429003735000241 0.4088052429715453 0.4905233062064155 0.3991477053659881 0.5 0.5 0.4719912957903343 0.5 0.4967236076378342 0.4112070692408919 0.390275568318983 0.454929640719868 0.4524779486863347 0.4179985749862867 0.3462605547475838 0.3414791366063659 0.4420920921253801 0.5 0.4425838622037792 0.5 0.4782412811352933 0.4157622153836352 0.4409256886537542 0.4363007996686621 0.4511329090577128 0.4869613550867732 0.1861902554798038 0.4614920635720197 1:0.374417 2:-0.124322 3:0.376869 4:0.851201 5:0.1509 6:-0.337415 7:0.127021 8:-0.250487 9:-0.28994 10:-0.158707 11:-0.410198 12:-0.120334 13:0.222002 14:0.315196 15:0.29594 16:0.357452 17:0.146882 18:-0.344663 19:-0.489087 20:-0.637559 21:-0.453812 22:-0.373057 23:-0.288148 24:0.0206766 25:0.465094 26:0.345465 27:0.150037 28:0.307749 29:0.257081 30:-0.218076 31:-0.140674 32:0.0667581 33:0.558937 34:0.598179 35:-0.150743 36:-0.323985 37:-0.490095 38:-0.450066 39:-0.366588 40:-0.495309 
-0 -0 -0 0 0 0 0 0 0 0 0 0 0 0 0 0 0 0 0 0 0 0 0 0 0 0.5 0 0 0 0 0 0 0 0 0 0 0 0 0 0 0 0 0 0 0 0 0 0 0 0 0 0 0 0 0 0 0 0 0 0 1:-0.493641 2:-0.452403 3:0.386315 4:0.593013 5:-0.043844 6:-0.515333 7:-0.010721 8:-0.114791 9:-0.274647 10:0.251388 11:0.272075 12:0.28972 13:0.374179 14:0.467937 15:0.994439 16:0.913515 17:0.814698 18:0.511222 19:-0.00221501 20:-0.50128 21:-0.864753 22:-0.857448 23:-0.737883 24:-0.424672 25:-0.0293624 26:-0.117616 27:-0.280451 28:-0.0656254 29:-0.385622 30:-0.491196 31:-0.0295953 32:0.769977 33:0.64724 34:0.891385 35:0.0565051 36:-0.0777294 37:-0.574435 38:-0.258616 39:-0.0829738 40:-0.253295 
-0.2990918424962059 -0.1540245785300282 -0.3530446651428412 0.2302785461945299 0.3535689983367745 0.3765173488405142 0.3232250771989339 0.2510063056013714 0.1907407149095387 0.3933961389350444 0.3811830562951851 0.1682353605194084 0.2369345896238232 0.1923589806490141 0.2223590486418283 0.3191761488552074 0.2167901680288923 0.2182505184727685 0.1997639132890294 0.2385425725890087 0.09437517993166245 0.2794407675562928 0.2060925808904149 0.2069966560266684 0.1183887512628626 0.1695397199903317 0.3498929491821768 0.3590141337704515 0.1569574731667374 0.2677186737418559 0.1812127741588435 0.2076179648307308 0.20436860361392 0.1453163595913767 0.2378769092894492 0.2100854832490281 0.3339324935461893 0.2750813229025284 0.26679195783776 0.3325859262829666 0.2719220605490573 0.2314072717945461 0.1607894156099212 0.2518872088637878 0.3235390921379337 0.2018576407033585 0.2239568648191166 0.1159459695687748 0.2403916732895412 0.341952857716313 0.2057765316915341 0.2690820523901206 0.2626707395351051 0.230378579783436 0.1786843880409735 0.2187639807516417 0.2483644135990259 0.3063319232992219 0.1386706890649811 0.2124049224945243 1:0.657559 2:-0.176981 3:0.238971 4:0.906875 5:0.207355 6:-0.0911378 7:0.331681 8:-0.153869 9:-0.228073 10:0.0129157 11:-0.300397 12:-0.118655 13:0.246692 14:0.538467 15:0.4458 16:0.246118 17:0.134724 18:-0.309594 19:-0.429536 20:-0.457036 21:-0.326374 22:-0.275911 23:-0.254232 24:-0.0530491 25:0.289264 26:0.403925 27:0.157805 28:0.523985 29:0.33861 30:-0.0607675 31:-0.292986 32:0.116618 33:0.204181 34:0.339829 35:-0.250996 36:-0.0841873 37:-0.593878 38:-0.311869 39:-0.433987 40:-0.657072 
-0.08953867968417173 -0.2280276798957688 -0.1356734072706645 0.08508640978106929 0.1252253806966879 0.06375642506120992 0.07570440485544125 0.05454710382481402 0.0686923743576224 0.1663621307649173 0 0.08281152530228089 0.05539319428139124 0.1827278232302981 0.04607777808573715 0.04458676595856065 0.05129250418336199 0.04131405807431584 0.08494680299562347 0.1101196960911679 0.28423328182615 0.1829969442737935 0.03894111660725639 0.01246757014872404 0.2004255127124657 0.2433957604395698 0.0782271920539802 0.06606407590314373 0 0.05833240358873309 0.08715976643442835 0.04586911142238281 0.08203507649644226 0.1551851890975517 0.1551783776788839 0.1025544231216324 0.06523946156593728 0.05773101171971604 0.04620890080606663 0.04650859035314293 0.05366711493633316 0.04024447926543541 0.1706309887212215 0.07311146513528116 0.1084741484566239 0.08909910670989174 0.07754111695965916 0.2183995061221651 0.05785001052873775 0.09623491860736076 0.1241466279883983 0.1188759654212607 0.05196566187519591 0.06856078171597046 0.1685032869943387 0.09207201618502005 0.1477586789526407 0.1965461540860247 0.03893245299400341 0.1751761894587331 1:0.67026 2:-0.169802 3:0.2495 4:0.928423 5:0.218921 6:-0.059037 7:0.355178 8:-0.131712 9:-0.223136 10:0.0240661 11:-0.35131 12:-0.100567 13:0.287926 14:0.526564 15:0.386556 16:0.24322 17:0.126448 18:-0.338614 19:-0.484882 20:-0.452785 21:-0.306471 22:-0.29821 23:-0.292954 24:-0.11722 25:0.292974 26:0.378204 27:0.125127 28:0.450718 29:0.419122 30:-0.0398413 31:-0.287879 32:0.110133 33:0.263248 34:0.314015 35:-0.247234 36:-0.0764632 37:-0.538718 38:-0.293341 39:-0.356677 40:-0.60441 
-0.09232355259886535 -0.149781965391134 -0.08282655518914492 0.1490711400936494 0.0240444546563469 0.1188424179225877 0.1502086350277954 0.1468989115756101 0.2653707394010089 0.2407516727504826 0.1037643609980559 0.12221992406793 0.1446376985041753 0.1189553138048036 0.1373068914960472 0.1092396858983064 0.1423191762801222 0.1311574696848584 0.2202681933276865 0.1299318556492851 0.143324732530249 0.1037310427928296 0.124437304615229 0.2521833340726045 0.226456403317858 0.4084947846274875 0.1339531485606531 0.123818262446341 0.3015705676058372 0.1544249139068809 0.1471439825769601 0.1242406078107218 0.07046613753199936 0.1221392435718017 0.3328533129387438 0.09289841512847373 0.08583608069239416 0.132052329873403 0.1610202859865611 0.1472004077860698 0.1697375385884129 0.1392372392158242 0.08303997011052824 0.1430493197344204 0.05589324140113903 0.1249911091733697 0.07562199549382252 0.1000838761402561 0.1516025736808876 0.1821455776760318 0.141548553106063 0.138218066017824 0.1587420667316717 0.1296651965052981 0.1353132469443182 0.1385131238051428 0.1013305561953065 0.1610042945264899 0.0723809683004836 0.138268436828517 1:0.624398 2:-0.187098 3:0.252168 4:0.898057 5:0.231667 6:-0.103243 7:0.346528 8:-0.1138 9:-0.238106 10:0.0729965 11:-0.315436 12:-0.0850129 13:0.280048 14:0.530329 15:0.468854 16:0.277845 17:0.114131 18:-0.282215 19:-0.454093 20:-0.437198 21:-0.360546 22:-0.330811 23:-0.254924 24:-0.151022 25:0.288703 26:0.347389 27:0.133546 28:0.498607 29:0.365364 30:-0.0858538 31:-0.331564 32:0.0175022 33:0.239328 34:0.222424 35:-0.230312 36:-0.198977 37:-0.606458 38:-0.257297 39:-0.410548 40:-0.592423 
-0 -0 -0 0 0 0 0 0 0 0 0 0 0 0 0 0 0 0 0 0 0 0 0 0 0 0.3391063542277817 0 0 0 0 0 0 0 0 0 0 0 0 0 0 0 0 0 0 0 0 0 0 0 0 0 0 0 0 0 0 0 0 0 0 1:-0.429259 2:-0.432196 3:0.329754 4:0.69497 5:-0.0305747 6:-0.41951 7:0.0601989 8:-0.219379 9:-0.184815 10:0.352698 11:0.168242 12:0.246439 13:0.491975 14:0.583225 15:0.852862 16:0.781603 17:0.789279 18:0.618199 19:-0.0351821 20:-0.519537 21:-0.942427 22:-0.891587 23:-0.750795 24:-0.458453 25:0.0128916 26:-0.125982 27:-0.333602 28:-0.171015 29:-0.228826 30:-0.52541 31:0.114339 32:0.547002 33:0.726972 34:0.93639 35:-0.0353727 36:-0.128809 37:-0.493439 38:-0.205428 39:-0.0610914 40:-0.372713 
-0.3056234986774015 -0.3219011220109197 -0.4230508549738433 0.306311954385062 0.2433196014603903 0.3725807769646861 0.3827319569649607 0.3309101680212826 0.269221827936044 0.4155828450745497 0.3969942927921056 0.246420023623878 0.2925160331573936 0.2674580431857504 0.265770208175019 0.3142982543922885 0.2791267396014147 0.2674797425859579 0.2686401683451913 0.3102626104073723 0.2789509607852279 0.3098606349208096 0.2502375542759072 0.3151914754891759 0.288569285936277 0.1270411480525886 0.388922456475253 0.390602257663294 0.227181245845419 0.3146859522456346 0.2658741105527532 0.2567009394632542 0.23500794099907 0.2498879231637902 0.3384604827286021 0.2620960316142132 0.3140289758536288 0.3072701795761037 0.3202790582239207 0.3300235438189055 0.337665551848361 0.2791410858783825 0.2208363198737784 0.3054606100684446 0.3033717513479917 0.2676522591004944 0.2373515945149469 0.2381497602995584 0.3004424855892991 0.3508113287976205 0.2876241758637459 0.3565038058802212 0.3239814952939599 0.2756024814718616 0.2765653337625157 0.2913304336863313 0.2999667451429408 0.3502868132250563 0.1218611520782917 0.306932699132181 1:-0.154965 2:-0.50137 3:0.283532 4:0.790458 5:0.10872 6:-0.247953 7:0.220269 8:-0.0431452 9:-0.100167 10:0.249709 11:0.222179 12:0.362105 13:0.391005 14:0.578616 15:0.801599 16:0.786605 17:0.615359 18:0.310151 19:-0.114297 20:-0.345982 21:-0.72384 22:-0.811223 23:-0.739447 24:-0.426792 25:0.00849085 26:-0.139872 27:-0.340094 28:0.131693 29:0.0679685 30:-0.150558 31:0.00657265 32:0.616312 33:0.624661 34:0.985392 35:0.0759871 36:-0.00352211 37:-0.413337 38:-0.217072 39:-0.219522 40:-0.288852 
-0 -0 -0 0 0 0 0 0.2125056048362134 0 0 0 0 0 0 0 0 0 0 0 0 0 0 0 0 0 0.5 0 0 0 0 0 0 0 0 0 0 0 0 0 0 0 0 0 0 0 0 0 0 0 0 0 0 0 0 0 0 0 0 0 0 1:-0.492532 2:-0.457536 3:0.35742 4:0.654956 5:-0.0905354 6:-0.51885 7:-0.0193012 8:-0.0576037 9:-0.314586 10:0.283248 11:0.259121 12:0.321531 13:0.317402 14:0.606504 15:0.999249 16:0.921958 17:0.736349 18:0.584803 19:0.0290493 20:-0.400533 21:-0.895008 22:-0.925928 23:-0.729535 24:-0.360785 25:0.0895155 26:-0.156998 27:-0.31309 28:-0.14495 29:-0.0901178 30:-0.538188 31:0.0888423 32:0.840114 33:0.740113 34:0.781017 35:0.0351863 36:0.0966628 37:-0.399503 38:-0.224443 39:-0.244826 40:-0.345348 
-0 -0 -0.03392634161366143 0 0 0 0.006806303477804508 0 0 0 0 0 0 0 0 0 0 0 0 0 0 0 0 0 0 0.267130027029284 0.0161678196471305 0.01870205712948428 0 0 0 0 0 0 0 0 0 0 0 0 0 0 0 0 0 0 0 0 0 0 0 0 0 0 0 0 0 0 0 0 1:-0.452357 2:-0.447465 3:0.348387 4:0.798619 5:-0.106327 6:-0.445185 7:0.0791092 8:-0.11822 9:-0.35748 10:0.411078 11:0.399085 12:0.248302 13:0.195632 14:0.670986 15:0.958204 16:0.817649 17:0.830473 18:0.575342 19:-0.0871334 20:-0.465585 21:-0.899055 22:-0.925648 23:-0.721081 24:-0.364565 25:-0.0514817 26:-0.287227 27:-0.25724 28:-0.177555 29:-0.117056 30:-0.397629 31:-0.0844073 32:0.612458 33:0.579883 34:0.832863 35:0.131962 36:-0.00868127 37:-0.605339 38:-0.19037 39:-0.1366 40:-0.336674 
-0 -0 -0.06527850407626339 0 0 0 0 0 0 0 0 0 0 0 0 0 0 0 0 0 0 0 0 0 0 0.09371200593235111 0.004762077829311092 0.005502236964504231 0 0 0 0 0 0 0 0 0 0 0 0 0 0 0 0 0 0 0 0 0 0 0 0 0 0 0 0 0 0 0 0 1:-0.565474 2:-0.412175 3:0.375847 4:0.657156 5:-0.0965222 6:-0.498717 7:-0.12736 8:-0.17292 9:-0.213865 10:0.393011 11:0.12316 12:0.146144 13:0.305267 14:0.738645 15:1 16:0.926829 17:0.744053 18:0.667106 19:0.0521062 20:-0.48967 21:-1 22:-0.809081 23:-0.685756 24:-0.381952 25:0.0512077 26:-0.176059 27:-0.215663 28:-0.0899357 29:-0.304797 30:-0.54502 31:0.0893731 32:0.679688 33:0.733334 34:0.934541 35:0.0937999 36:-0.0581792 37:-0.506343 38:-0.268731 39:-0.0958548 40:-0.315697 
-0.2619535776597016 -0.288859328985471 -0.4896729034982923 -0.2925307983919081 0.2079858070641837 0.2868321305292617 0.2718016325084309 0.3004816948566974 0.241248358934236 0.2871887621372826 0.3014614326388692 0.2159368525795849 0.2375708293776125 0.2306195378963355 0.2364282168370649 0.3777955891462104 0.2494355046037784 0.2334888836556223 0.2327432583287447 0.2666626167322204 0.2427490655689863 0.2665713322802397 0.2215188330828056 0.2195321346638262 0.242684982315275 0.2998154896210684 0.3233553459675959 0.3101659273333146 0.2025210682241838 0.2841548909065332 0.2269000062633586 0.2267465920675729 0.2141263986288441 0.3103149800698589 0.2808273840772663 0.2378761237804423 0.3472488248428524 0.2806645715125199 0.2259318272588422 0.274209674406876 0.2980372661138003 0.238166504289845 0.1920610586905138 0.2370137155630721 0.2621473300562765 0.2183339827715771 0.2081184455786814 0.2044271182571491 0.2392769701224122 0.3124215207141651 0.260220078232645 0.3160125183182574 0.2896925647043895 0.2239805006158309 0.3034800397340049 0.5 0.2674091539106713 0.2938762372650209 0.1136721557584857 0.2540667380761945 1:-0.150946 2:0.227962 3:0.811326 4:0.33043 5:-0.226294 6:-0.40378 7:-0.424893 8:-0.266523 9:-0.55818 10:-0.102443 11:0.133734 12:-0.132771 13:-0.0894761 14:-0.801079 15:-0.759156 16:-0.0166212 17:-0.421719 18:-0.296616 19:-0.101921 20:-0.20151 21:0.301025 22:0.337263 23:-0.0337823 24:-0.0739446 25:0.0651989 26:-0.177888 27:0.379224 28:0.674264 29:0.411016 30:-0.521245 31:-0.531692 32:-0.514158 33:0.201008 34:0.308635 35:-0.0423149 36:0.338359 37:0.548923 38:0.0091549 39:0.497936 40:0.368281 
-0.1931537330538312 -0.2101898498711662 -0.324922496221644 -0.2128942114968525 0.1391718445821627 0.2252378596536398 0.2763562265013679 0.2248770510036239 0.1602908919601482 0.2132200540494906 0.2241416718861439 0.1338583172722126 0.1919162521616937 0.1881076458709936 0.1624033660390053 0.2220663464727922 0.1697158679400578 0.1594138742657182 0.1627665787296068 0.1922235663473865 0.1798205413819543 0.1950457833213405 0.1471432219451886 0.1457995099560798 0.1704965974041964 0.224962559999327 0.2362865324984976 0.234634599526119 0.1322546446525521 0.2022779976671062 0.1478282810371044 0.1537282173991892 0.1354675436067423 0.1945656430709525 0.201041415437718 0.1739638534075922 0.2163600822867024 0.1990942793794352 0.2550639345358738 0.2039623688975987 0.2477195433981019 0.1941568522596983 0.1395980314410312 0.1952939538817825 0.1915171784633268 0.1701037707928447 0.1377119614289533 0.1443904085719427 0.1970463737530017 0.241181395779224 0.1838974772491756 0.2184346806049712 0.2217475798156654 0.1645776750839491 0.203837145595613 0.5 0.2118001660293652 0.2202743523009413 0.0711676263616304 0.1769271806320424 1:-0.149766 2:0.253947 3:0.767877 4:0.275079 5:-0.275339 6:-0.412044 7:-0.568666 8:-0.35887 9:-0.613435 10:-0.129016 11:0.156671 12:-0.543471 13:-0.359485 14:-0.701356 15:-0.812283 16:-0.280954 17:-0.403163 18:-0.591429 19:-0.18087 20:-0.162105 21:0.215074 22:0.242126 23:0.308594 24:-0.259189 25:-0.0850327 26:0.140179 27:0.579963 28:0.471726 29:0.490223 30:-0.0856483 31:-0.717067 32:-0.396132 33:0.392838 34:0.593564 35:0.208079 36:0.314721 37:0.648235 38:0.349015 39:0.626747 40:0.430091 
-0.2051830156439813 -0.1328734938929398 -0.5 -0.131229052994583 0.00359630900867537 0.2082017360972632 0.3767923135970506 0.1698552963226181 0.1300731595884647 0.1479514643374076 0.1538720950605439 0.02766205505293952 0.2716608091901509 0.1353185999965414 0.03450632224978321 0.1817668791921069 0.04889428285757069 0.01798270101872282 0.1211345876853568 0.08501339889370826 0.1052978621499095 0.1423368600441941 0 0 0.05838059456511911 0.1522520528921608 0.218612784881117 0.189758413762846 0 0.1602609168266408 0.05561487094972192 0.0048771487748621 0.03408945228038987 0.3087698280592858 0.1204249218718458 0.06938538283798076 0.2336780057352155 0.1471318387649825 0.2883551725753405 0.1278572336853312 0.2622413871041687 0.1492520738967164 0.07670217273245339 0.2236540202999275 0.1923339443140394 0.2428893455275178 0.03647915205705143 0.03439079128760395 0.2824831176332718 0.192243370218862 0.1011517120525338 0.1835788106217471 0.2297364236419793 0.1812805474540611 0.3938570120398744 0.5 0.1280465916274877 0.1922616555501366 0 0.1213193457607433 1:0.173292 2:0.308148 3:0.546348 4:0.473737 5:-0.00209026 6:-0.0796882 7:-0.0680261 8:-0.0851775 9:-0.393159 10:0.0369107 11:0.617771 12:0.0803273 13:-0.163273 14:-0.533432 15:-0.33931 16:0.0472798 17:-0.250044 18:-0.170676 19:-0.0282254 20:0.0593296 21:0.416899 22:0.207269 23:0.127928 24:0.148038 25:0.191453 26:0.064311 27:0.437944 28:0.600058 29:0.496675 30:-0.09966 31:-0.37348 32:-0.0346503 33:-0.0999361 34:0.389387 35:0.307072 36:0.375036 37:0.620407 38:0.409913 39:0.367431 40:0.172036 
-0 -0 -0 -0 0 0 0 0 0 0 0 0 0 0 0 0 0 0 0 0 0 0 0 0 0 0 0 0 0 0 0 0 0 0 0 0 0 0 0 0 0 0 0 0 0 0 0 0 0 0 0 0 0 0 0 0.5 0 0 0 0 1:0.0798839 2:0.270448 3:0.670793 4:0.459168 5:-0.126738 6:-0.215338 7:-0.216968 8:-0.205198 9:-0.462345 10:-0.068926 11:0.555433 12:0.0137335 13:-0.179726 14:-0.482626 15:-0.538235 16:-0.0513966 17:-0.165065 18:-0.20624 19:-0.0636136 20:0.0688924 21:0.334042 22:0.253333 23:0.22436 24:0.074734 25:0.143526 26:0.111501 27:0.504351 28:0.593776 29:0.629794 30:-0.198408 31:-0.342545 32:-0.0785464 33:0.0850392 34:0.163572 35:0.298488 36:0.511684 37:0.45143 38:0.301739 39:0.654011 40:0.115073 
-0.4143189240557798 -0.4490950931863817 -0.5 -0.4569593006539914 0.3183882847740732 0.4679565370710653 0.4805773898758249 0.4739869818994664 0.3729473033882232 0.4519137584149697 0.4750912330545706 0.317882873222149 0.3944138504246409 0.3526271928588303 0.3625676605608543 0.4384174945058724 0.3819532564582551 0.3580809745149603 0.3646271988382346 0.4164285698478934 0.375106419234996 0.416982193910688 0.3376161938597741 0.3363299438079785 0.3775611144600109 0.4703338158656115 0.4889325550235482 0.4948883123508642 0.3106636248866899 0.430222166017947 0.3410987193743941 0.3451515007759655 0.312731378795443 0.3267737167860175 0.4357334380377002 0.3390296178109259 0.4547651711741448 0.4183182933784302 0.4119406499769962 0.4381417223406227 0.4519976347888859 0.3473069721257309 0.2937532356035213 0.4004796467970959 0.4096958521549502 0.3608649639765424 0.3147293165404018 0.3088896017465468 0.3854381661172562 0.4965978624488245 0.3909117951320977 0.4786460534807905 0.4381431342756869 0.3610312417812798 0.3801913987882515 0.5 0.3913909490895042 0.4649218349223511 0.1796490257419668 0.3883996251608963 1:-0.219966 2:0.178926 3:0.819872 4:0.377425 5:-0.267953 6:-0.546718 7:-0.556501 8:-0.30177 9:-0.7132 10:-0.134012 11:0.376554 12:-0.442233 13:-0.524922 14:-0.62242 15:-0.627681 16:-0.326398 17:-0.385514 18:-0.481713 19:-0.157242 20:-0.20495 21:0.260649 22:0.221785 23:0.359063 24:-0.287353 25:-0.396731 26:0.0554339 27:0.815877 28:0.354106 29:0.265376 30:-0.273401 31:-0.752413 32:-0.539292 33:0.390088 34:0.157234 35:0.109882 36:0.370659 37:0.433801 38:-0.0264407 39:0.799541 40:0.385604 
-0 -0 -0 -0 0 0 0 0 0 0 0 0 0 0 0 0 0 0 0 0 0 0 0 0 0 0 0 0 0 0 0 0 0 0 0 0 0 0 0 0 0 0 0 0 0 0 0 0 0 0 0 0 0 0 0 0.5 0 0 0 0 1:-0.274803 2:0.269948 3:0.815756 4:0.248262 5:-0.219649 6:-0.452519 7:-0.582888 8:-0.189026 9:-0.60418 10:-0.156463 11:0.169053 12:-0.414427 13:-0.296102 14:-0.606677 15:-0.880124 16:-0.288264 17:-0.216722 18:-0.506447 19:-0.330636 20:-0.058607 21:0.388892 22:0.16206 23:0.183727 24:-0.239324 25:-0.235104 26:0.0568132 27:0.5118 28:0.397048 29:0.396969 30:-0.236259 31:-0.785532 32:-0.459474 33:0.445814 34:0.337662 35:-0.0228625 36:0.271579 37:0.611774 38:0.0351493 39:0.753517 40:0.331396 
-0.1615660346139461 -0.1940521887742834 -0.2640328024773422 -0.1928755953203781 0.1593950298462797 0.2235609326252655 0.2280014404613005 0.2062568369705755 0.2131229584665797 0.1949251706586402 0.2012145430801867 0.1604185282846818 0.3317051270598015 0.2206488445733326 0.1730313654840874 0.269139718129185 0.238910987732897 0.1636243263909054 0.1881721983960564 0.1825590423886056 0.1834443994657488 0.1848354348902209 0.1562824639653665 0.1548973697063155 0.1730049444167708 0.2018605704461273 0.3042405645211166 0.215657795484414 0.1454125082286339 0.225558285068 0.1589168184717687 0.159490123704608 0.1859413171407492 0.4613510527657033 0.1922541978326337 0.137304048190861 0.2239376000386968 0.2175495821983862 0.2334313699322278 0.2134851546098204 0.2158263184101206 0.2340884731435785 0.2119797305560286 0.3189070539553989 0.1604989743237669 0.2817490357756154 0.1883246000701893 0.1618596678899169 0.2860804020564786 0.2149691047630454 0.1890749948852209 0.2063699607907629 0.2140919613533754 0.2861625546745833 0.4647172838602913 0.5 0.1556531969486865 0.2004968174841667 0.07759110734540932 0.1484111038309925 1:-0.0918628 2:0.340247 3:0.713256 4:0.418117 5:-0.152996 6:-0.189323 7:-0.322406 8:-0.0870262 9:-0.413087 10:0.0701235 11:0.460769 12:0.0129313 13:-0.0821171 14:-0.436461 15:-0.637172 16:-0.0896862 17:-0.0458649 18:-0.107061 19:-0.0894058 20:0.026396 21:0.400497 22:0.271063 23:0.310004 24:-0.0418422 25:0.0169029 26:0.18894 27:0.497525 28:0.39621 29:0.267301 30:-0.266647 31:-0.548854 32:-0.113698 33:-0.310155 34:0.208875 35:0.128121 36:0.410926 37:0.27212 38:0.296973 39:0.564445 40:0.265458 
-0.2634373738933948 -0.2852486404909024 -0.4184412806003733 -0.2897241042027789 0.2006740876816816 0.3038707570967865 0.3280833811988823 0.3028322597845281 0.2212685064567149 0.2913703553803119 0.3039631116288851 0.2023408609787097 0.269661083061473 0.2180655641353008 0.2271495207552229 0.2930933941579158 0.2247171917509256 0.2250698125551253 0.2194236854117164 0.2642623724210388 0.2368151654209184 0.2643729278778263 0.2123348686521558 0.2112013867127072 0.2364581538578829 0.3002635813978212 0.3097821323654242 0.3162553392589783 0.1926826567161052 0.2620417661443168 0.2186518816456751 0.2179057100140544 0.1905675349653236 0.1977956053323664 0.2796933177367648 0.2206967565023554 0.2816648048457469 0.255987672022208 0.2910566953194183 0.2778865844753928 0.2811579759628463 0.2390304326737386 0.1748323823831774 0.2618809847488837 0.2613745848037636 0.2398211676519864 0.1946425463709236 0.1928045130159438 0.251035613397423 0.3148132856145185 0.2403303363755702 0.2847772470819475 0.2723090324567288 0.2408756242566676 0.2324830498733349 0.5 0.250394424910663 0.296695206352414 0.1091310220273281 0.2527149907403506 1:-0.293602 2:0.322536 3:0.809996 4:0.278077 5:-0.21976 6:-0.356506 7:-0.659151 8:-0.214729 9:-0.547539 10:-0.0556039 11:0.00675721 12:-0.316238 13:-0.323858 14:-0.643347 15:-0.823064 16:-0.270227 17:-0.358572 18:-0.344073 19:-0.306284 20:-0.191994 21:0.38543 22:0.172303 23:0.240313 24:-0.301574 25:-0.244268 26:-0.0411272 27:0.488452 28:0.41498 29:0.63479 30:-0.539273 31:-0.945126 32:-0.188568 33:0.35134 34:0.183307 35:0.0108824 36:0.371224 37:0.472265 38:0.0512572 39:0.723647 40:0.33307 
-0 -0 -0 -0 0 0 0 0 0 0 0 0 0 0 0 0 0 0 0 0 0 0 0 0 0 0 0 0 0 0 0 0 0 0 0 0 0 0 0 0 0 0 0 0 0 0 0 0 0 0 0 0 0 0 0 0.5 0 0 0 0 1:-0.19008 2:0.216722 3:0.773035 4:0.321198 5:-0.238916 6:-0.388056 7:-0.434567 8:-0.238421 9:-0.539095 10:-0.0568993 11:0.402385 12:-0.135399 13:-0.303644 14:-0.605737 15:-0.565455 16:-0.167249 17:-0.170902 18:-0.153524 19:-0.0511556 20:-0.125361 21:0.505864 22:0.40058 23:0.338036 24:-0.0229421 25:-0.0070158 26:0.16515 27:0.734046 28:0.532709 29:0.412387 30:-0.176832 31:-0.357264 32:-0.161475 33:0.12378 34:0.426406 35:0.343803 36:0.428837 37:0.491306 38:0.237287 39:0.720256 40:0.318076 
-0.1716310690442201 -0.1809773146410255 -0.4133573917739076 -0.1848368759880253 0.1537813584580897 0.1968882990858896 0.1540536773414331 0.1832820680527393 0.2266104228769039 0.1862526999601799 0.1807932024449941 0.1478672585317534 0.04453354359173629 0.09913578579275133 0.1326744771832866 0.3730694068943283 0.1192284983376602 0.1263053721152624 0.2221637326582412 0.1541997222208894 0.1439722595392478 0.1678607733575122 0.1111942392843483 0.1119718391872274 0.1504538362289065 0.1889569771417874 0.1954008356906971 0.1965910948844002 0.09103333294347762 0.1778867608745169 0.1751669795065431 0.1213656739069275 0.1502527258244437 0.1610559596102159 0.1880453253602499 0.1827205792520604 0.4430360923084231 0.1882883055973323 0.1195229552455935 0.1718343336247746 0.1708075378512687 0.123058303780375 0.05317956662061615 0.1305552129716609 0.1632919794441435 0.01468077919597591 0.1481121291462673 0.1078901968140909 0.1629671120444398 0.2192493886192633 0.1526810709875788 0.2083801078276452 0.1676837724741269 0.117998900783842 0.09892562955011799 0.5 0.1972469711676842 0.1865288438688213 0.05113790292590178 0.2010003052268253 1:0.0790739 2:0.320729 3:0.615153 4:0.476991 5:-0.0787708 6:-0.10482 7:-0.169186 8:-0.115896 9:-0.453332 10:-0.00836978 11:0.698411 12:0.0668968 13:-0.180783 14:-0.45093 15:-0.431415 16:0.0123698 17:-0.0900234 18:-0.229284 19:-0.000377721 20:0.0368528 21:0.388257 22:0.18363 23:0.196154 24:0.0415559 25:0.177223 26:-0.0110461 27:0.449744 28:0.570152 29:0.507277 30:-0.15849 31:-0.522541 32:-0.135115 33:-0.0172522 34:0.175029 35:0.245393 36:0.378045 37:0.318605 38:0.415288 39:0.51373 40:-0.158971 
-0.1276061174706862 -0.1658252340063885 -0.08187657933531656 -0.1747918371001197 0.1148890038518734 0.1861910221448773 0.2257164755196119 0.1753467598093666 0.104899246026265 0.1729063264432293 0.1846285937413573 0.1189402548239102 0.1540847278463968 0.1403943757505493 0.145004059315147 0.1142474815581635 0.128518181485502 0.151062178189739 0.125005872096754 0.1671197071537067 0.1244149772249476 0.1355335206882572 0.1449851568694631 0.1448852025271321 0.1420368183306727 0.177920580027509 0.1405279717511461 0.1788032186076761 0.1308471062621854 0.1609323293043746 0.1258677916969167 0.1479097573296557 0.08275146190833611 0.005675569400264772 0.1640584159190496 0.1444175959465391 0.09195261133117692 0.1622817544225909 0.2336152625783561 0.1752999592199435 0.1530581005400985 0.1432495197683294 0.1090537468717527 0.1418848378385694 0.1311948304182873 0.1448047821291866 0.09424690053467134 0.1068282913786512 0.0905422111058764 0.1632204868768306 0.1522099733750285 0.1396263769588805 0.1489852585262539 0.1378493972901772 0 0.5 0.1510166719943892 0.1536905838256768 0.07552100075908494 0.1525247711363014 1:-0.248282 2:0.418031 3:0.79143 4:0.4167 5:-0.301052 6:-0.279953 7:-0.372622 8:-0.012772 9:-0.687561 10:-0.0477379 11:0.616805 12:-0.0484498 13:-0.200724 14:-0.709601 15:-0.543914 16:-0.0322185 17:-0.25432 18:-0.206323 19:0.0751917 20:-0.117636 21:0.340044 22:0.426192 23:0.322977 24:-0.0815568 25:-0.002663 26:0.196553 27:0.522172 28:0.539197 29:0.394419 30:-0.167824 31:-0.546614 32:-0.243476 33:-0.0447777 34:0.692652 35:0.0660511 36:0.351631 37:0.426832 38:0.436024 39:0.545407 40:0.113109 
-0.5 -0.5 -0.5 -0.5 0.5 0.5 0.5 0.5 0.5 0.5 0.5 0.5 0.5 0.5 0.5 0.5 0.5 0.5 0.5 0.5 0.5 0.5 0.5 0.5 0.5 0.5 0.5 0.5 0.4790160774406169 0.5 0.5 0.5 0.5 0.5 0.5 0.5 0.5 0.5 0.5 0.5 0.5 0.5 0.4983331194409076 0.5 0.5 0.5 0.5 0.5 0.5 0.5 0.5 0.5 0.5 0.5 0.5 0.5 0.5 0.5 0.322130159080193 0.5 1:0.353544 2:0.151521 3:0.423863 4:0.462107 5:0.0896553 6:-0.172638 7:0.0199599 8:-0.0855256 9:-0.405853 10:0.0700221 11:0.384149 12:-0.00783331 13:-0.255476 14:-0.389163 15:-0.310847 16:-0.00908678 17:-0.271733 18:-0.114938 19:-0.0853462 20:0.0929363 21:0.459415 22:0.21387 23:0.295825 24:0.109277 25:0.206167 26:0.219141 27:0.532248 28:0.597506 29:0.812451 30:-0.0187852 31:-0.21763 32:-0.0129686 33:0.158974 34:0.326099 35:0.521068 36:0.492964 37:0.611244 38:0.509572 39:0.459732 40:0.108012 
-0.5 -0.5 -0.5 -0.5 -0.5 0.5 0.5 0.5 0.5 0.5 0.5 0.5 0.5 0.5 0.5 0.5 0.5 0.5 0.5 0.5 0.5 0.5 0.5 0.5 0.5 0.5 0.5 0.5 0.5 0.5 0.5 0.5 0.5 0.5 0.5 0.5 0.5 0.5 0.5 0.5 0.5 0.5 0.5 0.5 0.5 0.5 0.5 0.5 0.5 0.5 0.5 0.5 0.5 0.5 0.5 0.5 0.5 0.5 0.3681237956554558 0.5 1:0.0337133 2:0.0883572 3:0.199962 4:0.782077 5:-0.316338 6:0.0184627 7:0.051643 8:-0.077409 9:0.451591 10:0.105151 11:-0.133266 12:0.348006 13:0.0708996 14:0.280142 15:0.205187 16:0.0327589 17:-0.0663934 18:0.385422 19:0.0588332 20:-0.374511 21:-0.0908592 22:-0.355236 23:-0.267037 24:0.0373551 25:0.18612 26:0.252957 27:0.586091 28:0.735185 29:0.459047 30:0.150455 31:0.0633047 32:0.466942 33:0.106146 34:0.161869 35:0.165027 36:0.484673 37:0.215714 38:0.170329 39:-0.284532 40:-0.91768 
-0.3001788771346952 -0.375516489927772 -0.5 -0.4102130501467464 -0.2978817252670193 0.4418330005765814 0.4714330987647615 0.4284697911437085 0.5 0.5 0.4048046974285873 0.2485336920173053 0.2234031975600284 0.1976753875157969 0.1747863383277468 0.3922213872513997 0.1655122371021075 0.123874207181141 0.5 0.2837277094261025 0.2591996197376137 0.3163611124962895 0.09338363626224992 0.1261720774491877 0.2703083451167635 0.4431828109270123 0.5 0.4608417570070988 0.0641318949956432 0.3486090477490409 0.3300172761565939 0.1107080572515932 0.1513557785393637 0.2500004909376409 0.4659561862535113 0.3607323385246453 0.3903003484609892 0.3099439146342756 0.3464463434014263 0.363890817156886 0.3795008496972388 0.1702492086887871 0.0895908325354005 0.2922853133427119 0.2897250274252787 0.2182455708705835 0.1569313246101853 0.09056288294212886 0.2551604231240935 0.4845812005672137 0.3687087182083889 0.4234820636763603 0.3059653617733096 0.1892529360794809 0.3242626503841136 0.2492654835332433 0.4316280194961483 0.3807276037960522 0.0624844124254742 0.3350323413639934 1:-0.265746 2:0.203585 3:0.365518 4:0.801638 5:-0.491968 6:-0.203624 7:-0.168854 8:0.0803758 9:0.490255 10:-0.0182964 11:-0.128459 12:0.140622 13:-0.00358833 14:0.106319 15:0.1633 16:0.0211076 17:0.0195443 18:0.262962 19:-0.00861273 20:-0.313442 21:-0.00106316 22:-0.342656 23:-0.379127 24:-0.0619273 25:0.122703 26:0.450192 27:0.471936 28:0.500817 29:0.158378 30:0.423524 31:0.340326 32:0.486868 33:-0.145166 34:0.22119 35:0.434813 36:0.58314 37:-0.0467033 38:-0.0186282 39:-0.279742 40:-0.541566 
