svm_type c_svc
kernel_type rbf
gamma 0.0078125
nr_class 61
total_sv 549
rho 0.0430363 0.066862 0.796376 -0.108867 0.613077 -0.180694 -0.0956227 -0.00742837 -0.259213 0.424682 0.601262 0.462104 0.861584 -0.153769 1.63704 -0.143138 0.0133238 0.123752 -0.0885691 -0.0257327 -0.17167 -0.156903 -0.224702 -0.0683655 -0.0515816 -0.0545028 -0.0630252 -0.0744438 0.4424 0.0880239 -0.0623193 -0.0786127 -0.0128462 -0.0200039 0.0212183 0.0943403 0.0470869 0.149703 0.264898 0.125191 -0.209621 0.899779 0.282617 -0.000124497 -0.0563209 -0.150262 0.337274 -0.0728654 0.231984 -0.0616304 0.108364 -0.13351 -0.0295084 -0.0567345 -0.403144 -0.0323467 -0.0828315 -0.0690236 0.0216262 0.557355 0.0992546 0.463981 -0.00686175 0.416352 -0.111119 -0.0654736 -0.027384 -0.0843314 0.308195 0.438181 0.458692 1.5345 -0.0244839 0.838527 0.0108754 -0.0866821 0.0777941 -0.0574444 -0.0764881 -0.0164308 -0.0306772 0.0200239 0.00778802 -0.0632842 -0.0122312 -0.189004 0.0134524 0.781098 0.130859 -0.0170879 -0.0136079 -0.0587024 -0.0855221 -0.0511966 0.00508386 0.0802062 0 0.279018 0.128858 0.130955 0.897073 0.0138906 -0.014267 -0.211103 -0.0196073 -0.00308094 -0.0758955 0.100444 -0.126318 -1.06321 -0.0240933 -0.0743614 -0.00778561 -0.0412557 -0.0339917 -0.11001 -0.0193309 -0.013267 0.40611 0.445588 -0.0345651 0.18611 -0.131191 -0.111697 0.00875591 -0.254496 0.0269111 0.111081 0.0259265 0.324167 -0.179783 0.539654 -0.176963 -0.0980349 0.0421903 -0.133666 -0.257575 -0.0222915 -0.0353795 -0.152623 -0.0152414 -0.110113 -0.141587 -0.0487308 -0.143354 0.356972 0.287958 -0.0922343 -0.0426874 -0.118084 -0.118242 -0.111703 0.0325677 0.0252338 0.0293996 0.0210059 -0.026805 -0.0090797 0.182655 0.00961488 -0.114466 -0.0509851 -0.0247034 -0.0279032 -0.194455 -0.0404911 -0.109254 -0.0952355 -0.0371671 -0.114068 -0.18903 -0.204926 -0.0876854 0.111945 0 0 0.192466 -0.662398 -0.137528 -0.729207 -0.467943 -0.742942 -0.743788 -0.300571 -0.151199 -0.218428 0.0147555 -0.456245 0.381187 -0.502224 -0.435091 -0.209157 -0.347111 -0.701447 -0.727443 -0.63224 -0.508571 -0.83362 -0.22684 -1.12626 -0.871737 -0.608142 0.0400023 -0.413805 -0.23231 -0.453602 -0.396083 -0.315075 -0.367539 -0.509053 -0.222655 -0.452679 -0.493516 -0.299213 -0.380834 -0.275849 -0.641287 -1.04798 -0.858139 -0.63982 -1.04711 -0.565954 -1.05198 -0.593536 -0.455064 -0.602029 -0.239411 -0.472723 -0.76318 -0.44961 -0.651068 -0.496932 -0.476823 -0.10594 0.477539 -0.0536735 0.00302823 -0.0143275 -0.0799957 0.347022 0.660022 0.172886 0.639759 0.0228704 0.963375 0.0951494 0.0108108 0.214705 -0.0179625 -0.0599329 0.0152038 -0.0812706 0.0217867 0.106703 0.0017626 -0.0925498 -0.0578694 0 0.359241 0.0558792 -0.0247264 0.0821591 0.0771307 0.00532904 -0.035345 0.00138786 0.112994 0.0763665 0.394738 0.127714 -0.0220723 1.04078 0.0561171 -0.0303882 -0.0370108 0.00948628 0.238533 0.0187725 0.211498 -0.0821928 -0.000697451 0.151152 0.00477922 0.0602024 -0.0306421 -0.109872 -0.0298594 -0.097211 0.00627837 0.51747 -0.406652 -0.455266 -0.670623 -0.380332 -0.0627728 -0.265054 -0.0808699 0.225938 -0.33263 0.820284 -0.330913 -0.846262 -0.113281 -0.174921 -0.394383 -0.595966 -0.481424 -0.33156 -0.57184 -0.135287 -0.410083 -0.530318 -0.259254 -0.212121 -0.189908 -0.206269 -0.226181 -0.552528 -0.272382 -0.251222 -0.0747873 -0.156248 -0.0869392 -0.691742 -0.125706 -0.35477 0.136023 -0.542558 -0.349811 -0.487373 -0.463794 -0.703428 -0.345174 -0.685336 -0.360858 -0.455745 -0.450722 -0.133909 -0.62415 -0.923089 -0.86543 -0.256159 -0.498408 -0.512768 0.167562 0.0339732 0.0107201 -0.36634 0.544638 0.878775 0.508931 1.0326 0.00087614 1.34387 0.0662588 0.00202729 0.154209 -0.00989984 0.0526548 -0.0295989 0.0261049 -0.0143217 0.0527926 0.000661355 -0.0305269 0.0202321 -0.00721054 0.457237 0.149164 -0.0268728 -0.0266021 0.0718156 0.0110089 0.0117999 -0.00536206 0.0691984 0.0019642 0.222928 0.441974 0.206551 1.20038 0.106683 -0.00758776 0.0525919 -0.0187803 0.171007 0.0309091 0.245551 -0.729201 0.09539 -0.00814515 0.0157202 0.031146 -0.030645 -0.074865 0.036808 -0.048394 0.0639126 0.376424 -0.0308223 -0.0440448 0.237464 0.26702 0.262313 0.88025 -0.000842095 0.783475 -0.0262474 -0.0306266 0.118256 0.00270778 -0.0413954 -0.0283872 0.0453547 0.0206014 -0.00296748 -0.00569633 -0.00556366 -0.0330088 0 0.602496 0.124123 0 0 0.00861954 9.3898e-05 -0.0210533 0.072197 0.0593477 0.0841742 0.12265 0.0941427 0.263403 0.439375 0.0368775 0.0079218 -0.0394969 -0.0107737 -0.0202757 0.0256103 0.110179 -0.00533153 0.145561 -0.0131827 0.00965875 0.0239069 -0.0353515 -0.0198266 0.0868471 -0.00255185 -0.0204736 0.441056 -0.00738073 0.340481 0.418866 0.240931 0.540996 0.0205031 0.653565 0.096597 0.0553724 0.249039 -0.013437 -0.00156035 0.00272943 0.0501132 0.029339 0.105066 -0.00632272 -0.0435019 -0.00216859 0.0338378 0.596957 -0.00988463 0.000636361 0.0307102 0.0173056 0.00790861 -0.00325432 0.24428 0.0478282 0.28122 0.190796 0.0930644 0.00706771 0.811596 0.0417431 0.0248053 -0.00144829 -0.0393576 0.151169 0.10206 0.181569 -0.0620709 0.0246111 0.0479233 -0.00694915 -0.0287386 -0.0753748 -0.0492555 0.0871634 0.00317653 -0.0206242 0.570303 0.844926 0.898527 1.07499 1.18012 0.340895 1.17234 0.389885 0.0135606 0.139531 0 1.00596 0.0279572 0.0963803 0.0610784 0.0316926 0.0152103 0.0114337 0.0196672 0.0308231 0.434401 0.291206 0.00724302 0.0287801 0.0351735 0.040383 0.136046 0.164976 0.0557437 0.183931 0.171197 0.47797 0.368544 1.22793 0.104759 0.0382011 0.0464313 0 0.11038 0.652582 0.30808 0.210781 0.0985573 0 0.0188143 0.0707988 0.305692 0.0282804 0.118005 0 0 0.346111 0.550046 0.409303 0.580518 -1.33514 0.287854 -1.14881 -0.599112 -0.152942 -0.0953404 -0.865186 -0.379384 -0.334837 -0.318844 -0.435259 -0.187598 -0.242828 -0.285528 -0.191079 -0.0722691 -0.0255796 -0.0417987 -0.168857 0.0188007 -0.401119 -0.47753 -0.0449075 0.00560702 -0.0278811 -0.367891 -0.225011 -0.828449 -0.131506 -0.228439 -0.2116 -0.28785 -0.269684 -0.170665 -1.08862 -0.0234736 -0.463639 -0.180202 -0.263607 -0.184215 -0.272193 -0.705901 -0.535374 -0.343998 -0.361718 -0.307665 0.181886 0.352181 0.39893 -1.09902 0.633009 -0.981271 -0.54018 -0.107996 -0.343984 -0.677512 -0.513669 -0.607521 -0.331513 -0.51339 -0.20787 -0.302806 -0.331602 -0.11327 -0.0997405 -0.107959 -0.173537 -0.186146 -0.805718 -0.0461438 -0.558118 -0.159917 0.0189072 -0.132763 -0.0445355 -0.282939 -1.19653 -0.443866 -0.30172 -0.297062 -0.314644 -0.430273 -0.230161 -1.39073 -0.0457126 -0.684593 -0.409902 -0.38047 -0.218983 -0.557359 -1.23927 -0.641472 -0.411906 -0.384396 -0.30935 0.441626 0.754093 -1.34 0.214858 -1.17339 -0.278864 -0.283345 -0.0144963 -1.06238 -0.220621 -0.0754194 -0.503623 -0.249405 -0.257579 -0.224167 -0.341599 -0.142703 -0.301639 -0.0207394 -0.168094 -0.213339 -0.307935 -0.549513 -0.973153 -0.0972599 -0.099667 -0.0859983 -0.283699 -0.558756 -0.690799 -0.444481 -0.126657 -0.203457 -0.326369 -0.149729 -0.089107 -0.895489 -0.00523411 -0.36443 -0.256202 -0.109667 -0.250951 -0.318852 -0.743937 -0.329709 -0.376874 -0.142066 -0.0918556 0.0867189 -0.737791 0.237792 -0.794553 -0.749195 -0.814808 -0.0244408 -1.13203 -0.619485 -0.58342 -0.650274 -0.70492 -0.54388 -0.599345 -0.760026 -0.603833 -0.634853 -0.313563 -0.373651 -0.325469 -0.61599 -0.627296 -0.603515 -0.439197 -0.190711 -0.382745 -0.716582 -0.517615 -0.915363 -0.507151 -0.33612 -0.541697 -0.727334 -0.477107 -0.48656 -1.12459 -0.485572 -0.836807 -1.28484 -0.473246 -0.588073 -1.03146 -1.15395 -0.801586 -0.883008 -0.496943 -0.515278 -0.113349 1.22907 0.491055 0.0152157 0.032989 -0.0732143 0.174052 -0.0305627 0.0325614 -0.0468253 0.00208814 0.00504005 -0.0154193 -0.0334487 0.00434731 0.197307 0.21072 -0.00205017 -0.0279445 0.101899 0.0277246 -0.150571 0.0987607 0.0364824 0.105064 0.0573986 0.221186 -0.122286 0.0966749 0.0625547 0.00324807 -0.030981 -0.0116271 0.131575 0.0539615 0.193346 0.0976764 0.101942 0.00789204 -0.000929719 0.0955314 -0.0414162 -0.0371298 -0.0189957 -0.00158995 0.027273 0.38552 -1.08721 -0.884653 -0.616797 -0.319714 -0.958876 -2.04399 -1.02899 -0.886814 -1.91943 -0.388927 -0.656024 -1.04412 -0.648432 -0.395527 -0.530913 -0.418017 -0.866665 -0.743742 -0.760071 -0.268234 -0.254579 -0.557476 -0.220504 -1.30338 -0.262148 -2.11146 -0.594309 -0.996825 -0.520614 -0.990636 -1.19264 -1.06377 -1.1494 -0.636352 -1.14204 -0.844674 -1.20838 -0.452302 -1.25169 -2.32307 -1.05106 -0.914134 -0.830954 -0.698366 0.315645 0.00641149 0.0670952 -0.0259453 0.144896 -0.0858071 -0.0347475 -0.0238781 -0.0147865 -0.018193 -0.0145067 0.000386478 0.0294426 0.189176 0.202889 0.00402288 -0.0248899 0.0785482 0.0344635 -0.140061 0.117449 0.0454093 0.119585 0.0300416 0.248257 -0.251291 -0.0947154 0.0971805 0.00665249 0.000457439 -0.0150495 0.129314 -0.0814026 0.222788 0.0785288 0.0717111 -0.00199416 -0.00175594 0.03723 -0.125333 -0.0292847 -0.000906706 -0.0541385 -0.0158841 0.361949 0.227459 0 0.0331394 0.0393204 -0.00195303 0.0444964 0.0730938 0.0111654 -0.00221441 -0.000669108 0.0100301 0.731031 0.112094 -0.00369239 0.0112155 0.114468 -0.0287629 -0.0262118 0.00215507 0.0754891 0.00995972 0.464495 0.13286 -0.0486921 0.657818 0.117897 -0.016694 0.00787035 -0.0252285 0.193321 -0.0156087 0.0821233 0.0534701 0.0895848 0.0148761 0.00573767 0.103943 -0.0448784 0.386332 0.108492 -0.0313835 0.020442 0.893847 -0.0141461 -0.139223 -0.285417 -0.173817 -0.0728805 -0.306336 -0.00298154 -0.19288 -0.418851 -0.232629 0.316505 -0.0383365 -0.101215 0 -0.167173 -0.031433 -0.010765 -0.0311053 -0.0132765 -0.0400465 -0.0440619 0.0989203 0.132877 0.332365 -0.160371 -0.182258 -0.350376 -0.236968 -0.271171 -0.0248055 -0.135472 -0.135544 -0.0747503 -0.229575 0.0101048 -0.165673 -0.26412 -0.229675 -0.194924 -0.192626 -0.2044 0.160839 0.0238943 0.00722816 0.031985 0.0520209 0.00764564 -0.0127952 0.0103923 0.00698174 0.0173596 0.0264596 0.161767 0.0133382 0.012905 0.0572976 0.00448512 0.120296 0.107313 0.109231 0.110696 0.0482653 0.218765 0.0276997 0.17849 0.0564779 0.0287233 0.028086 0.000399403 0.0517634 0 0.162407 0.0069457 -0.00696451 -0.0013896 0.0100244 0.030637 0.01044 0.00920212 0.0952899 0.000713532 0 0.180918 0.0190265 0.090972 0.0192275 0.0475553 -0.0251998 0.0109699 0.017983 0.0319847 0.354569 0.297409 -4.88834e-05 0.0249876 0.035473 -0.1069 -0.171761 0.161878 0.0583932 0.186495 0.138781 0.094718 0.000483987 1.17768 0.0616289 0.0266034 0.0301253 0 0.113296 0.154506 0.298948 -0.151805 0.111106 0.00169937 -0.0357332 0.0559908 0.0225298 0.00356698 0.0560676 -0.0496998 -0.0593828 0.364868 0.0829341 0.0321808 -0.300955 0 0.0154279 0.0112701 0.0321582 0.501511 0.0446172 0.0114567 -0.0267994 0.0398411 -0.00466704 0.0145972 0.267073 0.0903449 0.301625 0.456791 0.132009 0.0445912 0.912954 0.213113 0.0563821 0.0142892 -0.0326029 0.455696 0.0451897 0.266209 0.0620917 0.0151212 -0.0403858 0 0.0465858 0.0156176 -0.0282778 0.114176 0.0138197 0.0712552 0.656332 0.00436923 0.0476361 -0.0310067 -0.0655375 -0.0921508 -0.00204723 0.298137 0.055822 -0.0175352 0.101579 0.0315131 -0.017876 -0.0488621 0.00307004 0.114948 0.0814441 0.362452 0.0998228 -0.0730749 1.02948 0.0706904 -0.00613736 -0.0627137 -0.106902 0.314794 -0.0386095 0.208542 -0.0693234 0.0276149 0.0118906 -0.0296579 0.0571623 -0.217258 -0.12407 -0.0631087 -0.147709 -0.0221733 0.560385 -0.0132839 -0.0171536 -0.0336527 -0.0234087 -0.00317103 0.390141 0.178501 -0.00443257 -0.00545466 -0.0420386 0.00274458 0.0835656 0.0487738 0.0326337 0.0543249 0.117672 0.342521 0.277499 0.347913 0.0752354 -0.00390072 -0.0138039 -0.0176673 0.0597993 -0.0221756 0.104347 0.0773143 0.00980523 -0.0245836 -0.0430753 -0.0129159 0.0358351 -0.0202503 0.161512 -0.0318163 -0.0350336 0.410954 -0.000550653 -0.0221581 0.0124255 0.0325085 0.503266 0.0352135 -0.00117555 -0.0576468 0.0526418 0.0250007 -0.0130079 0.2574 0.0684157 0.281906 0.375141 0.123876 0.0361459 0.847632 0.18563 0.0313991 0.00882711 -0.122723 0.302541 0.00491523 0.243218 0.0484107 -0.00757892 -0.119465 0.00509936 -0.0146599 -0.0287768 -0.0221864 0.163687 -0.0633713 0.0319398 0.613987 0.00797979 0.00483688 0.00448704 0.209419 0.128562 -0.00990061 -0.00413368 0.010112 0.0317957 0.0679927 0.0550274 0.0856435 0.0582718 0.0650974 0.160456 0.156923 0.266685 0.0619369 0.00205454 0 0 0.0429485 0.00564639 0.0821828 -0.0162417 0.110148 0.00173418 -0.654595 0.0092996 -0.0120839 -0.00886667 0.0572927 0.0028432 -0.00313746 0.186129 0.00213362 0.0394154 0.339463 0.160338 0.0332299 0.0406539 0.0305048 -0.0166806 0.0101397 0.67334 0.11524 0.743573 0.170795 0.126559 0.092142 0.806905 0.112847 0.694639 0.0228704 -0.0087249 0.100571 0.0435073 0.570651 0.00831711 -0.0169749 0.0198334 0.00600468 0.0505726 0.017387 0.00123429 0.0238399 0.00200678 0.0202259 0.395246 0.0378535 0.440833 0.0760026 0 0.0121913 0.00794053 -0.000755018 0.00768197 0.212763 0.122318 0.20403 0.29014 0.176187 0.0530351 0.662218 0.0740741 -0.000960999 0.726154 -0.0095617 0.038368 0.0293569 0.397915 -0.0422754 0.182363 -0.00782919 0.00106664 0.049395 -0.0175831 -0.00146496 0.17599 -0.0192393 -0.0456402 0.559851 0.277207 0.115792 0.0047378 -0.0233717 0.0264409 -0.00562025 -0.0217142 0.240367 0.158659 0.290499 0.160595 0.0514157 0.096578 0.507764 0.0277355 0.0226953 0.00752115 -0.0262409 -0.0430113 0.0306549 0.382861 0.029805 0.0858116 -0.00453991 -0.0137267 -0.00182953 -0.0343546 0.00748874 0.217474 -0.0279282 -0.0236629 0.112444 -0.323873 -0.159846 -0.16402 -0.375697 -0.182936 -0.166571 -0.242984 -0.327134 -0.246244 -0.219118 -0.023219 -0.0711596 0.422977 -0.371666 -0.457954 -0.389537 -0.268808 -0.4447 -0.472106 -0.53586 -0.455412 -0.826079 -0.245857 -0.202166 -0.43521 -0.689615 -0.796815 -0.59611 -0.468505 -0.442194 0.114493 -0.109269 -0.0546494 -0.12403 -0.134657 -0.129492 0.00830519 0.0258435 0.00315512 -0.0172982 -0.0644744 -0.0449458 0.144321 -0.00424109 -0.137121 -0.0707896 -0.0443524 -0.0503032 -0.235169 -0.0684492 -0.125157 -0.129926 -0.0554498 -0.129379 -0.232753 -0.244749 -0.110646 0.040751 -0.000340591 -0.0222563 0.200107 0.00470986 -0.0091559 0.00728952 0 0.195392 0.0795467 0.230124 0.0976515 0.0772592 0.0744857 0.350325 0 -0.0151757 0.0350463 -0.000144611 0 0.019343 0.0811757 0.0550666 0.0405412 -0.00474163 0.00520287 0.00153933 0.00200619 0.0111989 0.0707399 0.00201853 -0.00420755 0.185795 -0.0378382 0.0318552 0.0109746 0.16075 0.0335881 0.214776 -0.00279403 0.0765968 -0.0275999 0.332284 0.032903 -0.0472883 -0.00703667 0.00209389 0.0699915 0.014947 0.22426 0.0184853 -0.00257237 0.00153181 0.00822797 0.00618441 -0.02998 -0.00724823 0.209827 -0.0175576 -0.0312006 0.303202 -0.0215338 -0.0190341 0.0958081 0.0429654 0.114787 0.564907 0.0645346 -0.167034 0.456424 0.0058028 0.0139069 0.0159047 -0.0440276 0.098377 -0.0674216 0.0655534 0.0132929 0.0655978 -0.0428475 -0.00801717 0.164897 -0.187539 -0.0835606 0.0214045 0.0243218 0.063592 0.654242 -0.0762777 0.0338246 0.0188974 0.0595048 0.0461868 0.139002 -0.0201833 0.347194 0.0283203 0.014723 0.00187716 -0.0285686 0.0631916 0.00792529 0.166291 0.000286853 0.096505 -0.0181436 -0.0378413 0.014819 -0.0261824 0.0146746 0.00860279 -0.00064231 0.0369342 0.263448 0.0645517 0.0190964 0.0865335 0.0312415 -0.0145549 0.103594 -0.0309452 0.042695 0.00687906 -0.00703076 -0.0260909 0.0934368 -0.0670824 0.181168 0.0608582 0.138084 -0.0255447 -0.0409718 -0.0175058 0.0364799 -0.0165199 -0.0244783 -0.00347472 0.0290753 0.269878 -0.0148045 -0.885777 -0.00804327 0.032489 0.0790992 -0.145732 -0.0967698 -0.451124 -0.226454 -0.240545 -0.246505 -0.048737 0.095917 0.00889202 -0.00528863 -0.230202 -0.049243 -0.0302652 -0.117813 0.0108143 -0.147568 -0.111567 -0.128621 0.0760076 0.0296151 -0.128559 0.0178274 -0.0187778 0.178496 0.0131818 -0.0523087 -0.0806066 -0.0576569 -0.00580405 -0.0820067 -0.0477155 -0.0551245 -0.0671857 -0.0550738 -0.092635 -0.081204 -0.0937626 -0.0886829 0.0445966 -0.0574957 -0.0465296 0.302651 -0.0149122 0.0137383 0.0254121 -0.166662 -0.163223 -0.521377 -0.211507 -0.303822 -0.290867 -0.0705293 0.0478531 -0.00347678 0 -0.289855 -0.0479253 -0.0381623 -0.130339 -0.00112735 -0.148924 -0.133421 -0.153674 0.0868993 0.215083 0.219068 0.769098 -0.206164 -0.090707 -0.237582 -0.290849 -0.160963 -0.0899721 -0.0820632 -0.143371 -0.281978 -0.298986 -0.056057 -0.169666 -0.535822 -0.781004 -0.203512 -0.165388 -0.152916 1.04335 -0.100661 -0.28383 -0.0385312 -0.111111 -0.15567 -0.112559 -0.00565399 -0.417381 0.0937639 -0.279459 -0.0329509 -0.103502 -0.136627 -0.226714 -0.299904 -0.158974 -0.155448 -0.0958014 -0.0660506 0.168983 1.19249 0.104943 -0.0704023 -0.027787 -0.00334062 0.337866 -0.120051 0.0270103 0.0835667 -0.152346 0.0174585 -0.143504 -0.655209 -0.394319 -0.192217 -0.147294 0.00191356 0.0727998 0.505434 -0.52015 -0.793739 -0.633019 -0.6324 -0.680258 -0.169687 -0.245289 -1.131 -0.836392 -0.596261 -0.287566 -0.764475 -1.55957 -0.786832 -0.677033 -0.668919 -0.640639 -0.0881494 -0.0657772 -0.0823153 -0.070207 0.367408 -0.0782568 0.289083 -0.0612599 -0.0211347 -0.0101983 -0.0592171 -0.0355899 -0.10653 -0.171313 -0.0933698 -0.274303 -0.0845951 0.578374 0.0357003 -0.0540245 0.0412923 -2.95598e-05 0.59897 -0.00575592 0.0141487 -0.0166798 0.0112713 0.0308249 -0.0262607 0.0132106 0.0589413 -0.025626 -0.0520267 0.340234 -0.0176862 0.050307 0.00936254 0.357053 -0.0216219 0.223418 -0.0194861 -0.00335939 0.0442705 -0.0210085 -0.000894462 0.222447 -0.00698985 -0.045349 0.515966 0.380585 0.0272507 0.275514 0.0762735 0.0161061 -0.81698 0 0.0334194 0.016363 -0.0112766 -0.00215867 -0.0285169 0.0531303 0.454361 -0.110818 0.417157 -0.151227 -0.0256925 -0.299733 -0.0332846 -0.132063 -0.284675 -0.187922 -0.0857769 -0.206943 -0.074478 0.680384 0.203567 0.0471418 0.178613 -0.0077808 -0.00480179 0.232225 -0.0396216 -0.0618094 0.0642214 -0.043381 -0.0324056 0.391461 -0.198995 -0.0995304 -0.257623 -0.0831042 -0.07594 -0.259897 -0.0552704 -0.0690444 -0.167555 -0.176002 0.664909 0.12203 -0.0427234 -4.44089e-16 -0.0278947 -0.109233 -0.131394 0.0508075 0.0348036 0.0869427 0.326945 -0.0116938 -0.112069 0.0414388 -0.0340078 -0.0113547 -0.173384 -0.0049289 -0.00290207 0.477093 -0.00124496 0.0108002 0.0286781 -0.0449314 -0.00377142 -0.104332 -0.00257621 0.455927 0.004456 -0.0172584 0.00143005 0.0313089 0.00237192 0 0.189108 -0.16051 -0.308394 0.0121303 -0.00099871 -0.0109518 0.871726 0.0022079 -0.0148483 0.00442617 0.0695115 0.856688 0.0797581 0.0301106 0.0150829 0.960513 -0.0664342 -0.0527617 0.163524 -0.914718 0.515428 0.508056
label 0 57 40 53 48 33 21 9 5 1 15 10 13 18 12 2 38 37 35 44 41 50 22 7 24 49 46 45 3 16 14 27 4 36 39 55 52 8 26 34 29 25 30 17 20 19 54 43 56 6 47 31 28 23 60 51 11 42 58 32 59
nr_sv 10 14 9 8 10 6 8 8 8 1 7 9 4 10 14 10 17 6 8 11 12 13 8 10 12 8 8 11 7 10 6 8 9 6 10 16 9 7 4 11 6 10 7 7 9 15 12 10 15 12 4 7 7 5 15 12 7 9 9 2 6
SV
6.436851919380551 0 0 0.9143713581421441 0 11.31070033960332 0 4.741536986091528 0.5605010185547316 11.89138726466813 2.773551098700466 0 0 5.035377422764488 19.61179117113231 3.309002844507874 8.091925269922497 0 0 2.259654052726283 5.914848261559515 0 0 3.414212921736697 0 0.7406409693354115 6.244935134605938 0 5.979059014396606 0 0 1.636683856574463 7.774552182468129 0 0 0 0 0 0 2.634293988306392 0 6.284794028119319 9.044865497129416 2.246182512501474 5.195117237694185 9.636033353161277 13.43236671524926 8.820446096612555 0 24.81732801225329 7.321504917944588 8.118886481923331 0 0 0 2.738166810972838 3.068939707474538 1.128241478581504 5.576920980072981 0.3808964577462166 1:-0.273424 2:0.624761 3:0.339635 4:0.825167 5:0.317556 6:-0.378106 7:0.250473 8:-0.331379 9:-0.230964 10:-0.125447 11:0.318674 12:-0.037837 13:-0.489585 14:-0.0026068 15:-0.00495691 16:0.056425 17:0.065563 18:-0.140121 19:0.119671 20:0.0489446 21:0.446816 22:0.340526 23:0.0591028 24:0.065642 25:0.0463293 26:-0.0536845 27:0.411323 28:0.400149 29:0.871079 30:0.107134 31:0.0807882 32:-0.0122555 33:0.326276 34:0.609851 35:0.39034 36:0.416177 37:0.605525 38:0.35379 39:0.0597713 40:-0.280631 
13.13314127942994 0 0 6.947405773034639 0 0 0 2.816599684193035 2.834765211065083 9.775657090129043 2.468392006615606 3.349597050309386 0 5.725212489819221 0 8.11950045246412 0.7726915775037609 0 3.839477346331685 7.553237615258603 2.556009223265728 5.340648244350822 0 5.646474694777838 0 3.745998829054657 0 0 4.333017529604714 0 0 1.631714869642711 3.284573677456546 2.519513056425503 2.750651180674354 0 0 0 0 0 13.85250471465361 4.425062020377879 0 2.360941793933761 0 1.214477310158004 3.228581201221414 0 0 0 10.53006579158748 2.723965053011088 0 0 17.24826379287508 1.342272832284897 7.853722980214221 4.657688166919222 0 0 1:-0.289393 2:0.626535 3:0.39974 4:0.858648 5:0.220195 6:-0.234654 7:0.260046 8:-0.26934 9:-0.348237 10:0.0678453 11:-0.0424069 12:0.150568 13:-0.179381 14:-0.333647 15:-0.120318 16:0.210853 17:-0.0720357 18:-0.0544574 19:0.0130872 20:0.162465 21:0.325915 22:0.263667 23:-0.0319714 24:0.0744479 25:0.10641 26:-0.312544 27:0.117839 28:0.744514 29:0.523759 30:-0.181441 31:0.29567 32:-0.249156 33:0.326899 34:0.140571 35:0.453498 36:0.644482 37:0.312462 38:0.308831 39:-0.149219 40:-0.0133085 
0 1.814996685886106 12.19554928698819 6.021129389418955 5.432094407275151 24.03355847310592 8.118684611281733 0 4.13576977034005 0 0 0 7.153691147696876 0 1.708723638869047 0 0 6.653198016644265 0 0 3.221640274980807 0.4562391068811916 6.431895614796913 6.638889837074898 5.345758737378615 5.118737052204136 4.18116084514478 2.076801479413604 1.660155814623666 1.807891640684975 5.295525835462865 0.9244079677422488 0 0 0 5.931517907578125 5.432850346532489 2.72405993581134 8.251002054509852 4.196594094421893 0 0 0 2.447314473079714 4.072665875808233 7.356395475333788 0.3500321138271133 0 5.879749533737425 6.238067603072556 0 5.946115243812823 6.530451731758785 4.501719376517456 0 0.1968359162754683 0.06922876194138319 0 0 4.866502344142771 1:0.0468752 2:0.0481661 3:0.49946 4:0.684921 5:0.384296 6:-0.348317 7:0.317991 8:-0.268224 9:-0.332034 10:0.085667 11:-0.196096 12:0.208705 13:-0.176053 14:-0.296045 15:-0.165107 16:0.262372 17:-0.0880285 18:-0.183865 19:0.0844253 20:-0.00776195 21:0.296988 22:0.263753 23:-0.145125 24:-0.0582969 25:0.105169 26:-0.353712 27:0.00319228 28:0.549052 29:0.499424 30:-0.410328 31:0.172574 32:-0.654459 33:0.456376 34:-0.159549 35:0.442915 36:0.494705 37:0.212179 38:-0.0824099 39:0.221044 40:0.113566 
0 1.215183104648335 2.358923102163383 0 0 0.8079069481318941 0 0 0 0 0 0 0 4.00626136663754 8.907041207596373 4.460317311457685 0.06131050391539195 0 1.400272655225679 0 0 0 5.06363596564864 0 0 0 0 1.331560806580348 0.7599195273570166 1.155007666287427 1.134212782959829 2.000184545254486 0 0 0 0 0.9477050217135249 0 0.7284107539970479 4.084620611689693 12.57537492370694 0 0 0 0 0 0.4153255742611729 0 0.4474992046933646 0 0 0 0 0 8.735149393394414 0.5863796010186298 0 0 0 1.57021603128667 1:-0.15007 2:-0.22325 3:0.431143 4:0.520197 5:0.0886823 6:-0.902319 7:-0.274216 8:-0.812672 9:-0.234879 10:-0.0200618 11:-0.851462 12:-0.285238 13:-1 14:-0.377984 15:-0.195229 16:0.0601317 17:-0.394327 18:-0.648011 19:0.113423 20:-0.0520836 21:0.0305014 22:0.27692 23:0.00827215 24:-0.577209 25:-0.144234 26:-0.35604 27:0.0362283 28:-0.0335614 29:-0.113615 30:-0.221951 31:-0.327678 32:-0.956929 33:0.286645 34:-0.484901 35:0.440442 36:0.00307954 37:0.134938 38:-0.393165 39:0.148761 40:0.309264 
0 0 0 1.055085262523339 0 2.139858627354028 0 0 0 0 1.705469598476386 1.188540542752166 0 0 0 0 0 0 0 0 5.547757203784374 0 0 3.812748398272917 0 0 0 0 0 0 0 0 0 7.176021274419053 0 0 0 0 0 0 3.889372972479215 0 0 0 0 0 2.131221017498814 0 0 2.118896844053276 0 0.4708805457891083 0 0 6.658038434288973 0 0 3.712078105206641 2.685658577096842 0 1:-0.0714536 2:0.114478 3:0.485565 4:0.784765 5:0.343174 6:-0.490544 7:0.219722 8:-0.186383 9:-0.3149 10:-0.0735887 11:0.0200197 12:0.325446 13:-0.555249 14:-0.40521 15:0.108888 16:0.220514 17:-0.203814 18:-0.0687312 19:0.171898 20:-0.16383 21:0.446133 22:0.213812 23:0.210042 24:-0.267338 25:0.195441 26:-0.0179707 27:0.0866923 28:0.413559 29:0.591311 30:0.310595 31:-0.00925649 32:-0.381297 33:0.577547 34:-0.00568342 35:0.690448 36:0.314696 37:0.538977 38:0.247195 39:0.113893 40:-0.382906 
0 0 0 0 0 0 0 3.653572119642028 0 0 3.366345467533277 1.94606512540738 0 1.62396367674141 7.653624060110572 0.3738107143038557 0 0 1.8949974094208 0 0 0 4.504287570500398 1.14942429210361 0 0 0 1.986986655818744 0 0 0 0 1.291145266125288 0 7.301780355910842 0 1.901089606321441 0 0 0 5.692025489637135 3.852871771162617 0 0 0 0 0 4.766715230081001 0 0 0 0 0 0 0 0 0 0 0 0 1:-0.452685 2:0.699773 3:0.441659 4:0.641247 5:0.2087 6:-0.494677 7:0.0806159 8:-0.27537 9:-0.290595 10:-0.0513431 11:-0.0210383 12:0.123611 13:-0.574221 14:-0.153906 15:-0.141468 16:0.107107 17:-0.0767426 18:-0.0649836 19:0.266144 20:-0.111368 21:0.258432 22:0.393888 23:0.233555 24:0.0111907 25:-0.2499 26:0.00567743 27:0.233033 28:0.263318 29:0.754248 30:-0.0379753 31:0.122173 32:-0.246746 33:0.408391 34:0.186587 35:0.278945 36:0.652928 37:0.195457 38:0.342341 39:0.0160184 40:-0.376371 
0 0 0 5.855868035554982 0 0 1.528329826978858 0 0 1.836021450183642 0 0 0 0 0 0 0 1.551217546349446 0 0 0 13.15917414891087 1.642883123370676 0 0 0 0 0 0.037144300303067 0 0 0 0.006568993452029182 1.421386508260627 2.467680831855359 0 0 0 0 0 8.050922278324673 2.882167994536322 1.67396824149462 0 0.1284151737303655 0 4.440856582031977 2.488176623350991 0 0 0 0 0 0.381349397098564 5.457985206981542 0 1.324256737591571 0.6179949311105147 0 0 1:-0.456367 2:0.236833 3:0.419573 4:0.42557 5:-0.0336784 6:-0.914835 7:-0.186053 8:-0.790034 9:-0.384419 10:0.00723042 11:-0.375877 12:-1 13:-0.703798 14:0.12191 15:-0.386504 16:-0.143727 17:0.0836386 18:-0.349895 19:-0.056285 20:0.108619 21:0.514414 22:0.400413 23:0.0620824 24:-0.267249 25:0.148886 26:-0.18234 27:0.41858 28:0.20037 29:0.514746 30:0.0282283 31:-0.0261341 32:0.088782 33:0.365035 34:-0.0583786 35:0.786402 36:0.307912 37:0.524227 38:-0.36216 39:0.890584 40:-0.501481 
0 0 0 0 0 0 0 2.301375568132804 0 0 0 0 0 0 0 0 0 0 0 0 0 0 0 0 1.918502455296872 0 0 0 0 0 0 0 0 0 0.02691362265472631 0 0 0 0 0 0 0 16.48679796332618 0 0 0 2.189135402772886 0 0 0 0 0 0 0 0 0 0 6.041452677411566 8.876296593587719 0 1:-0.296937 2:0.313147 3:0.511021 4:0.65217 5:0.205558 6:-0.500331 7:0.10667 8:-0.490839 9:-0.290328 10:0.0580844 11:-0.208567 12:0.20337 13:-0.70141 14:-0.0857051 15:0.00701823 16:-0.092006 17:0.184191 18:-0.19739 19:0.210827 20:-0.024604 21:0.525713 22:0.320281 23:0.216966 24:0.0731376 25:-0.0838335 26:0.094196 27:0.401399 28:0.554092 29:0.620435 30:0.0760323 31:0.715763 32:-0.217715 33:0.440387 34:0.149115 35:0.894174 36:0.684836 37:0.452858 38:0.137241 39:0.0512982 40:-0.00227595 
9.680492889692795 8.550894204680041 15.30425663005798 25.53632183180407 21.99765647619072 32 6.446764788306414 15.34749729339472 24.46896400004013 8.776918349081869 21.12353991684568 20.71571256390902 19.16298741804316 14.2278291182966 16.90507520143446 14.29292845588019 16.31140251762344 9.295419169696212 5.292348437356448 27.23776106006451 13.96709662716313 32 2.046643051318506 16.50003655219402 4.234489740887625 16.14727524189403 18.26057658586928 7.998718098870973 28.98372889649893 8.967874737616743 5.080065662192427 8.587624248581632 6.495441224946023 11.83189585826393 7.933586533894314 10.2230823243601 3.816064699636458 12.44522566847873 22.67680782471725 11.20318429710397 32 28.98525500099669 30.2697045930092 19.01084933221053 19.87262063722987 7.152911098536122 32 19.00654801372511 9.727463501159869 32 9.839618126186473 7.643409445140168 5.014216330917018 13.52891562824664 32 20.07565806327215 20.43257312200203 23.6313015498989 19.19180161676179 18.92084941732875 1:-0.0750072 2:0.0981708 3:0.50306 4:0.578952 5:0.261537 6:-0.473345 7:0.317947 8:-0.345701 9:-0.355973 10:-0.107036 11:-0.0270925 12:0.04237 13:-0.388167 14:-0.145371 15:-0.119776 16:-0.0413922 17:0.108117 18:-0.151227 19:0.161461 20:-0.0591136 21:0.49513 22:0.205997 23:0.199288 24:-0.0952045 25:0.106134 26:-0.0321475 27:0.225445 28:0.498296 29:0.349302 30:0.289909 31:-0.0990713 32:-0.146196 33:0.28668 34:0.353524 35:0.367922 36:0.475349 37:0.338438 38:0.325269 39:0.0695961 40:-0.200363 
0 0 0 0 0 0 0 0 0 0 0 0 0 0 0 0 0 0 0 0 7.880500195475064 0 0 0 0.9603158766681376 0 0 0 0 0 0 0 0 0 9.459362867279667 0 0.817241393580764 0 0 10.52396750308784 0 0 0 0 0 0 0 0 0 0 0 0 1.284560277219996 10.66412303541038 0 0 0 0 0 0 1:-0.14795 2:0.415983 3:0.369818 4:0.807412 5:0.348686 6:-0.34319 7:0.252471 8:-0.271144 9:-0.305822 10:-0.0203689 11:0.143798 12:0.0545341 13:-0.423777 14:-0.0806349 15:-0.0905956 16:0.192268 17:0.0103784 18:-0.132628 19:0.0876951 20:0.0387413 21:0.442104 22:0.181215 23:0.158564 24:0.0367455 25:0.0184961 26:0.0397899 27:0.245857 28:0.426206 29:0.826157 30:0.0408385 31:0.318185 32:-0.310785 33:0.544474 34:0.13578 35:0.714853 36:0.470197 37:0.41721 38:0.260553 39:0.167106 40:-0.155204 
-0 0 0 0.01331287371912682 0 0.4446763475511172 1.392416392923948 0 0 0 0 0 3.264860760158409 0 0 0 1.498409306823099 2.440045239548704 1.592641589811428 0 0 0 0 0 0 0 0 0 3.848825102150473 0 0 0 0 0 0 0 0 0 0 0 1.256752593021133 0 0 0 0 0 0 0 0 0 0 0 0 0 0 0 0 0 0 0 1:-0.0476307 2:0.718119 3:-0.890062 4:0.505436 5:-0.377394 6:-0.0475726 7:0.182943 8:-0.703963 9:-1 10:-0.0934458 11:-0.293333 12:-0.581462 13:-0.0153135 14:-0.154236 15:-0.580692 16:-0.716449 17:-0.979288 18:-0.499228 19:-0.440192 20:-0.442618 21:-0.180681 22:-0.047561 23:0.331192 24:0.621172 25:0.289414 26:-0.385844 27:-0.268597 28:0.407751 29:-0.0293277 30:-0.402954 31:-0.201866 32:-0.0921115 33:-0.292056 34:-0.179544 35:-0.147692 36:0.425685 37:0.428994 38:0.444631 39:0.151386 40:-0.518643 
-0 0 0 0 0 0 0 0 0 1.876269754170212 0 0 0 0 0 0 0 0 0 0 0 0 0 0 0 0 0 0 0 0 0 0 0 0 0 0 0 0 0 0 0 0 0 0 0 0 0 0 0 0 0 0 0 0 0 0 0 0 0 0 1:0.0435646 2:0.740605 3:-0.734127 4:0.601685 5:-0.209291 6:0.0835704 7:0.455146 8:-0.478109 9:-0.625321 10:0.15519 11:0.150217 12:-0.254289 13:0.260733 14:0.100883 15:-0.294736 16:-0.509156 17:-0.68766 18:-0.239179 19:-0.203957 20:-0.167897 21:-0.012926 22:0.109669 23:0.464407 24:0.802976 25:0.456884 26:-0.141391 27:-0.0702577 28:0.612288 29:0.16915 30:-0.191466 31:0.0750022 32:0.0152925 33:-0.0836313 34:0.0560394 35:0.1118 36:0.510987 37:0.478051 38:0.492653 39:0.107337 40:-0.531096 
-0 0 0 0 0 0 0 0 0 0 0 0 0 0 0 0 0 0 0 0 0 0 0 0 0 0 0 0 0 0 0 0 0 0 0 0 9.454558309030038 0 0 0 0 0 0 0 0 0 0 0 0 0 32 0 0 0 0 0 0 0 0 0 1:0.530597 2:0.718934 3:-0.483801 4:0.556116 5:-0.126585 6:-0.0270372 7:0.431015 8:-0.445943 9:-0.478695 10:0.122946 11:0.0987767 12:-0.0307996 13:0.164352 14:0.266474 15:-0.0302918 16:-0.294982 17:-0.470622 18:-0.330176 19:-0.208324 20:-0.352809 21:-0.197496 22:0.0263307 23:0.432112 24:0.878946 25:0.666403 26:0.085247 27:0.181133 28:0.725024 29:0.344994 30:0.0575826 31:0.0890913 32:0.100308 33:0.0549839 34:0.130739 35:0.123225 36:0.485497 37:0.328514 38:0.373899 39:-0.076994 40:-0.510125 
-14.44109492354182 0 0.2330926173980049 5.755373767854499 0 11.07147289756078 0 8.799742501275519 4.788920030111286 9.088142691113008 4.16184928014773 0 0 4.751772337784292 4.346940581460772 3.668770013043931 14.22013490058556 0 0 6.056395610325858 6.745087073366858 9.572942839349338 0 1.907189013561564 7.23777431770093 0.05315795934611898 13.50995942035145 0 16.39368424269754 0 0 0 0 8.889629445522219 4.839721085450488 0 4.234020064585229 0 0 6.431065436429225 0 4.80614622210072 17.75286443414955 3.661354354455249 12.55960062596693 5.992950792481958 10.48354881654027 9.332957987878389 0 22.98907878313022 32 5.84313253654561 8.849666392675324 14.60808428331588 0.3021919204284549 7.412484613115683 14.06657613192737 21.66105570043904 20.85734553609345 0 1:0.703821 2:0.563832 3:-0.3264 4:0.55837 5:-0.135868 6:-0.00992969 7:0.461462 8:-0.225478 9:-0.389207 10:0.169876 11:0.0993823 12:0.0351595 13:0.0633071 14:0.304915 15:0.0454402 16:-0.313582 17:-0.374111 18:-0.164698 19:-0.20789 20:-0.344614 21:-0.122435 22:0.075586 23:0.454275 24:0.940348 25:0.800863 26:0.257795 27:0.288789 28:0.771066 29:0.557974 30:0.280717 31:0.212038 32:0.21404 33:0.250235 34:0.601072 35:0.426981 36:0.54495 37:0.370047 38:0.381948 39:-0.00273202 40:-0.36554 
-0 0 0 0 0 0 0 0 0 0 0 0 0 0 0 0 0 0 0 0 0 0 0 0 0 0 0 0 0 0 0 0 0 0 0 0 0 0 0 0 0 0 0 0 0 0 0 0 0 0 27.09925391096779 0 0 0 0 0 0 0 0 0 1:0.36554 2:0.83357 3:-0.643316 4:0.575207 5:-0.23705 6:-0.076022 7:0.366737 8:-0.610025 9:-0.692171 10:0.0818816 11:-0.0176908 12:-0.294924 13:0.193213 14:0.105199 15:-0.18311 16:-0.435066 17:-0.61842 18:-0.348279 19:-0.315684 20:-0.39084 21:-0.201579 22:-0.0244388 23:0.468454 24:0.857474 25:0.645342 26:0.0378603 27:0.125518 28:0.79694 29:0.350683 30:-0.0824638 31:0.155328 32:0.169571 33:0.0629458 34:0.182505 35:0.212951 36:0.534666 37:0.457793 38:0.488393 39:0.0669914 40:-0.5469 
-0 0 20.33015906524279 0 32 0 0 0 0 0 0 0 0 0 0 0 5.085268893805479 0.9274337116456818 0 0 0 0 0 0 0 0 0 0 15.372543749515 0 2.1152815948885 0 0 0 0 0 0 0 3.612813441649084 0 0 0 0 0 0 0 0 0 16.34426772870047 0 32 0 0 0 0 16.68790505177965 0 0 0 25.76251728880227 1:0.666097 2:0.623436 3:-0.33398 4:0.603883 5:-0.0909942 6:0.0216208 7:0.522405 8:-0.19484 9:-0.377314 10:0.262042 11:0.155821 12:0.0911817 13:0.1244 14:0.328318 15:0.0600182 16:-0.290907 17:-0.39235 18:-0.19193 19:-0.238417 20:-0.37417 21:-0.190667 22:0.0268595 23:0.392887 24:0.873674 25:0.716228 26:0.108799 27:0.154194 28:0.636987 29:0.299657 30:0.00990242 31:-0.0610086 32:0.0161177 33:-0.0139401 34:0.35784 35:0.180376 36:0.428188 37:0.2923 38:0.302525 39:-0.0361287 40:-0.388748 
-0 0 0.008922253590202364 0 1.133268515650405 0 0 0 0 0 0 0 0 0 0 0 0 0 3.067228085417249 0 0 0 0 0 0 0 0 0 0 0 0 0 0 0 0 0 0 0 0 0 0 0 0 0 0 0 0 0 0 0 17.51744467201044 0 0 0 0 0 0 0 0 1.64432007589504 1:-0.064216 2:0.770841 3:-0.908462 4:0.548604 5:-0.383388 6:-0.039688 7:0.219054 8:-0.735107 9:-0.991987 10:-0.0954535 11:-0.276771 12:-0.592374 13:0.00648674 14:-0.171646 15:-0.584184 16:-0.713847 17:-1 18:-0.497605 19:-0.461861 20:-0.448002 21:-0.19823 22:-0.0558658 23:0.294187 24:0.615535 25:0.251418 26:-0.399549 27:-0.308772 28:0.394752 29:-0.0441177 30:-0.462062 31:-0.182178 32:-0.160325 33:-0.289394 34:-0.277083 35:-0.146918 36:0.39336 37:0.412321 38:0.446209 39:0.119453 40:-0.492395 
-14.80939116496147 0 0 0 0 7.623091075596911 16.66305967418376 0 18.42426775232582 11.92520869259107 12.28214328950957 23.76508313600571 32 14.58673774879992 0 15.6362620131172 4.647029603585957 10.17485194773974 6.179494258391737 17.29679570003293 0 0 0 0 6.172419835083666 4.526976497064775 1.073714901528178 0 25.81416777066555 0 4.136311049096778 0 0 7.323663339220067 4.806374076083478 0 0 0 0 13.39108718359145 5.47475504846482 19.53979176959492 0.4288610901689239 0 3.263227158101417 0.1960390170228826 2.920578183878879 17.70013866000543 0 7.994335153652102 0 0.8780365502740126 7.712943517836927 6.041789412383567 7.796586874912767 2.92625767997286 3.740260663482402 0.9469626962346074 0.6400107429924193 0 1:0.14607 2:0.684177 3:-0.573056 4:0.632487 5:-0.0544823 6:0.185533 7:0.621821 8:-0.299374 9:-0.393034 10:0.259289 11:0.220109 12:0.0240161 13:0.230834 14:0.194997 15:-0.20315 16:-0.461333 17:-0.589891 18:-0.265168 19:-0.133475 20:-0.172304 21:-0.0100436 22:0.0901501 23:0.449762 24:0.775036 25:0.419608 26:-0.243211 27:-0.070027 28:0.475451 29:0.0772 30:-0.202759 31:-0.0903629 32:-0.11237 33:-0.143784 34:-0.01055 35:0.0383493 36:0.418273 37:0.375184 38:0.544043 39:-0.00287727 40:-0.456121 
-0 0 0 0 0 0 0 0 0 0 0 0 0 0 0 0 0 0 0 0 0 0 0 0 0 0 13.75912687380318 0 1.871104285923037 0 0 0 0 0 0 0 0 0 0 0 0 0 0 0 12.62409934793105 0 0 0 0 0 1.007097685252881 0 0 0 0 0 26.45384830626594 0 0 0 1:-0.0281762 2:0.783337 3:-0.83297 4:0.60983 5:-0.285456 6:0.0843871 7:0.367608 8:-0.577533 9:-0.8309 10:0.0677049 11:-0.0886166 12:-0.386576 13:0.173637 14:0.0389246 15:-0.381815 16:-0.549692 17:-0.800808 18:-0.312275 19:-0.293613 20:-0.280353 21:-0.0481172 22:0.0277977 23:0.405851 24:0.663861 25:0.335068 26:-0.338619 27:-0.190261 28:0.489435 29:0.120122 30:-0.253295 31:-0.0201151 32:0.00608099 33:-0.239411 34:-0.169543 35:-0.125152 36:0.393864 37:0.368747 38:0.465475 39:0.0850439 40:-0.516623 
-0 0 0 0 0 0 0 0 0 2.367827060953781 0 0 0 0 0 0 0 0 0 0 0 0 0 0 2.335985258399607 0 0 0 0 0 0 0 0 0 9.584973693337281 0 0 0 0 0 0 0 0 0 0 0 0 0 0 0 0 0 0 0 0 0 0 0 0 0 1:0.0739825 2:0.695407 3:-0.697431 4:0.589808 5:-0.176711 6:0.0762531 7:0.486557 8:-0.467122 9:-0.595579 10:0.178115 11:0.11339 12:-0.123344 13:0.228352 14:0.1548 15:-0.230692 16:-0.484617 17:-0.628055 18:-0.235915 19:-0.155862 20:-0.102772 21:0.00611026 22:0.180026 23:0.536159 24:0.879043 25:0.530309 26:-0.070631 27:0.0238184 28:0.679992 29:0.296908 30:-0.0495658 31:0.218304 32:0.0890107 33:0.0311093 34:0.150935 35:0.243723 36:0.590934 37:0.507722 38:0.570624 39:0.0893259 40:-0.425074 
-0 0 0 0 0 0 0 0 0 0 0 0 0 0 0 0 0 0 0 0 0 0 0 0 0 0 0 0 0 0 0 0 0 0 0 0 0 0 0 0 0 0 0 0 0 0 0 0 0 0 31.84209844374327 0 0 0 0 0 0 0 0 0 1:0.462531 2:0.672104 3:-0.507762 4:0.52119 5:-0.147942 6:-0.0339344 7:0.439244 8:-0.435597 9:-0.479719 10:0.128505 11:0.166286 12:-0.0435741 13:0.168728 14:0.238084 15:-0.0740461 16:-0.356688 17:-0.501697 18:-0.296677 19:-0.173047 20:-0.288998 21:-0.0584428 22:0.118794 23:0.573537 24:1 25:0.785976 26:0.247644 27:0.328575 28:0.860178 29:0.468096 30:0.111375 31:0.178743 32:0.143871 33:0.184562 34:0.431401 35:0.439104 36:0.608985 37:0.482323 38:0.562231 39:-0.00760669 40:-0.40366 
-0 13.14886636368518 0 21.04047975144776 0.5397295911880948 7.855500816962375 7.411179249583489 16.12884971677761 0.658204601830171 0 9.783769621452501 0 8.989970405219868 0 25.79339684114686 0 0 13.30196476382112 0 0 13.68715358365842 19.01820286586943 8.311222839392359 18.5013275618097 0 11.83308742199639 0 0 0 14.53516420756473 0 7.806941645415598 13.3571157414833 0 0 16.37628399162435 0 16.49586256803951 32 0 23.22602754135114 15.53106427498233 0 15.58369427769312 0 8.879389426210361 6.053445636723821 0 0 0 32 7.85157978273423 0 14.68617038317998 22.35551894747636 0 0 0 0 0 1:0.666965 2:0.61998 3:-0.325762 4:0.594968 5:-0.0853701 6:0.0253158 7:0.519282 8:-0.183912 9:-0.377494 10:0.268562 11:0.164563 12:0.0940346 13:0.117037 14:0.315921 15:0.0600776 16:-0.2966 17:-0.381845 18:-0.205755 19:-0.228298 20:-0.377686 21:-0.199881 22:0.0206139 23:0.401362 24:0.861598 25:0.718351 26:0.102548 27:0.156155 28:0.631062 29:0.272635 30:0.0222951 31:-0.0624619 32:0.00929842 33:-0.029169 34:0.350876 35:0.191721 36:0.414264 37:0.307977 38:0.306528 39:-0.0505764 40:-0.396648 
-0 2.217028862327961 0 0 0 0 0 0 0 0 0 0 0 0 0.9099678300026047 0 0 0 6.522469346101275 0 0 0 8.331531786415987 0 0 0 0 14.4873851921903 0 1.364757042229705 2.095118857092362 2.191833305054332 8.496903763675608 0 0 0 0 0 0 0 0 0 0 0 0 0 0 0 0 0 18.53410528802562 0 0 0 0 0 0 0 0 0 1:0.135082 2:0.731666 3:-0.584158 4:0.685649 5:-0.060141 6:0.213978 7:0.635225 8:-0.296464 9:-0.373768 10:0.270788 11:0.235249 12:0.0275072 13:0.231983 14:0.23374 15:-0.200672 16:-0.471924 17:-0.596098 18:-0.273668 19:-0.148577 20:-0.179173 21:-0.0448828 22:0.0818333 23:0.420917 24:0.764839 25:0.386799 26:-0.271249 27:-0.107352 28:0.458108 29:0.0359417 30:-0.2247 31:-0.128211 32:-0.146214 33:-0.193069 34:-0.0300886 35:-0.00987111 36:0.395846 37:0.364328 38:0.513831 39:-0.0110052 40:-0.465061 
-0 0 0 0 0 0 0 0 0 0 0 0 0 0 0 0 0 0 0 0 0 0 0 0 0 0 0 0 0 0 0 0 0 0 0 0 0 0 0 0 0 0 0 0 0 0 0 0 0 0 0 0 0 0 0 0 0.7655959982331251 0 0 0 1:0.0446292 2:0.726036 3:-0.729982 4:0.59754 5:-0.214152 6:0.0694246 7:0.470894 8:-0.525821 9:-0.646426 10:0.182517 11:0.0757545 12:-0.186763 13:0.241539 14:0.164595 15:-0.268516 16:-0.463565 17:-0.633992 18:-0.228775 19:-0.168403 20:-0.120595 21:0.0159685 22:0.158302 23:0.52255 24:0.878227 25:0.517596 26:-0.0754749 27:0.0058898 28:0.708247 29:0.227797 30:0.0234744 31:0.142269 32:0.213007 33:-0.0712859 34:0.200373 35:0.159424 36:0.58966 37:0.496954 38:0.562468 39:0.0951066 40:-0.468928 
-0 -0 0 0 0 0 0 0 0 0 0 0 0 0 0 0 0 0 0 0 0 0 0 0 0 0 0 0 0 8.896333991846612 0 0 0 0 0 0 0 0 0 0 0 0 0 0 0 0 0 0 0.3869115138511962 0 0 0 0 0 0 0 0 0 0 0 1:-0.0347555 2:-0.472704 3:0.126232 4:0.00459882 5:-0.881661 6:0.741427 7:0.599566 8:0.709164 9:0.720139 10:-0.269203 11:-0.274975 12:-0.100156 13:-0.518941 14:0.348917 15:0.00290673 16:-0.181906 17:-0.316086 18:-0.78962 19:-0.204174 20:-0.233749 21:0.468634 22:0.605986 23:0.622668 24:0.701409 25:0.393939 26:-0.250232 27:-0.719966 28:-0.846109 29:-0.818494 30:-0.285927 31:0.401455 32:0.436813 33:-0.459186 34:-0.87531 35:-0.581409 36:0.271608 37:0.31119 38:0.234997 39:-0.0768559 40:-0.398452 
-3.242032148399449 -2.356205795398588 0 1.326523705725848 0 2.920648521971531 0 0 6.307560157355731 8.972824633859934 7.628865850515695 8.952587721046003 7.177393463319112 6.047214289575761 0.7677867090922482 5.177418177130955 2.083601057686527 0 8.506778517749879 6.246108643933332 0.4035839422710402 1.486773148525838 4.179355107765245 0.4461832371811315 2.554352769499437 3.281170816361263 0.2350118091563275 0 1.738608176685297 32 0 0 7.688692264142052 2.950781403158257 3.317834559502297 2.790665594905938 0 2.532562510441861 1.508037011214366 0.6717530422034331 3.437918210270688 10.17986321490942 0.09083308561886769 2.635682592726503 0 0.192286415581349 0.4459008684434567 9.263050193609248 0 2.320241741394684 1.884026875140754 0.7016034997968309 3.120339714210751 2.262990210749192 4.228972669978658 1.732941848222245 0 0 0 0 1:-0.116983 2:-0.449624 3:0.0560068 4:-0.0657088 5:-1 6:0.721718 7:0.43072 8:0.746208 9:0.57497 10:-0.431062 11:-0.358342 12:-0.128537 13:-0.676902 14:0.268271 15:-0.0694119 16:-0.301043 17:-0.320811 18:-0.815699 19:-0.233113 20:-0.263655 21:0.537997 22:0.632202 23:0.675622 24:0.745507 25:0.414401 26:-0.154163 27:-0.67993 28:-0.825372 29:-0.883064 30:-0.224436 31:0.44994 32:0.515713 33:-0.555906 34:-0.798729 35:-0.436914 36:0.396573 37:0.297655 38:0.320019 39:-0.000578583 40:-0.291262 
-0 -0 0 0 0 0 0 0 2.300379551383656 6.258011599895765 3.977622487329072 5.467341179683048 0 0 0 0 0 0 2.601440189340323 2.395537784482433 0 0 0 0 0 0 0 0 0 32 0 3.259371385040589 5.549350900171084 6.744685918500125 0 0 0 0 0 0 0 0 0 0 0 0 0 8.603824391679288 0 0 0 0 0 0 0 0 0 0 0 0 1:0.905552 2:-0.428603 3:0.279244 4:0.486803 5:-0.509601 6:0.400727 7:0.620277 8:0.311035 9:0.588761 10:-0.0674338 11:-0.26271 12:0.231895 13:-0.221836 14:0.912177 15:0.466561 16:-0.0244263 17:-0.312339 18:-0.651971 19:-0.40184 20:-0.834514 21:-0.125815 22:0.000883758 23:0.305845 24:0.404915 25:0.518041 26:0.157431 27:-0.148487 28:-0.110206 29:0.273092 30:0.569436 31:0.777578 32:0.454043 33:-0.201971 34:-0.751944 35:-0.701654 36:0.101918 37:0.309169 38:0.204701 39:0.0801679 40:-0.452636 
-0 -0 0 0 0 0 0 0 0 0 0 0.8020575396894698 0.3561426744774593 0 0 0 0 0 2.647669248708871 0 0 0 1.349311030609051 0 0 0.1711274486624789 0 3.128541547796411 0 15.6282214476524 4.111120341724252 0 0 0 0 0 0 0 0 0 0 0 0 0 0 0 0 0 0 0 0 0 0 0 0 0 0 0 0 0 1:0.0463671 2:-0.532624 3:0.151758 4:0.0967841 5:-0.824413 6:0.693654 7:0.723826 8:0.737922 9:0.734709 10:-0.214712 11:-0.17916 12:-0.0324292 13:-0.484022 14:0.401367 15:0.079791 16:-0.164105 17:-0.33555 18:-0.707817 19:-0.172938 20:-0.273075 21:0.439228 22:0.582585 23:0.658809 24:0.633839 25:0.367003 26:-0.259042 27:-0.672651 28:-0.885254 29:-0.688428 30:-0.316834 31:0.392738 32:0.414084 33:-0.289077 34:-1 35:-0.629579 36:0.287795 37:0.324152 38:0.122729 39:-0.0631939 40:-0.277472 
-8.339041846815034 -13.00968943061456 19.00334735966344 8.201059768726738 16.46931972803736 8.455524796000248 9.082159362769913 15.43407711146329 7.171670950264675 0 3.124813138956992 0 8.803041920534719 5.902535316622927 14.53553180729346 5.596428250914619 10.6079322270076 10.46496634777983 0 7.408029358697359 11.55475975251368 8.000256130174531 8.330512307375063 12.50044222274646 7.538081352075773 7.467535301338815 10.0398098340481 7.543438225945614 21.76962314451265 32 4.052934638730433 5.231372696232147 0 0 4.587716490549642 8.469878723095711 10.55136408952825 8.632910952400286 11.40695416524257 6.219481821307762 11.52914816272367 11.27864689595619 9.017858136975327 9.14116071282398 9.919131169892418 8.417375340321993 10.22517823851201 0 16.29599229992166 8.126382865668752 13.36207599806366 7.843114427754339 7.410807010607282 9.393720154532568 10.49219354486446 12.55506921775913 19.55498939665324 12.72659526049094 11.82852699121314 15.39502278062749 1:0.909955 2:-0.441577 3:0.266464 4:0.476677 5:-0.501279 6:0.380371 7:0.592315 8:0.337017 9:0.582605 10:-0.102528 11:-0.301119 12:0.241141 13:-0.234889 14:0.931139 15:0.434913 16:-0.0322831 17:-0.314706 18:-0.634195 19:-0.430619 20:-0.800887 21:-0.171295 22:-0.00172996 23:0.322266 24:0.416395 25:0.489208 26:0.174006 27:-0.127038 28:-0.125697 29:0.282704 30:0.551685 31:0.781725 32:0.434954 33:-0.170243 34:-0.776836 35:-0.63484 36:0.104529 37:0.280047 38:0.162442 39:0.126628 40:-0.431034 
-0 -0 0 0 0 0 4.480845060393193 0 1.86151086357381 0 0 0 2.520983368532923 1.548531250790689 0 2.887679705152696 0 2.801925606677125 0 1.933104248989095 0 0 0 0 0 0 1.494591692740455 2.517319051067879 0 32 0 1.31763377611877 0 0 2.263388523469563 0 0 0 2.742356851689757 0 2.141315562479041 0 0 0 1.62622382615744 0.3993776873030241 0.06118439212037841 0.7701111618198881 1.591137700625234 0 0 0.006670225275596388 0.05173012105486099 4.552604616110902 1.434479827498619 0 0 0 0 0 1:0.383674 2:-0.747204 3:0.130096 4:0.350182 5:-0.556254 6:0.71197 7:0.991063 8:0.84146 9:1 10:0.118499 11:-0.266836 12:0.126347 13:-0.411851 14:0.526003 15:0.15442 16:-0.186316 17:-0.294995 18:-0.588093 19:-0.226736 20:-0.314412 21:0.434291 22:0.485546 23:0.731464 24:0.594619 25:0.428674 26:-0.210227 27:-0.611899 28:-0.874471 29:-0.551838 30:-0.0816099 31:0.422713 32:0.436937 33:-0.161813 34:-0.627853 35:-0.41802 36:0.268 37:0.316152 38:0.232664 39:0.0427017 40:-0.580612 
-0 -0 0 0 0 0 0 0 0 0 0 0 0 0 0 0 0 0 0 0 0 0 0 0 0 0 0 0 0 32 0 0 0 0 0 0 0 0 0 0 0 0 0 0 0 0 0 0 0 0 0 0 0 0 0 0 0 0 0 0 1:0.145325 2:-0.644285 3:0.166705 4:0.152001 5:-0.728167 6:0.669165 7:0.801419 8:0.727356 9:0.838934 10:-0.123811 11:-0.288328 12:0.0130428 13:-0.45631 14:0.452728 15:0.0640763 16:-0.157413 17:-0.334575 18:-0.67352 19:-0.211967 20:-0.276195 21:0.475678 22:0.58504 23:0.670618 24:0.652293 25:0.404197 26:-0.229457 27:-0.621107 28:-0.883109 29:-0.630129 30:-0.171425 31:0.504129 32:0.434773 33:-0.252928 34:-0.791451 35:-0.512952 36:0.260403 37:0.354448 38:0.229316 39:0.0129126 40:-0.413488 
-0 -0 0 0 0 0 0 0 0 0 0 0.6005789498349812 0 0 0 0.09715624140422056 0 0 0.7423298811379211 0 0 0 0 0 0 0 0 0 0 0.8649436883973317 0.7372300908453232 0 0 0 0 0 0 0 0 5.211457976630249 0 0 0 0 0 0 0 0 0 0 0 0 0 0 0 0 0 0 0 0 1:0.170036 2:-0.652709 3:0.16298 4:0.207481 5:-0.723766 6:0.700933 7:0.83549 8:0.778322 9:0.807258 10:-0.0227394 11:-0.272429 12:-0.00229175 13:-0.520728 14:0.572432 15:0.0453345 16:-0.21773 17:-0.335722 18:-0.614572 19:-0.264348 20:-0.286592 21:0.473708 22:0.54694 23:0.687815 24:0.676157 25:0.370079 26:-0.269314 27:-0.62713 28:-0.896208 29:-0.652114 30:-0.186321 31:0.384284 32:0.415824 33:-0.254644 34:-0.804913 35:-0.500734 36:0.279609 37:0.342147 38:0.207992 39:0.0562395 40:-0.346274 
-0 -0 0 0 0 0 0 0 0 0 0 0 0 0 0 0 0 0 0 0 0 0 0 0 0 0 0 0 0 1.002971256843798 0 0 0 0 0 0 0 0 0 0 0 0 0 0 0 0 0 0 0 0 0 0 0 0 0 0 1.775215227449546 0 0 0 1:0.0381876 2:-0.521379 3:0.118475 4:0.124291 5:-0.838761 6:0.720614 7:0.682816 8:0.731729 9:0.750355 10:-0.181247 11:-0.298708 12:-0.0314134 13:-0.475357 14:0.378244 15:0.0709124 16:-0.181555 17:-0.356462 18:-0.70493 19:-0.164985 20:-0.315203 21:0.459369 22:0.581577 23:0.6854 24:0.638807 25:0.358942 26:-0.289174 27:-0.648016 28:-0.867641 29:-0.767576 30:-0.330073 31:0.451938 32:0.47392 33:-0.415179 34:-0.952452 35:-0.509413 36:0.25628 37:0.250601 38:0.19966 39:7.72781e-05 40:-0.419525 
-0 -0 -0 0 1.027102583278321 0 0 0 0 6.376363975673051 3.307478931157558 0.9478075487599562 1.422960274304657 0 2.155582710390838 0 3.452830412168022 0 0 0 0 4.470977624804687 0 0 0 0 0 0 0 0 32 0 0 0 0 0 0 2.080427366494944 0 0 0 12.30357047140763 0 0 0 0 0 5.898888840208617 0 0 0 0 0 1.374383317042372 0 3.396817159292172 0 0 0 3.82065381296797 1:-0.0378945 2:-0.205055 3:-0.00377923 4:-0.340153 5:-0.661926 6:0.313602 7:0.393756 8:0.896864 9:0.238445 10:-0.796763 11:-0.600051 12:-0.568949 13:-0.174819 14:0.602317 15:-0.131263 16:-0.1449 17:-0.128475 18:0.109492 19:0.502495 20:0.637023 21:0.920307 22:0.215711 23:-0.319066 24:-0.753807 25:-0.993521 26:-0.584178 27:0.271909 28:0.733803 29:0.298506 30:-0.790591 31:-0.969836 32:0.210122 33:0.608017 34:0.0403291 35:-0.986463 36:-0.334228 37:0.140456 38:-0.0725083 39:-0.0456725 40:0.140973 
-0 -0 -4.392290753957843 0 0 0 0 4.425982452851384 0 0 0 0 0 0 0 0 0 0 1.736728629897584 1.135359201655805 0 0 0 0 0 4.14719651698667 0 11.89412808347489 0 0 32 0 0 0 0 4.708624534328015 0 6.465055453431037 0 0 0 1.177560975699613 0 0 0 0 0 0 16.25578792808054 0 0 0 0 0 0 0 0 4.893915690614325 4.564597878815307 0 1:0.208183 2:-0.360779 3:0.029776 4:-0.109004 5:-0.420826 6:0.389992 7:0.660879 8:0.944503 9:0.488552 10:-0.550273 11:-0.636736 12:-0.230734 13:-0.0941771 14:0.640264 15:0.0542913 16:-0.0340609 17:-0.171211 18:0.17748 19:0.455077 20:0.662405 21:0.862954 22:0.226373 23:-0.465619 24:-0.692511 25:-0.858245 26:-0.546152 27:0.213916 28:0.712247 29:0.397806 30:-0.769505 31:-0.832231 32:0.0461289 33:0.477991 34:0.00177556 35:-0.83139 36:-0.0908638 37:-0.112776 38:0.0280762 39:0.237805 40:0.12021 
-0 -0 -0 0 0 2.808683887158324 0 0 1.241779687928142 0 0 3.10497308933343 0 0.09870012431969682 0 0 0 0 0 1.365108506835841 3.052896888203317 0 0 0 0.02032895994545232 13.99176183611054 0 0 0 0 32 0 0 2.268906093203335 2.33882082800614 7.560144199997558 0 3.43304717663718 0 0 0 0 8.02380306931175 16.59130827103958 0 0 4.779533635519642 0 0 7.542742925769823 0 0 0 0 0 0 0 0 0 0 1:0.0698066 2:-0.357716 3:0.0219801 4:-0.377668 5:-0.548668 6:0.26933 7:0.511789 8:0.796578 9:0.287616 10:-0.669306 11:-0.672373 12:-0.503668 13:-0.136186 14:0.532726 15:-0.082912 16:-0.0391375 17:-0.160656 18:0.00298129 19:0.578269 20:0.705652 21:0.862635 22:0.213324 23:-0.335628 24:-0.729545 25:-0.937066 26:-0.492488 27:0.260403 28:0.720873 29:0.327521 30:-0.635356 31:-0.873636 32:0.194711 33:0.508233 34:0.105043 35:-0.888953 36:-0.155657 37:0.0340716 38:-0.103223 39:0.0915275 40:0.235719 
-19.70659327039393 -16.28419642868051 -14.6110566057056 15.40354153791463 29.71451766387938 16.22841494422092 15.17113504897932 20.15991659132829 12.78282225363498 10.0141868177129 11.66126095439521 9.358080967249878 25.76212857063498 8.863630751508991 26.92526496720859 9.217290105793777 20.32750229918575 16.67637209719862 4.94329994566306 12.6476897193184 18.5893412107958 14.72595965848714 10.85848425781914 20.43079763623675 9.82657096345665 13.86104164690279 16.66933196628735 7.843227117406352 32 15.25491829412654 8.418865893438793 7.197623512326447 8.402235327693997 8.871245183381733 7.728185111978383 11.30357978104078 14.16808618715225 11.05164734378126 20.59320072627492 9.388241962367243 25.3601787876226 20.67826073464776 16.23174194620195 15.18882014512144 16.70549366714186 11.81737038532159 18.57897986777272 12.48977952202193 22.22178805509405 14.36464429086252 16.40425243324691 11.08936940925562 9.936723682620128 15.83500250136389 18.56159604179247 21.93318564619119 20.22906315227279 18.25815245609355 17.41504828821853 26.30512332910217 1:-0.0986451 2:-0.619665 3:0.342998 4:0.676372 5:0.305359 6:-0.1088 7:0.282119 8:-0.301682 9:0.0624656 10:-0.19611 11:0.0917603 12:0.314805 13:0.147264 14:0.679246 15:0.180597 16:-0.181725 17:-0.329315 18:-0.645786 19:-0.393062 20:-0.843924 21:-0.430877 22:-0.276246 23:-0.0471781 24:0.148835 25:0.480432 26:0.513579 27:0.678885 28:0.884337 29:0.90658 30:0.501816 31:0.159549 32:-0.288259 33:0.150976 34:-0.245333 35:-0.120909 36:0.346546 37:-0.0133858 38:-0.0906913 39:0.18899 40:0.158291 
-0 -1.518715529727255 -0 0.5161528264144941 0.08908415170893377 0 0 2.961956228322098 0 0 1.460695811984235 0 0 0 0 0 0 0 0 0 0 0.2284212857671102 0 0 0 0 0 0 0 0 32 0 3.782703951012557 0 0 0 0 0 7.15513654955361 0 0 0 0 0 0 2.212774778268827 0.5945667446623819 0.3041800879996898 0 0 1.590632380799416 2.257021596252732 0 0 0 0.4305690521906704 0 0 0 0 1:-0.029254 2:-0.194638 3:-0.00105098 4:-0.235007 5:-0.687166 6:0.361363 7:0.478919 8:0.918218 9:0.259689 10:-0.669148 11:-0.660837 12:-0.483042 13:-0.025692 14:0.48885 15:-0.0637598 16:-0.0673567 17:-0.149536 18:0.15275 19:0.583512 20:0.616157 21:0.95384 22:0.283251 23:-0.357277 24:-0.731999 25:-0.993955 26:-0.668352 27:0.303648 28:0.762957 29:0.284955 30:-0.838756 31:-1 32:0.313843 33:0.622737 34:-0.0997021 35:-0.981601 36:-0.263574 37:0.0743524 38:-0.193158 39:-0.0089964 40:0.140844 
-10.15213574881562 -0 -0 6.931370386587544 0 5.104371332809806 0 0 1.266497218105173 0 0 0 2.817138660256667 1.856657204187685 0 2.570428933975842 0 0.7133356226970247 2.953022633579904 0 0.4216141291732858 2.811364741706637 5.608887632703492 3.551502351578832 0 0 0 0.9640499694128524 0.5678272572725171 0 32 0 0 0 0.4595442321461797 0.1706157700571078 2.854630872989794 0 0 0.2572581868452779 2.170769366838055 0 0 0 0 0 0 0 0 0 0 0.4946507577073364 0 3.412200863072619 2.299400883691808 0 1.810097627266195 0 0 0 1:-0.0194153 2:-0.247904 3:-0.0238028 4:-0.313868 5:-0.676774 6:0.274597 7:0.456104 8:0.844127 9:0.161952 10:-0.704411 11:-0.694723 12:-0.522106 13:-0.169109 14:0.47514 15:-0.115408 16:-0.0722169 17:-0.227643 18:0.0806016 19:0.600203 20:0.475978 21:0.935443 22:0.277041 23:-0.372127 24:-0.891628 25:-0.894239 26:-0.719619 27:0.241348 28:0.705503 29:0.234493 30:-1 31:-0.773801 32:0.121254 33:0.480509 34:-0.160728 35:-0.795867 36:-0.320438 37:-0.00742002 38:-0.301593 39:0.12222 40:0.207752 
-0 -2.76926197782323 -0 0 7.933411238491166 0.4049632983338939 5.002859602142321 0 7.464641389517574 0 0 1.738649938697141 4.006304743910689 4.24112540903487 5.358976027144251 3.884528042195381 0 4.399582578921667 0 6.911479743000955 4.34413077888845 0 0 5.543299690450212 2.160894526672219 0 12.28461651120639 0 9.829752885922945 0.9417884382407996 32 7.499776979568266 0 1.645222766645609 1.795955176287097 0 0 0 0 0 0 0 0.3780720580577776 1.949261588057693 11.97466055513755 5.584408893053501 8.046919752045259 0 32 0 2.613901342148298 4.369488890127418 2.580363639266746 0 6.015940337788218 0 8.040099465371396 0 0 3.918465401172806 1:0.337078 2:-0.417856 3:-0.00595751 4:0.0845785 5:-0.345081 6:0.468687 7:0.822263 8:0.979313 9:0.498721 10:-0.390528 11:-0.607476 12:-0.291145 13:-0.109186 14:0.594261 15:0.163057 16:-0.0528143 17:-0.0779451 18:0.0218532 19:0.502474 20:0.690644 21:0.880717 22:0.13123 23:-0.4601 24:-0.642441 25:-0.783247 26:-0.452418 27:0.111594 28:0.754488 29:0.530256 30:-0.561558 31:-0.922574 32:0.165765 33:0.442503 34:0.185034 35:-0.763983 36:-0.04956 37:-0.145143 38:0.0709455 39:0.215015 40:0.387805 
-0 -0 -0 0 0 0 0 0 0 0 0 0 0 0 0 0 0 0 0 0 0 0 0 0 0 0 0 0 0 3.310409001313368 32 0 0 0 0 0 0 0 0 5.321496366335883 5.528268898771819 0 0 0 0 0 0 0 0 0 0 0 0 0 0 0 0 0 0 0 1:0.33313 2:-0.451722 3:0.0229276 4:0.0288384 5:-0.343284 6:0.379228 7:0.776128 8:0.976022 9:0.484609 10:-0.425346 11:-0.67425 12:-0.211393 13:-0.0836196 14:0.623726 15:0.129561 16:-0.0532435 17:-0.132076 18:0.0406565 19:0.485128 20:0.638497 21:0.821175 22:0.147469 23:-0.402562 24:-0.681499 25:-0.817254 26:-0.434222 27:0.190584 28:0.677671 29:0.477854 30:-0.70447 31:-0.804035 32:-0.0432586 33:0.487973 34:0.133896 35:-0.7917 36:-0.0885171 37:-0.00217717 38:0.0131248 39:0.276244 40:0.314676 
-0 -0 -0 -0 0 0 0 0 0 0 0 0 0 0 0 0 0 0 0 0 0 22.09499440061474 0 0 0 0 0 0 0 0 1.928770985462362 0 0 0 0 0 0 0 0 0 0 0 0 0 0 0 0 0 0 0 0 0 0 0 0 0 0 0 0 0 1:0.351983 2:0.351244 3:0.539709 4:0.441552 5:-0.0233209 6:-0.530699 7:-0.00658731 8:-0.153115 9:-0.391221 10:0.296039 11:0.408652 12:0.126034 13:-0.0299159 14:0.0882485 15:0.051051 16:-0.3419 17:-0.171572 18:0.0848723 19:0.052377 20:0.0227273 21:0.0525383 22:-0.00815287 23:-0.0765144 24:-0.276083 25:0.317797 26:0.279665 27:0.666202 28:0.967503 29:0.377994 30:-0.528606 31:-0.657299 32:0.0344105 33:0.1629 34:0.531726 35:0.237107 36:0.550404 37:0.561138 38:0.0794938 39:-0.38459 40:-0.876589 
-12.10689323434499 -14.30749066003471 -5.788674869494042 -11.19682184248913 0.6860403281802192 18.52066972825389 0 6.009358379747622 6.296575966446781 2.185968521308287 0.4151121608466047 2.172392203182378 0 0 6.203618853012919 0 4.561140767996645 0.5754182928198576 0 8.243405256218518 2.458959365561905 32 0 1.216566464811558 0 6.599086445209926 11.6002025038313 0 7.301392278274074 6.063006343103207 0 0 0 3.144832848713177 4.698899436003738 1.880202949415325 0 2.768583397868727 7.896640742469232 4.934383626275425 4.231226425362719 18.45523180946021 8.893831418465064 10.29381526641962 11.08866680517811 0 0.7324844763428556 4.735016812305665 1.180828909834266 12.97503079447761 12.44678982357455 0 0 2.867206851419703 0.8012645980181421 5.681332557834251 13.01811063333541 15.88392108037573 15.90162955496418 2.530369184005489 1:0.573678 2:0.196344 3:0.494963 4:0.422781 5:0.0166813 6:-0.542201 7:0.0520134 8:-0.225973 9:-0.349236 10:0.205922 11:0.292164 12:0.0812044 13:-0.126448 14:0.0961723 15:-0.0574263 16:-0.302191 17:-0.184124 18:-0.024586 19:-0.0159654 20:0.0716657 21:0.0454497 22:-0.0710301 23:-0.0792437 24:-0.168733 25:0.380878 26:0.40724 27:0.646385 28:0.905105 29:0.629077 30:-0.531292 31:-0.431481 32:0.109874 33:0.305347 34:0.32496 35:0.532342 36:0.689637 37:0.586518 38:-0.0220978 39:-0.154835 40:-0.71582 
-0 -0 -0 -0 0 0 0 21.63995521385024 0 0 0 0 0 0 0 0 0 0 0 0 0 0 0 0 0 0 0 0 0 0 0 0 0 0 0 0 0 0 0 0 0 0 0 0 0 0 0 0 0 0 0 0 0 0 0 0 0 0 0 0 1:0.33818 2:0.26375 3:0.556933 4:0.424623 5:-0.0178355 6:-0.54854 7:-0.0650711 8:-0.204077 9:-0.355129 10:0.320109 11:0.296498 12:0.239948 13:-0.0603609 14:-0.065643 15:0.0679395 16:-0.24793 17:-0.210694 18:0.0844096 19:0.0514899 20:0.00879188 21:0.0735863 22:-0.0432123 23:-0.104241 24:-0.278781 25:0.328561 26:0.298285 27:0.670697 28:0.858441 29:0.251998 30:-0.531345 31:-0.604266 32:0.0533669 33:0.22138 34:0.159816 35:0.483176 36:0.491042 37:0.389078 38:0.0440065 39:-0.28292 40:-0.871509 
-6.792442743945572 -3.038971444769868 -0 -0 13.4491186513989 0 13.128378024865 0 3.064236300746114 0 0 0 22.34509470562605 0 0 0 0 8.475632047424876 2.624761345119814 0.298023584193297 0 0 0.0962598392808571 0 8.925634609386167 0 1.131956310141635 0 0 0 0 0 0 0 0 19.57947637744028 0 15.61522128258731 0 0.9682563162085888 0 0 0 0 1.314753163039186 0 0 0 3.148650185400435 0 4.844769761574313 0 9.425162945164097 0 3.34253682516114 0 0 0 0 5.239577524325536 1:0.473138 2:0.242026 3:0.513105 4:0.399583 5:0.0368805 6:-0.486043 7:0.0536907 8:-0.176398 9:-0.407581 10:0.328145 11:0.321337 12:0.113152 13:-0.0394908 14:0.116773 15:0.00209971 16:-0.347349 17:-0.174375 18:0.0327734 19:-0.00301233 20:0.00547499 21:0.0765456 22:-0.118319 23:-0.0573661 24:-0.306989 25:0.423422 26:0.277431 27:0.551466 28:0.85568 29:0.468147 30:-0.518788 31:-0.530839 32:-0.118952 33:0.250274 34:0.183087 35:0.671409 36:0.6618 37:0.433346 38:-0.0483549 39:-0.206396 40:-0.659457 
-11.38897334861696 -0 -0 -0 0 13.19346673420002 0 2.006411021278878 0 10.8276104661879 1.521606610812592 2.464247675094876 0 8.289956289133485 7.759664405005149 5.705759041654285 17.43295035061262 0 0 0 21.08686897343433 32 1.451258925699396 13.61130911736655 0 8.432741511623622 1.574624074438265 0 0 0 2.683965930604781 0 4.277567701722208 5.380206352629486 6.685159624459173 0 1.418065819358238 0 4.560120449497244 0 13.22340929709236 0 19.65207545161535 5.302790276912853 1.742159743891379 32 23.03896513610963 7.1009948539429 0 19.51680078778812 0 32 0 5.602884535887813 9.474359181828149 9.43451833693736 0 16.32803212914498 11.90373011917146 0 1:-0.163986 2:0.383565 3:0.760465 4:0.10997 5:-0.166891 6:-0.622353 7:-0.355347 8:-0.196463 9:-0.448911 10:0.328325 11:0.292193 12:0.0492237 13:-0.148052 14:-0.448995 15:-0.0769542 16:-0.169855 17:-0.163549 18:0.276841 19:0.0555925 20:0.167848 21:0.290964 22:-0.184214 23:-0.123098 24:-0.240045 25:0.241409 26:0.263467 27:0.599996 28:0.718626 29:0.263148 30:-0.497183 31:-0.313526 32:0.387288 33:0.469151 34:0.558913 35:0.431127 36:0.241466 37:0.0674789 38:-0.11602 39:-0.138118 40:-0.331138 
-0 -0 -0 -0 0 16.055167781536 0 0 0 0 8.933117624427066 11.70205487526509 0 11.17214003159573 3.323602230010641 14.16247027266343 0 0 3.259255159196395 2.796418492824493 5.895095347856179 32 0 6.083945692060348 0 0 0 0 0 0 0 0 0 10.03035206062442 3.170223056371084 0 0 0 0 4.762645268672459 28.60399911890829 0 0 0 0 9.984321158689797 0 0 0 5.868127984344149 0 12.53331796619329 0 10.4663934082181 27.68535717225718 2.856625549062639 0 0 0 0 1:0.107145 2:0.365539 3:0.703729 4:0.343393 5:-0.0335539 6:-0.517711 7:-0.0976727 8:-0.162865 9:-0.423954 10:0.429188 11:0.500519 12:0.269116 13:-0.231674 14:-0.306559 15:0.034547 16:-0.230257 17:-0.255332 18:0.0797799 19:0.0902212 20:-0.015433 21:0.0259857 22:-0.0979813 23:-0.162828 24:-0.411221 25:0.294273 26:0.211926 27:0.593457 28:0.684468 29:0.0939501 30:-0.49864 31:-0.510094 32:0.131389 33:0.437756 34:0.250308 35:0.388314 36:0.427616 37:0.313037 38:0.00837329 39:-0.270353 40:-0.360683 
-0 -0 -0 -0 0 0 0 0 0 0 0 0 0.2341395183248611 0 0 0 0 0 0 0 0 20.05777698412066 0 0 0 8.620720143993346 0 0 0 0 0.7945244424957779 0 0 0 0 1.242409955530523 0 3.198136185569144 0 0 0 0 0 10.59066555565702 0 0 0 0 1.618643888603237 8.755961633378792 0 0 0 0 0 0 0 0 0 0 1:0.548825 2:0.26907 3:0.46765 4:0.476884 5:-0.0028001 6:-0.49072 7:0.0579761 8:-0.195644 9:-0.395361 10:0.193378 11:0.322379 12:0.13719 13:-0.0626762 14:0.0198969 15:-0.0516066 16:-0.324369 17:-0.171768 18:-0.087604 19:0.0798309 20:-0.00172131 21:0.0274958 22:-0.0280418 23:-0.0775306 24:-0.254293 25:0.420819 26:0.301636 27:0.676422 28:1 29:0.557709 30:-0.50009 31:-0.671546 32:0.24987 33:0.209384 34:0.338332 35:0.463946 36:0.839005 37:0.501081 38:0.00260992 39:-0.246392 40:-0.708971 
-16.04187232357059 -0 -3.738908604958544 -11.65424290842754 0 0 2.470022411501647 0 1.135749286235845 0 0 0 0 0 0 0 0 3.979314275490517 0.01698117305644975 0 4.159380799720583 32 11.00061992220735 9.406802211468761 0 11.18042638904424 0 0 0 3.539404684219273 1.159331189856232 3.24695497313351 0 0 0 2.285114073332325 10.21880929006731 0 5.890865473103068 4.192209181540709 0 0 12.04215019388066 8.510439356164984 0 0 7.650872499884627 0 0.772371168651961 0 0 0 0 5.04419089901962 4.105544546507503 3.263065357858086 1.654770675739258 0 0 4.231151225878429 1:0.103218 2:0.176675 3:0.609409 4:0.295001 5:-0.100521 6:-0.64648 7:-0.251096 8:-0.30378 9:-0.411664 10:0.425705 11:0.301858 12:0.239192 13:-0.188173 14:-0.19195 15:0.0473909 16:-0.0745141 17:-0.180815 18:0.156055 19:0.311332 20:0.0117087 21:0.0195264 22:0.0930689 23:-0.0342717 24:-0.466605 25:0.38075 26:0.345598 27:0.692535 28:0.53497 29:0.0827526 30:-0.44982 31:-0.353705 32:-0.0635643 33:0.508289 34:-0.0119509 35:0.306513 36:0.36936 37:0.203416 38:-0.279574 39:-0.0949869 40:-0.421126 
-0 -0 -0 -0 10.28557773029977 0 0 1.740577428199866 9.995807983525504 9.544560412004735 19.75593154183885 2.914052364784494 2.195157926573467 0 14.85444161827574 0 1.110801134511522 1.928948560690354 2.363012017120727 8.130610543716099 13.97142555475575 32 0 18.03869766320493 0 0 5.361189378927917 15.30304323872696 3.109531004348169 0 3.40790047531893 10.335222973288 15.69076575921513 0 0 0 0 1.561052876685189 20.29848767235439 0 0 22.89276988894577 0 2.834805003815135 5.968736985161669 7.613957572607485 0 7.996496823775363 7.699868611067386 0 0 6.812748111579038 0 2.954087839544617 0 3.395155279009584 0 0 0 12.661112992434 1:-0.0275015 2:0.376717 3:0.658376 4:0.28747 5:-0.131778 6:-0.586689 7:-0.221082 8:-0.200562 9:-0.416002 10:0.411032 11:0.485029 12:-0.00303941 13:-0.0884884 14:-0.20324 15:-0.0944929 16:-0.126733 17:-0.102996 18:0.145387 19:0.159459 20:0.146733 21:0.0797153 22:-0.0780127 23:-0.100396 24:-0.372395 25:0.281649 26:0.361922 27:0.558641 28:0.493002 29:0.235465 30:-0.363798 31:-0.684202 32:0.221521 33:0.35819 34:0.261145 35:0.228131 36:0.231997 37:0.0316862 38:0.0897686 39:-0.323171 40:-0.593679 
-0 -9.462704288216806 -0 -0 1.668844153088014 0 0 2.136113314928857 0 0 0 0 0 0 0 0 0 3.071283856745296 0 0 0 28.79156526864517 0 0 0 0 0 0 17.51993390799913 0 0 0 0 0 0 0 0 0 0 0 0 0 0 0 0 0 17.35558797489881 0 0 0 9.850759260450017 0 0 0 0 0 6.228735949113948 0 0 0 1:0.444261 2:0.275578 3:0.500692 4:0.450924 5:-0.0148617 6:-0.522792 7:0.083934 8:-0.230437 9:-0.377118 10:0.332677 11:0.347015 12:0.0181212 13:-0.0404832 14:0.0830202 15:0.0163861 16:-0.29008 17:-0.203261 18:0.0318597 19:0.0347894 20:0.0309082 21:-0.00828776 22:-0.0335433 23:-0.0239142 24:-0.275411 25:0.36939 26:0.388788 27:0.627257 28:0.812091 29:0.508238 30:-0.468001 31:-0.588894 32:0.131053 33:0.269694 34:0.279252 35:0.511939 36:0.630571 37:0.501672 38:0.178314 39:-0.315776 40:-0.853235 
-4.244313919250172 -0 -0 -17.6876623434084 -7.590520774420995 3.290309164967022 1.740904848851268 0 0 0 0 0 9.032418086089454 0 1.662231885635664 0 0 5.161284990539399 0 0 0.4177461869486718 6.431747104396789 0 9.52048348504138 0.4937790241458022 7.313352663788558 0 5.345130369664115 0 0 4.770424555585891 0 0 0 0 5.404675080463241 12.56222714126713 1.565905849356224 31.78835761450419 0 1.917212487164132 0 0 0 0 0 0 0 3.638000627047884 0 0 1.01215055204818 0 0 0 0 0 0 0 24.94891167881298 1:0.877334 2:-0.237403 3:0.253077 4:0.8442 5:0.225973 6:-0.148824 7:0.402558 8:-0.150942 9:-0.292379 10:0.0278298 11:-0.373401 12:0.049788 13:0.140483 14:0.503069 15:0.458453 16:0.310034 17:0.0384974 18:-0.315025 19:-0.416247 20:-0.506131 21:-0.327676 22:-0.360342 23:-0.295584 24:-0.115479 25:0.378105 26:0.352632 27:0.105397 28:0.505687 29:0.42689 30:-0.108386 31:-0.329269 32:-0.0473862 33:0.428598 34:0.175184 35:-0.273336 36:-0.193751 37:-0.667825 38:-0.299246 39:-0.390355 40:-0.614393 
-12.60595222024698 -3.093707989060595 -4.571727487950924 -15.3753915759446 -0 2.938999926461281 0 3.143129097717563 4.454218809574322 14.05648260970934 13.50023348016451 6.183175549327235 11.13276781816439 8.276629270241134 14.10265315569684 8.004377837621188 25.19229101233339 0 5.477424248230168 5.469816534403233 3.224551077791651 3.664642896702356 7.669285253718378 4.99715596222778 7.192299030873501 2.612219271975207 3.407534713049112 0 17.72564373418264 4.909899313876675 0 0 9.611153022967425 4.244592482484053 4.39235590892342 1.156978951844159 4.29404850589308 0.1632638323032563 27.77466983924358 4.917499014875946 14.66809044445556 11.9602542477658 9.244112821391282 3.463960882771585 3.191227358103599 0 8.077252980611181 14.81307355784975 9.403465929081632 4.611676681926661 2.559634568250709 0 7.254420459740686 16.61962858756476 13.42949068116873 28.29243801035679 1.754691348883549 8.501468816652974 7.989103635406379 32 1:-0.473733 2:0.137105 3:0.313632 4:0.60769 5:0.307583 6:-0.24281 7:0.578644 8:-0.267578 9:-0.097539 10:-0.197253 11:-0.378752 12:0.13374 13:0.17928 14:0.298454 15:-0.0468967 16:-0.312824 17:-0.583259 18:-0.960675 19:-0.804824 20:-0.836591 21:0.129579 22:0.213387 23:0.365813 24:0.489485 25:1 26:0.741714 27:0.330553 28:0.202735 29:0.0164335 30:-0.124928 31:-0.522222 32:-0.195215 33:0.255903 34:0.687803 35:-0.0460856 36:0.16641 37:-0.220398 38:0.473074 39:0.0195444 40:-0.301849 
-0 -11.60168543459944 -0 -0 -0 0 0 12.53290706014267 0 0 0 0 0 0 20.0127090251707 0 0 19.21118503766618 0 0 7.240094928411541 1.916092564059633 0 2.51809891482387 0 0 0 6.689377316213086 17.42661358562923 0 0 7.602225911507617 0 0 0 6.457562693053653 0 8.181644623387353 3.755097935026003 0 0 3.048545872919565 0 8.190898211921704 0 0 2.482774841806403 0 15.37362620187933 0 11.27219577395928 0 0 0 0 0 0 0 0 19.21861034402065 1:0.850183 2:-0.176256 3:0.215135 4:0.914748 5:0.205544 6:-0.123186 7:0.365263 8:-0.162433 9:-0.264449 10:0.0253967 11:-0.280173 12:0.00897486 13:0.116543 14:0.578575 15:0.508723 16:0.263498 17:0.101937 18:-0.333261 19:-0.353136 20:-0.511842 21:-0.313338 22:-0.32883 23:-0.264204 24:-0.0530491 25:0.321871 26:0.43737 27:0.157805 28:0.533224 29:0.358891 30:0.014584 31:-0.353102 32:0.12999 33:0.274353 34:0.339829 35:-0.321138 36:-0.0841873 37:-0.725529 38:-0.232925 39:-0.421447 40:-0.695397 
-0 -0 -11.89759224008643 -0 -0 0 0 0 3.245401774836912 0 0 0 0 0 0.6548370519015057 0 0 0 0 2.44775700512212 0 0 0 0 2.009601257997757 0 7.3515591185419 0 0 11.70160790903406 0 0 0 0 0 0 0 1.303533121603441 0 0 0 0 3.491627180865555 1.923908431938087 6.225059299507324 2.497833905700733 5.616943759562062 0 0 2.492850680974537 0 0 3.108425192339845 0 0 0 13.99550090560875 4.409607277361935 4.09854264447896 0 1:0.864478 2:-0.169413 3:0.225846 4:0.935215 5:0.217093 6:-0.0908224 7:0.391128 8:-0.140097 9:-0.259744 10:0.0369418 11:-0.331276 12:0.0287046 13:0.15844 14:0.566024 15:0.4469 16:0.26056 17:0.0940203 18:-0.360215 19:-0.406709 20:-0.507289 21:-0.29327 22:-0.351616 23:-0.303234 24:-0.11722 25:0.325656 26:0.408665 27:0.125127 28:0.454363 29:0.437837 30:0.0371891 31:-0.347275 32:0.123428 33:0.337915 34:0.314015 35:-0.317032 36:-0.0764632 37:-0.665813 38:-0.216119 39:-0.344813 40:-0.637261 
-8.005109485037257 -0.9994251923312255 -0 -5.701061718004806 -6.23524522800811 4.126613736655212 6.245478268888422 10.64595690329712 3.845088721213819 4.611421383535237 7.666194761017629 4.122277287866817 2.981721506388979 4.744685654818721 32 4.949230356614299 11.00610741817125 13.73606081071665 1.933890756869761 4.36681662713662 13.73579398677409 6.450149332072232 5.050411574443589 13.44429677501091 0.5466530580854015 5.29468910379345 8.397673014984033 6.360599444785811 4.111248676548068 0 3.406732348904217 30.69528111253977 6.651196447923714 3.981423502740867 3.1243845578308 1.099624297815295 6.616637704070982 1.700007511670631 18.06648647911922 2.836940675342583 10.29585042553762 6.775916996952785 13.7969870012101 3.534826181698733 8.226447942512076 13.95716071868837 17.77939546550161 4.429625072403207 8.643248921847102 4.240174456678681 1.029836475701795 14.18916385343324 0.4342692420471763 8.457452857439723 13.64415931876302 12.10632936248332 6.184760528333639 8.675228203264027 8.157440860398047 32 1:0.0676943 2:-0.536946 3:0.201375 4:0.894499 5:0.145773 6:-0.259541 7:0.311965 8:-0.0140543 9:-0.129795 10:0.332031 11:0.275419 12:0.496329 13:0.201449 14:0.673051 15:0.936549 16:0.728249 17:0.52728 18:0.170838 19:0.00388791 20:-0.474561 21:-0.630987 22:-0.843542 23:-0.715524 24:-0.49186 25:-0.0654603 26:-0.247672 27:-0.304244 28:0.191758 29:0.203212 30:-0.0555237 31:-0.087665 32:0.495751 33:0.706791 34:0.837165 35:-0.0269685 36:-0.0163722 37:-0.565792 38:-0.0697983 39:-0.0992848 40:-0.441089 
-2.574375258931454 -17.97817949084725 -0 -0 -12.26381486053779 10.2224121159701 16.4415407263582 5.734703915936912 5.163516545129181 0.5055477003505223 5.746171870118168 2.902367407394499 16.61602750812871 1.869983581392632 0 1.902559713670104 0 0.3566420014079774 1.354088345638131 4.193279942592599 3.473821520868911 8.744258630462548 1.606333526014384 0.4334766348131544 0 3.73616634862158 4.819792800456793 2.31232378214303 19.82686334544469 0 2.635343951406452 0 7.438380059898758 3.230999542979658 3.957276662489454 3.297834709918722 0 4.373671730010321 0 5.59312381386127 18.0327560551492 9.677058945516817 0 3.016604122787328 5.529811537655866 5.562142714792061 1.965833815506226 3.444627733920777 0 8.341679818709979 18.1214780855735 5.868312582746363 0 16.37146342466264 8.591501493637278 0 6.173728816763352 0 0 0 1:-0.197753 2:0.146112 3:0.0828676 4:0.947258 5:0.211594 6:0.00975697 7:0.654578 8:0.0147113 9:-0.212726 10:0.222636 11:-0.237995 12:-0.0326686 13:0.081342 14:0.425991 15:-0.101179 16:-0.203591 17:-0.543246 18:-0.965732 19:-0.741627 20:-0.695681 21:0.0805034 22:0.248529 23:0.249904 24:0.534399 25:0.760177 26:0.695954 27:0.418913 28:0.393098 29:0.156149 30:-0.493154 31:-0.663185 32:-0.343662 33:0.276921 34:0.51959 35:0.170516 36:0.0237411 37:-0.20057 38:0.35677 39:0.257974 40:-0.729712 
-9.704366779102498 -0 -0 -3.581681721810384 -0.513473311624741 -0 0 0 0 0 0 0 0 0 1.01931864824236 0 0 0 0 0 0 0 0 0 0 0 0 0 0 0 2.521224333044453 0 0 0 0 0 0.4681059397920329 0 0 0 0.1632810486753065 0 0 0 0 0 0 0 0 6.157058564090982 0 0 0 0.3030454345324898 0 0 0 0 0 0.7029444752315862 1:-0.0598042 2:0.209767 3:0.797375 4:0.367228 5:-0.227489 6:-0.438392 7:-0.467552 8:-0.275997 9:-0.579 10:-0.0940441 11:0.155585 12:-0.00642257 13:-0.225026 14:-0.83383 15:-0.748674 16:-0.00290551 17:-0.430383 18:-0.321206 19:-0.0360115 20:-0.238202 21:0.319293 22:0.297723 23:-0.0420011 24:-0.0739446 25:0.0932653 26:-0.211961 27:0.379224 28:0.694977 29:0.429889 30:-0.482836 31:-0.62543 32:-0.508339 33:0.270939 34:0.308635 35:-0.0933971 36:0.338359 37:0.511665 38:0.0582782 39:0.502326 40:0.436507 
-0 -0 -0 -0 -0 -0 0 0 0 0 0 0 0 0 0 0 3.390316634700409 0 0 0 0 0 0 0 0 2.897466207869033 0 0 0 0 0 0 0 0 0 0 0 0 0 0 0 0 4.517882185833105 0.3713292900072979 0 0 0 0 0 32 0 0.2763667842505383 0 0 0 4.642413295412331 0 4.753207054703936 0 0 1:0.199999 2:0.250268 3:0.654415 4:0.489506 5:-0.128074 6:-0.248406 7:-0.238674 8:-0.214177 9:-0.487681 10:-0.0593412 11:0.578865 12:0.15338 13:-0.316727 14:-0.498056 15:-0.518138 16:-0.038166 17:-0.184855 18:-0.237263 19:0.00106902 20:0.0513683 21:0.352585 22:0.211961 23:0.218193 24:0.074734 25:0.17318 26:0.111012 27:0.504351 28:0.608343 29:0.64441 30:-0.134099 31:-0.409642 32:-0.0675112 33:0.146145 34:0.163572 35:0.278533 36:0.511684 37:0.40612 38:0.323684 39:0.657037 40:0.156986 
-0 -0 -0 -0 -0 -0.1060259672345335 0 0 0 0.3933684571594234 0.3115232899342112 8.908997585402236 1.817218510705682 15.89752728316176 11.90913872247948 17.43051170041823 10.32508311620774 0 2.272829517262851 0 0 0 10.06695840610561 2.731399394180287 0 6.557740647489926 0 1.241755616598367 0 0 0.5081503826360118 3.825819869072637 0.7322475676300755 0.8661692657411011 0 0.4979759301046298 1.137954423834989 1.184859803070167 0.527388832783093 0 22.88589164294118 18.8185624676127 0 7.145072632901249 0.1773204832373438 0 0 14.37776277504103 3.721150163120697 0 0 0 0 7.143804832429098 18.05808783032924 15.83340922496509 0 0 0 3.652275640709803 1:0.00669516 2:0.316806 3:0.697611 4:0.450515 5:-0.154295 6:-0.222177 7:-0.354737 8:-0.0950496 9:-0.440745 10:0.084629 11:0.483846 12:0.152505 13:-0.217549 14:-0.449381 15:-0.621381 16:-0.0769896 17:-0.0708227 18:-0.145142 19:-0.0238973 20:0.00585944 21:0.419595 22:0.230078 23:0.304518 24:-0.0418422 25:0.0439906 26:0.197437 27:0.497525 28:0.395693 29:0.28897 30:-0.207813 31:-0.64501 32:-0.103083 33:-0.279124 34:0.208875 35:0.092606 36:0.410926 37:0.211998 38:0.31936 39:0.568254 40:0.322998 
-32 -22.15878720248813 -0 -0 -25.21733262325363 -13.09888797667467 0 15.13816370960884 0 3.554048145132038 14.0202263249303 7.546081376119986 0 15.43876985540961 32 14.91728564023153 7.192256811858861 0 0 0 17.91454935515061 16.20830347603798 0 13.6878221123439 6.07467748787108 3.681332387945834 19.42979842832625 0 18.36989452531724 0 0 1.875510567541893 0.4497021537801683 17.29317725133696 29.0920106878772 0 5.53005713435211 0 23.57460536005302 6.505719957132961 32 3.301097288030443 11.63310441584126 9.397480194637662 19.19128799786037 18.69988812984839 18.67450521420886 12.07679810418347 0.155711128190545 32 21.17343450424899 17.52537111380037 3.564508050561172 18.38835894096883 32 7.148018867218052 10.17225089986585 14.08281863504963 17.69642644434963 8.284196660693642 1:0.522054 2:0.14325 3:0.450052 4:0.48582 5:0.126878 6:-0.166297 7:0.0405937 8:-0.0996513 9:-0.361453 10:0.181126 11:0.396867 12:0.168718 13:-0.367611 14:-0.509181 15:-0.248117 16:0.0339046 17:-0.272376 18:-0.235039 19:0.00820848 20:-0.0594871 21:0.42903 22:0.216818 23:0.146579 24:0.0663863 25:0.224648 26:0.10523 27:0.440006 28:0.5815 29:0.601224 30:-0.0186694 31:-0.349965 32:-0.117946 33:0.11606 34:0.262317 35:0.446798 36:0.323108 37:0.565955 38:0.41295 39:0.539238 40:0.110712 
-28.58765760909266 -4.835953935183044 -11.37617331797178 -20.96475174071257 -2.004918756887671 -5.411995421628029 17.26616226958665 0 27.22786596119929 1.160461700370693 0 13.60000842664986 26.37937108675635 0 0 0 0 17.57558834721489 10.86258222024862 32 6.134907299452705 3.384808098145318 10.9544875973927 9.353388123626708 5.613557684339558 10.16418779448928 3.107378984144877 7.424758193433866 11.18111605892644 11.79750614938326 7.52321040417214 4.202109541962304 0 0 0.2038521808802905 16.77381582580006 2.594538300998401 15.16672860000328 0 31.84267546591192 4.152166317431046 25.89756830534321 0 8.473037471737017 3.770961947644007 0 0 0 10.22009510755805 0.8049928481465414 5.723676959704188 0 8.850311551521074 0 9.293742963321444 0 12.32839144906422 0 0 6.156664962994173 1:0.604428 2:0.0768709 3:0.430341 4:0.474883 5:0.149075 6:-0.222649 7:0.018444 8:-0.0932779 9:-0.385448 10:0.151084 11:0.51586 12:0.0933905 13:-0.365039 14:-0.412451 15:-0.249921 16:-0.0631406 17:-0.169998 18:-0.296267 19:0.0284432 20:-0.0352248 21:0.41184 22:0.205619 23:0.186346 24:0.062649 25:0.142132 26:0.106213 27:0.407041 28:0.458955 29:0.507621 30:-0.0669899 31:-0.426071 32:-0.350947 33:-0.0108081 34:-0.031308 35:0.217917 36:0.469075 37:0.470474 38:0.320078 39:0.459473 40:0.138857 
-0 -0 -0 -0 -0.8150338103046775 -1.96142557851639 0 5.234488381066702 4.772134038800709 32 30.57549381018756 8.343213859576347 0.590411568791696 0 0 0 0 0 0 11.74470510994703 9.159016346467284 14.58256477626527 0 6.989958702076759 0 0 0 3.108799277743507 0 0 0 0.9851798257022477 16.78553341303518 15.0909930064567 0 0 0 0 7.102472671249783 0 0 7.064505322608528 0 0 0 5.747815604136726 0 8.859779546457643 0 17.78299420208015 0 6.254531830487064 0 2.367307560475725 0 0 0 0 0 0 1:0.1291 2:0.37043 3:0.582929 4:0.616232 5:-0.102832 6:-0.164327 7:-0.233466 8:-0.0166754 9:-0.460443 10:0.0346839 11:0.766454 12:0.146461 13:-0.23556 14:-0.538687 15:-0.402528 16:-0.0195995 17:-0.118493 18:-0.220207 19:0.0965877 20:-0.0894357 21:0.43269 22:0.192959 23:0.217375 24:0.0178489 25:0.178096 26:0.104467 27:0.397746 28:0.571973 29:0.432908 30:-0.100716 31:-0.763327 32:0.0240066 33:-0.0868649 34:0.190391 35:0.0710737 36:0.535487 37:0.320738 38:0.391367 39:0.49645 40:0.0785667 
-0 -0 -0 -0 -0 -0 0 0 0 0 0 0 0 5.529708424443045 0 3.008291958725161 2.40229827149762 0 0 0 0 0 0 0 0 0 0 0 0 0 0 0 0 1.118009047980987 2.728674388461421 0 0 0 0 0 0 0 7.410095100792391 0 0 0 0 0 0 15.3065404351702 0 0 0 0 0 0 0 0 0 0 1:-0.10385 2:0.199053 3:0.758422 4:0.358459 5:-0.240092 6:-0.42254 7:-0.478201 8:-0.247668 9:-0.560815 10:-0.0468889 11:0.425243 12:-0.00928829 13:-0.442636 14:-0.627863 15:-0.546543 16:-0.155634 17:-0.190439 18:-0.188298 19:0.0131281 20:-0.156655 21:0.52584 22:0.362421 23:0.332774 24:-0.0229421 25:0.0195871 26:0.170886 27:0.734046 28:0.542614 29:0.431233 30:-0.110792 31:-0.426434 32:-0.151433 33:0.187834 34:0.426406 35:0.327987 36:0.428837 37:0.449289 38:0.265219 39:0.722703 40:0.381085 
-0 -0 -0 -0 -19.21854574191919 -0 0 0 0 0 0 0 0 0 0 0 1.632782010599178 0 0 0 0 12.45262429711725 0 0 0 0 0 0 0 0 0 0 0 0 0 0 0 0 0 0 0 0 1.051549259637562 0 0 0 7.60554251139243 0 0 23.94841395051213 0 0 0 0 0 0 0 7.324525284605982 5.842536500243177 0 1:-0.0284472 2:0.364685 3:0.777647 4:0.46713 5:-0.274751 6:-0.282322 7:-0.358916 8:-0.186622 9:-0.636212 10:-0.114581 11:0.560295 12:0.155303 13:-0.336424 14:-0.664313 15:-0.448283 16:-0.0943839 17:-0.239529 18:-0.179608 19:0.0138566 20:-0.151184 21:0.505925 22:0.171277 23:0.228755 24:-0.0217044 25:0.0803161 26:0.161036 27:0.535883 28:0.58567 29:0.76942 30:-0.178033 31:-0.682906 32:0.144429 33:0.145499 34:0.261611 35:0.159791 36:0.408935 37:0.41985 38:0.335874 39:0.602999 40:0.00979636 
-0 -0 -0 -0 -0 -0 -0 0 0 0 0 0 0 0 0 0 0 32 0 0 0 0 0 0 0 0 0 0 0 0 0 0 0 0 0 0 0 0 0 0 0 0 0 0 0 0 0 0 0 0 0 0 0 0 0 0 0 0 0 0 1:0.258624 2:-0.856034 3:-0.700454 4:0.748707 5:0.837123 6:0.234114 7:0.703451 8:-0.112823 9:-0.329163 10:0.794901 11:0.604422 12:-0.286093 13:0.276481 14:0.437824 15:-0.449874 16:-0.42964 17:-0.442143 18:-0.328571 19:-0.372453 20:-0.366464 21:-0.439512 22:0.0305561 23:0.176581 24:0.25474 25:0.424401 26:0.167333 27:0.0450649 28:0.0652008 29:-0.00822757 30:-0.606913 31:-0.234148 32:0.0498182 33:0.116583 34:-0.341465 35:0.120853 36:0.251589 37:-0.18484 38:0.0171006 39:0.334204 40:-0.151896 
-0 -0 -0 -0 -0 -0 -0 0 0 0 0 0 0 0 0 0 0 14.36136869388721 0 0 0 0 0.3625570034896857 0 0 0 0 0 0 0 0 0 0 0 0 0 5.420737979522195 0 0 0 0 0 0 0 0 0 0 0 0 0 0 0 0 0.2076079873414588 0 0 0 0 0 0 1:0.154346 2:-0.776033 3:-0.814496 4:0.724892 5:0.799979 6:0.119165 7:0.627597 8:-0.22341 9:-0.40551 10:0.810159 11:0.563984 12:-0.345283 13:0.242082 14:0.395885 15:-0.427921 16:-0.43169 17:-0.417427 18:-0.334466 19:-0.394775 20:-0.311704 21:-0.441786 22:0.173506 23:0.254386 24:0.350877 25:0.549379 26:0.142443 27:0.156389 28:0.000591542 29:0.0963279 30:-0.469294 31:-0.0921863 32:0.041284 33:0.240224 34:-0.40024 35:0.409615 36:0.221996 37:-0.052666 38:0.0204413 39:0.344015 40:-0.212276 
-0 -0 -13.56300442316311 -18.37621299757682 -0 -7.862629911210481 -0 8.867847096448269 8.860640971206124 0 0 0 0 0 10.59692803644736 0 6.124443841359446 32 0 9.414567207877946 10.97670783402028 0 0 15.39801693404089 0 7.36716989670627 17.22809758225284 16.7766623701418 10.49202717139995 13.75794073734006 8.34544950787005 10.5769398319387 0 0 0 5.432521771845719 5.598916993093515 5.798798316990549 0.3843380526853232 0 0 5.415652397192892 4.346595280847027 7.08880814916732 18.37159785818879 11.85051006258652 9.623055336921377 3.619067619619254 15.6616372694567 0 0 10.90662068727384 0 0 0 7.938314619758001 15.35657682918726 2.544362672767841 2.372839650313762 12.29010894175376 1:0.503706 2:-1 3:-0.504748 4:0.775241 5:0.884498 6:0.261496 7:0.790148 8:0.069462 9:-0.119443 10:0.783014 11:0.659631 12:-0.238793 13:0.168661 14:0.673917 15:-0.375315 16:-0.363871 17:-0.317501 18:-0.358716 19:-0.22677 20:-0.341744 21:-0.448532 22:-0.00910755 23:0.172102 24:0.195634 25:0.401016 26:0.189997 27:0.14289 28:0.038065 29:0.172108 30:-0.445889 31:-0.089502 32:0.211286 33:0.169696 34:-0.179301 35:0.0771902 36:0.181374 37:-0.16398 38:-0.0104807 39:0.295353 40:-0.135065 
-1.096659152620164 -0 -0 -0 -4.804748212828515 -5.648138230463974 -6.415657849036533 0 0 0 4.9709602973514 3.800593107841926 14.68247951179691 7.369942914123796 1.902960887894996 11.21055250739382 0 32 0 0 0 5.260647694778998 3.082165663522907 0 0 4.409882662251595 0 0 0 0 0 0 1.277683736923555 2.483393441272405 3.485439874389015 6.196708372384446 0 5.964979382320537 12.76736264428806 6.168271829418723 16.75465757773697 2.130662430597059 0.707072528920774 4.437876608192784 0 0 3.293880551763642 0 0 3.220220232417003 0 0 0.571203574049733 8.089783038925773 15.1543854016784 0 0 0 0 0 1:0.4249 2:-0.960822 3:-0.568863 4:0.728402 5:0.886936 6:0.219373 7:0.743117 8:0.0804413 9:-0.212312 10:0.858721 11:0.577102 12:-0.181769 13:0.0964751 14:0.596188 15:-0.361026 16:-0.453396 17:-0.27748 18:-0.475341 19:-0.226121 20:-0.334297 21:-0.45695 22:0.0411903 23:0.231784 24:0.184589 25:0.510987 26:0.175421 27:0.172148 28:0.0809878 29:-0.0342671 30:-0.293152 31:-0.296082 32:0.210854 33:0.214766 34:-0.182321 35:0.252955 36:0.160732 37:-0.0534506 38:0.00102988 39:0.334851 40:-0.07165 
-6.466606919747757 -12.22630502148159 -0 -0 -10.79365222353813 -8.639871597111107 -10.85050442055012 4.102317507760374 7.150290059111873 6.605151123337694 5.672491808366484 8.656618830363907 0.5488243209684561 6.69872789032392 4.458070960715029 4.310901394150889 0 32 0 5.174460806052753 3.399141442886237 9.476765390361088 0 0 6.256150132822998 0 0 0 1.606548237332716 0 0 0 4.378237572066698 8.516234134882399 8.731255523297808 0.1849793553969631 0 0 4.060414890400009 6.955921770488907 0 9.406309341668353 0 0.5521497598198801 0 1.182282289206285 0 8.223259645949653 0 10.04952806152061 9.397844317533742 1.66168767193423 6.053607584852349 14.77432070092308 3.828838205157638 0.7178060675061172 0 8.820148816802091 8.617432035515753 4.116345817088884 1:0.0851957 2:-0.737064 3:-0.890163 4:0.757222 5:0.769429 6:0.13149 7:0.55348 8:-0.256493 9:-0.42314 10:0.842626 11:0.589576 12:-0.396642 13:0.250176 14:0.28714 15:-0.37392 16:-0.52239 17:-0.325273 18:-0.423175 19:-0.315735 20:-0.346776 21:-0.279262 22:0.11911 23:0.407784 24:0.343688 25:0.604869 26:0.343051 27:0.137575 28:0.21659 29:0.0307452 30:-0.412763 31:-0.0956099 32:0.0401551 33:0.148448 34:-0.150583 35:0.335811 36:0.460651 37:0.00763638 38:0.0704448 39:0.464471 40:-0.293496 
-0 -6.069115852481018 -0 -0 -0 -1.158551324341531 -0 0 0.1669378577426623 0 7.158375981569623 1.566426832596706 13.98792787730669 0 0 0 0 32 10.87178244977789 0 0 0 1.498081466356469 0 0 0 0 0 0 0 0 0 5.119190533650197 0 0 0 0 0 0 0 0 2.596660984846872 0 0 0 0 0 3.60673908826317 0 0 5.851485549946811 0 0 0 0 0 0 0 0 0 1:0.0816286 2:-0.690066 3:-0.907803 4:0.783168 5:0.765133 6:0.158145 7:0.537617 8:-0.20968 9:-0.451824 10:0.724907 11:0.674741 12:-0.477554 13:0.243712 14:0.335891 15:-0.529472 16:-0.416031 17:-0.482438 18:-0.364814 19:-0.373261 20:-0.42213 21:-0.40833 22:0.108237 23:0.271609 24:0.364455 25:0.478054 26:0.208675 27:0.122989 28:-0.0163333 29:0.0199359 30:-0.499611 31:-0.330544 32:0.0712852 33:-0.00878365 34:-0.180873 35:0.134712 36:0.413911 37:-0.138676 38:0.120634 39:0.338096 40:-0.225813 
-7.327604003984233 -0 -0 -1.797781653544813 -0 -0 -0 0 0 0 0 0 0 0 1.13616024276004 0 0 32 0 0 0 0 7.047677541139958 0.5333037145466359 0 0 0 0 0 0 0 0 0 0 0 0 0 0 0 1.382093154147934 11.69352020217587 0 0 0 0 0 0 0 0 0 0 0 0 0 0 0 0 0 0 0 1:0.193759 2:-0.866314 3:-0.758545 4:0.691046 5:0.826779 6:0.119126 7:0.622137 8:-0.213773 9:-0.384884 10:0.76707 11:0.596192 12:-0.363693 13:0.202673 14:0.422053 15:-0.438088 16:-0.434229 17:-0.41212 18:-0.405689 19:-0.303635 20:-0.409848 21:-0.350549 22:0.0717826 23:0.254877 24:0.323582 25:0.404517 26:0.325685 27:0.0456282 28:0.161099 29:0.0129791 30:-0.387947 31:-0.118051 32:0.0355251 33:0.154883 34:-0.296327 35:0.276897 36:0.258133 37:-0.0224152 38:0.000525566 39:0.398554 40:-0.222914 
-1.202909150214853 -7.171234442728591 -0 -0 -0 -1.118732780970794 -0 0 0 7.310416600545508 0 0 0 0 0 0 10.46585515488395 32 0 1.056745068806259 0 0 0 0 6.899283488780062 0 6.204495785787443 0 20.86735361291912 0 0 0 2.698250452027557 0 0 0 0 0 9.29307926464528 0 0 0 6.924836113007196 0 4.888970894067673 0 1.911015534296809 0.8562805719022538 0 1.070489765911924 9.960899809485177 0 7.620155602863447 3.248783297361115 3.762584092011199 9.950530109965413 10.05867327717546 0 0 3.380822224389736 1:0.0877565 2:-0.731195 3:-0.903289 4:0.734437 5:0.766063 6:0.112629 7:0.540197 8:-0.213147 9:-0.508457 10:0.778545 11:0.482359 12:-0.438036 13:0.189863 14:0.425745 15:-0.488756 16:-0.379661 17:-0.45343 18:-0.361256 19:-0.397383 20:-0.356464 21:-0.318786 22:0.141562 23:0.392582 24:0.358555 25:0.634035 26:0.250523 27:0.190804 28:0.13751 29:0.0670545 30:-0.348071 31:-0.0956653 32:0.235571 33:0.211139 34:-0.20257 35:0.373773 36:0.375117 37:-0.0347881 38:0.149785 39:0.378484 40:-0.170046 
-10.15275145144338 -24.92859221805313 -11.63714759311637 -23.86542540407777 -30.28468587138375 -32 -9.347846336908994 -12.97016460420864 2.087142368812235 0 0.9211686611645602 0 17.85149177870911 0 17.65305897042295 0 1.435575390512387 17.53245390833116 0 0.3987406002061261 0 20.03529146677051 0 0 2.026665986729985 15.27798568936172 19.50021272437291 11.46445165122018 32 12.41040857321395 9.87500377872718 0 0 0 0 14.25891386651851 8.716377668510848 15.66316347615246 28.18382864482226 0 4.073314983026183 22.80528919720218 10.61998544831077 18.78070272397006 18.7586175032654 11.58817479366823 21.42422672263921 0 22.2414288435816 12.36348365102849 24.81800001094521 4.779158902561962 2.277918856905747 11.37143257524861 4.973812474627408 12.88259171620743 29.59440184254212 21.70034605916659 9.770141718279818 23.47214143235203 1:0.148033 2:0.076685 3:0.175452 4:0.796212 5:-0.317405 6:-0.0126871 7:0.057005 8:-0.0853546 9:0.383187 10:0.120896 11:-0.112416 12:0.517992 13:-0.0620733 14:0.306199 15:0.257638 16:0.0471633 17:-0.0904613 18:0.312294 19:0.119595 20:-0.423467 21:-0.0758598 22:-0.409886 23:-0.277111 24:0.0373551 25:0.216637 26:0.268883 27:0.586091 28:0.760549 29:0.476985 30:0.242752 31:0.0533732 32:0.48451 33:0.168857 34:0.161869 35:0.132882 36:0.484673 37:0.150933 38:0.204481 39:-0.273298 40:-0.983086 
-0 -0 -3.796929518346924 -0 -0 -0.05669697709426662 -0 -0 0 0 2.392348167622068 0 0 0 11.30801300264504 1.090883708943983 0 0 2.434342246473724 0 5.744807375478984 0 3.108249082481661 10.43288639831269 0 0 0 3.304021707404601 0 0.6907154328803096 0 19.47269498501539 0 0 0 0 0 0 0 0 9.234264728386671 0 0 0 0 0 0 0 0 0 0 0 0 0 9.412410127414661 0 0 0 0 5.898255598985785 1:-0.048029 2:0.0946173 3:0.246098 4:0.802756 5:-0.400667 6:-0.170459 7:-0.111254 8:-0.0481527 9:0.470963 10:0.122068 11:-0.148185 12:0.421684 13:-0.168684 14:0.245116 15:0.28101 16:0.0706943 17:-0.0682832 18:0.310635 19:0.157657 20:-0.360852 21:-0.0829484 22:-0.369065 23:-0.298086 24:-0.0303419 25:0.161772 26:0.309885 27:0.526257 28:0.462777 29:0.405892 30:0.432801 31:0.176495 32:0.40284 33:-0.00839503 34:0.198596 35:0.251782 36:0.449512 37:0.0341605 38:0.0689316 39:-0.230479 40:-1 
-6.530029200245356 -0 -0 -0 -0 -0 -0 -0 0 0 0 1.9465904835065 0 0 4.788481961020706 0 4.462455243181474 0 0 0 7.237559047122927 0 0 0 0 0 1.661945123996188 0 0 0 0 0 0 0 6.320972715581079 0 0 0 0 0.3118006008640985 0 0 23.30624748948389 0 0.2668479512550779 3.380862547932919 9.928143826729128 0 0 5.821060088570664 0 1.496782468596554 0 5.275491770587806 0 0 0 31.92165624866971 32 0 1:-0.223922 2:0.139123 3:0.305317 4:0.763437 5:-0.588474 6:-0.267771 7:-0.208279 8:-0.076035 9:0.269639 10:-0.066872 11:0.0706898 12:0.201521 13:-0.349862 14:0.218123 15:0.247722 16:-0.0175932 17:0.0458492 18:0.240248 19:0.16598 20:-0.332781 21:-0.00153748 22:-0.215788 23:-0.28396 24:-0.0226059 25:0.327482 26:0.574429 27:0.584063 28:0.662767 29:0.550226 30:0.5988 31:0.528507 32:0.738636 33:0.229524 34:0.390441 35:0.495874 36:0.690521 37:-0.0210632 38:0.104283 39:-0.0972491 40:-0.766984 
-0 -0 -0 -1.851748381707867 -0 -0 -0 -0 0 0 0 0 0 3.053076033589479 0 0.189361543464034 0 0 0 0 12.27046615944656 0 5.001894819579769 5.069600905396363 0 0 0.6709559669751011 0 0 2.073413140281849 0 0 0 0 0.8500237504346824 0 0 0 0 3.967991658657708 0 0 0 0 2.59013187198338 8.885220033958378 0 0 0 0 0 12.92538626722369 0 0 0 0 0 0 0 0 1:-0.149387 2:0.161367 3:0.306527 4:0.845821 5:-0.514066 6:-0.263353 7:-0.0975477 8:0.0577873 9:0.380043 10:-0.0868652 11:0.00175446 12:0.323974 13:-0.211656 14:0.222361 15:0.231082 16:-0.028099 17:0.00731262 18:0.22139 19:0.171202 20:-0.376488 21:-0.0770236 22:-0.288059 23:-0.354879 24:-0.0230369 25:0.278375 26:0.399491 27:0.526766 28:0.590709 29:0.406928 30:0.533499 31:0.380348 32:0.605708 33:0.0558672 34:0.122885 35:0.552836 36:0.654264 37:-0.135258 38:0.0426745 39:-0.131245 40:-0.724619 
-0 -0 -0 -0 -0 -0 -0 -0 0 0 0 0 0 0 0 0 0 0 0 0 0 0 0 0 0 0 0 0 0 0 0 0 0 0 0 0 0 0 0 0 0 0 0 0 0 0 0 0 0 0 0 5.857746380381541 0 0 0 0 0 0 0 0 1:-0.185411 2:0.127673 3:0.301067 4:0.766141 5:-0.519678 6:-0.261106 7:-0.223254 8:-0.00579095 9:0.365188 10:0.0490053 11:-0.170432 12:0.229341 13:-0.173481 14:0.266328 15:0.2028 16:-0.0515451 17:0.0259203 18:0.306575 19:0.0859443 20:-0.32813 21:-0.00163155 22:-0.350673 23:-0.358905 24:0.0131168 25:0.201586 26:0.422252 27:0.514477 28:0.583988 29:0.358126 30:0.406925 31:0.26624 32:0.686118 33:0.218586 34:0.172165 35:0.191974 36:0.51464 37:0.102426 38:0.114011 39:-0.23539 40:-0.92776 
-6.576661337876746 -0 -0 -0 -3.247729486621713 -0 -2.735422277657133 -0 0 11.07146895940476 4.037183061329065 1.750215884991408 0 11.54681728570893 10.65267744361262 14.16993524726678 17.58501776923823 0 1.319993292782243 0 3.347344340926337 1.069953995149604 1.244777017878898 10.35696635584668 0 10.34898843588743 0 0 0 0 0 0 9.076392518838063 0 0 0 5.59121853945865 0 3.855167653718545 0 15.98721193616444 11.14412834509812 0 10.78257632524788 0 2.328354087820453 0 2.592651764749117 0 0.7199244294108678 0 9.375738986905626 0 4.825930167625901 16.25871463521072 8.241976411617678 0 0 10.89691336026654 0 1:-0.391691 2:0.221009 3:0.374042 4:0.682627 5:-0.709654 6:-0.316566 7:-0.359507 8:0.00278045 9:0.0949325 10:-0.0960146 11:-0.222301 12:0.276977 13:-0.327478 14:-0.0242058 15:0.0804665 16:-0.0603758 17:0.0700117 18:0.224562 19:0.107399 20:-0.528017 21:-0.00502697 22:-0.289631 23:-0.393469 24:-0.0562679 25:0.263169 26:0.426942 27:0.525763 28:0.579237 29:0.206378 30:0.377478 31:0.588119 32:0.834447 33:0.0273207 34:0.250176 35:0.345624 36:0.512579 37:0.0746556 38:0.0882803 39:-0.324079 40:-0.504477 
-0 -0 -0 -0 -0 -0 -0 -0 0 10.42117808544414 15.80293748509336 2.397232602691554 0 0 0 0 0 0 0 0 0 15.38217635431756 0 0 0 0 0 0 0 0 0 0 9.465035892679184 5.388651135469577 0 0 0 0 0 0 0 0 2.892305851436831 0 0 0 8.302789129338434 17.70154925568915 0 0 0 0 0 0 0 0 0 0 0 0 1:-0.260709 2:0.152487 3:0.313539 4:0.750027 5:-0.597228 6:-0.327435 7:-0.23704 8:-0.0264627 9:0.201694 10:-0.0038269 11:-0.0896927 12:0.185708 13:-0.2783 14:0.172981 15:0.193798 16:-0.0073429 17:0.0599474 18:0.199457 19:0.138952 20:-0.300672 21:0.0204111 22:-0.325865 23:-0.287852 24:-0.00506982 25:0.275016 26:0.506081 27:0.595573 28:0.6446 29:0.374718 30:0.537966 31:0.400548 32:0.797441 33:0.2426 34:0.35312 35:0.135119 36:0.660331 37:0.1638 38:0.132393 39:-0.272905 40:-0.809113 
-5.601139661888634 -0 -0 -1.83068148671613 -0 -0 -8.289383476109412 -0 17.08784946100925 0 0 9.574171884826491 2.915645941050974 1.473770946762275 0 0 0 0 4.247474006200398 19.57972480380571 22.72161006771445 0 2.641390847465852 26.01847059372714 7.437222551938724 0 0 0 0 0 0 0 0 9.838505939454267 5.042392162122511 6.598604761401369 0 6.22576234270338 0 7.856018954978221 0 0.08984763775326679 0 0 0 8.820230633682765 0 0 0 3.389806662060086 0 0 7.553214945700834 0 0 0 0 16.61509614450012 1.209428220489073 0 1:-0.0180257 2:0.154694 3:0.245383 4:0.836096 5:-0.398626 6:-0.156851 7:-0.0490821 8:0.0894413 9:0.378223 10:0.0203417 11:-0.0643388 12:0.401033 13:-0.0732768 14:0.157933 15:0.235617 16:0.0123429 17:0.00526855 18:0.263873 19:0.0926855 20:-0.457984 21:0.0339999 22:-0.38973 23:-0.293539 24:-0.039411 25:0.206329 26:0.344609 27:0.624268 28:0.592821 29:0.43059 30:0.463219 31:0.241743 32:0.547761 33:0.0365549 34:0.132711 35:0.398007 36:0.605263 37:0.0356581 38:0.0689047 39:-0.262912 40:-0.744992 
-32 -23.87139238426728 -17.64112152257787 -22.75574054918587 -20.49236953695425 -16.70822585075424 -32 -16.17786888806066 -19.17499182982148 32 32 32 32 32 32 32 18.97642636533946 16.55694975618293 21.77479207982473 32 26.51524979380139 20.68821354238524 23.05512549023127 28.05022707505735 12.7080097304526 17.52581378350133 21.52219803040833 13.78677641251144 32 18.23276079127051 11.98689657142222 12.33410691013648 17.48788937100725 29.48792340796752 32 14.12549631957505 8.829881002815078 14.03956799830544 25.71247428882851 32 32 32 16.00240613228953 18.02991003422033 21.57567814836513 17.94861436812105 18.77418371564447 32 16.22951306126122 32 21.78551717674827 17.25062489910617 13.61250820645685 25.0799303517891 32 19.83011103952865 29.4286429472103 19.95195039488346 19.10940411592381 15.72727064251253 1:0.287746 2:-0.140593 3:0.43001 4:0.578059 5:0.0647394 6:-0.043032 7:0.169814 8:0.268094 9:0.333841 10:0.0024113 11:0.545126 12:-0.29659 13:-0.142375 14:-0.198976 15:-0.145151 16:0.029047 17:-0.10696 18:-0.0666546 19:0.0188148 20:0.0510785 21:0.611501 22:0.582638 23:0.461185 24:0.281245 25:0.00723612 26:-0.275825 27:-0.0996519 28:0.31843 29:0.325767 30:0.177662 31:-0.0762252 32:0.084544 33:-0.344068 34:-0.233098 35:0.0477138 36:0.448921 37:0.320358 38:0.475323 39:0.161058 40:-0.0283649 
-12.98708043251543 -14.24281016597938 -5.747717766969105 -4.912190643831428 -13.06458385488827 -13.4502643503767 -10.70839770559006 -7.074643243106853 -14.33769635942155 -4.260145933197674 32 9.862617869773857 6.771324069512124 24.99904412085947 13.00384827065 24.59578766899505 32 7.649118095652033 1.698735788780904 12.76492931688896 11.68421402142388 15.12772508870989 6.630416057082425 11.71047028957872 3.224428560651951 7.196774229669355 6.456590406238177 4.98087288286328 12.50032224559973 6.074631435151685 0.4825852980108872 3.878801588474951 32 7.897039094791085 7.084613085588074 4.367499374585529 9.94254687954616 4.597311509342138 32 6.527099977839184 20.01125337687542 32 9.791521504727175 7.38550531731238 6.446996468098339 8.564036764747847 9.536066015208966 32 4.199403935891691 10.81987697561021 14.56800835344901 9.564629578145723 3.186304909064952 32 18.9010570207711 21.73803885777069 8.246531141960407 10.65645058691269 10.69095506348536 14.75607595737042 1:-0.543163 2:0.662868 3:0.459277 4:0.802683 5:-0.488361 6:-0.14778 7:-0.382211 8:0.0374865 9:-0.336562 10:0.124877 11:0.596335 12:-0.0606813 13:0.0195384 14:-0.24901 15:-0.156448 16:-0.284951 17:-0.261049 18:-0.390196 19:-0.24857 20:-0.0037612 21:0.310926 22:0.49154 23:0.67219 24:0.820295 25:0.851162 26:0.493677 27:-0.0599314 28:0.0350132 29:-0.331263 30:0.155044 31:0.483837 32:0.919019 33:0.663874 34:0.706114 35:0.19595 36:0.202996 37:0.16069 38:0.00353384 39:-0.169415 40:-0.442476 
-0 -0 -0 -2.876817792809584 -0 -3.418461480759012 -2.462819699759214 -0 -0 -0.1241733612418671 1.849117176266801 5.612616570249985 0.8354831675772665 24.6821576791598 10.61707826119943 22.2868027851269 0 0 0.8972542737616538 32 0.05557915020700049 0 13.25913622634154 5.971412941147213 3.369494067623993 0 4.665344325007696 0 0 0 1.221110508926532 1.027482589937578 1.826394498226469 0 2.071489526484075 0 0.6224989414149077 0 7.459514606918412 6.926460008142116 9.129210186954008 14.30992272446583 0 0 4.776790700516809 1.598668734488613 0 3.560358128773062 3.779119237186814 0 0 1.287780660859566 2.964862085067796 4.553000043081832 9.635673868175953 8.286122399459899 0 0 0 5.392446052904308 1:-0.612575 2:0.00539464 3:0.871542 4:0.546592 5:-0.55709 6:0.116368 7:-0.460925 8:0.0137247 9:0.564828 10:-0.418199 11:0.581334 12:-0.855283 13:-0.117499 14:-0.522382 15:-0.580936 16:-0.667813 17:-0.230869 18:-0.0379187 19:-0.204332 20:0.104406 21:0.409792 22:0.493199 23:0.270402 24:0.427415 25:-0.0267099 26:-0.474178 27:-0.475433 28:0.153303 29:0.482239 30:0.173165 31:-0.232018 32:-0.438102 33:-0.449191 34:0.334341 35:0.109567 36:0.541125 37:0.49238 38:0.687919 39:0.350317 40:0.534135 
-0 -0 -0 -0 -0 -0 -0 -0 -3.076645299354321 -0 0 0 0 0 0 0 0 0 0 32 0 0 0 0 0 0 0 0 0 0 0 0 0 0 0 0 0 0 0 0 0 0 0 0 0 0 0 0.8578129903335301 0 0 0 0 0 0 0 0 0 0 2.019074574441106 0 1:-0.711833 2:-0.0641571 3:0.908029 4:0.573924 5:-0.753835 6:-0.202022 7:-0.551341 8:-0.0500991 9:0.40769 10:-0.755744 11:0.519259 12:-0.910644 13:-0.217342 14:-0.701211 15:-0.475039 16:-0.502163 17:-0.272705 18:0.0337065 19:-0.119294 20:0.260435 21:0.458112 22:0.612266 23:0.447895 24:0.626139 25:0.0692213 26:-0.363596 27:-0.241205 28:0.348163 29:0.793256 30:0.350187 31:0.0484968 32:-0.0255263 33:-0.2409 34:0.349072 35:0.103949 36:0.672264 37:0.552341 38:0.824808 39:0.236498 40:0.254929 
-3.33311242665746 -0 -0 -0 -1.499213424894493 -0 -0 -0 -0 -0 3.033963546831548 0 0 3.159049808464549 4.783857196284936 5.820781329524976 10.94972298094902 0 0 11.7346655262026 4.58262618628159 0.1024164134896254 0 1.21703200337798 0 0 0 0 0 0 0 0 1.891013752764346 7.095304390910845 1.955562789888205 0 0 0 0 0 4.23282487256854 11.53405088651051 2.391054780793559 0 0 0 3.237017217475271 26.58181095836564 0 5.061957653993875 0 1.575664677955096 0 0 0 0 0.8228501749663828 7.915074242236767 5.97043143734386 0 1:-0.702045 2:-0.0979906 3:0.849958 4:0.505868 5:-0.674786 6:-0.0892164 7:-0.648001 8:-0.21141 9:0.428887 10:-0.597195 11:0.460591 12:-0.999737 13:-0.277236 14:-0.749787 15:-0.508347 16:-0.555836 17:-0.396949 18:-0.163473 19:-0.194876 20:0.245369 21:0.31345 22:0.532459 23:0.455092 24:0.43042 25:-0.133275 26:-0.336128 27:-0.278882 28:0.165942 29:0.757816 30:0.299815 31:-0.189109 32:-0.170096 33:-0.247873 34:0.375685 35:0.189947 36:0.50832 37:0.516566 38:1 39:0.39201 40:0.0367189 
