svm_type c_svc
kernel_type rbf
gamma 0.125
nr_class 61
total_sv 1386
rho -0.253777 -0.131782 -0.188384 -0.317812 0.0886323 -0.454002 -0.200647 -0.127297 -0.766836 -0.207175 -0.188655 -0.122445 0.0335721 0.119156 -0.241011 -0.329964 -0.385174 -0.109042 -0.174393 -0.354621 -0.243314 -0.425233 -0.419188 -0.374966 -0.283418 -0.220473 -0.257564 -0.443692 -0.328993 -0.404051 -0.434172 -0.312949 -0.403715 -0.225812 -0.37282 -0.345752 0.116215 -0.267363 -0.331191 0.0579499 -0.00492414 -0.134041 -0.170972 -0.551627 -0.400347 -0.434039 -0.312277 -0.268969 -0.167441 -0.287611 -0.20225 -0.582818 -0.37427 -0.389137 -0.455099 -0.255888 -0.496421 -0.253762 -0.558404 -0.330485 0.158397 0.119226 -0.0203178 0.317581 -0.116633 0.117502 0.19238 -0.419221 0.06361 0.172757 0.123992 0.392453 0.412391 0.115012 -0.0944754 -0.0525112 0.28352 0.102914 -0.00987863 0.112409 -0.103217 -0.0724225 -0.126036 0.00638355 0.0649047 0.0354848 -0.0734106 -0.0048516 -0.0693136 -0.109927 -0.0271104 -0.115362 0.156331 -0.0980307 -0.0543044 0.358506 0.0735539 -0.0261748 0.419764 0.219859 0.150486 0.148381 -0.00959028 -0.0861345 -0.174908 -0.0728851 -0.0342373 0.134495 -0.953344 0.130826 -0.0939782 -0.0114651 -0.153022 -0.103897 -0.00842942 -0.153172 0.0640279 0.0681236 -0.0946484 -0.0247138 -0.10745 0.188844 -0.164653 -0.0151739 0.0511802 -0.543994 -0.0981759 -0.0428894 0.0165944 0.219384 0.203531 -0.117141 -0.239115 -0.20089 0.165928 -0.0176615 -0.171048 -0.0841874 -0.230444 -0.250547 -0.231927 -0.189752 -0.145097 -0.0847169 -0.148207 -0.141285 -0.257281 -0.251178 -0.183122 -0.325747 -0.855714 -0.278169 -0.211183 0.201268 -0.15359 -0.158093 0.233624 0.0811122 0.0470658 -0.0243871 -0.201711 -0.212581 -0.282273 -0.179585 -0.138983 -0.0067707 -0.165583 -0.172588 -0.267734 -0.171181 -0.26361 -0.246592 -0.124627 -0.20049 -0.117161 -0.0811935 -0.237046 -0.0807939 0.259675 -0.170332 0.0434878 0.0808052 -0.593071 -0.0751315 -0.0401628 0.00894921 0.192791 0.400581 -0.10032 -0.263561 -0.22971 0.0596188 -0.0121801 -0.220749 -0.093938 -0.323861 -0.268525 -0.163077 -0.228276 -0.131589 -0.0696532 -0.188909 -0.141532 -0.258657 -0.366541 -0.164427 -0.410516 0.0131351 -0.915248 -0.294471 0.261237 -0.135695 -0.204535 0.231694 0.125295 0.0784156 0.0302381 -0.112516 -0.304421 -0.331693 -0.16733 -0.123882 0.0443464 -0.144939 0.02748 -0.197562 -0.210856 -0.194141 -0.40407 -0.17628 -0.229344 -0.0810093 -0.0698064 -0.258014 0.402853 -0.0328039 0.0946233 0.141511 -0.651989 0.0600013 0.162941 0.195949 0.231194 0.4805 0.0841958 -0.103014 -0.149929 0.144232 0.0976075 -0.0428104 0.0645558 -0.255329 -0.0701287 -0.0751727 -0.0687496 0.0496338 0.0300138 -0.880186 0.0416038 -0.0830644 -0.268073 -0.0404597 -0.199963 0.0589074 -0.173595 -0.109045 0.39822 0.112249 -0.042505 0.369847 0.260351 0.108173 0.166917 -0.0621211 -0.201853 -0.195892 -0.147999 -0.0879504 0.0994787 -0.0308767 0.214834 -0.142569 -0.0394888 -0.109595 -0.316393 -0.0474021 -0.128933 0.00930985 -0.235628 -0.0994278 -0.347627 -0.296635 -0.487041 -0.710575 -0.233614 -0.233084 -0.138075 -0.256562 -0.206904 -0.253372 -0.314858 -0.482978 -0.252957 -0.265167 -0.274124 -0.242944 -0.437752 -0.345797 -0.455322 -0.309289 -0.229766 -0.419592 -0.427489 -0.357932 -0.360021 -0.421566 -0.392359 -0.426155 -0.1835 -0.342533 -0.408866 -0.750914 -0.308909 -0.274658 -0.0717471 -0.0428994 -0.143427 -0.279093 -0.436322 -0.42278 -0.460243 -0.400469 -0.363182 -0.270976 -0.351208 -0.105246 -0.495884 -0.279906 -0.523472 -0.413096 -0.43081 -0.368437 -0.265783 -0.301747 -0.311721 0.130496 0.268517 -0.496498 0.244381 0.138568 0.297228 0.424775 0.410524 0.159664 -0.036241 -0.016277 0.232446 0.125438 0.0152174 0.17684 -0.0837197 -0.0513518 -0.0838908 0.0360589 0.219716 0.145557 -0.0342357 0.0777924 -0.024583 -0.0623452 0.0627925 -0.0989685 0.109969 -0.0854024 -0.0357801 0.371033 0.0759216 0.0554527 0.326884 0.286092 0.171922 0.208104 0.034002 -0.0623929 -0.0859955 0.00495735 0.0379307 0.211221 0.0780604 0.151971 -0.0842534 0.0545446 -0.133562 -0.074501 0.0436856 -0.695761 0.114336 0.1404 -0.0348581 0.0673974 -0.751025 0.0264976 0.0482778 0.10325 0.203085 0.486735 0.0574826 -0.300354 -0.151821 0.165748 -0.00763256 -0.0983286 0.0610144 -0.212066 -0.103004 -0.251204 -0.187069 -0.00737137 -0.18751 -0.134548 0.00116356 -0.184373 -0.21796 -0.245744 -0.338067 0.0192424 -0.276225 -0.201721 0.32324 -0.0628545 -0.0960769 0.890325 0.135499 0.071355 0.0218603 -0.216278 -0.188951 -0.381965 -0.130683 -0.0846101 0.00600409 -0.151997 0.0819176 -0.291193 -0.105985 -0.272947 -0.214341 -0.113563 -0.176034 -0.096167 -0.0216239 -0.294775 -0.774767 -0.159693 -0.0229257 0.00701903 0.107489 0.573553 -0.12745 -0.267695 -0.38486 0.119552 -0.0379997 -0.214872 -0.136334 -0.41019 -0.292945 -0.361895 -0.221751 -0.164124 -0.206369 -0.260549 -0.179956 -0.254268 -0.398287 -0.225951 -0.30073 -0.0550614 -0.314293 -0.235823 0.463417 -0.0983544 -0.219651 0.334085 0.169162 0.0563998 -0.0212189 -0.224351 -0.378655 -0.374934 -0.392493 -0.283404 0.00922101 -0.237094 0.0640108 -0.313356 -0.203737 -0.358698 -0.410928 -0.250043 -0.302283 -0.11232 -0.340229 -0.262571 0.735867 0.808439 0.801289 0.798814 0.889001 0.80175 0.00710193 0.45802 0.794391 0.357601 0.356258 0.806578 0.290675 0.480017 0.464617 0.438226 0.63122 0.725509 0.476893 0.716463 0.24292 0.267532 0.552938 0.0566951 0.580438 -0.0524158 0.124986 0.700462 0.692697 0.367923 0.834001 0.645648 0.569207 0.750162 0.607669 0.320285 0.278127 0.406936 0.441559 0.671476 0.410422 0.783642 0.549289 0.439679 0.437427 0.267156 0.585932 0.478625 0.477051 0.829188 0.00636577 0.118111 0.0866706 0.398652 0.248614 0.070866 -0.175795 -0.175364 0.131318 0.022866 -0.240773 0.103512 -0.205344 -0.367612 -0.200078 -0.095599 0.858126 -0.0100106 -0.103375 -0.226505 -0.206648 -0.180187 -0.0948194 -0.221834 0.0762811 -0.22247 -0.163502 0.250213 0.0513338 -0.184756 0.227329 0.12455 0.0605335 0.152949 -0.117154 -0.18556 -0.241597 -0.15059 -0.100467 0.0700109 -0.0781975 0.0461836 -0.214888 -0.211399 -0.246072 -0.18256 -0.0782502 -0.241603 -0.0317736 -0.0344848 -0.177113 0.194338 0.280962 0.326908 -0.0534412 -0.196992 -0.220014 0.0880299 -0.0554347 -0.102423 -0.0324985 -0.250095 -0.22854 -0.388396 -0.112127 -0.0260226 -0.0790139 -0.178977 -0.128013 -0.206681 -0.242807 -0.138307 -0.277777 0.039375 -0.231931 -0.202305 0.286013 0.761219 -0.0245293 0.309238 0.113742 0.0169158 0.035158 -0.174858 -0.237119 -0.279911 -0.161785 -0.116802 -0.0187183 -0.196989 0.0798344 -0.234574 -0.0973307 -0.411905 -0.245132 -0.134574 -0.18782 -0.0899735 -0.0448279 -0.196456 0.40124 0.199961 -0.129339 -0.256886 -0.360969 0.0332716 -0.0661941 -0.29812 -0.0793112 -0.36349 -0.347585 -0.347055 -0.0466336 -0.080994 -0.174597 -0.292904 -0.19696 -0.283593 -0.291984 -0.0662546 -0.264609 -0.0443033 -0.295154 -0.245585 0.153941 -0.168209 0.424571 0.0700941 0.0657905 -0.0325518 -0.0181772 -0.267751 -0.338254 -0.212153 -0.311438 -0.258765 0.0292411 -0.156876 -0.0890823 -0.348508 -0.270212 -0.367496 -0.299611 -0.199848 -0.394155 -0.068726 -0.133577 -0.258227 0.261066 -0.406239 -0.477667 -0.400686 0.0564263 -0.20659 -0.447955 -0.372002 -0.459235 -0.548022 -0.465919 -0.986449 -0.448501 -0.277311 -0.327643 -0.506674 -0.51213 -0.443638 -0.383512 -0.511759 -0.234356 -0.443081 -0.31266 0.278842 -0.391859 -0.446846 0.171793 -0.124208 -0.05231 -0.11521 -0.393575 -0.432689 -0.562117 -0.417313 -0.370668 -0.219069 -0.422457 -0.265253 -0.464984 -0.471605 -0.505291 -0.453005 -0.325835 -0.492543 -0.355546 -0.405383 -0.475489 -0.265419 -0.45791 -0.714616 -0.301762 -0.474932 -0.279143 -0.244173 -0.656528 -0.394187 -0.651719 -0.365869 -0.262386 -0.593213 -0.539867 -0.329775 -0.434611 -0.58193 -0.525611 -0.612647 -0.17412 -0.515245 -0.550446 0.231973 -0.397291 -0.376956 -0.138892 -0.160487 -0.254364 -0.428866 -0.479427 -0.647924 -0.635059 -0.55378 -0.512521 -0.318314 -0.443475 -0.265529 -0.552286 -0.289473 -0.683124 -0.581102 -0.552727 -0.443692 -0.391245 -0.499402 -0.453083 -0.172766 -0.17826 0.181246 0.0223863 -0.165279 0.944522 -0.197076 -0.271453 -0.276332 -0.0850496 -0.042598 -0.0320605 -0.0935856 -0.155518 -0.192012 -0.104375 -0.0935762 -0.197522 0.105192 -0.188161 -0.15502 0.293698 -0.0818801 -0.114591 0.300443 0.266459 0.178597 0.131612 -0.138749 -0.176408 -0.247766 -0.144784 -0.0898588 0.0294578 -0.120414 0.0610974 -0.234753 -0.154314 -0.311046 -0.10324 -0.0853968 -0.187974 -0.0560151 -0.0362428 -0.171851 0.00396482 0.369276 0.17676 0.0408272 0.185826 -0.0240462 0.0102269 -0.0151682 0.138176 0.140861 0.118433 0.0462277 0.137529 0.0177769 -0.00666112 0.110609 -0.0376485 0.241534 -0.0266027 0.0112786 0.327374 0.111765 0.0607613 0.43856 0.293194 0.254519 0.183741 0.0740603 -0.0112685 -0.0465117 0.0124328 0.0464753 0.229857 0.0591461 0.202893 0.00298284 0.0775665 -0.0287047 -0.00791526 0.0670047 0.00498466 0.100339 0.168176 -0.00752032 0.357427 0.20444 0.0472208 0.17335 -0.151018 0.0152377 -0.0365448 0.0683678 0.130428 0.941049 0.054164 0.165608 0.0225689 -0.0183769 0.111036 -0.0276422 0.171681 -0.0285781 0.000160349 0.502072 0.1375 0.0615158 0.518336 0.428527 0.306965 0.209587 0.114585 -0.0681338 -0.0216125 0.00955684 0.113932 0.291628 0.043373 0.254676 -0.00345474 0.0753744 -0.06583 -0.0384208 0.124699 -0.0496276 0.16162 0.129845 0.000242377 -0.191479 -0.250472 -0.17175 -0.292995 -0.307006 -0.352017 -0.344041 -0.174997 -0.195786 -0.209133 -0.222339 -0.405798 -0.443699 -0.374966 -0.506088 -0.144174 -0.314164 -0.359514 0.283425 -0.185733 -0.223505 0.224884 0.101466 0.0452248 -0.101102 -0.280825 -0.26865 -0.489478 -0.302854 -0.253254 -0.132536 -0.308619 -0.0450009 -0.342244 -0.248108 -0.397797 -0.463816 -0.237229 -0.261241 -0.239869 -0.113495 -0.364573 -0.106512 -0.0141296 -0.206343 -0.15232 -0.220445 -0.0872566 -0.035571 -0.0622774 -0.138356 -0.0686732 -0.179823 -0.191695 -0.146482 -0.248211 0.0340053 -0.19058 -0.17268 0.271151 -0.0455285 -0.100567 0.261845 0.17341 0.104062 -0.0451313 -0.115038 -0.189777 -0.256009 -0.167511 -0.124983 0.0635731 -0.129565 0.070026 -0.182105 -0.0887901 -0.250633 -0.195061 -0.131599 -0.153695 -0.0364707 0.00241776 -0.172254 0.155123 -0.0768387 0.0248034 -0.0741197 0.0702318 0.219422 0.109788 -0.0153881 0.167554 -0.0667141 -0.0553998 0.0487341 -0.0929104 0.115318 -0.0780578 -0.0416137 0.28073 0.0354127 0.016041 0.299523 0.191408 0.136594 0.136534 0.0328362 -0.0591454 -0.0974928 -0.0351604 0.00709706 0.130352 -0.017457 0.101549 -0.076719 -0.841526 -0.103665 -0.0609524 0.0204424 -0.051668 0.0187563 0.0833097 -0.0414591 -0.205853 -0.258575 -0.273753 -0.112091 -0.0652354 -0.0276191 -0.0936769 -0.144382 -0.200389 -0.122375 -0.0871515 -0.217973 0.082398 -0.190568 -0.166549 0.286543 -0.102375 -0.138121 0.270557 0.228615 0.148835 0.144983 -0.101898 -0.182779 -0.235997 -0.161632 -0.108256 0.0173249 -0.126823 0.0809407 -0.203745 -0.159283 -0.294763 -0.128684 -0.0887542 -0.221202 -0.0684195 -0.0526039 -0.184988 0.0468896 0.00549889 0.111131 0.198953 0.406077 0.118388 0.210088 0.0378775 0.0148143 0.175529 -0.0152564 0.207683 0.00211411 0.0389199 0.441548 0.190021 0.110992 0.534174 0.457046 0.336799 0.256572 0.153236 -0.879911 0.00383244 0.0665517 0.151549 0.264834 0.0804335 0.27553 0.0386368 0.120488 -0.0330292 0.0180407 0.185171 0.0346292 0.136686 0.28936 0.0279758 -0.0523983 0.133971 0.35681 0.162211 0.0395069 -0.675072 0.00595874 -0.0105478 0.101916 -0.0409223 0.208052 -0.0364546 0.000359564 0.367988 0.121195 0.0785184 0.375912 0.251995 0.169318 0.224248 0.0356059 -0.0223972 -0.0528459 0.00246392 0.0608909 0.190368 0.0624939 0.221558 -0.0268301 0.00407639 -0.0845375 -0.010006 0.0685096 -0.00847898 0.0804511 0.138251 -0.0070353 0.0858066 0.210964 0.194135 0.107879 0.146384 0.04549 -0.00750474 0.12172 -0.0329507 0.245902 -0.0170829 0.0226293 0.563609 0.254831 0.0917496 0.566744 0.333043 0.218141 0.494244 0.177775 0.0140384 -0.0259813 0.0733539 0.145704 0.254498 0.0874572 0.485442 0.0546219 0.0770322 -0.935838 -0.00544548 0.137558 0.0318226 0.17099 0.268648 0.0190739 0.00717089 0.0542931 0.00219664 0.0161002 -0.125205 -0.0762867 0.0179097 -0.157741 0.183329 -0.151356 -0.105112 0.329183 0.0122912 -0.0728598 0.385225 0.134208 0.200907 0.161565 0.00826162 -0.092892 -0.151425 -0.0627541 -0.0246626 0.148154 -0.02633 0.098444 -0.0839215 -0.079352 -0.11328 -0.0778347 -0.0126124 -0.0833666 0.014405 -0.0680108 -0.12976 0.0181158 -0.0954748 -0.20667 -0.136906 -0.171706 -0.0447314 -0.161262 0.115022 -0.171832 -0.11073 0.246618 -0.0543859 -0.17311 0.254465 0.149616 0.0908252 0.0943625 -0.0843935 -0.176333 -0.208676 -0.130711 -0.07513 0.131538 -0.0768555 -0.0194465 -0.179871 -0.202944 -0.238262 -0.172479 -0.0693288 -0.238 0.0209243 -0.0229988 -0.141383 -0.131088 -0.0118206 -0.139109 -0.183291 0.0150109 -0.163626 0.0510111 -0.184584 -0.175654 0.431159 0.00807622 -0.125072 0.546895 0.295006 0.169197 0.0870774 -0.0375702 -0.317787 -0.131322 -0.234222 -0.0944997 0.1974 -0.0555036 0.145832 -0.152885 -0.0887515 -0.216286 -0.204105 -0.056208 -0.224907 0.0679302 -0.167743 -0.116263 0.0634354 -0.0275732 -0.133606 0.0241344 -0.0980978 0.108083 -0.0881284 -0.0134787 0.42019 0.121628 0.0281658 0.4032 0.34728 0.207039 0.18839 -0.031377 -0.0727153 -0.125 -0.0662027 0.0116025 0.133721 0.0308691 0.20817 -0.119129 0.0277848 -0.142586 -0.187969 0.0652861 -0.0816165 0.0404687 -0.0771936 -0.0422156 -0.133136 -0.141513 -0.0300868 -0.188971 0.0990768 -0.181457 -0.144011 0.381299 0.00143699 -0.0894854 0.304663 0.16603 0.0803979 0.187387 -0.0346337 -0.182369 -0.191591 -0.131057 -0.0619676 0.0821202 -0.0280343 0.169158 -0.147474 -0.122365 -0.189252 -0.144201 -0.0449497 -0.151077 -0.0269718 0.00640529 -0.134432 -0.0224211 0.0454371 -0.0462706 0.245477 -0.0389545 0.0147486 0.375089 0.0930086 0.0307435 0.401662 0.278177 0.214419 0.189296 0.0545314 -0.0212486 -0.0820341 0.00135763 0.0502434 0.236638 0.0488032 0.150997 -0.0170249 0.0377606 -0.055891 -0.0203119 0.0571945 -0.0313062 0.129375 0.142445 -0.00319633 0.134004 -0.02793 0.227678 -0.00883758 0.0292625 0.423273 0.153981 0.0744935 0.466775 0.711728 0.61166 0.247339 0.139316 0.00656945 -0.0348375 0.0596523 0.110836 0.250478 0.0756364 0.279265 0.0382354 0.0754118 -0.0304623 -1.00153 0.105291 0.0223645 0.137176 0.26023 0.0105675 -0.149338 0.163723 -0.13775 -0.0841346 0.404988 0.0291472 -0.0213274 0.656626 0.317497 0.244608 0.141626 0.00520806 -0.143106 -0.909637 -0.0873086 -0.0350317 0.262382 0.00476041 0.202469 -0.128684 -0.0413044 -0.141376 -0.121771 -0.0506835 -0.0995842 0.139463 0.0831455 -0.10109 0.322365 0.0173346 0.0511142 0.432442 0.16643 0.0993531 0.556833 0.46446 0.442755 0.200998 0.115338 0.0251987 0.00182535 0.0673265 0.0980175 0.356363 0.0958928 0.26108 0.0437309 0.120299 0.0140648 0.012606 0.0901507 0.0628694 0.221536 0.22949 0.0427426 -0.274774 -0.202866 0.196898 -0.151861 -0.132777 0.248318 0.0850779 0.055003 0.00718438 -0.148744 -0.191026 -0.265432 -0.165995 -0.117725 0.018796 -0.164894 -0.15052 -0.221663 -0.120039 -0.292353 -0.221517 -0.0681023 -0.164479 -0.103668 -0.0273468 -0.237396 0.0381483 0.354184 0.131376 0.0899246 0.376437 0.42873 0.375702 0.220494 0.129401 0.0153661 -0.0210798 0.0478196 0.0824708 0.252304 0.0831653 0.243788 0.0334646 0.103845 -0.00637153 0.00163739 0.0766687 0.0462086 0.130489 0.207529 0.0309037 0.417419 0.110993 0.0449802 0.414898 0.353575 0.285447 0.140113 0.0881765 -0.0189402 -0.0664524 0.028244 0.0699618 0.261628 0.0445037 0.21496 -0.0102447 0.071537 -0.0444667 -0.0325443 0.0598908 0.00244463 0.126885 0.223548 -0.00837767 -0.373691 -0.291888 -0.0848122 -0.0612638 -0.156772 -0.352265 -0.536224 -0.425389 -0.482157 -0.40337 -0.366683 -0.29772 -0.384053 -0.167611 -0.563676 -0.286079 -0.6217 -0.417552 -0.429293 -0.395552 -0.293107 -0.307486 -0.323471 -0.053252 0.377916 0.177169 0.0761366 0.16804 -0.0838974 -0.172235 -0.165023 -0.112303 -0.0731857 0.075451 -0.0918337 0.180769 -0.147086 -0.0381939 -0.259177 -0.151725 -0.0590184 -0.115866 0.0112288 0.03249 -0.108417 0.205453 0.225588 0.129615 0.16758 0.0121572 -0.0829914 -0.122812 -0.0438635 0.0102044 0.132452 -0.00187892 0.145778 -0.0821173 0.0246704 -0.120359 -0.0799666 0.0212269 -0.114195 0.0327528 0.119234 -0.0600723 -0.0851608 -0.156884 -0.405027 -0.496633 -0.524376 -0.763007 -0.421169 -0.374973 -0.348113 -0.482657 -0.306906 -0.565626 -0.30989 -0.624446 -0.477893 -0.429253 -0.386914 -0.456443 -0.326778 -0.437559 -0.805492 -0.139677 -0.280911 -0.437428 -0.443829 -0.351689 -0.307166 -0.137314 -0.249376 -0.120205 -0.337439 -0.186575 -0.371175 -0.733132 -0.342707 -0.312105 -0.223778 -0.20861 -0.289673 -0.016634 -0.112846 -0.320519 -0.374092 -0.215027 -0.176175 -0.0750578 -0.1856 0.0051239 -0.177669 -0.130001 -0.261437 -0.626399 -0.214771 -0.206165 -0.17632 -0.0781731 -0.250883 -0.264929 -0.230023 -0.287331 -0.215634 -0.164775 -0.0441175 -0.189594 0.570258 -0.336578 -0.13249 -0.568589 -0.247701 -0.139065 -0.253967 -0.0865296 -0.0645357 -0.180984 -0.123466 -0.148297 -0.0996606 -0.0142041 0.11829 -0.0240295 0.233424 -0.896303 -0.06708 -0.223576 -0.148023 0.0044126 -0.122788 0.0171212 0.00261162 -0.0719611 -0.0229988 0.0368942 0.118667 0.24715 0.067434 0.254815 0.0183205 0.097532 -0.0508029 -0.00992495 0.136071 0.0172826 0.125353 0.234903 0.0150473 0.0655883 0.115653 0.416265 0.159022 0.345156 0.0114865 0.119278 0.0164808 0.0516312 0.110551 0.0625608 0.261222 0.256609 0.0495389 0.995576 0.254961 0.027943 0.260264 -0.037894 0.0639211 -0.11301 -0.0414779 0.155636 -0.0650965 0.126393 -0.0665194 -0.00954849 0.208421 -0.0116386 0.212001 -0.116885 0.0142048 -0.173379 -0.102434 0.0698235 -0.110621 0.0823508 -0.115998 -0.0424598 -0.133168 0.0568816 -0.215444 -0.140819 -0.275868 -0.248672 -0.15171 -0.228125 0.0645483 -0.0717776 -0.223508 0.196006 -0.0788424 0.0150818 -0.119917 -0.0788436 0.0175229 -0.114448 0.0537922 0.0944398 -0.0636346 -0.318503 -0.102577 -0.559485 -0.287595 -0.187947 -0.226708 -0.0992138 -0.117187 -0.195824 0.0686043 -0.123444 -0.0357442 0.110329 0.00781119 0.115659 0.161201 -0.00207809 -0.10336 -0.0814296 -0.00250745 -0.0741662 0.0208811 0.0708066 -0.0746253 0.0357918 0.160566 0.0888435 0.188899 0.291268 0.033397 0.105825 0.0357641 0.128914 0.27786 0.0116664 -0.117179 0.0306114 -0.70203 -0.0633596 0.127404 0.226265 -0.00555854 0.0465388 -0.0955377 -0.166085
label 0 57 40 53 48 33 21 9 5 1 15 10 13 18 2 30 23 24 6 8 55 56 54 38 37 44 41 50 22 12 7 46 45 3 14 27 4 59 36 39 35 52 26 34 25 28 19 32 58 16 31 60 51 29 11 20 43 47 42 17 49
nr_sv 27 28 21 25 28 24 22 22 17 3 30 27 17 23 29 20 24 27 16 18 30 33 26 34 25 20 38 34 20 21 13 15 29 13 17 23 13 17 30 23 29 22 19 24 34 25 27 18 28 23 22 28 30 15 19 11 15 21 24 6 24
SV
0.5 0.1931145724579834 0.3290921028426125 0.2779311124583111 0.5 0.5 0.5 0.3776025687406775 0.3675244108453665 0.5 0.5 0.07533400105623539 0.2390562156782794 0.5 0.5 0 0.2369067193218133 0.3559931413536138 0.3140705680890409 0.1027258186153958 0.5 0.35966260212495 0.2568603742071776 0.5 0.1593488912776244 0.5 0.4749894504018073 0.03374168109591241 0.4025141045899033 0 0.4629185397309503 0.5 0.2422521348425418 0.0468829030737539 0.139790986062643 0.1409822127682859 0.5 0.5 0 0.2715029689548979 0.05187257429209901 0 0.4284568384253871 0 0.3171462229702445 0.5 0 0 0.2559362026579761 0.5 0.5 0 0.3298257522309216 0.5 0.3318696897216261 0.5 0.5 0.2152802000781968 0.01153937881520432 0 1:-0.340743 2:0.624761 3:0.35424 4:0.822251 5:0.331788 6:-0.351414 7:0.260473 8:-0.267103 9:-0.234262 10:-0.118225 11:0.30456 12:-0.00687554 13:-0.310075 14:0.0499112 15:-0.0464564 16:0.0243485 17:0.065563 18:-0.0861485 19:0.0498894 20:-0.00180334 21:0.429591 22:0.362432 23:0.0499873 24:0.065642 25:-0.00941792 26:0.0103815 27:0.407693 28:0.382503 29:0.579564 30:0.0249092 31:0.0727621 32:-0.0239446 33:0.252431 34:0.562765 35:0.400937 36:0.416177 37:0.61355 38:0.340596 39:0.113269 40:-0.28135 
0.5 0.2749159473354874 0 0.394006186784496 0.140461710101007 0.4919693930051778 0.2339227773424772 0.1518434420560232 0.04783406532907036 0.4137675951188086 0.0194905122076981 0.304171961714286 0.5 0.3888586836347752 0.4155093073755693 0.3311161503992618 0.4075146593046099 0.2767350130455128 0.2687763900285464 0.5 0.3437046504331402 0.3550268527269395 0.4256311637313312 0.0392226899837766 0.5 0.5 0.3558739739301409 0.3258137572918012 0.387201448600314 0 0.5 0.2356898067557722 0.2034407709322847 0.4279181315973646 0 0.1546500906856522 0.2157713004804643 0.07042544785592676 0.08033361619329307 0.05445731027057756 0.4345987099751489 0.3893095185030018 0.2738401965510103 0.5 0.4007054778178178 0.2621845552621459 0.4937681908698702 0.4773926218682159 0.4217969086871967 0.5 0.4261637607743494 0.5 0.462940422248309 0.09182759157461984 0.4651354397722361 0.375938490826342 0.393147692229188 0.5 0.2433590024003912 0.3152561450490916 1:-0.354931 2:0.626535 3:0.413016 4:0.855678 5:0.236458 6:-0.210741 7:0.268797 8:-0.209727 9:-0.351032 10:0.0627036 11:-0.0441665 12:0.140409 13:-0.0561283 14:-0.244631 15:-0.157006 16:0.173121 17:-0.0720357 18:-0.00453979 19:-0.0500515 20:0.0974017 21:0.31013 22:0.288126 23:-0.0389675 24:0.0744479 25:0.0474616 26:-0.232739 27:0.114964 28:0.698363 29:0.286438 30:-0.242234 31:0.259139 32:-0.258042 33:0.253011 34:0.149103 35:0.45881 36:0.644482 37:0.358829 38:0.296075 39:-0.0838304 40:-0.0391915 
0 0.01280511793105947 0.4053989450371631 0.1563877724781898 0.3665913449870598 0.5 0.3576499446140183 0 0 0 0 0 0.05290405030236127 0 0 0.007836456421860084 0.1299126032271382 0.2047676253327667 0.07750109991700919 0 0 0.0432524995402709 0 0 0 0 0.1418948813532841 0.149117840379413 0 0.3457570643422768 0 0.2965343009474219 0.01478193120422745 0.005506754709643152 0.2223374421546116 0 0.2961161028437151 0 0 0.4755668912484863 0 0 0.2522140577459574 0.5 0.05503592398982341 0.1979733058407992 0 0 0.09808622312319563 0 0 0.5 0 0 0 0 0.4851346041497436 0 0 0.01398629840156914 1:-0.0561636 2:0.0481661 3:0.51053 4:0.682229 5:0.397136 6:-0.322201 7:0.319184 8:-0.208694 9:-0.334899 10:0.0793854 11:-0.192597 12:0.185858 13:-0.0534034 14:-0.211175 15:-0.199927 16:0.222753 17:-0.0880285 18:-0.127822 19:0.0168405 20:-0.0513589 21:0.281547 22:0.288209 23:-0.149488 24:-0.0582969 25:0.0462873 26:-0.271403 27:0.000611729 28:0.51908 29:0.2659 30:-0.454122 31:0.152373 32:-0.658548 33:0.373332 34:-0.115447 35:0.449113 36:0.494705 37:0.271667 38:-0.091353 39:0.265366 40:0.0757398 
0.2230022454734059 0 0 0.476741186238502 0 0.251897986078314 0 0.5 0.01000408671163616 0.5 0.4616735522961712 0.1461698065375435 0 0.2331997660218391 0.5 0 0.1552143456076039 0.03602890208873958 0 0 0.5 0 0.5 0.4163214788489966 0 0.4962055222423645 0 0.5 0.5 0.1275386448816664 0 0 0.1265682573158102 0 0.1254610198831665 0.2382366158432413 0 0.5 0.08526942947357866 0 0 0 0.275311247547554 0.2523396897438974 0 0.04396603267972456 0.1788715454396322 0.2292031279244471 0.5 0.1917751154887763 0.06593695588204605 0.3857014941682814 0 0.3115815795216381 0.06307715748230219 0 0.4646039878646899 0.5 0 0 1:-0.561516 2:0.694876 3:0.427315 4:0.647318 5:0.0220985 6:-0.393678 7:-0.0622897 8:-0.421221 9:-0.123636 10:0.111716 11:-0.501702 12:-0.108232 13:-0.107165 14:-0.27925 15:-0.10337 16:0.122728 17:-0.0683513 18:-0.119613 19:0.076059 20:0.0296869 21:0.49958 22:0.225814 23:0.254271 24:-0.121369 25:-0.0367067 26:-0.144048 27:0.212844 28:0.387619 29:0.365584 30:-0.27359 31:-0.0462554 32:0.059674 33:0.0770744 34:0.291178 35:0.201339 36:0.421528 37:0.481862 38:0.197622 39:-0.031069 40:-0.175102 
0.1793973611579195 0.2465651696663606 0.3092275596456681 0.01931536015144278 0.3844402687636642 0.07423321340727609 0.1060099630970794 0.2309950424875156 0.02933003168745642 0 0.06331445705031169 0.009457383253188385 0.1974694467920242 0.2729827789475678 0 0.150286342508977 0 0.2937968643706763 0.3388382152765948 0.04430373908358701 0.02268580239581658 0.0905465310610573 0.1093444288060153 0.2352045626291159 0.0552141268654931 0.004459976409690602 0 0 0.2175218588432936 0.04079731911575336 0.1099770083489614 0.2325977110849058 0 0.2190312968069136 0.1910081013056772 0.1761286556660858 0.3866963255571255 0.08947746485368097 0 0.1541946786859454 0.2026941052248999 0.2311038316018721 0.2803749075718891 0.1664817807964172 0.06326523172840201 0.1864448757345476 0.01503419298471308 0.09008881250425423 0.3002835502725594 0.1676635420250352 0.142605580344709 0.1073426211341339 0.02902145923313633 0.2176072076657304 0.09913096465081228 0.2638529029374214 0 0.2192732645650181 0.1391580604208369 0.160761608824557 1:-0.231145 2:-0.22325 3:0.443724 4:0.517768 5:0.107688 6:-0.865473 7:-0.195779 8:-0.712224 9:-0.23816 10:-0.0195809 11:-0.825541 12:-0.20028 13:-0.727924 14:-0.28408 15:-0.228793 16:0.0279196 17:-0.394327 18:-0.569994 19:0.0440311 20:-0.0900914 21:0.0182331 22:0.300939 23:0.00033959 24:-0.577209 25:-0.189828 26:-0.27359 27:0.0335628 28:-0.0153066 29:-0.251484 30:-0.279736 31:-0.281519 32:-0.957439 33:0.215604 34:-0.402238 35:0.446846 36:0.00307954 37:0.204532 38:-0.399079 39:0.197196 40:0.253016 
0 0.1236637337915308 0 0 0 0 0 0 0 0 0 0 0 0 0 0.1137681902655511 0 0 0 0.02635344751157689 0 0 0 0 0 0 0 0 0 0.1929683095625109 0 0.01575049509340943 0 0.2233731963299481 0 0 0.01639088259535034 0 0.007814703486438626 0 0 0 0 0 0 0 0 0 0 0 0.248983561643126 0 0.1483023009307795 0 0 0 0 0 0 0.1212668900471145 1:-0.145726 2:-0.00792744 3:0.536943 4:0.572065 5:0.292884 6:-0.517701 7:0.185308 8:-0.18685 9:-0.254494 10:0.0253 11:-0.172581 12:-0.147451 13:-0.202378 14:0.0552815 15:-0.392613 16:0.095451 17:0.0499551 18:-0.33858 19:0.0582014 20:0.0440659 21:0.214365 22:0.246665 23:0.167524 24:-0.388671 25:-0.050123 26:0.117038 27:0.16789 28:-0.0825398 29:0.0512383 30:0.462942 31:-0.0471456 32:-0.784479 33:0.454491 34:-0.0399187 35:0.484199 36:0.284141 37:0.504311 38:-0.0223097 39:0.0417122 40:0.0827085 
0 0 0 0.1853700934532927 0 0 0 0.01336857801514818 0 0 0 0 0 0 0 0 0 0 0 0 0 0 0 0 0 0 0 0.3693709371362247 0 0 0 0 0 0 0 0 0 0 0 0 0 0 0 0 0 0 0.1366126264643787 0.1849452546296266 0 0 0 0 0 0 0 0.006404447040129697 0 0 0 0 1:-0.226884 2:0.0204486 3:0.565593 4:0.743402 5:0.250952 6:-0.601865 7:0.198332 8:-0.31752 9:-0.242239 10:-0.140585 11:0.0976654 12:0.105508 13:-0.561302 14:0.00227098 15:-0.2013 16:0.0457168 17:0.0883694 18:-0.318109 19:0.107832 20:-0.0528628 21:0.287266 22:0.41236 23:0.0632696 24:-0.309159 25:0.150373 26:-0.1821 27:0.324106 28:0.310623 29:0.13581 30:0.327744 31:-0.203834 32:-0.253765 33:0.465319 34:-0.140999 35:0.64223 36:0.471366 37:0.611199 38:-0.0129107 39:0.286952 40:-0.62912 
0 0 0 0 0 0.5 0 0 0 0 0 0.102040785181966 0 0.196207617712635 0 0 0 0 0 0.2335460192482614 0.06269300951144564 0 0 0 0 0 0.07253513456683185 0 0 0 0 0.4726370838483229 0 0 0 0.01682431714171525 0.01450229546881434 0 0.0527461857544035 0 0 0 0 0.5 0 0.4235520918360727 0.5 0.5 0.1643528156729497 0 0 0.5 0.1792191770609095 0 0 0.3773649030709582 0.5 0.2199272548646844 0 0 1:-0.247355 2:0.0696695 3:0.518431 4:0.511568 5:0.265311 6:-0.548509 7:0.185266 8:-0.519022 9:-0.231359 10:-0.050793 11:-0.242879 12:0.0579883 13:-0.332168 14:-0.315029 15:-0.186261 16:0.0999126 17:-0.0547612 18:-0.184949 19:0.0232939 20:0.0623684 21:0.324938 22:0.266107 23:0.17745 24:-0.239454 25:0.0561607 26:-0.0220509 27:0.158961 28:0.26715 29:0.372098 30:0.114218 31:0.021356 32:-0.110109 33:-0.0383433 34:0.602851 35:0.469236 36:0.352833 37:0.395762 38:0.227294 39:0.195789 40:-0.402707 
0 0.1168448844339098 0 0.04126680898485103 0 0.3351232521596078 0 0.03538104082333463 0 0 0 0.03771203699546919 0 0.1276560156996402 0 0 0.3829684689871174 0 0 0 0 0.0480203600654467 0 0 0 0 0.3651384999698047 0 0 0 0 0 0 0.1679744728442401 0 0 0 0 0.2083615940781144 0 0 0 0.2090156733705081 0.4916448660050428 0.02384015643792749 0 0.1486875826331292 0.2339012843648306 0 0 0.1537533627987435 0.5 0 0 0 0.05907770510685557 0.1016460368148553 0 0 0 1:-0.161296 2:0.114478 3:0.496943 4:0.781914 5:0.356872 6:-0.461674 7:0.233733 8:-0.133005 9:-0.317839 10:-0.0696841 11:0.0161243 12:0.277119 13:-0.36383 14:-0.308305 15:0.0626409 16:0.182428 17:-0.203814 18:-0.0181379 19:0.0988615 20:-0.187746 21:0.428917 22:0.239928 23:0.197414 24:-0.267338 25:0.131749 26:0.0439239 27:0.083897 28:0.394803 29:0.34345 30:0.21326 31:-0.00533772 32:-0.388619 33:0.485933 34:0.0201829 35:0.67593 36:0.314696 37:0.555708 38:0.23504 39:0.164311 40:-0.373997 
0.3405475316281512 0.3314592323277097 0.2568661861174501 0.1036219292312643 0.3030589038348554 0.1914151551310396 0.2146480094496678 0.5 0.06574649283760463 0.2107564033918213 0.296147060773477 0.409184896830161 0.3023838700341279 0.3880473298386373 0.2546715840567092 0.234881637475687 0 0.2311453591821034 0.3198469806109855 0.3305117160785833 0.2674849937723236 0.1555813963729696 0.1678989628588639 0.1162045850296475 0.2138555789554952 0.1721393948656641 0.0858871893956784 0.1422854652713956 0.1679245304967151 0.1734906160123513 0.1184602141442896 0.2011535170245026 0.05783189979563634 0.3270321523463641 0.1947540181960547 0.1728315841567122 0.2735804297596918 0.2588778581281988 0.2980456500439115 0.4505818297004743 0.2974694801216721 0.2448962446664944 0.2686973205652793 0 0.1668246655088162 0.1309978414507023 0.5 0.5 0.2286253977026098 0.2904566342054394 0.2235879048295863 0 0.3146025907739268 0.0577274359400407 0.1563043222153195 0.4621016292402735 0.1747660224989624 0.2213836194730055 0.2606119316083481 0.2325158832998485 1:-0.620743 2:0.365273 3:0.451637 4:0.278034 5:-0.102898 6:-0.796367 7:-0.297266 8:-0.661774 9:-0.476138 10:-0.0342266 11:-0.518662 12:-0.501934 13:-0.850868 14:0.361969 15:-0.314366 16:-0.236662 17:0.0801897 18:-0.0300848 19:-0.0454456 20:-0.0563169 21:0.79252 22:0.455721 23:0.154055 24:0.0896552 25:0.113282 26:-0.0547683 27:0.650016 28:0.514416 29:0.490113 30:0.108533 31:0.272851 32:0.168034 33:0.737368 34:0.365225 35:0.432986 36:0.712817 37:0.616366 38:-0.145088 39:0.945137 40:-0.744518 
0.5 0.5 0.5 0.5 0.5 0.5 0.5 0.5 0.2803763258602711 0.5 0.5 0.5 0.5 0.5 0.5 0.5 0.5 0.5 0.5 0.4663590055680501 0.5 0.5 0.5 0.5 0.5 0.5 0.5 0.5 0.5 0.5 0.5 0.5 0.5 0.5 0.4596569433450721 0.5 0.5 0.5 0.5 0.5 0.5 0.5 0.5 0.5 0.5 0.5 0.5 0.5 0.5 0.5 0.5 0.5 0.4824856391476686 0.5 0.5 0.5 0.5 0.5 0.4087370881347099 0.5 1:-0.0818227 2:-0.699777 3:0.374849 4:0.664035 5:0.325598 6:-0.220572 7:0.310736 8:-0.00596703 9:-0.110982 10:0.16749 11:0.578493 12:0.321194 13:0.198491 14:0.410357 15:-0.0214682 16:0.0863405 17:-0.445281 18:-0.521489 19:-0.435891 20:-0.773156 21:-0.509332 22:-0.340262 23:-0.153357 24:0.221532 25:0.414855 26:0.531215 27:0.627158 28:0.883077 29:0.892186 30:0.724708 31:0.213597 32:-0.258998 33:-0.261839 34:-0.539936 35:0.122948 36:0.33281 37:0.239601 38:-0.110756 39:0.235856 40:0.220176 
0 0 0 0.5 0 0.5 0 0.3240608154040882 0.007344649265755572 0.1295648019061426 0 0.5 0 0 0.1995666349828069 0 0.5 0 0 0 0.2224080571664062 0.5 0.3125324932909623 0.470447832040823 0 0.232015044656372 0.5 0.5 0.1783066585521501 0 0 0 0 0 0 0 0 0 0.5 0 0 0 0 0.5 0.5 0 0.5 0.5 0 0 0 0.5 0 0.4550292246816135 0 0.5 0.5 0 0.5 0 1:-0.240777 2:0.0855336 3:0.526332 4:0.637267 5:0.31448 6:-0.590658 7:0.182532 8:-0.320897 9:-0.352732 10:0.00456619 11:-0.0710726 12:0.0329109 13:-0.386082 14:-0.196481 15:-0.0188339 16:0.0339316 17:0.0178277 18:-0.0987288 19:-0.0417949 20:0.135615 21:0.392555 22:0.356191 23:0.0954924 24:-0.0352967 25:-0.0384909 26:0.127749 27:0.283027 28:0.455557 29:0.482443 30:0.0529668 31:0.0708383 32:0.170444 33:0.0815807 34:0.473462 35:0.629839 36:0.458744 37:0.532208 38:0.305179 39:0.0633684 40:-0.315475 
0.09275743587986146 0.3629773132268944 0.2689578054255781 0.242753123592633 0.367592159095084 0.1296355165724913 0.4499727406633757 0.2010050992345776 0.06616109056100189 0.2807070235463313 0.3514755874977193 0.2234634558653073 0.4397099733399665 0.4834267269267508 0.4197362435481172 0.0967973169321303 0.3253529703227328 0.2977231336423476 0.185237238187842 0.2085689327196953 0.4059237794453668 0.1794538467342632 0.4283300439247058 0.2444585078196311 0.3572380701704861 0.2992341329223782 0.4091786050513391 0.2527531243067964 0.4242682082469136 0.3893802503267927 0.316637459025603 0.2148926845231026 0.3804923723490967 0.3691069231268443 0.2139519261067633 0.2512281798964091 0.3576867750238879 0.3231995515203281 0.1889551053223587 0.5 0.3683201360386162 0.3520343924801305 0.3465944244467549 0.5 0.2096084238056302 0.1246875643514478 0 0 0.3003939870240029 0.1036838551534827 0.389468409079044 0.5 0.1874096493096791 0.2658208517763895 0.2224199680822963 0 0.07796354477924335 0.2684019462868621 0.07553033010632232 0.0867301426258839 1:-0.301578 2:-0.0635177 3:0.480361 4:0.516572 5:0.188197 6:-0.968371 7:-0.115515 8:-0.349745 9:-0.466414 10:-0.0409963 11:-0.133787 12:-0.439482 13:-1 14:0.310874 15:-0.331081 16:-0.310116 17:0.0395723 18:-0.639554 19:-0.171641 20:0.0257137 21:-0.00411151 22:0.285573 23:-0.0276287 24:-0.659794 25:-0.302262 26:-0.0962071 27:0.0138567 28:-0.343389 29:-0.0140017 30:-0.638221 31:0.103552 32:-0.88404 33:-0.121153 34:-0.291456 35:0.377178 36:0.0955105 37:0.264073 38:-0.36467 39:0.281723 40:0.0779465 
0.334939842901574 0 0 0.2971646761268854 0 0 0.01726837647763059 0.2329593866191339 0.1157614068934803 0.3439617917030702 0.3440612932498701 0.219425369513753 0.05710757582011926 0.1057928320228706 0 0.07743510030148726 0.5 0.008931251734454247 0 0.1013290596341464 0.02891165594899673 0.2682937635541537 0.2837714570273699 0 0.03850250048407104 0.1996320019667576 0.5 0.4919049406942739 0.3536161655405107 0.3564599490211643 0.004349968780289109 0.1025207307720836 0 0.03940853771704449 0 0.164601250184695 0 0.236879315554645 0.2414875185355316 0.2025358919927236 0.224142516957114 0.2508390989575855 0.1472844814315707 0.5 0.2161752416222444 0.08693611166366494 0 0 0 0.2608142882705542 0.09538775194627117 0.2559845591367984 0.08832691974913205 0 0.04802740239018782 0.5 0 0 0.5 0.08045784499417101 1:-0.454322 2:0.678958 3:0.443285 4:0.768164 5:0.183136 6:-0.313668 7:0.121111 8:-0.164042 9:-0.39108 10:0.130019 11:0.159551 12:-0.193959 13:-0.302427 14:0.198302 15:-0.211935 16:-0.039166 17:0.0439832 18:0.0782698 19:-0.190295 20:0.25427 21:0.1768 22:0.546993 23:-0.121394 24:0.0203308 25:-0.0901433 26:-0.013548 27:0.294866 28:0.403726 29:0.0892958 30:0.112712 31:0.337604 32:-0.483374 33:0.22193 34:0.186894 35:0.716518 36:0.351683 37:0.455384 38:0.338809 39:-0.153936 40:-0.0880432 
0 0 0 0 0 0 0 0 0 0 0 0 0 0 0.1773872029276987 0 0 0 0 0.4465599252548513 0.1732763250202937 0 0.04198431459164262 0 0 0 0 0 0 0.07907431508433151 0 0 0 0 0 0 0 0 0 0 0 0 0 0 0 0 0 0 0 0 0 0 0.2191550905568232 0 0 0 0 0 0 0 1:-0.500013 2:0.699773 3:0.454007 4:0.638624 5:0.225203 6:-0.465727 7:0.112771 8:-0.215304 9:-0.293638 10:-0.0488614 11:-0.023529 12:0.119336 13:-0.379362 14:-0.0847069 15:-0.177274 16:0.0731746 17:-0.0767426 18:-0.0145677 19:0.187234 20:-0.141899 21:0.24345 22:0.414021 23:0.22038 24:0.0111907 25:-0.289865 26:0.0661342 27:0.229861 28:0.256999 29:0.480963 30:-0.109423 31:0.108657 32:-0.25566 33:0.32874 34:0.189665 35:0.298865 36:0.652928 37:0.257133 38:0.329258 39:0.0720056 40:-0.368078 
0 0 0 0.06270572262435359 0 0.1432705573614583 0 0 0 0 0 0 0 0 0 0 0 0 0 0 0 0.09282559834806509 0 0 0 0 0 0.03056641376438003 0 0 0 0.03008891041075656 0 0 0 0 0 0 0 0 0 0 0 0.02943467819687309 0.04082486291340678 0.1005502434365103 0.04459879390535787 0.05158129589699582 0 0 0 0 0 0 0 0 0.03802649490571585 0 0 0 1:-0.503284 2:0.236833 3:0.43241 4:0.423292 5:-0.0121211 6:-0.877747 7:-0.119115 8:-0.691288 9:-0.387059 10:0.00596568 11:-0.366227 12:-0.759041 13:-0.485439 14:0.1607 15:-0.412091 16:-0.168474 17:0.0836386 18:-0.285991 19:-0.1151 20:0.050346 21:0.496384 22:0.42033 23:0.0528977 24:-0.267249 25:0.0876744 26:-0.110452 27:0.414931 28:0.199261 29:0.278831 30:-0.0481365 31:-0.0199765 32:0.0758973 33:0.28845 34:-0.0262669 35:0.763853 36:0.307912 37:0.542889 38:-0.368377 39:0.89681 40:-0.481411 
0 0 0 0.5 0 0.01079331876793987 0 0 0 0 0 0 0 0 0 0 0 0 0 0 0 0 0 0 0 0 0 0.5 0 0 0 0 0.114987087206718 0 0 0.06704141998788703 0 0 0 0 0 0 0 0.5 0 0 0 0 0 0 0 0.5 0 0 0 0.1448542293504185 0.05764359509515108 0 0 0 1:-0.407471 2:0.168383 3:0.535036 4:0.370769 5:0.153356 6:-0.833505 7:0.0102635 8:-0.553766 9:-0.318671 10:-0.0678159 11:-0.355368 12:-0.18001 13:-0.602312 14:0.223171 15:-0.253227 16:-0.219768 17:0.102345 18:-0.133273 19:-0.00552127 20:0.0148142 21:0.206096 22:0.428477 23:0.226617 24:-0.282272 25:-0.159434 26:-0.138702 27:0.349345 28:0.111596 29:0.138464 30:-0.00251383 31:-0.457099 32:-0.113746 33:-0.0588063 34:0.0656129 35:0.395514 36:0.183181 37:0.276403 38:-0.019525 39:0.363611 40:-0.485029 
0.08483706804852674 0.1827381196714856 0.2748479605328166 0.446666085335745 0.2512071538353101 0.1699573218822258 0.07650955472844902 0.2039710552623381 0.01902419715062896 0 0.1092233193627127 0.09096914085668184 0.07788065389112699 0.1401559167417932 0.2233245205315984 0.2363608156462367 0 0.2462033185105742 0.1910031487874014 0 0.2718352721224489 0.09243370869610801 0 0 0.04593808851022158 0 0.08165754365402404 0.4525563790077228 0.03730092786832696 0.04979254596965974 0.4912975282730259 0.03224848187243471 0.1048682534925381 0.1829699255834006 0.2457804972127121 0.09436180904634688 0.2961574692976716 0.1105277178729718 0.08118788874412422 0.1130802055469163 0.184270323504447 0.2616374936663563 0.1545299254891198 0.2836225792501669 0.1205752628880042 0 0 0.01304738923662294 0.1613396154591687 0.07137366738720974 0.2100726152974354 0.1387067812044454 0.01419942396135827 0.01308579635061265 0.4591638559263118 0.06075950372199423 0.08128877069533116 0.115597978927039 0.07826152639472735 0.2227554541834239 1:-0.673398 2:0.703717 3:0.514076 4:0.134922 5:0.0946664 6:-0.471006 7:-0.333546 8:-0.571476 9:-0.224583 10:0.231568 11:-0.893661 12:-0.156257 13:-0.491299 14:0.00289265 15:-0.285475 16:0.0663547 17:-0.0928868 18:-0.0274581 19:-0.157324 20:0.0860248 21:0.781526 22:0.0414104 23:0.406292 24:-0.108214 25:-0.21622 26:0.20454 27:0.179848 28:0.427966 29:0.480002 30:-0.405407 31:-0.00971288 32:0.14913 33:0.445538 34:0.0763439 35:0.124662 36:0.760565 37:0.379107 38:0.00300031 39:0.429251 40:-0.427493 
0 0 0 0 0 0 0 0 0 0 0 0 0 0 0 0 0 0 0 0 0 0 0 0 0 0 0 0 0 0 0 0 0 0 0 0 0 0 0 0 0 0 0 0 0 0 0.2341324995692688 0.1450705365681912 0 0 0 0 0.01772348745570585 0 0 0.258759635679184 0 0 0.07409916408661772 0 1:-0.361634 2:0.313147 3:0.521835 4:0.64953 5:0.222126 6:-0.471271 7:0.135426 8:-0.414579 9:-0.293372 10:0.053567 11:-0.204641 12:0.181687 13:-0.483485 14:-0.0240253 15:-0.0349807 16:-0.118647 17:0.184191 18:-0.140706 19:0.135364 20:-0.0660771 21:0.507549 22:0.342859 23:0.204177 24:0.0731376 25:-0.132646 26:0.149271 27:0.397794 28:0.523704 29:0.368029 30:-0.00388286 31:0.623505 32:-0.226972 33:0.358473 34:0.156635 35:0.862606 36:0.684836 37:0.480857 38:0.126157 39:0.105278 40:-0.0291975 
0.3473370800304811 0 0.2216150790624163 0.5 0.5 0.5 0.2014216138975047 0.3652922859914887 0.4697666224623545 0.5 0.2461586921791829 0.4657844768841309 0.390732344540404 0.03054874602878497 0.5 0 0.5 0.3967914928338516 0 0 0.5 0 0.2767141365985331 0.5 0.1927335180989777 0.5 0.5 0.5 0.4151748581903777 0 0.5 0.5 0 0 0 0 0.5 0.2055595983611834 0.03313767657909383 0.272340373982802 0.3511988670813748 0.5 0.5 0.5 0.08855943179418972 0.5 0.4980717984853736 0.5 0.5 0.4110354324677307 0.5 0.5 0 0.5 0.5 0.5 0.5 0.5 0.4914457941172423 0 1:-0.164454 2:0.0981708 3:0.514051 4:0.576429 5:0.276937 6:-0.444808 7:0.319146 8:-0.280349 9:-0.358735 10:-0.100993 11:-0.029376 12:0.0558259 13:-0.22705 14:-0.0771126 15:-0.156487 16:-0.0698865 17:0.108117 18:-0.0967287 19:0.089075 20:-0.0962349 21:0.47733 22:0.232372 23:0.18691 24:-0.0952045 25:0.0472002 26:0.0306091 27:0.222292 28:0.472526 29:0.139202 30:0.19411 31:-0.0832382 32:-0.1563 33:0.215636 34:0.336818 35:0.380396 36:0.475349 37:0.381407 38:0.312352 39:0.122535 40:-0.208638 
0 0 0 0 0 0 0 0 0 0 0 0 0 0 0 0 0 0 0 0 0 0 0 0 0 0 0 0 0 0 0 0 0 0 0 0 0 0 0 0 0 0 0 0.5 0 0 0.1492805028300911 0.2307347360435221 0 0 0 0.4028567077797878 0 0 0 0.5 0 0 0.1929456104940107 0 1:-0.501379 2:0.194068 3:0.555389 4:0.257286 5:0.00404809 6:-0.684316 7:-0.186338 8:-0.625439 9:-0.32091 10:-0.0891015 11:-0.511526 12:-0.316253 13:-0.527678 14:-0.00475791 15:-0.214803 16:-0.0477637 17:-0.076849 18:-0.185908 19:0.0456599 20:0.109479 21:0.452247 22:0.409503 23:0.164998 24:-0.0359259 25:-0.0472427 26:0.0672694 27:0.375986 28:0.371835 29:0.313751 30:0.173035 31:-0.00732255 32:0.0784136 33:0.278572 34:0.354542 35:0.465906 36:0.530419 37:0.359026 38:0.292541 39:0.175 40:-0.308013 
0 0.05431069466317566 0 0.3195618519013234 0.236246404000294 0.3216780418984068 0.06274249669872625 0.329964918228777 0 0 0 0 0 0 0 0 0 0 0 0 0 0 0 0 0 0 0 0 0 0 0 0 0 0 0 0.01338041453193666 0.1621611344014361 0 0 0.1742258917126934 0 0 0 0.5 0 0 0.1722955474499374 0.02997209477523862 0.4812790907279221 0 0 0.5 0 0 0 0.5 0.424427840019198 0.2944253140250053 0 0 1:-0.131266 2:0.140727 3:0.503523 4:0.702582 5:0.432867 6:-0.36535 7:0.312986 8:-0.256332 9:-0.36229 10:0.0807788 11:0.0213769 12:0.193207 13:-0.423654 14:0.00524355 15:-0.00120056 16:0.00227913 17:0.0471535 18:-0.112865 19:-0.0246133 20:-0.00606848 21:0.413533 22:0.182775 23:0.0900193 24:-0.0892585 25:0.133746 26:-0.101871 27:0.316695 28:0.36986 29:0.33631 30:0.0924473 31:0.0738443 32:-0.0736354 33:0.221368 34:0.179339 35:0.617306 36:0.512353 37:0.353203 38:0.349355 39:0.191333 40:-0.359977 
0 0 0.01022420534160812 0 0 0 0 0 0 0 0 0.144459341473452 0 0.1820344426427072 0 0.1268642254273626 0 0 0.03740322885510136 0.4311843963123445 0 0 0 0 0 0 0 0 0 0 0 0 0 0 0 0 0.02980124711483192 0 0.3033211026600368 0 0 0 0 0 0 0 0.1976719290001026 0.2440393888929943 0 0 0 0 0.4897864415423389 0 0 0.05611801344021618 0 0 0.02431211342158927 0.1175861121609913 1:-0.263998 2:0.179221 3:0.51031 4:0.589764 5:0.266574 6:-0.562772 7:0.170866 8:-0.319898 9:-0.186948 10:-0.112449 11:-0.284217 12:0.163471 13:-0.347616 14:-0.172713 15:-0.133976 16:-0.00735301 17:0.20009 18:-0.165408 19:-0.00595416 20:-0.0084619 21:0.391661 22:0.3888 23:0.282201 24:-0.111418 25:0.0614481 26:0.123899 27:0.239119 28:0.580793 29:0.309277 30:0.413803 31:0.25428 32:-0.508372 33:0.740436 34:0.61501 35:0.282543 36:0.543941 37:0.816234 38:0.311159 39:0.05924 40:-0.0912919 
0 0.003692849348259915 0 0 0 0 0 0 0 0 0 0 0.03211608645830546 0 0 0 0 0 0 0 0 0.02133371883148119 0 0 0 0 0 0 0 0 0 0 0.06472679277114438 0.1150925958833289 0 0 0 0 0.06592105312554009 0 0.06846616770195656 0.08617344941070676 0 0 0.02225989958147198 0 0 0 0 0 0 0 0 0 0 0 0 0 0 0 1:-0.164607 2:0.149237 3:0.46338 4:0.874582 5:0.41779 6:-0.628621 7:0.315506 8:-0.108713 9:-0.331405 10:0.101805 11:-0.0735611 12:0.129354 13:-0.246978 14:-0.172033 15:-0.202832 16:0.101426 17:0.0675703 18:-0.270147 19:-0.0383469 20:-0.0391264 21:0.320564 22:0.167426 23:0.12857 24:-0.365881 25:-0.0986167 26:-0.0726095 27:0.301381 28:-0.135432 29:0.278754 30:0.13793 31:-0.309049 32:-0.381482 33:0.309865 34:-0.436858 35:0.744264 36:0.413349 37:0.393394 38:-0.144635 39:0.394189 40:-0.436369 
0 0 0 0 0 0.03537778420222074 0.1846385145361983 0 0 0 0 0 0 0 0 0 0 0 0 0.1573290151008993 0 0 0 0 0 0 0 0 0 0 0 0 0 0 0 0 0 0 0 0.1918849135548797 0 0 0 0 0 0 0 0 0 0 0 0 0.06041951558886138 0 0 0 0 0 0 0 1:-0.146285 2:0.190052 3:0.436807 4:0.889859 5:0.443559 6:-0.560731 7:0.337365 8:-0.133689 9:-0.321505 10:0.104882 11:-0.0250755 12:0.138737 13:-0.231571 14:-0.153571 15:-0.175409 16:0.133202 17:0.0704722 18:-0.276745 19:-0.0299799 20:-0.0358125 21:0.316445 22:0.158548 23:0.143443 24:-0.296849 25:-0.0832619 26:-0.0817629 27:0.320546 28:-0.0564609 29:0.320988 30:0.132043 31:-0.269313 32:-0.318472 33:0.326833 34:-0.364224 35:0.768038 36:0.370528 37:0.429974 38:-0.079431 39:0.398482 40:-0.430707 
0 0 0 0 0 0.1171059412484938 0 0 0 0 0 0 0 0 0 0 0 0 0 0 0 0 0 0 0 0 0 0 0 0 0 0 0 0 0 0 0 0 0 0 0 0 0 0 0 0 0 0 0 0 0 0 0.04464223776696172 0 0 0 0.3750216059316643 0 0 0 1:-0.229262 2:0.415983 3:0.383755 4:0.804524 5:0.362269 6:-0.317174 7:0.262211 8:-0.211395 9:-0.3088 10:-0.0198684 11:0.135668 12:0.0653351 13:-0.256202 14:-0.0195142 15:-0.128523 16:0.155217 17:0.0103784 18:-0.0790099 19:0.0199065 20:-0.01072 21:0.424936 22:0.208413 23:0.147134 24:0.0367455 25:-0.0357682 26:0.0981726 27:0.242652 28:0.406404 29:0.541651 30:-0.0364628 31:0.278667 32:-0.318941 33:0.455199 34:0.144881 35:0.698292 36:0.470197 37:0.449873 38:0.248268 39:0.214496 40:-0.16773 
0.08940159841588802 0.09762478662333324 0.09848867860848629 0.1846310342516854 0.1952206547773608 0.4435486936344717 0.06409021076711376 0 0.02112662039537364 0.2846846097112908 0.190766258131758 0.3794913074226382 0.2436351499419121 0.2214514174715166 0.2218663406520473 0.1471596066754713 0.2619783579989002 0.1561053274485417 0.2609549782480178 0.4142190881340327 0.181285220296813 0.09369218420429798 0.1283576869306089 0 0.2394809763704356 0.2748003716005289 0.255393206558103 0.2248191483373925 0.07304456848841202 0.4733921827488097 0 0 0.2339277530375478 0.04850066747010787 0.1068039393669446 0.1945127501530642 0.204466117731981 0.1468768146222355 0.3258239055270046 0.1881261291390398 0.1872281435356142 0.1372594503460114 0.174964131765477 0.1947220699032888 0.1457636179999543 0 0 0 0.004239324972285671 0.1115437861220831 0.2545696942809066 0.2630413959623583 0.3358889468846298 0 0 0 0.3187130635041777 0 0 0.1717949021336846 1:-0.387005 2:0.126106 3:0.549351 4:0.180097 5:0.227492 6:-0.706629 7:-0.284389 8:-0.501528 9:-0.319333 10:0.00963111 11:-0.50887 12:-0.38774 13:-0.518789 14:-0.172395 15:-0.190721 16:-0.161651 17:-0.161477 18:-0.21948 19:-0.25646 20:-0.00784041 21:0.234316 22:0.110321 23:0.221064 24:-0.746163 25:-0.0313069 26:-0.179491 27:-0.190294 28:-0.195254 29:0.131453 30:-0.32292 31:-0.41095 32:-0.937316 33:0.28167 34:-0.649087 35:0.323885 36:0.0742818 37:0.0441667 38:-0.29231 39:0.574264 40:-0.263163 
-0.3685293641655069 0.2439247104844554 0.2392336623053558 0.05030424728343398 0.363756904064602 0.311226802943217 0.2866198342547986 0.2227468342328215 0 0.1194573319888147 0.2442447537899631 0.2733756292702794 0.5 0.3454288470536701 0.1681477535684696 0.08439393027718882 0.04222224241607724 0.3377433315420336 0.2727315026337114 0.1144011825155127 0.216921888350038 0.05980929564392738 0.1203294174003313 0.1751832444099428 0.05651280033422629 0.1092898980487295 0.1277569101412383 0.02505878815239702 0.1556997899153286 0.09417172990302872 0.07377915401807329 0.3118797419413379 0.0665573065451857 0.233631012331443 0.06273216227543503 0.08244317176950687 0.3569471121428487 0.1895908795746937 0.1044570774347179 0.5 0.2467470341609135 0.216642443030539 0.1085752926304366 0.3037542969685748 0.08005689735744168 0.217614932124383 0.158858129230327 0.1951777698093829 0.3522385046410465 0.5 0.1065994954953242 0.5 0.08587592262011691 0.1083389870369157 0.0518001375526861 0.1053674097324782 0.5 0.5 0.1511351955360327 0.114586767467645 1:-0.14013 2:0.718119 3:-0.848261 4:0.50303 5:-0.348669 6:-0.0272824 7:0.201751 8:-0.611685 9:-1 10:-0.0882712 11:-0.286508 12:-0.431852 13:0.0781848 14:-0.0850006 15:-0.59818 16:-0.720222 17:-0.979288 18:-0.428255 19:-0.475081 20:-0.431377 21:-0.190435 22:-0.0127636 23:0.315745 24:0.621172 25:0.220715 26:-0.301582 27:-0.270479 28:0.389476 29:-0.180349 30:-0.447296 31:-0.172396 32:-0.102856 33:-0.322172 34:-0.133072 35:-0.0920655 36:0.425685 37:0.460115 38:0.430551 39:0.199671 40:-0.496957 
-0 0 0 0 0 0 0 0 0 0 0 0 0 0 0 0 0 0 0 0 0 0 0 0 0 0 0 0 0 0 0 0 0 0 0 0 0 0 0 0 0 0 0 0 0 0 0 0 0 0.5 0 0 0 0 0 0 0 0 0 0 1:-0.059105 2:0.740605 3:-0.695775 4:0.599126 5:-0.184071 6:0.101321 7:0.438449 8:-0.402806 9:-0.626929 10:0.144462 11:0.141867 12:-0.176086 13:0.304169 14:0.141991 15:-0.32415 16:-0.52052 17:-0.68766 18:-0.180516 19:-0.253569 20:-0.1913 21:-0.0246774 22:0.139244 23:0.44586 24:0.802976 25:0.379263 26:-0.0719919 27:-0.0726493 28:0.577082 29:-0.0128405 30:-0.251515 31:0.0677437 32:0.00327744 33:-0.128487 34:0.0745904 35:0.145709 36:0.510987 37:0.502754 38:0.478106 39:0.158129 40:-0.508238 
-0 0.3838275341378992 0 0 0.5 0 0 0.5 0 0 0.5 0 0 0.4092518832679331 0.5 0 0.06821481731016754 0.2206384943319418 0 0 0.3854797938233263 0 0 0.5 0 0 0.1135675134551045 0 0 0 0 0 0 0.1822751762962183 0 0 0.5 0.5 0 0 0 0 0.3952064189687373 0.3052567238108595 0 0 0 0.04240829914232842 0.5 0.5 0 0.3895759464529585 0 0.5 0 0 0 0.2559999783303072 0 0 1:0.495053 2:0.621958 3:-0.305663 4:0.602175 5:-0.0709244 6:0.0470164 7:0.497471 8:-0.142073 9:-0.373744 10:0.245158 11:0.138294 12:0.0923077 13:0.200107 14:0.331672 15:0.0283696 16:-0.325851 17:-0.383695 18:-0.142711 19:-0.287692 20:-0.365495 21:-0.20908 22:0.0602528 23:0.386533 24:0.86423 25:0.632206 26:0.158701 27:0.15558 28:0.595452 29:0.0842661 30:-0.0492982 31:-0.0587036 32:0.0184741 33:-0.0743324 34:0.350412 35:0.192557 36:0.431294 37:0.35846 38:0.284973 39:0.0265963 40:-0.387004 
-0 0 0 0 0 0 0 0 0 0 0 0 0 0 0 0 0 0 0 0 0 0 0 0 0 0 0 0 0 0 0 0 0 0 0 0 0 0 0 0 0 0 0 0 0 0 0 0 0 0.5 0 0 0 0 0 0 0 0 0 0 1:-0.0014909 2:0.688739 3:-0.60548 4:0.6239 5:-0.0990609 6:0.152133 7:0.515765 8:-0.29404 9:-0.498022 10:0.208805 11:0.194953 12:-0.036834 13:0.279226 14:0.210892 15:-0.27658 16:-0.473738 17:-0.638038 18:-0.166734 19:-0.17817 20:-0.1685 21:-0.00202398 22:0.123156 23:0.46907 24:0.787101 25:0.365924 26:-0.09919 27:-0.0515315 28:0.574715 29:-0.0461085 30:-0.177483 31:0.0108192 32:-0.0334141 33:-0.136799 34:0.0632628 35:0.143011 36:0.474265 37:0.475639 38:0.491926 39:0.103575 40:-0.456467 
-0.5 0 0 0.5 0 0.1757993350361506 0 0.4380435132938036 0 0 0 0.07135416263538658 0.1289590043493137 0 0 0.4951435745209962 0 0 0.2105321072273854 0.2854203744450445 0 0.2532418395245518 0 0.1539186516054175 0 0 0 0.4868964184162466 0.04236625594785012 0 0 0 0 0 0.06053087166467537 0 0 0 0 0 0.1588322087294236 0.1927838553717623 0 0 0.1756200457896288 0 0.5 0.5 0 0.275447678437282 0.4448091067473559 0 0 0 0 0.4432336389522961 0.1306266327406909 0 0.5 0.4551947863580891 1:0.416415 2:0.606798 3:-0.373101 4:0.54785 5:-0.104008 6:-0.0188852 7:0.447837 8:-0.26591 9:-0.423352 10:0.13082 11:0.162928 12:0.0484785 13:0.163832 14:0.285764 15:-0.0404483 16:-0.343885 17:-0.418857 18:-0.17525 19:-0.254778 20:-0.312462 21:-0.118014 22:0.124076 23:0.48473 24:0.964442 25:0.729137 26:0.299398 27:0.295239 28:0.833779 29:0.299231 30:0.183465 31:0.227514 32:0.16974 33:0.153063 34:0.51245 35:0.467133 36:0.578698 37:0.510902 38:0.426659 39:0.0587392 40:-0.365851 
-0.5 0.5 0.5 0.5 0.5 0.5 0.5 0.5 0.5 0.5 0.5 0.5 0.5 0.5 0.5 0.5 0.5 0.5 0.5 0.5 0.5 0.5 0.5 0.5 0.5 0.5 0.5 0.5 0.5 0.4929878870006832 0.5 0.5 0.2699541833629652 0.5 0.5 0.5 0.5 0.5 0.5 0.5 0.5 0.5 0.5 0.5 0.5 0.5 0.5 0.5 0.5 0.5 0.5 0.5 0.5 0.5 0.5 0.5 0.5 0.5 0.5 0.5 1:0.527519 2:0.563832 3:-0.297065 4:0.55588 5:-0.11218 6:0.00963142 7:0.443941 8:-0.169161 9:-0.391827 10:0.158209 11:0.0927716 12:0.0501891 13:0.142547 14:0.323528 15:0.00183883 16:-0.332109 17:-0.374111 18:-0.109561 19:-0.257257 20:-0.345732 21:-0.132883 22:0.106293 23:0.435963 24:0.940348 25:0.704915 26:0.302922 27:0.285474 28:0.722718 29:0.315314 30:0.185601 31:0.186601 32:0.199673 33:0.181769 34:0.555027 35:0.434512 36:0.54495 37:0.408881 38:0.368479 39:0.054322 40:-0.358266 
-0 0 0 0 0 0 0 0 0 0 0 0 0 0 0 0 0 0 0 0 0 0 0 0 0 0 0 0 0 0 0 0 0 0 0 0 0 0 0 0 0 0 0 0 0 0 0 0 0 0.5 0 0 0 0 0 0 0 0 0 0 1:-0.102214 2:0.819902 3:-0.769185 4:0.635245 5:-0.237718 6:0.106509 7:0.415637 8:-0.46865 9:-0.730329 10:0.091422 11:0.0150658 12:-0.257487 13:0.243187 14:0.0621552 15:-0.443825 16:-0.63365 17:-0.871665 18:-0.359228 19:-0.392818 20:-0.338836 21:-0.106479 22:0.0365404 23:0.388058 24:0.645149 25:0.261198 26:-0.311303 27:-0.242888 28:0.374405 29:-0.195098 30:-0.452385 31:-0.170498 32:-0.133771 33:-0.335499 34:-0.140201 35:-0.106014 36:0.411346 37:0.438236 38:0.468105 39:0.193556 40:-0.439273 
-0 0 0 0 0 0 0 0 0 0 0 0 0 0 0 0 0 0 0 0 0 0 0 0 0 0 0 0 0 0 0 0 0 0 0 0 0 0 0 0 0 0 0 0 0 0 0 0 0 0 0 0 0 0 0 0 0 0.06956801064406677 0 0 1:-0.0115773 2:0.710127 3:-0.621624 4:0.623567 5:-0.118334 6:0.156364 7:0.492409 8:-0.32892 9:-0.550794 10:0.200305 11:0.106992 12:0.000129378 13:0.287843 14:0.253675 15:-0.216266 16:-0.433703 17:-0.574778 18:-0.138126 19:-0.160785 20:-0.127296 21:0.0309462 22:0.174684 23:0.504898 24:0.847846 25:0.431335 26:-0.0307594 27:0.0462836 28:0.626542 29:0.064602 30:-0.0329273 31:0.142829 32:0.113651 33:-0.0772804 34:0.167494 35:0.14197 36:0.532526 37:0.467738 38:0.559772 39:0.0727908 40:-0.439924 
-0 0 0 0 0 0 0 0 0 0 0 0 0 0 0 0 0 0 0 0 0 0 0 0 0 0 0 0 0 0 0 0 0 0 0 0 0 0 0 0 0 0 0 0 0 0 0 0 0 0.5 0 0 0 0 0 0 0 0 0 0 1:0.226964 2:0.83357 3:-0.606972 4:0.57269 5:-0.211251 6:-0.0551808 7:0.361572 8:-0.524807 9:-0.693491 10:0.0758421 11:-0.020296 12:-0.207852 13:0.248894 14:0.145831 15:-0.217179 16:-0.449144 17:-0.61842 18:-0.284452 19:-0.358333 20:-0.386129 21:-0.211084 22:0.00959056 23:0.449812 24:0.857474 25:0.55768 26:0.0963602 27:0.122623 28:0.746449 29:0.140368 30:-0.150608 31:0.137414 32:0.15573 33:0.00772418 34:0.186068 35:0.238395 36:0.534666 37:0.485146 38:0.473887 39:0.120078 40:-0.522554 
-0 0 0.01835483555420227 0.4380794604836047 0.5 0 0.29527998164836 0.1526734911561631 0 0 0 0 0 0.5 0 0 0.5 0.5 0.0635650252849516 0 0 0 0 0 0 0 0.5 0.09868335755046029 0 0 0 0.3123294823691017 0 0 0 0 0.5 0.04162944262876329 0 0.327149300607751 0 0.007385919695006647 0.5 0.5 0 0 0 0 0.4780212605742725 0.5 0.2894667571213173 0.5 0 0.04344896853139237 0 0 0 0 0 0 1:0.494002 2:0.623436 3:-0.304477 4:0.601321 5:-0.0682416 6:0.0405708 7:0.496935 8:-0.140825 9:-0.379985 10:0.244479 11:0.147279 12:0.0939841 13:0.19256 14:0.344351 15:0.0158089 16:-0.310264 17:-0.39235 18:-0.135505 19:-0.285881 20:-0.371561 21:-0.200302 22:0.0591849 23:0.376004 24:0.873674 25:0.624789 26:0.162985 27:0.151225 28:0.599737 29:0.0973034 30:-0.0651014 31:-0.0502247 32:0.00409288 33:-0.0637244 34:0.340622 35:0.208546 36:0.428188 37:0.341306 38:0.28983 39:0.0228256 40:-0.37929 
-0 0 0 0 0 0 0 0 0 0 0 0 0 0 0 0 0 0 0 0 0 0 0 0 0 0 0 0 0 0 0 0 0 0 0 0 0 0 0 0 0 0 0 0 0 0 0 0 0 0.5 0 0 0 0 0 0 0 0 0 0 1:-0.0572609 2:0.748928 3:-0.694196 4:0.608151 5:-0.164641 6:0.0828801 7:0.476392 8:-0.437872 9:-0.601053 10:0.148824 11:0.124431 12:-0.142213 13:0.295656 14:0.16118 15:-0.322863 16:-0.5163 17:-0.687605 18:-0.190764 19:-0.252035 20:-0.20513 21:-0.0367569 22:0.129188 23:0.437796 24:0.793389 25:0.367063 26:-0.105246 27:-0.088336 28:0.572095 29:-0.0576924 30:-0.218188 31:0.00405172 32:0.01548 33:-0.165671 34:0.0391046 35:0.125083 36:0.501039 37:0.47521 38:0.489368 39:0.12708 40:-0.482737 
-0 0 0 0 0 0 0 0 0 0 0 0 0 0 0 0 0 0 0 0 0 0 0 0 0 0 0 0 0 0 0 0.3211668658307919 0 0 0 0 0 0 0 0 0 0 0 0 0 0.4929084468909667 0 0 0 0.5 0 0 0 0 0 0 0 0.2804620051209752 0 0 1:0.466038 2:0.673718 3:-0.366264 4:0.586759 5:-0.0918196 6:0.0225471 7:0.456952 8:-0.324236 9:-0.396041 10:0.0928305 11:0.116371 12:-0.000295979 13:0.190107 14:0.302002 15:-0.0633838 16:-0.324196 17:-0.443732 18:-0.229902 19:-0.263967 20:-0.381147 21:-0.198683 22:0.0554221 23:0.373192 24:0.885154 25:0.590165 26:0.19032 27:0.208386 28:0.73151 29:0.193196 30:0.0755133 31:0.127859 32:0.127646 33:0.0643651 34:0.34432 35:0.318356 36:0.549421 37:0.417249 38:0.390128 39:0.0363891 40:-0.359813 
-0 0 0 0 0 0.006434580556729561 0 0 0 0 0 0 0 0 0 0 0 0 0 0 0 0 0 0 0 0 0 0.006220059523858082 0 0 0 0 0 0 0 0 0 0 0.1392040045762789 0 0 0 0 0 0 0 0 0 0 0 0.1551636618986889 0 0 0 0 0 0.08792709510151808 0 0 0 1:0.260397 2:0.687636 3:-0.425983 4:0.638103 5:-0.0575707 6:0.133046 7:0.519971 8:-0.204635 9:-0.363813 10:0.249563 11:0.340143 12:0.137278 13:0.281483 14:0.244797 15:-0.168185 16:-0.49808 17:-0.578791 18:-0.28425 19:-0.218825 20:-0.287183 21:-0.101004 22:0.103083 23:0.422974 24:0.893307 25:0.524669 26:0.117765 27:0.0821574 28:0.549399 29:-0.206738 30:-0.435749 31:-0.422287 32:-0.313982 33:-0.198094 34:0.22362 35:0.290239 36:0.56607 37:0.454173 38:0.467457 39:0.0129955 40:-0.490911 
-0.5 0.5 0.5 0.5 0.5 0.3387497040457467 0.5 0.5 0.2625910136142942 0.5 0.5 0.5 0.5 0.5 0.5 0.5 0.5 0.5 0.5 0.5 0.5 0.5 0.5 0.5 0.5 0.5 0.5 0.5 0.5 0.5 0.5 0.5 0.5 0.5 0.5 0.5 0.5 0.5 0.5 0.5 0.5 0.5 0.5 0.4479430090360397 0.5 0.4703546859915022 0.5 0.5 0.5 0.5 0.5 0.1824348609582998 0.5 0.5 0.5 0.5 0.1338227452662393 0.1059405495312355 0.5 0.5 1:-0.154866 2:0.770841 3:-0.866254 4:0.54613 5:-0.354538 6:-0.0195505 7:0.233152 8:-0.640489 9:-0.992021 10:-0.0901505 11:-0.270512 12:-0.440382 13:0.0960315 14:-0.100491 15:-0.601526 16:-0.717716 17:-1 18:-0.426709 19:-0.4954 20:-0.436083 21:-0.207775 22:-0.0207925 23:0.279601 24:0.615535 25:0.184744 26:-0.314454 27:-0.31055 28:0.377553 29:-0.192831 30:-0.502014 31:-0.155321 32:-0.170262 33:-0.319698 34:-0.219051 35:-0.0913562 36:0.39336 37:0.445624 38:0.432113 39:0.169555 40:-0.47318 
-0.1629183925455218 0.003749790872804568 0.2525196058707311 0 0.06093193901028812 0.5 0.1759329240409255 0 0 0.3385179867515656 0.2006732769374631 0.5 0 0.1902679818978995 0.1595779998222518 0 0.001387647730053846 0 0 0 0.282633925751704 0 0.2166961814519323 0.5 0.03265675967124422 0.3201574765317918 0.1392803851609433 0 0.5 0 0.3508541041506661 0.1697016574062116 0 0.08635800763048487 0 0 0.05768058152559522 0 0.4905730481883874 0.4145384159403335 0 0 0.3947516849302197 0.06965493291441809 0 0.02545937939222435 0.5 0.5 0 0.5 0.5 0 0.3722026176763277 0.39404672677435 0.1550199556142581 0 0.5 0 0.009657886215734171 0 1:0.423591 2:0.590526 3:-0.364999 4:0.546933 5:-0.104511 6:-0.0120636 7:0.437548 8:-0.243602 9:-0.428247 10:0.129252 11:0.175823 12:0.05141 13:0.155417 14:0.296729 15:-0.0541 16:-0.334541 17:-0.432379 18:-0.177915 19:-0.249946 20:-0.317141 21:-0.117582 22:0.118967 23:0.488291 24:0.970535 25:0.701728 26:0.304673 27:0.288212 28:0.822631 29:0.291768 30:0.177341 31:0.224712 32:0.153139 33:0.14942 34:0.521403 35:0.430063 36:0.608952 37:0.470672 38:0.434591 39:0.0680701 40:-0.355902 
-0 0 0 0 0 0 0 0 0 0 0 0 0 0 0 0 0 0 0 0 0 0 0 0 0 0 0 0 0 0 0 0 0 0 0 0 0 0 0 0 0 0 0 0 0 0 0 0 0.4665472564227243 0.5 0 0 0 0 0 0 0 0.5 0 0 1:-0.122845 2:0.783337 3:-0.792432 4:0.607258 5:-0.258648 6:0.102121 7:0.362329 8:-0.494757 9:-0.831626 10:0.0625722 11:-0.0887952 12:-0.2795 13:0.232868 14:0.0868638 15:-0.407597 16:-0.559572 17:-0.800808 18:-0.250152 19:-0.337637 20:-0.289575 21:-0.0594496 22:0.0600919 23:0.388666 24:0.663861 25:0.263937 26:-0.257229 27:-0.192344 28:0.464399 29:-0.0542183 30:-0.308752 31:-0.0147559 32:-0.00582509 33:-0.27325 34:-0.124256 35:-0.071412 36:0.393864 37:0.407751 38:0.451192 39:0.137104 40:-0.495128 
-0.3978938549089555 0.5 0.5 0.5 0.5 0.5 0.5 0.5 0.3058937946285064 0 0.5 0 0.5 0.5 0.2477915882211782 0 0.5 0.5 0.5 0 0.2201603598469395 0.4106057675300593 0 0.3107916169015312 0 0 0.5 0.5 0.00341725298653065 0.4801390658889224 0.3560902243907037 0 0.3934672591185199 0.5 0 0.2675864243315167 0.5 0.5 0 0.5 0.4386454861463298 0.5 0.5 0.5 0.4979535771731115 0 0.1210967254727552 0.08591531876768067 0 0.5 0.5 0.5 0 0.5 0.4095683983749323 0.2925955896993324 0.4445291933178022 0 0 0 1:0.494773 2:0.61998 3:-0.296442 4:0.592419 5:-0.0627348 6:0.0441942 7:0.49422 8:-0.130719 9:-0.380164 10:0.250582 11:0.155722 12:0.0962144 13:0.186533 14:0.333321 15:0.0158658 16:-0.315748 17:-0.381845 18:-0.148675 19:-0.276393 20:-0.374634 21:-0.209407 22:0.0531467 23:0.384282 24:0.861598 25:0.6268 26:0.157115 27:0.153181 28:0.594302 29:0.0744975 30:-0.0536291 31:-0.0514852 32:-0.00264574 33:-0.0778763 34:0.334484 35:0.218941 36:0.414264 37:0.354931 38:0.293795 39:0.00919991 40:-0.386446 
-0 0 0 0 0 0 0 0 0 0 0 0 0 0 0 0 0 0 0 0 0 0 0 0 0 0 0 0 0 0 0 0 0 0 0 0 0 0 0 0 0 0 0 0 0 0 0 0 0 0.5 0 0 0 0 0 0 0 0 0 0 1:-0.0562693 2:0.730708 3:-0.699119 4:0.610387 5:-0.189356 6:0.0962473 7:0.441362 8:-0.43798 9:-0.635257 10:0.16087 11:0.080984 12:-0.128801 13:0.293306 14:0.186341 15:-0.289939 16:-0.489726 17:-0.633986 18:-0.189498 19:-0.211041 20:-0.162396 21:-0.00463682 22:0.17304 23:0.50064 24:0.877846 25:0.408469 26:-0.00392298 27:-0.00808073 28:0.651049 29:0.0311399 30:-0.0751166 31:0.12789 32:0.147158 33:-0.119512 34:0.194791 35:0.199572 36:0.560096 37:0.523478 38:0.53602 39:0.15037 40:-0.467774 
-0.2628785519158237 0.1620915156379978 0.06831779931415775 0 0 0 0.5 0 0.3127597985971066 0.5 0.3933689594194883 0.5 0.5 0 0.5 0.3584607806523128 0 0 0 0.4499840719469956 0.5 0.03112414211013041 0.5 0 0.5 0.5 0.05026975962993604 0 0.5 0.4504831932021868 0 0.3745135975126538 0.5 0.3204846260836348 0.1882875248470668 0.1650929801516089 0 0.4059971440856399 0.2508061219852798 0.3609685600228535 0.08459943114327742 0 0 0.07926968063063257 0.03441549945893691 0.4471870332171032 0 0 0.5 0.3265994537907662 0.1194780344008229 0.1636870056320329 0.4592048405541911 0.02018142868544293 0 0 0 0.5 0.3630151882234923 0.359159917636678 1:0.0222065 2:0.731666 3:-0.549123 4:0.682956 5:-0.0380319 6:0.229202 7:0.59504 8:-0.234812 9:-0.376454 10:0.252666 11:0.22399 12:0.044207 13:0.280633 14:0.2602 15:-0.234009 16:-0.484652 17:-0.596098 18:-0.213373 19:-0.201641 20:-0.201154 21:-0.0562537 22:0.112333 23:0.403382 24:0.764839 25:0.312912 26:-0.193954 27:-0.109648 28:0.435665 29:-0.125264 30:-0.282281 31:-0.108512 32:-0.156318 33:-0.230186 34:-0.00132982 35:0.0342207 36:0.395846 37:0.40391 38:0.499076 39:0.0465195 40:-0.448419 
-0.5 0 0 0 0 0 0 0 0.1187553931600929 0.478054310432419 0.07304218690900111 0.2660040645821762 0 0 0.5 0.03552959216565955 0 0 0 0.4132091287039855 0.4613014788139535 0 0.3909031566965578 0 0.1308898238929757 0.4433707025878642 0 0 0.08790984201032316 0 0.07778602666111292 0.5 0 0 0 0 0 0.179828670996252 0 0 0 0 0 0 0 0.5 0 0 0.5 0 0 0 0.379207021675748 0 0.1957190000338541 0.2837038015639539 0 0.5 0.2001064189702474 0.03001538084882582 1:0.020724 2:0.64008 3:-0.568284 4:0.570222 5:-0.100516 6:0.104994 7:0.517797 8:-0.324832 9:-0.490352 10:0.162892 11:0.136936 12:0.0140573 13:0.250545 14:0.271796 15:-0.170901 16:-0.398494 17:-0.48123 18:-0.0665674 19:-0.0818514 20:-0.0912772 21:0.0921103 22:0.212977 23:0.508534 24:0.904165 25:0.482963 26:0.00461457 27:0.118828 28:0.635166 29:0.158752 30:-0.0135512 31:0.23703 32:0.146627 33:0.0269629 34:0.252106 35:0.247439 36:0.507444 37:0.444124 38:0.485957 39:0.0206888 40:-0.419579 
-0 0 0 0 0 0 0 0 0 0 0 0 0 0 0 0 0 0 0 0 0 0 0 0 0 0 0 0 0 0 0 0 0 0 0 0 0 0 0 0 0 0 0 0 0 0 0 0 0 0.5 0 0 0 0 0 0 0 0.5 0 0 1:-0.136321 2:0.818559 3:-0.815527 4:0.639474 5:-0.275646 6:0.11321 7:0.349312 8:-0.491825 9:-0.847547 10:0.0486401 11:-0.072627 12:-0.291045 13:0.229137 14:0.0922113 15:-0.425436 16:-0.554412 17:-0.816924 18:-0.255077 19:-0.339494 20:-0.284901 21:-0.0719871 22:0.0712574 23:0.369367 24:0.69628 25:0.230473 26:-0.25172 27:-0.199451 28:0.462048 29:-0.053921 30:-0.308585 31:0.0157224 32:-0.028515 33:-0.257765 34:-0.14292 35:-0.0709637 36:0.371581 37:0.441231 38:0.422606 39:0.177814 40:-0.488765 
-0 0 0 0 0 0 0 0 0 0 0 0 0 0 0 0 0 0 0 0 0 0 0 0 0 0 0 0 0 0 0 0 0 0 0 0 0 0 0 0 0 0 0 0 0 0 0 0 0 0.5 0 0 0 0 0 0 0 0 0 0 1:0.278705 2:0.7379 3:-0.484121 4:0.562063 5:-0.104891 6:0.0202435 7:0.42726 8:-0.375479 9:-0.504122 10:0.126318 11:0.160549 12:-0.00906614 13:0.247725 14:0.270511 15:-0.146915 16:-0.376699 17:-0.541998 18:-0.273776 19:-0.245567 20:-0.302858 21:-0.122869 22:0.0910178 23:0.473513 24:0.931608 25:0.609067 26:0.192954 27:0.239718 28:0.734398 29:0.174062 30:-0.0616573 31:0.0730124 32:0.0605803 33:0.068714 34:0.310973 35:0.401268 36:0.617565 37:0.517184 38:0.478348 39:0.00899474 40:-0.538024 
-0 0 0.0159190651407365 0.5 0.221990563073312 0.5 0.387728716553089 0 0 0.03375709016867682 0 0 0.3834984095863317 0 0.00014307769443453 0 0 0.06933897164297907 0 0 0.02689779134683953 0 0.002103365211327798 0.04256143371398957 0.2476269601362713 0.05460055246230009 0 0.5 0.2151183165535792 0 0.1950680894410288 0 0 0 0.1051844794801835 0 0.3304469501556439 0 0 0.3817700071073567 0.4856438365660335 0.4721433782806689 0.4497642194169109 0.3342561464183789 0 0 0 0 0 0.3374163765261272 0.5 0.164638033407778 0 0.09696328229053827 0.1813375810727877 0 0.5 0 0 0 1:0.265537 2:0.668896 3:-0.412931 4:0.624634 5:-0.0469433 6:0.113106 7:0.547205 8:-0.239981 9:-0.347518 10:0.24475 11:0.349541 12:0.13928 13:0.269841 14:0.260201 15:-0.171393 16:-0.49192 17:-0.579317 18:-0.279472 19:-0.222378 20:-0.298849 21:-0.0988406 22:0.10084 23:0.423803 24:0.874251 25:0.53853 26:0.107458 27:0.0761683 28:0.529558 29:-0.195679 30:-0.448005 31:-0.418144 32:-0.332958 33:-0.184582 34:0.190724 35:0.290643 36:0.562031 37:0.455332 38:0.461631 39:-0.00263708 40:-0.46888 
-0 0 0 0 0 0 0 0 0 0 0 0 0 0 0 0 0 0 0 0 0 0 0 0 0.381609410368033 0 0 0 0 0 0 0 0 0 0 0 0 0 0 0 0 0 0 0 0 0 0 0 0 0.5 0 0 0 0 0 0 0 0 0 0 1:-0.113291 2:0.786722 3:-0.79402 4:0.59402 5:-0.262837 6:0.054271 7:0.365019 8:-0.529305 9:-0.806852 10:0.0450937 11:-0.0995665 12:-0.293966 13:0.174168 14:0.00404961 15:-0.508356 16:-0.654531 17:-0.928172 18:-0.389543 19:-0.427026 20:-0.38672 21:-0.137949 22:0.018096 23:0.350696 24:0.629978 25:0.224029 26:-0.31567 27:-0.287053 28:0.349988 29:-0.191897 30:-0.506884 31:-0.161848 32:-0.17088 33:-0.327586 34:-0.197594 35:-0.1035 36:0.398384 37:0.441537 38:0.463394 39:0.182763 40:-0.439562 
-0 0 0 0 0 0 0 0 0 0 0 0 0 0 0 0 0 0 0 0 0 0 0 0 0 0 0 0 0 0 0 0 0 0 0 0 0 0 0 0 0 0 0 0 0 0.08498176879961554 0 0 0.5 0 0 0 0 0 0 0 0 0.5 0 0 1:0.00848784 2:0.647325 3:-0.586949 4:0.592901 5:-0.0880163 6:0.121997 7:0.504163 8:-0.342423 9:-0.501669 10:0.14595 11:0.150245 12:-0.00161208 13:0.28687 14:0.262655 15:-0.224216 16:-0.433192 17:-0.573784 18:-0.136442 19:-0.150143 20:-0.148611 21:0.0241433 22:0.18604 23:0.472693 24:0.845126 25:0.431223 26:-0.0356967 27:0.00933252 28:0.633474 29:0.0707651 30:-0.0563689 31:0.110745 32:0.0796142 33:-0.0722182 34:0.149954 35:0.119589 36:0.52863 37:0.457622 38:0.544433 39:0.0850934 40:-0.463432 
-0 0 0 0 0 0 0 0 0 0 0 0 0 0 0 0 0 0 0 0 0 0 0 0 0 0 0 0 0 0 0 0 0 0 0 0 0 0 0 0 0 0 0 0 0 0 0 0 0 0.06053649124582464 0 0 0 0 0 0 0 0 0 0 1:0.280515 2:0.719413 3:-0.493464 4:0.564062 5:-0.119624 6:0.0148478 7:0.421724 8:-0.395829 9:-0.503917 10:0.125988 11:0.122728 12:0.0190577 13:0.226677 14:0.26963 15:-0.126744 16:-0.394645 17:-0.537158 18:-0.289386 19:-0.214046 20:-0.296282 21:-0.103271 22:0.105266 23:0.50747 24:0.941179 25:0.624489 26:0.20377 27:0.268427 28:0.765425 29:0.16438 30:-0.0179353 31:0.0872488 32:0.0599711 33:0.0941413 34:0.35356 35:0.414237 36:0.659937 37:0.527151 38:0.486387 39:0.00868004 40:-0.496664 
-0 0 0 0 0 0 0 0 0 0 0 0 0 0 0 0 0 0 0 0 0 0 0 0 0 0 0 0 0 0 0 0 0 0 0 0 0 0 0 0 0 0 0 0 0 0 0 0 0 0.5 0 0 0 0 0 0 0 0 0 0 1:0.380528 2:0.658992 3:-0.404034 4:0.571602 5:-0.109021 6:0.0122175 7:0.461067 8:-0.331066 9:-0.394562 10:0.146339 11:0.176469 12:0.0442249 13:0.238938 14:0.325513 15:-0.0431985 16:-0.331019 17:-0.424726 18:-0.20808 19:-0.229565 20:-0.32847 21:-0.117552 22:0.100254 23:0.445091 24:0.934917 25:0.618661 26:0.207741 27:0.196193 28:0.732454 29:0.139543 30:0.0197992 31:0.00141707 32:-0.0474657 33:-0.0282318 34:0.219303 35:0.296092 36:0.509019 37:0.388382 38:0.393424 39:-0.0146045 40:-0.413929 
-0 0 0 0 0 0 0 0 0 0 0 0 0 0 0 0 0 0 0 0 0 0 0 0 0 0 0 0 0 0 0 0 0 0 0 0 0 0 0 0 0 0 0 0 0 0 0 0 0 0.5 0 0 0 0 0 0 0 0 0 0 1:0.366001 2:0.74074 3:-0.42142 4:0.581625 5:-0.0930043 6:0.0579698 7:0.447448 8:-0.309701 9:-0.437651 10:0.170648 11:0.157498 12:0.000240114 13:0.244132 14:0.304719 15:-0.0626657 16:-0.341242 17:-0.472045 18:-0.254195 19:-0.277548 20:-0.382377 21:-0.19574 22:0.0328967 23:0.41523 24:0.867589 25:0.568595 26:0.0799591 27:0.129089 28:0.631156 29:0.0613431 30:-0.117874 31:0.0174061 32:-0.0323783 33:-0.0514858 34:0.146001 35:0.158318 36:0.453679 37:0.355765 38:0.436672 39:-0.0270994 40:-0.419364 
-0 -0 0 0 0 0 0 0 0 0 0 0 0 0 0 0 0 0 0 0 0 0 0 0 0 0 0 0 0 0 0 0 0 0.5 0 0 0 0 0 0 0 0 0 0 0 0 0 0 0 0 0 0 0 0 0 0 0 0 0 0 1:-0.128691 2:-0.472704 3:0.145556 4:0.00299367 5:-0.842419 6:0.746435 7:0.564032 8:0.695237 9:0.71276 10:-0.252787 11:-0.268778 12:-0.055593 13:-0.334107 14:0.362679 15:-0.0389207 16:-0.205254 17:-0.316086 18:-0.7049 19:-0.253772 20:-0.248848 21:0.451149 22:0.619074 23:0.600438 24:0.701409 25:0.319672 26:-0.174215 27:-0.720686 28:-0.760595 29:-0.846378 30:-0.33896 31:0.350891 32:0.419809 33:-0.477482 34:-0.746377 35:-0.489485 36:0.271608 37:0.357724 38:0.22296 39:-0.0155843 40:-0.38808 
-0 -0.5 0 0.4760063929551306 0.4664691921214476 0.2755859048041791 0.03019449932386228 0.3242719627272282 0.2925871688472943 0.5 0.5 0.1575182061748735 0 0.2319837962202202 0.5 0 0 0.4728517382342038 0 0 0.5 0 0.5 0.5 0 0.5 0 0 0.5 0 0.0132607266133486 0.05347865134843101 0 0.5 0 0 0.3556924095436233 0.5 0.0343622585444008 0 0 0 0.5 0.4907116695472027 0 0 0.3950428139061807 0.4120472456519454 0.5 0.5 0.5 0.5 0 0.5 0 0 0.3144545137338365 0.4865496133911568 0 0 1:0.607773 2:-0.397047 3:0.325869 4:0.405326 5:-0.523855 6:0.41045 7:0.525811 8:0.287629 9:0.502503 10:-0.225724 11:-0.293075 12:0.155516 13:-0.0491775 14:0.755877 15:0.319501 16:-0.0585373 17:-0.323399 18:-0.656823 19:-0.550257 20:-0.777352 21:-0.174675 22:0.102766 23:0.312947 24:0.464122 25:0.398321 26:0.210552 27:-0.138813 28:-0.140759 29:0.0736712 30:0.446136 31:0.682696 32:0.509826 33:-0.192215 34:-0.589929 35:-0.514032 36:0.116092 37:0.346032 38:0.223273 39:0.136381 40:-0.420907 
-0 -0.2370030221485554 0.3707116426845057 0.1332394568037529 0.2267097834709317 0.3283496459218123 0.1433603633640143 0.1683716514046607 0.313079612270799 0.5 0.5 0.5 0.5 0.3641061438976952 0.5 0.1178119916521842 0.1006663175710198 0.4899043364318162 0.04040022938980428 0.1803646633310738 0.5 0.002097070709465563 0.4909298488289399 0.4542382870151142 0.5 0.5 0.05204591635831864 0.0406657437026921 0.5 0.2568132567417548 0.1662267837070469 0.1744490918723169 0.003945586093595461 0.5 0.2197913572085792 0.04139730814830437 0.3238659439587287 0.4131152069299291 0.4595977882671696 0.05967481384010034 0.5 0.1321060147712167 0 0.1518645480145531 0.00655042978675768 0.1526231136275097 0.1696112944614344 0.1860784371476986 0 0.219405794320273 0.04339305332509338 0.3277604580742407 0.2256111080445317 0.4699425505507183 0.1482261180700324 0.06471614776019265 0.4072274288960443 0 0.5 0.0486221302608483 1:-0.201749 2:-0.449624 3:0.0768843 4:-0.0672017 5:-0.95829 6:0.727108 7:0.41721 8:0.729497 9:0.568214 10:-0.404293 11:-0.349292 12:-0.0777797 13:-0.463421 14:0.290924 15:-0.108223 16:-0.320029 17:-0.320811 18:-0.729745 19:-0.280908 20:-0.274983 21:0.519687 22:0.64442 23:0.65216 24:0.745507 25:0.339043 26:-0.083988 27:-0.680753 28:-0.741575 29:-0.900874 30:-0.282036 31:0.392944 32:0.497776 33:-0.567363 34:-0.678872 35:-0.357083 36:0.396573 37:0.34596 38:0.307154 39:0.0563529 40:-0.29098 
-0 -0 0 0 0 0 0 0 0 0 0 0 0 0 0 0 0 0 0 0 0 0 0.01044749357005256 0 0 0 0 0 0 0 0 0 0 0.5 0 0 0 0 0 0 0 0 0 0 0 0 0 0 0 0 0 0 0 0 0 0 0 0 0 0 1:0.164566 2:-0.760575 3:0.173018 4:0.263783 5:-0.557171 6:0.610609 7:0.850823 8:0.780632 9:0.897579 10:-0.00517322 11:-0.227126 12:0.0709787 13:-0.321356 14:0.506839 15:0.0972839 16:-0.224076 17:-0.401408 18:-0.534489 19:-0.267253 20:-0.317465 21:0.386518 22:0.539142 23:0.707053 24:0.608766 25:0.31467 26:-0.160105 27:-0.607978 28:-0.852903 29:-0.662784 30:-0.245628 31:0.38856 32:0.337031 33:-0.205342 34:-0.657892 35:-0.369565 36:0.275406 37:0.417254 38:0.172319 39:0.0922435 40:-0.375535 
-0 -0 0.007034875351767773 0.06254274336233476 0.01598326315862952 0.02617310203545683 0.3110040385140566 0.08640476563960432 0.1546777512835815 0.07810943870435286 0.1540285731296247 0.1955604876767499 0.2512468678640059 0.2849763110577638 0 0.2238659393833667 0.02121389131010255 0.1826166984403282 0 0.2001368767083955 0.06595782142668409 0.1009745892166021 0.3068596489958227 0.11334071452947 0.1925214594870912 0.1742450437273508 0.1045383912754631 0.0442255733652691 0.2835430673514266 0 0 0.09530609050261168 0.2302432427867889 0.3563778524459971 0.216987932334016 0.1217717537199007 0.07631952365630086 0.028307991556193 0.1629387229450577 0.2633914758870424 0.08565235527412327 0.06168824711283824 0.2559180343319908 0.3062530321661397 0.1073480911248496 0.2046723223987358 0.05212257111610542 0.0556422051873986 0.1778229130153027 0 0.4637593402362266 0.3212825195156135 0.2358721741649797 0.1260979200788681 0.02622804126273253 0.1043345596671029 0.05864571195255436 0.1149152375120694 0.1493543101580674 0.2011756587427089 1:0.258133 2:-0.766219 3:0.138991 4:0.322027 5:-0.497187 6:0.687453 7:0.883085 8:0.811779 9:1 10:0.0635164 11:-0.286778 12:0.160002 13:-0.255086 14:0.475695 15:0.102783 16:-0.20164 17:-0.287455 18:-0.531146 19:-0.252467 20:-0.334792 21:0.410816 22:0.46973 23:0.722883 24:0.589764 25:0.317408 26:-0.144046 27:-0.594697 28:-0.794275 29:-0.606575 30:-0.122825 31:0.357399 32:0.418848 33:-0.197815 34:-0.52577 35:-0.354739 36:0.281736 37:0.331547 38:0.203563 39:0.0885603 40:-0.521824 
-0.2602846647395999 -0 0.07029481127118797 0 0 0 0 0 0 0 0 0 0 0 0.02110645386084847 0.193263005454342 0 0 0.4108514147386999 0.2099921130042769 0 0 0 0.2194154690948728 0 0 0 0 0 0.2018981738265684 0 0 0 0.04613252849718672 0.02053091636807418 0 0 0.05347412046765247 0 0.1016439438437408 0 0 0.02476460232136821 0 0 0 0 0 0.1295274135384188 0 0.2639537361999271 0 0.1811314798816249 0.1660884526150035 0 0.07491020695599712 0 0 0.08309644481482117 0.2643068163236288 1:0.527515 2:-0.37112 3:0.323016 4:0.398435 5:-0.549021 6:0.362602 7:0.496597 8:0.294302 9:0.405478 10:-0.272163 11:-0.378525 12:0.079026 13:-0.0427488 14:0.873555 15:0.241584 16:-0.0852065 17:-0.273642 18:-0.722597 19:-0.596506 20:-0.783576 21:-0.110498 22:0.0743379 23:0.290112 24:0.467945 25:0.374346 26:0.144285 27:-0.158298 28:-0.251948 29:0.115405 30:0.383866 31:0.764609 32:0.521818 33:-0.0693681 34:-0.788942 35:-0.539496 36:0.143081 37:0.301949 38:0.161726 39:0.210839 40:-0.341159 
-0 -0 0 0 0 0 0 0 0 0 0 0 0 0 0 0 0 0 0 0 0 0 0 0 0 0 0 0 0 0 0 0 0 0.5 0 0 0 0 0 0 0 0 0 0 0 0 0 0 0 0 0 0 0 0 0 0 0 0 0 0 1:-0.0852544 2:-0.517003 3:0.139084 4:0.0782866 5:-0.816672 6:0.679362 7:0.628281 8:0.715948 9:0.692486 10:-0.225512 11:-0.2324 12:-0.0357432 13:-0.321928 14:0.365974 15:0.00562345 16:-0.203187 17:-0.347535 18:-0.647205 19:-0.211913 20:-0.311019 21:0.438855 22:0.607825 23:0.665122 24:0.62956 25:0.281521 26:-0.165921 27:-0.612017 28:-0.851814 29:-0.78829 30:-0.273888 31:0.389487 32:0.339008 33:-0.372996 34:-0.73994 35:-0.504739 36:0.251819 37:0.356325 38:0.19569 39:-0.027113 40:-0.320118 
-0 -0 0 0 0 0 0 0 0 0 0.002320611637472349 0 0 0 0 0 0 0 0 0 0 0 0 0 0 0 0 0 0 0 0 0 0 0.5 0 0 0 0.08143105760199003 0 0 0 0 0 0 0 0 0 0 0 0 0 0 0 0 0 0 0 0 0 0 1:0.134244 2:-0.675735 3:0.170727 4:0.298675 5:-0.621308 6:0.72559 7:0.847134 8:0.78562 9:0.86875 10:0.0266326 11:-0.185257 12:0.0568062 13:-0.32966 14:0.553019 15:0.106673 16:-0.241997 17:-0.366057 18:-0.510926 19:-0.256987 20:-0.322651 21:0.408823 22:0.529838 23:0.724683 24:0.61841 25:0.284272 26:-0.147801 27:-0.595361 28:-0.801481 29:-0.697316 30:-0.140668 31:0.344814 32:0.421697 33:-0.240739 34:-0.527876 35:-0.477607 36:0.292815 37:0.367207 38:0.254287 39:0.0541171 40:-0.447216 
-0 -0 0 0 0 0 0 0 0 0 0 0 0 0 0 0 0 0 0 0 0 0 0 0 0 0 0 0 0 0 0 0 0 0.2196332531028143 0 0 0 0 0 0 0 0 0 0 0 0 0 0 0 0 0 0 0 0 0 0 0 0 0 0 1:-0.0839486 2:-0.512971 3:0.13862 4:0.0693223 5:-0.783863 6:0.68822 7:0.635917 8:0.756419 9:0.73864 10:-0.224621 11:-0.158622 12:-0.012888 13:-0.338142 14:0.397012 15:0.0529786 16:-0.217584 17:-0.334442 18:-0.625717 19:-0.205826 20:-0.266253 21:0.49922 22:0.636788 23:0.661018 24:0.701732 25:0.35201 26:-0.131107 27:-0.651715 28:-0.807199 29:-0.749795 30:-0.297062 31:0.3639 32:0.352296 33:-0.312514 34:-0.722295 35:-0.472716 36:0.295096 37:0.413594 38:0.21322 39:0.0197062 40:-0.309841 
-0 -0 0 0 0 0 0 0 0 0 0 0 0 0 0 0 0 0 0 0 0 0 0 0 0 0 0 0 0 0 0 0 0 0.5 0 0 0 0 0 0 0 0 0 0 0 0 0 0 0 0 0 0 0 0 0 0 0 0 0 0 1:0.0570705 2:-0.64363 3:0.161734 4:0.222824 5:-0.67137 6:0.719601 7:0.762016 8:0.754741 9:0.866921 10:-0.0272948 11:-0.267253 12:-0.00323865 13:-0.290209 14:0.528037 15:0.00941995 16:-0.305218 17:-0.314554 18:-0.531989 19:-0.281243 20:-0.365395 21:0.487237 22:0.575828 23:0.673909 24:0.646011 25:0.30509 26:-0.198617 27:-0.670991 28:-0.789973 29:-0.766332 30:-0.268466 31:0.307122 32:0.392905 33:-0.36093 34:-0.631111 35:-0.416082 36:0.252183 37:0.378034 38:0.239807 39:0.0984354 40:-0.39087 
-0 -0 0 0 0 0 0 0 0.1246164814672071 0.2629201758684608 0.2140453742240176 0 0 0 0.4648393138967654 0 0 0 0 0 0.4524062957078526 0 0 0 0 0.1601174161395419 0 0 0 0 0 0 0.04142216866289885 0 0 0 0 0.2885807690929642 0 0 0 0 0 0 0 0 0 0 0 0 0 0 0 0 0 0 0 0 0 0 1:-0.0249341 2:-0.520905 3:0.159326 4:0.13162 5:-0.709689 6:0.694473 7:0.710328 8:0.725171 9:0.852281 10:-0.129022 11:-0.163772 12:-0.0340501 13:-0.227752 14:0.487062 15:0.0152017 16:-0.247923 17:-0.259594 18:-0.560417 19:-0.237762 20:-0.295267 21:0.463771 22:0.587602 23:0.66941 24:0.639043 25:0.276098 26:-0.172394 27:-0.636639 28:-0.843632 29:-0.73121 30:-0.247282 31:0.326864 32:0.222642 33:-0.250252 34:-0.695666 35:-0.551495 36:0.170338 37:0.41906 38:0.184282 39:0.00259536 40:-0.384538 
-0.3082870647854706 -0.5 0.474495970917118 0 0.5 0 0.5 0.4742953998679791 0.1150389861311182 0.3165242476888033 0.390999922393129 0.5 0.5 0.5 0.4693045122281884 0 0.3932385065896061 0.5 0 0.3004527758583092 0.5 0.1853249872891646 0 0 0.5 0.304751041391262 0.4494494922005676 0.2930862382583432 0 0.03771211867956139 0.185956542436016 0.4448732837245994 0.2079782738726748 0.5 0.2308821990109474 0.5 0.4870240392751486 0.2929731105303938 0.5 0.5 0.3925044019538722 0.4201615049204951 0.04081264729623134 0 0.3084590265139168 0.2163558044086773 0.1331251022389686 0.2888820537198717 0.5 0.3390323024127237 0 0 0.2011006110029893 0 0.1668595933456024 0.1327155844747037 0.3865072100369811 0.5 0.5 0 1:0.706754 2:-0.428603 3:0.295184 4:0.484428 5:-0.478119 6:0.412334 7:0.582041 8:0.327029 9:0.581946 10:-0.063923 11:-0.256932 12:0.203986 13:-0.0908836 14:0.863839 15:0.405396 16:-0.0535419 17:-0.312339 18:-0.573768 19:-0.439119 20:-0.773854 21:-0.136222 22:0.034072 23:0.290988 24:0.404915 25:0.437161 26:0.208661 27:-0.150678 28:-0.0856074 29:0.074883 30:0.452877 31:0.67712 32:0.436836 33:-0.238458 34:-0.637632 35:-0.599666 36:0.101918 37:0.355967 38:0.192959 39:0.132505 40:-0.437163 
-0.3729115464915315 -0.1168941746741305 0.4030033840337811 0.1868141426259437 0.344072597640723 0.2402942670323152 0.3284827834689855 0.06390010695445272 0 0.02297355323029163 0 0.1964999147561581 0.5 0.5 0 0.04611608450156587 0.2359850793197147 0.3602994381988778 0.2864399731922503 0.1733987362363948 0 0.1555707982567782 0 0 0.5 0.1656666573747276 0.2325248171830663 0.2254396610231937 0.04307500443165965 0.3767473149462838 0.1439623333155218 0.1689995066635833 0.5 0.4759184118760995 0.3068021099797207 0.2077764947256844 0.2872827291514842 0 0.07331393433411253 0.4055463878952706 0.4132256034108061 0.2999539999762118 0.2809367263007769 0.1085514070495945 0.1582449829199088 0.0430770663039601 0.03005924598250229 0.02594711350891718 0.2744859367494734 0.08999694481684806 0.06733019492107864 0.05567407361114578 0.1280312931449201 0 0.0936854806202609 0.1303111750979329 0.1654852975903712 0.2405584116507065 0.2478741935464732 0.08292645698068463 1:-0.11122 2:-0.501553 3:0.127826 4:0.0202972 5:-0.808663 6:0.648148 7:0.611567 8:0.742086 9:0.696359 10:-0.286631 11:-0.231298 12:-0.0623605 13:-0.304984 14:0.339647 15:-0.145276 16:-0.243293 17:-0.255224 18:-0.761078 19:-0.304286 20:-0.276883 21:0.467185 22:0.579305 23:0.59866 24:0.633196 25:0.321131 26:-0.256857 27:-0.726358 28:-0.895635 29:-0.788176 30:-0.534239 31:0.329593 32:0.246672 33:-0.441731 34:-1 35:-0.349473 36:0.221738 37:0.348247 38:0.12385 39:0.100524 40:-0.312473 
-0.0770288008849986 -0 0 0 0 0 0 0 0 0 0 0 0.05043580603523164 0 0 0 0 0 0 0.08222728287484241 0 0 0.03089294111078582 0 0.05513759079413169 0 0 0 0 0.2747417405519566 0 0 0 0.5 0 0 0 0 0 0 0 0 0 0.08713523228230186 0 0 0 0 0 0 0.2624649665353443 0 0.1560731480412434 0 0 0 0 0 0 0 1:-0.0930918 2:-0.594818 3:0.109003 4:-0.0835168 5:-0.748187 6:0.518889 7:0.529551 8:0.724747 9:0.659744 10:-0.395993 11:-0.217983 12:-0.0816133 13:-0.455202 14:0.360698 15:-0.0923533 16:-0.240697 17:-0.365703 18:-0.765498 19:-0.253637 20:-0.260175 21:0.405296 22:0.600784 23:0.689481 24:0.555032 25:0.318641 26:-0.100705 27:-0.636173 28:-1 29:-0.789481 30:-0.295551 31:0.432449 32:0.169165 33:-0.401712 34:-0.852766 35:-0.346435 36:0.195621 37:0.445155 38:0.140822 39:0.068942 40:-0.331463 
-0 -0 0 0 0 0 0 0 0 0 0 0 0 0 0 0 0 0 0 0 0 0 0 0 0 0 0 0 0 0 0 0 0 0.5 0 0 0 0 0 0 0 0 0 0 0 0 0 0 0 0 0 0 0 0 0 0 0 0 0 0 1:-0.0566151 2:-0.532624 3:0.170518 4:0.0950317 5:-0.786365 6:0.699588 7:0.672085 8:0.721834 9:0.727268 10:-0.201781 11:-0.17624 12:-0.00264798 13:-0.305521 14:0.409346 15:0.034757 16:-0.188106 17:-0.33555 18:-0.62697 19:-0.224483 20:-0.283214 21:0.422094 22:0.59645 23:0.635738 24:0.633839 25:0.294171 26:-0.18249 27:-0.673493 28:-0.7965 29:-0.736607 30:-0.367571 31:0.34333 32:0.397349 33:-0.319404 34:-0.856289 35:-0.533624 36:0.287795 37:0.36899 38:0.111787 39:-0.00269965 40:-0.278489 
-0.5 -0.03410131955778994 0.5 0.4075910966286502 0.5 0.4963999680476384 0.5 0.5 0 0 0 0.1411924417776358 0.5 0.5 0 0.3827419793056014 0.5 0.5 0.5 0 0 0.3915260425258057 0.06462340569609644 0.2871992879798352 0.05491341809786061 0 0.5 0.3820820567355714 0.2103254236369533 0.5 0.5 0.5 0.399794819931555 0.4694835391632388 0.1600610068716948 0.07380890059701056 0.5 0 0.05403009119483603 0.5 0.5 0.5 0.5 0.5 0.2883151215158566 0.5 0.3709604188588966 0.2239838614128023 0.5 0.2055527184612743 0.2033421611005533 0.4299803809545333 0.1649060492982565 0.3538168366091118 0.5 0.5 0.001054618037695476 0.5 0.08730752774613269 0.3168235194488069 1:0.710666 2:-0.441577 3:0.282687 4:0.474317 5:-0.46997 6:0.392372 7:0.557727 8:0.351059 9:0.575817 10:-0.0967723 11:-0.294027 12:0.211214 13:-0.10157 14:0.88071 15:0.375068 16:-0.0611109 17:-0.314706 18:-0.556833 19:-0.466104 20:-0.744467 21:-0.181161 22:0.0315451 23:0.307027 24:0.416395 25:0.409865 26:0.224228 27:-0.129283 28:-0.0998158 29:0.0829955 30:0.436444 31:0.680717 32:0.417973 33:-0.208974 34:-0.659573 35:-0.538444 36:0.104529 37:0.330656 38:0.151113 39:0.176322 40:-0.417595 
-0 -0 0 0 0 0 0 0 0 0 0 0 0 0 0 0 0 0 0 0 0 0 0 0 0 0 0 0 0 0 0 0 0 0.5 0 0 0 0 0 0 0 0 0 0 0 0 0 0 0 0 0 0 0 0 0 0 0 0 0 0 1:-0.218262 2:-0.431067 3:0.100363 4:-0.0913098 5:-0.979728 6:0.767987 7:0.408419 8:0.639526 9:0.585445 10:-0.371566 11:-0.377958 12:-0.125557 13:-0.463891 14:0.32748 15:-0.110872 16:-0.267373 17:-0.378052 18:-0.718597 19:-0.275515 20:-0.248949 21:0.438324 22:0.700632 23:0.613132 24:0.715771 25:0.363052 26:-0.01446 27:-0.732008 28:-0.75151 29:-0.823983 30:-0.331618 31:0.504725 32:0.480955 33:-0.551961 34:-0.69625 35:-0.291249 36:0.297292 37:0.398648 38:0.321 39:0.0199215 40:-0.414795 
-0 -0 0 0 0 0 0 0 0 0 0 0 0 0 0 0 0 0 0 0 0 0 0 0 0 0 0 0 0 0 0 0 0 0.1637308521785049 0 0 0 0 0 0 0 0 0 0 0 0 0 0 0 0 0 0 0 0 0 0 0 0 0 0 1:-0.157224 2:-0.477828 3:0.136419 4:-0.0382358 5:-0.886769 6:0.732267 7:0.530951 8:0.683753 9:0.665045 10:-0.298998 11:-0.252656 12:-0.0945804 13:-0.385891 14:0.326897 15:-0.011004 16:-0.281891 17:-0.342893 18:-0.690993 19:-0.231097 20:-0.29885 21:0.493892 22:0.68087 23:0.621762 24:0.688118 25:0.367317 26:-0.107599 27:-0.684328 28:-0.788057 29:-0.784378 30:-0.392784 31:0.418751 32:0.479541 33:-0.44605 34:-0.833058 35:-0.336673 36:0.314413 37:0.404354 38:0.254302 39:0.0583794 40:-0.390259 
-0 -0 0 0 0 0 0 0 0 0 0 0 0 0 0 0 0 0 0 0 0 0 0 0 0 0 0 0 0 0 0 0 0 0.5 0 0 0 0 0 0 0 0 0 0 0 0 0 0 0 0 0 0 0 0 0 0 0 0 0 0 1:-0.198648 2:-0.440484 3:0.106164 4:-0.0656596 5:-0.953655 6:0.733596 7:0.421647 8:0.717095 9:0.584078 10:-0.383238 11:-0.335416 12:-0.0663178 13:-0.495083 14:0.342967 15:-0.116649 16:-0.265479 17:-0.336247 18:-0.708236 19:-0.2894 20:-0.221681 21:0.460479 22:0.638678 23:0.643619 24:0.703359 25:0.338392 26:-0.0604765 27:-0.642514 28:-0.788877 29:-0.824848 30:-0.288183 31:0.520655 32:0.441678 33:-0.487633 34:-0.736318 35:-0.247046 36:0.300862 37:0.387694 38:0.25291 39:0.0420941 40:-0.38598 
-0.4822003445755894 -0.405595034752681 0.008070914706971003 0.3618548496694418 0.2683266301728722 0.1304275026503329 0.206126256097486 0.5 0 0.3520222322603066 0.2863976902397448 0.1800290986118954 0.1271560222140702 0.2384761241553396 0.3299480064225718 0.3839266961226241 0.2695963070938759 0.007098155041458125 0.3489525640451809 0.2889322550988326 0.3078882801588219 0.3797004576533223 0.1970754709598633 0.08931683459427774 0 0.1891068797158444 0.3763434539723644 0.4151056982428529 0.2447658243071472 0 0.3889537697119128 0.2127051534987051 0 0.5 0.03755468427501184 0.2890046609928036 0.2336706263215373 0.3352311389375808 0.1259127020396493 0.362175451386376 0.1069702286712037 0.5 0.4799696178009035 0.3033356682448359 0.3849115608977699 0.254894695986526 0.346107228171351 0.358803196549506 0.4761672091243849 0.4281712657385815 0.5 0.2046377499358252 0.1750796705760859 0.03863726832620062 0.4383527926136498 0.3958142382048945 0.1037391997331628 0.4699277346441726 0 0.4316742515337648 1:-0.218135 2:-0.435222 3:0.0577487 4:-0.071577 5:-1 6:0.748567 7:0.374928 8:0.67737 9:0.537322 10:-0.391483 11:-0.439056 12:-0.0951359 13:-0.495729 14:0.254934 15:-0.0918641 16:-0.269841 17:-0.387219 18:-0.758163 19:-0.25508 20:-0.238976 21:0.450289 22:0.673647 23:0.636422 24:0.710341 25:0.377179 26:-0.0341845 27:-0.6949 28:-0.769398 29:-0.796366 30:-0.354902 31:0.508341 32:0.509604 33:-0.529379 34:-0.721581 35:-0.248433 36:0.334498 37:0.365288 38:0.291891 39:0.0268845 40:-0.337517 
-0.5 -0.5 0.5 0.5 0.5 0.5 0.5 0.5 0.5 0.5 0.5 0.5 0.5 0.5 0.5 0.5 0.5 0.5 0.5 0.5 0.5 0.5 0.5 0.5 0.5 0.5 0.5 0.5 0.5 0.5 0.5 0.5 0.5 0.2687235627361587 0.5 0.5 0.5 0.5 0.5 0.5 0.5 0.5 0.5 0.5 0.5 0.5 0.5 0.5 0.5 0.5 0.5 0.5 0.5 0.5 0.5 0.5 0.5 0.5 0.5 0.5 1:-0.205119 2:-0.696315 3:0.393219 4:0.754058 5:0.311 6:-0.152868 7:0.210926 8:-0.109964 9:-0.0649924 10:0.0308503 11:0.339193 12:0.477458 13:0.277868 14:0.434938 15:-0.0171094 16:-0.00260625 17:-0.524774 18:-0.480007 19:-0.438549 20:-0.853005 21:-0.600243 22:-0.307645 23:-0.114687 24:0.25431 25:0.424458 26:0.50879 27:0.586317 28:0.768068 29:1 30:0.66427 31:-0.0446375 32:-0.160475 33:-0.35655 34:-0.277047 35:0.206215 36:0.221544 37:0.172922 38:-0.113334 39:0.147889 40:-0.117851 
-0 -0 -0 0 0 0 0 0 0 0 0 0 0 0 0 0 0 0 0 0 0 0 0 0 0 0 0 0 0 0 0 0 0 0 0.5 0 0 0 0 0 0 0 0 0 0 0 0 0 0 0 0 0 0 0 0 0 0 0 0 0 1:-0.13148 2:-0.205055 3:0.0184205 4:-0.341207 5:-0.627267 6:0.326896 7:0.385067 8:0.86883 9:0.233132 10:-0.746604 11:-0.582731 12:-0.42207 13:-0.0523932 14:0.588142 15:-0.167495 16:-0.169604 17:-0.128475 18:0.151649 19:0.408855 20:0.512116 21:0.897445 22:0.241764 23:-0.319382 24:-0.753807 25:-0.993866 26:-0.487857 27:0.268637 28:0.688539 29:0.0963316 30:-0.806144 31:-0.838492 32:0.195801 33:0.514248 34:0.060742 35:-0.860639 36:-0.334228 37:0.209328 38:-0.0815479 39:0.0138248 40:0.100566 
-0 -0 -0 0 0 0 0 0 0 0 0 0 0 0 0 0 0 0 0 0 0 0 0 0 0 0 0 0 0 0 0 0 0.4701793535929724 0 0.5 0 0 0 0 0 0.1035918839613434 0.2188615213036376 0 0 0 0 0 0 0 0 0 0 0 0 0 0 0 0 0 0 1:0.0586637 2:-0.396883 3:0.0623457 4:-0.152408 5:-0.425325 6:0.305217 7:0.613047 8:0.888174 9:0.417656 10:-0.574263 11:-0.510021 12:-0.218817 13:-0.0596539 14:0.647202 15:0.0352448 16:-0.14768 17:-0.220576 18:0.239708 19:0.424234 20:0.444256 21:0.900767 22:0.21569 23:-0.43137 24:-0.712289 25:-0.927735 26:-0.578519 27:0.273623 28:0.692849 29:0.0870109 30:-0.905041 31:-0.845256 32:0.139227 33:0.432996 34:-0.172389 35:-0.610889 36:-0.197495 37:0.0544028 38:-0.104966 39:0.235215 40:0.0113396 
-0 -0 -0 0 0 0 0 0 0 0 0 0 0 0 0 0 0 0 0 0 0 0 0 0 0 0 0 0 0 0 0 0 0 0 0.5 0 0 0 0 0 0 0 0 0 0 0 0 0 0 0 0 0 0 0 0 0 0 0 0 0 1:-0.0951698 2:-0.270389 3:0.0581148 4:-0.353017 5:-0.586054 6:0.33349 7:0.478337 8:0.776965 9:0.362092 10:-0.677658 11:-0.612012 12:-0.367434 13:0.0231291 14:0.551788 15:-0.0728647 16:-0.133184 17:-0.129522 18:0.214278 19:0.455215 20:0.500583 21:0.947958 22:0.269834 23:-0.316273 24:-0.764084 25:-0.944639 26:-0.495259 27:0.236268 28:0.729951 29:0.0923542 30:-0.83753 31:-0.881046 32:0.275392 33:0.443266 34:0.0588484 35:-0.937993 36:-0.258076 37:0.129225 38:-0.0906492 39:0.00204354 40:0.10953 
-0 -0 -0 0 0 0.2147075776413074 0 0 0 0 0 0 0 0 0 0 0 0.2898202038020145 0 0 0 0 0 0 0 0 0 0 0 0 0.5 0.09946960190771553 0 0 0.5 0 0 0 0 0 0 0 0 0 0 0.1162366848306633 0 0 0 0 0 0 0 0 0.5 0 0.3064586569176673 0 0 0 1:0.111548 2:-0.325835 3:0.0399755 4:0.0076621 5:-0.385415 6:0.474099 7:0.655421 8:0.889235 9:0.484575 10:-0.460776 11:-0.603196 12:-0.223748 13:0.0794913 14:0.540943 15:0.068983 16:-0.104658 17:-0.140323 18:0.0737579 19:0.425159 20:0.50442 21:0.822633 22:0.212031 23:-0.408746 24:-0.689796 25:-0.849574 26:-0.353699 27:0.245132 28:0.788833 29:0.25133 30:-0.669668 31:-0.788293 32:0.252386 33:0.329216 34:0.22617 35:-0.637299 36:0.0792351 37:-0.0396097 38:0.10296 39:0.288135 40:0.242632 
-0 -0 -0 0 0 0 0 0 0 0 0 0 0 0 0 0 0 0 0 0 0 0 0 0 0 0 0 0 0 0 0 0 0 0 0.5 0 0 0 0 0 0 0 0 0 0 0 0 0 0 0 0 0 0 0 0 0 0 0 0 0 1:0.110112 2:-0.336393 3:0.0353838 4:-0.0187728 5:-0.38978 6:0.50241 7:0.67854 8:0.903266 9:0.4652 10:-0.415237 11:-0.565905 12:-0.202596 13:0.0635815 14:0.592974 15:0.0914656 16:-0.10107 17:-0.120877 18:0.16237 19:0.457822 20:0.506036 21:0.871681 22:0.235274 23:-0.425267 24:-0.678789 25:-0.858186 26:-0.445467 27:0.252989 28:0.721415 29:0.174952 30:-0.674978 31:-0.789759 32:0.167082 33:0.315862 34:0.150639 35:-0.709232 36:-0.0279728 37:-0.0308404 38:0.025521 39:0.208385 40:0.203206 
-0.5 -0.5 -0.5 0.5 0.5 0.5 0.5 0.5 0.5 0.5 0.5 0.5 0.5 0.5 0.5 0.5 0.5 0.5 0.5 0.5 0.5 0.5 0.5 0.5 0.5 0.5 0.5 0.5 0.5 0.5 0.5 0.5 0.5 0.5 0 0.5 0.5 0.5 0.5 0.5 0.5 0.5 0.5 0.5 0.5 0.5 0.5 0.5 0.5 0.5 0.5 0.5 0.5 0.5 0.5 0.5 0.5 0.5 0.5 0.5 1:-0.247129 2:-0.646556 3:0.310396 4:0.803302 5:0.335595 6:-0.0675279 7:0.22833 8:-0.327394 9:-0.0823764 10:-0.13234 11:0.0353953 12:0.35604 13:0.121562 14:0.652677 15:0.0375282 16:-0.16336 17:-0.370819 18:-0.567723 19:-0.470613 20:-0.786956 21:-0.506989 22:-0.211708 23:0.00791992 24:0.0014188 25:0.445989 26:0.646995 27:0.60892 28:0.727005 29:0.694626 30:0.354361 31:0.0590189 32:-0.187865 33:-0.0631049 34:-0.115377 35:0.0445415 36:0.143104 37:0.0943291 38:0.000403238 39:0.263051 40:-0.0700384 
-0 -0 -0 0 0 0 0 0 0 0 0 0 0 0 0 0 0 0 0 0 0 0 0 0 0 0 0 0 0 0 0 0 0 0 0.3783281070168728 0 0 0 0 0 0 0 0 0 0 0 0 0 0 0 0 0 0 0 0 0 0 0 0 0 1:-0.0578729 2:-0.282268 3:0.0474942 4:-0.231751 5:-0.577979 6:0.336448 7:0.55698 8:0.822467 9:0.312133 10:-0.641192 11:-0.515603 12:-0.398217 13:0.0582586 14:0.512463 15:-0.000112079 16:-0.176857 17:-0.153687 18:0.185932 19:0.469325 20:0.453656 21:0.865342 22:0.285386 23:-0.394073 24:-0.748674 25:-0.937342 26:-0.516114 27:0.212773 28:0.796261 29:0.000910384 30:-0.798117 31:-0.866931 32:0.224662 33:0.26046 34:0.162494 35:-0.884599 36:-0.239693 37:0.125144 38:-0.0684827 39:0.0639884 40:0.206225 
-0 -0 -0 0 0 0 0 0 0 0 0 0 0 0 0 0 0 0 0 0 0 0 0 0 0 0 0 0 0 0 0 0 0.05278691462452605 0 0.5 0 0 0 0 0 0 0 0 0 0 0 0 0 0 0 0 0 0 0 0 0 0 0 0 0 1:0.0214785 2:-0.29365 3:-0.00923982 4:-0.091174 5:-0.490583 6:0.362204 7:0.565148 8:0.885657 9:0.382197 10:-0.522423 11:-0.558944 12:-0.303006 13:0.0558889 14:0.637055 15:0.0253135 16:-0.137047 17:-0.114708 18:0.175447 19:0.487205 20:0.448503 21:0.908337 22:0.270209 23:-0.351245 24:-0.729499 25:-0.87801 26:-0.387917 27:0.220318 28:0.755973 29:0.11141 30:-0.751224 31:-0.804723 32:0.208443 33:0.325378 34:0.129973 35:-0.768574 36:-0.129474 37:0.0676249 38:0.00657569 39:0.172186 40:0.137338 
-0 -0 -0 0 0 0 0 0 0 0 0 0 0 0 0 0 0 0 0 0 0 0 0 0 0 0 0 0 0 0 0.05482248145220543 0 0 0 0.5 0 0 0 0 0 0 0 0 0 0 0 0 0 0 0 0 0 0 0 0 0 0 0 0 0 1:-0.0357896 2:-0.357716 3:0.0436101 4:-0.378663 5:-0.516371 6:0.283483 7:0.487704 8:0.776082 9:0.282093 10:-0.627299 11:-0.652579 12:-0.371037 13:-0.0207669 14:0.526223 15:-0.12116 16:-0.0677143 17:-0.160656 18:0.0501798 19:0.479906 20:0.57209 21:0.84046 22:0.239455 23:-0.335558 24:-0.729545 25:-0.940419 26:-0.401742 27:0.257161 28:0.676679 29:0.12082 30:-0.662437 31:-0.755054 32:0.180573 33:0.421521 34:0.117786 35:-0.77129 36:-0.155657 37:0.116862 38:-0.111963 39:0.143218 40:0.186394 
-0.5 -0.5 -0.5 0.5 0.5 0.5 0.5 0.5 0.3634569359001149 0.5 0.5 0.5 0.5 0.5 0.5 0.5 0.5 0.5 0.5 0.5 0.5 0.5 0.5 0.5 0.5 0.5 0.5 0.5 0.5 0.5 0.5 0.5 0.432808025533197 0.5 0.1216718929831272 0.4464062010295778 0.5 0.5 0.5 0.5 0.5 0.5 0.5 0.5 0.5 0.5 0.5 0.5 0.5 0.5 0.5 0.5 0.5 0.5 0.5 0.5 0.5 0.5 0.5 0.5 1:-0.185456 2:-0.619665 3:0.357528 4:0.673694 5:0.319846 6:-0.0873241 7:0.287991 8:-0.239638 9:0.0579082 10:-0.184369 11:0.0854104 12:0.268801 13:0.211278 14:0.656589 15:0.131359 16:-0.20508 17:-0.329315 18:-0.567875 19:-0.430888 20:-0.782076 21:-0.437653 22:-0.233852 23:-0.0538203 24:0.148835 25:0.401556 26:0.543154 27:0.674567 28:0.826612 29:0.609526 30:0.390279 31:0.141075 32:-0.296682 33:0.0895287 34:-0.191064 35:-0.0675247 36:0.346546 37:0.0756139 38:-0.0995536 39:0.235135 40:0.116254 
-0 -0 -0 0 0 0 0 0 0 0 0 0 0 0 0 0 0 0 0 0 0 0 0 0 0 0 0 0 0 0 0 0 0.1339657486731723 0 0.5 0 0 0 0 0 0 0 0 0 0 0 0 0 0 0 0 0 0 0 0 0 0 0 0 0 1:0.0969854 2:-0.355327 3:0.0495334 4:-0.0100893 5:-0.41271 6:0.421298 7:0.70586 8:0.911263 9:0.505323 10:-0.501639 11:-0.511738 12:-0.234287 13:0.0665458 14:0.566068 15:0.0746433 16:-0.125713 17:-0.145911 18:0.157449 19:0.460434 20:0.531748 21:0.775752 22:0.250129 23:-0.415466 24:-0.694059 25:-0.892505 26:-0.522594 27:0.206107 28:0.78697 29:0.11506 30:-0.848348 31:-0.727179 32:0.238648 33:0.282839 34:0.105446 35:-0.71898 36:-0.0369188 37:-0.0314793 38:0.0011399 39:0.145836 40:0.243095 
-0 -0 -0 0 0 0 0 0 0 0 0 0 0 0 0 0 0 0 0 0 0 0 0 0 0 0 0 0 0 0 0 0 0 0 0.5 0 0 0 0 0 0 0 0 0 0 0 0 0 0 0 0 0 0 0 0 0 0 0 0 0 1:-0.058373 2:-0.269168 3:-0.0037992 4:-0.247007 5:-0.57846 6:0.322974 7:0.498249 8:0.821585 9:0.253928 10:-0.592094 11:-0.575861 12:-0.363443 13:0.0521698 14:0.558605 15:-0.10117 16:-0.0878926 17:-0.124725 18:0.162567 19:0.41452 20:0.578658 21:0.8982 22:0.250516 23:-0.358457 24:-0.690155 25:-0.965222 26:-0.410367 27:0.213753 28:0.683871 29:0.147535 30:-0.751135 31:-0.971357 32:0.255198 33:0.331927 34:0.0923637 35:-0.744684 36:-0.215585 37:0.0495827 38:-0.122865 39:0.151281 40:0.152771 
-0 -0 -0 0 0 0 0 0 0 0 0 0 0 0 0 0 0 0 0 0 0 0 0 0 0 0 0 0 0 0 0 0 0 0 0.5 0 0 0 0 0 0 0 0 0 0 0 0 0 0 0 0 0 0 0 0 0 0 0 0 0 1:-0.123803 2:-0.194638 3:0.0210884 4:-0.236229 5:-0.651981 6:0.373732 7:0.459121 8:0.888579 9:0.254285 10:-0.627151 11:-0.641437 12:-0.354913 13:0.0696885 14:0.487184 15:-0.102807 16:-0.0949001 17:-0.149536 18:0.192859 19:0.484822 20:0.493881 21:0.930579 22:0.30706 23:-0.356703 24:-0.731999 25:-0.994277 26:-0.566913 27:0.300295 28:0.71528 29:0.0848949 30:-0.850731 31:-0.864655 32:0.298295 33:0.527928 34:-0.0626928 35:-0.856184 36:-0.263574 37:0.151873 38:-0.201021 39:0.0484141 40:0.10045 
-0.5 -0.3391997256108896 -0.3405174672543045 0.4360237832657615 0.4201724357796465 0.4314849856547395 0.340436151749509 0.2415387357428006 0.1035927010365097 0.2762846230450926 0.3038954702836177 0.3290575617546847 0.4546981348287225 0.4384130127138488 0.2371627290027108 0.2217620526049467 0.2912863688527601 0.296709485624494 0.4376686674333791 0.314386645011123 0.1672322129675661 0.2470892248881773 0.3172466273418069 0.2619228626546797 0.3621418623628861 0.2540550780261148 0.3197988728972057 0.49442013147147 0.3397985641205595 0.4332520730111154 0.01356949796262147 0.2066380942384537 0.2315825023310051 0.380932439824315 0.5 0.3001566546139247 0.383100121162325 0.3093581020602834 0.2448171092205982 0.4758213647062719 0.4575544300365125 0.3230168074752427 0.4315047433461306 0.3756360353761278 0.2637856498602641 0.09370692411813743 0.1918783573725155 0.2024685845188497 0.3693460625734618 0.3301772984666189 0.412624856153968 0.3411060769162816 0.2665006499518651 0.2468709864651586 0 0.1731182533461083 0.3413802058799623 0.3183648190246057 0.2685397690004603 0.2475983177869775 1:-0.115061 2:-0.247904 3:-0.00116028 4:-0.314964 5:-0.641805 6:0.288647 7:0.439283 8:0.820057 9:0.156968 10:-0.660159 11:-0.674164 12:-0.385451 13:-0.047719 14:0.474985 15:-0.152301 16:-0.0995823 17:-0.227643 18:0.124126 19:0.500473 20:0.371379 21:0.912401 22:0.301056 23:-0.371207 24:-0.891628 25:-0.899874 26:-0.615063 27:0.238154 28:0.662581 29:0.0423068 30:-1 31:-0.668462 32:0.107985 33:0.395758 34:-0.116486 35:-0.685994 36:-0.320438 37:0.0807991 38:-0.308399 39:0.172164 40:0.161059 
-0 -0 -0 0 0 0 0 0 0 0 0 0 0 0 0 0 0 0 0 0 0 0 0 0 0 0 0 0 0 0 0 0 0 0 0.5 0 0 0 0 0 0 0 0 0 0 0 0 0 0 0 0 0 0 0 0 0 0 0 0 0 1:-0.00218614 2:-0.239901 3:0.029492 4:-0.129782 5:-0.497274 6:0.458214 7:0.580685 8:0.881671 9:0.415308 10:-0.507028 11:-0.550678 12:-0.262009 13:0.0553536 14:0.571265 15:0.0728667 16:-0.0756426 17:-0.186583 18:0.2366 19:0.517635 20:0.389981 21:0.951655 22:0.284816 23:-0.445127 24:-0.702215 25:-0.810476 26:-0.527191 27:0.218418 28:0.795374 29:0.16198 30:-0.792728 31:-0.886095 32:0.267709 33:0.325917 34:0.0861332 35:-0.798288 36:-0.0401697 37:-0.0704802 38:0.0455447 39:0.153272 40:0.18224 
-0 -0 -0 0 0 0 0 0 0 0 0 0 0 0 0 0 0 0 0 0 0 0 0 0 0 0 0 0 0 0 0 0 0 0 0.5 0 0 0 0 0 0 0 0 0 0 0 0 0 0 0 0 0 0 0 0 0 0 0 0 0 1:0.0850588 2:-0.320616 3:0.0257805 4:-0.0520478 5:-0.414077 6:0.474946 7:0.624474 8:0.90491 9:0.493156 10:-0.489882 11:-0.587312 12:-0.189444 13:0.0107722 14:0.591725 15:0.121847 16:-0.143997 17:-0.124791 18:0.194395 19:0.461462 20:0.51031 21:0.878536 22:0.217751 23:-0.378211 24:-0.676166 25:-0.83737 26:-0.367171 27:0.250439 28:0.734724 29:0.269127 30:-0.661449 31:-0.772341 32:0.226525 33:0.368657 34:0.146591 35:-0.637625 36:0.0362417 37:-0.0404274 38:0.05016 39:0.309594 40:0.106349 
-0 -0 -0 0 0 0 0 0 0 0 0 0 0 0 0 0 0 0 0 0 0 0 0 0 0 0 0 0 0 0 0 0 0 0 0.5 0 0 0 0 0 0 0 0 0 0 0 0 0 0 0 0 0 0 0 0 0 0 0 0 0 1:0.15865 2:-0.37881 3:0.0565354 4:0.0531615 5:-0.348351 6:0.483776 7:0.742896 8:0.920106 9:0.543491 10:-0.36421 11:-0.675532 12:-0.198774 13:0.0969631 14:0.585003 15:0.0787621 16:-0.121195 17:-0.113798 18:0.189649 19:0.402834 20:0.516355 21:0.849062 22:0.200109 23:-0.398902 24:-0.658076 25:-0.886073 26:-0.369023 27:0.218788 28:0.71826 29:0.25847 30:-0.623376 31:-0.851287 32:0.228123 33:0.442671 34:0.221146 35:-0.87895 36:0.110488 37:-0.0263258 38:0.0485469 39:0.201987 40:0.271797 
-0.3087468022060607 -0.2617630035233357 -0.2861489265456865 0.2882870603087717 0.2680046586899619 0.1477553682006153 0.2001859802168549 0.4131493412631558 0.171242857774824 0.3979765278070511 0.3794125489934339 0.3112521500295471 0.2559887928781688 0.3958045155183511 0.4228421383167637 0.2323201942061901 0.1526952042090513 0.2903140756773057 0.2838228156638518 0.2254365568234744 0.4554542574047746 0.2205980245035228 0.1731538865430685 0.2598724421073886 0.1597724242401447 0.3214051252910885 0.2166224412194223 0.2411897583340943 0.2157089335891009 0.06206813566216082 0.1770086005527175 0.1274219489174963 0 0.2556571605162273 0.5 0.1616787441945014 0.3034020121604843 0.3317862136995101 0.2680448843451219 0.157719531690703 0.4380773724642409 0.4857770421948048 0.2698626976613966 0.09273213685257825 0.2366528025583857 0.0972589164310286 0.3033571400976479 0.3333877271602566 0.2252346345006004 0.2503868874658094 0.27649568670318 0.07587877261021035 0.2430066832028136 0.2475237221603891 0.3416640809737453 0.3271482748932195 0.1926873700738558 0.2117062815588578 0.341032710648806 0.2194140283694593 1:-0.170545 2:-0.157305 3:-0.0130302 4:-0.357145 5:-0.676492 6:0.37713 7:0.338146 8:0.845155 9:0.237263 10:-0.753727 11:-0.564362 12:-0.431593 13:-0.0384366 14:0.601048 15:-0.10399 16:-0.186346 17:-0.0545571 18:0.218564 19:0.484437 20:0.525807 21:0.995148 22:0.325519 23:-0.26217 24:-0.72806 25:-0.936386 26:-0.414799 27:0.267561 28:0.849358 29:0.102581 30:-0.730546 31:-0.845626 32:0.511253 33:0.461802 34:0.120385 35:-0.873494 36:-0.157577 37:0.118098 38:-0.129816 39:0.0792256 40:0.0820962 
