svm_type c_svc
kernel_type rbf
gamma 0.0078125
nr_class 61
total_sv 275
rho 0.046334 0.01073 -0.120102 0.0810452 -0.375754 -0.0449265 -0.0233841 -0.239459 0.411836 0.476024 -0.0731614 0.694562 -0.257895 1.45111 -0.243172 -0.100737 -0.0611456 -0.117657 -0.0944196 -0.244497 -0.286069 -0.23299 -0.129949 -0.0509654 -0.120926 -0.137612 -0.186416 -0.099775 0.0171115 -0.102931 -0.152996 -0.0135301 -0.08184 0.052281 0.054138 -0.0270311 -0.0262661 0.0301858 0.33875 0.563541 0.0699958 -0.125466 -0.127596 -0.157852 0.0697402 -0.631296 -0.174459 -0.222084 -0.145645 -0.483067 -0.0249181 -0.144075 -0.708147 -0.181664 -0.168793 -0.142236 -0.068031 -0.00431938 -0.166734 -0.0291582 0.0866443 -0.0806274 0.26827 -0.205707 -0.0900936 0.0062699 -0.103698 0.301275 0.354266 -0.00386873 1.01232 -0.064921 0.608414 -0.0538758 -0.109938 -0.111761 -0.0515181 -0.0337898 -0.00305518 -0.113944 -0.132178 0.0254629 -0.125764 -0.0318621 -0.168203 -0.0786771 -0.00784356 0.0972947 -0.0829876 -0.00356297 -0.0381769 -0.0516424 -0.0203196 -0.00601109 0.0370543 0.202395 0.125605 0.0764866 0.68373 0.0674012 -0.0229269 -0.209868 -0.0333575 0.010633 -0.199524 -0.033102 -0.100713 -0.0297654 -0.213427 -0.0628039 -0.171087 -0.268701 -0.0841105 -0.153898 0 -0.830235 0 -0.0289476 -0.0105648 -0.121218 0.198284 -0.125859 -0.118823 0.00932583 -0.256586 0.0958887 0.0866368 -0.186913 0.367277 -0.154785 0.540877 -0.166733 -0.101565 -0.113364 -0.142169 -0.253715 -0.0290827 -0.0636682 -0.178044 -0.0399823 -0.128673 -0.124314 -0.0622149 -0.151215 0.0121966 -0.733661 -0.104757 -0.0530608 -0.147144 -0.110744 -0.0682271 0.0209351 0.085582 0.157861 -0.00554059 -0.17712 0.144574 0.00264844 -0.122533 -0.0559376 -0.0542626 -0.0359338 -0.221976 -0.221423 -0.0578318 -0.109101 -0.124997 -0.119881 -0.204718 -0.223406 -0.0960283 0.0612305 -0.00339707 -0.0772489 -0.00323527 -0.0486523 0 0.0660486 0.0476045 0 0 0 0.123122 0.148792 0 0.361254 -0.00721854 0.410608 0.00614883 0.00302783 0.00253687 0 0.00883584 0.00219925 -0.00912717 0.00776956 0 0.000104685 -0.0140535 -0.00436891 0.0144438 0.00144178 0.106219 0.900908 0 0.00263893 0.00213477 0.0553945 0.230404 0.0433583 0.440861 0.0779946 0.0468978 0.345459 -0.00936047 -0.00198235 0.00404998 0 0 0.00679315 0.0206681 0.0370353 0.00122607 -0.0100093 -0.000326898 -0.004091 0 0 0.0684044 0.0101142 0 0 0 0.0649503 -0.244067 -0.231727 -0.259328 -0.227566 0.131873 -0.0122117 -0.116851 0.305852 -0.146612 0.576475 -0.12578 -0.385564 -0.253518 -0.0904423 -0.219661 -0.147329 -0.244836 -0.163237 -0.133731 -0.105834 -0.168931 -0.211773 0.0028213 -0.00953299 -0.193943 -0.06822 0 -0.272521 -0.128598 -0.0272701 -0.051701 0.00568357 0.135527 -0.374805 -0.211464 0.378159 -0.114202 -0.223112 -0.176047 -0.0740707 -0.164521 -0.295724 -0.145904 -0.230659 -0.366262 -0.213216 -0.114977 -0.338146 -0.353127 -0.335756 -0.0699065 -0.214654 -0.384186 -0.230116 -0.065945 -0.0984427 0.0331627 0.0434185 -0.298215 0.596665 0.668443 -0.0415528 0.900722 -0.0161067 1.51561 0.0845909 0.00453086 0.0185503 -0.0231106 0.0711272 -0.020915 -0.0249644 -0.0188011 0.10877 0.00825813 0.000256921 0.0338031 -0.0243157 0 0.140438 -0.0470553 -0.00330745 0.0555509 -0.0441501 0.18102 -0.0343689 0.0478257 0.561306 0.241611 0.405569 1.18026 0.194997 -0.0343237 0.0443494 -0.0300971 0.229817 -0.0938769 0.0167717 -0.000220105 -0.00185502 -1.05252 0.015628 -0.042633 -0.104887 -0.0610486 0.0345675 -0.0333392 0.000874303 0.0873359 -0.0237827 0.0231054 -0.030377 -0.0425499 0.249297 0.253757 -0.0141759 0.847352 -0.0352622 0.777182 -0.0382473 -0.0353314 0.684634 -0.0133977 -0.0390245 -0.0235621 0.0165717 -0.00443109 0 -0.00736345 -0.00666264 -0.0190767 0.00813436 0.0181848 0.126569 0 0.0028351 -0.00501377 0.00725969 0.0649324 0.0586778 0.0567875 0.289944 0.0305429 0.109083 0.456967 0.0315452 -0.0206147 -0.0296959 -0.00989203 -0.0116481 -0.0472774 0.0276548 -0.0344929 0 -0.0107262 0.0100616 -0.0319935 -0.0487897 -0.0485015 0.0435423 0.00208736 0 -0.0224538 -0.00585691 0.0989286 -0.0398768 0.316754 0.431832 -0.0320574 0.558719 0.00917147 0.666644 0.0974891 0.0403234 0.0208998 -0.0249754 -0.0414204 -0.0236707 -0.0222696 0.0142935 0.0215459 -0.013463 -0.0700124 0.011707 0.0142721 0 0.0190428 1.60982e-15 4.44089e-16 0.0298611 -0.036639 -0.00508589 0.240222 0.0126382 1.01995 0.0894191 -0.0170424 0.805682 0.0841042 -0.0666453 0.013344 -0.0893481 0.15349 -0.0349413 0.0770272 0.0133209 -2.22045e-16 -0.0714328 -0.00936033 -0.0602667 -0.12053 -0.0387494 0.0620437 -0.0904234 -0.00357222 -0.021653 -0.0812998 0.190099 0.793122 0.665099 0 1.21679 0.271173 1.21047 0.394442 0.021749 0.0289734 0 1.00469 0.00247477 0.0602484 0.0502498 0.0521507 0 0.0297978 0.0209919 0.0195564 0.0203336 0.284295 0.00395978 0.00175167 0.0415067 0.0312175 0.137703 0.169486 0.0733497 0.590636 0.207503 0.74879 1.238 0.108976 0 0.00371125 0 0.113415 0.1499 0.640007 0.0786821 0.00674823 0 0.0164275 0.0302479 0.14327 0.0269896 0.0935962 0.0250008 0.0057225 0 0 0.0221124 0.531366 -0.322467 0.35898 -1.25466 0.237377 -1.06689 -0.666139 -0.260726 -0.263206 -0.758382 -0.4377 -0.32102 -0.307808 -0.379697 -0.208418 -0.269898 -0.301611 -0.197289 -0.203822 -0.0854672 -0.122229 -0.162729 0.0287116 -0.515823 -0.37796 -0.099445 -0.0417734 -0.438492 -0.386626 -0.69367 -0.428974 -0.223183 -0.254221 -0.294396 -0.329463 -0.180362 -0.692311 -1.14714 -0.363609 -0.234081 -0.608665 -0.211158 -0.573127 -0.753075 -0.652386 -0.42127 -0.373237 -0.350018 -0.32105 -0.315886 -0.0855375 -0.324041 0.4269 -0.973998 0.511996 -0.88582 -0.548987 -0.239785 -0.306243 -0.492225 -0.497699 -0.530061 -0.268599 -0.523789 -0.182616 -0.288479 -0.287738 -0.131695 -0.201314 -0.0748458 -0.152508 -0.1751 -1.03237 -0.0965498 -0.354586 -0.117871 -0.0527622 -0.611681 -0.157388 -0.799799 -0.421178 -0.260043 -0.272128 -0.270824 -0.406084 -0.224701 -0.909941 -1.15255 -0.531337 -0.125548 -0.611143 -0.191214 -0.606824 -0.925867 -0.516359 -0.336125 -0.416156 -0.437449 -0.353541 -0.386181 -0.0682624 1.23779 0.0626077 0.54339 0.100898 0 0.0184246 0.889691 0.039022 0 0.0276453 0.0571504 0 0 0.0078031 0.00821731 0.0172043 0.013243 0.197611 0.0105278 0.00811027 0.0258368 0 0.14081 0.128154 0.0607935 0.24038 0.0420463 0.275682 0.281287 0.0603823 0.0153315 0.0221964 0 0.0427169 0.000648286 0.036392 0.0181909 0.0112872 0 0.013103 0.0205895 0 0.0097327 0.10349 0.00875624 0 0 0 0.0240931 -0.739992 -0.0725288 -0.747869 -0.776051 -0.899119 -0.0837974 -1.13738 -0.622551 -0.582164 -0.635126 -0.704507 -0.536743 -0.491962 -0.788314 -0.590205 -0.51615 -0.350997 -0.369042 -0.339053 -0.601848 -0.626294 -0.483649 -0.423067 -0.233229 -0.467905 -0.688085 -0.565709 -0.508366 -0.312758 -0.5539 -0.751528 -0.466677 -0.481823 -1.06033 -1.10582 -0.630915 -0.58601 -0.720492 -0.57371 -1.04565 -1.08728 -0.729484 -0.934443 -0.492665 -1.10866 -0.526339 -0.488576 -0.415448 1.23102 0.92041 0.00160906 0.0246263 -0.0414362 0.138156 0.00506074 0.0230836 -0.010904 0.0739373 -0.0250254 -0.00498811 -0.0224429 -0.00353363 -0.0215419 0.18825 0.00514245 -0.00240529 0.0319475 -0.113168 0.0844929 0.113664 0.0360292 -0.0908324 0.0849239 0.533704 0.0901265 0.0522302 0.00676564 -0.0299985 -0.0341588 0.129347 -0.056306 -0.120262 -0.00859303 0.00945137 -0.126756 -0.0101644 -0.00369564 -0.0935353 -0.0540441 -0.0123879 -0.0344841 -0.03054 0.023896 -0.0353238 0.0967841 -1.09006 -0.810942 -0.804921 -0.357511 -0.992189 -2.01454 -1.06224 -0.886711 -1.66334 -0.37805 -0.520827 -1.03385 -0.56661 -0.606578 -0.539002 -0.409211 -0.893534 -0.790499 -0.784509 -0.169475 -0.197494 -0.463634 -1.01562 -1.25997 -0.464458 -0.595388 -0.853011 -0.467504 -0.922651 -1.13842 -1.049 -2.04831 -1.21103 -1.11052 -0.348287 -1.17497 -0.394864 -1.28056 -2.20416 -0.952036 -0.874098 -0.898567 -0.788237 -0.670471 -1.15251 -0.115751 -0.0816995 0.0281589 -0.107944 -0.0237306 -0.0611412 -0.0411769 -0.061474 0.0102658 -0.0371879 -0.0115287 0.0172818 -0.0079146 0 0.204655 -0.000146003 -0.0220595 -0.0183753 -0.159412 0.102673 0.121655 0.0419082 -0.177376 0.0399856 0.517477 -0.0896657 0.0144662 0.00550662 -0.0126163 -0.0507404 0.0872243 -0.209051 -0.361632 -0.0891801 0.0216448 -0.118234 -0.00587278 -0.0753908 -0.249966 -0.0873383 -0.034088 -0.0728466 -0.0482642 -0.0259364 -0.035323 0.0904998 0.0240802 9.71445e-17 0.0274058 0.0349503 0.0237248 0.0104251 0.0819305 -0.00439585 -0.0687241 -0.00802182 0.00690421 -0.00854335 0.114563 -0.00313767 -0.00231464 0.0364548 -0.0598576 0.0376809 0.00430114 0.00490674 0.209293 0.496688 -0.145856 0.667383 0.0934165 -0.0347756 -0.0119253 -0.0701254 0.180598 -0.0107126 -0.0197036 0.0048831 0.0107329 -0.0777458 0.0006625 -0.0485915 -0.0901783 -0.0520325 0.116158 -0.0778787 -0.0559566 0.0177276 -0.0564532 0.134427 -0.0157497 -0.0289544 -0.0193908 0.0211633 0.00273643 0 0.0081814 0.00038853 -0.0144161 0.00745231 0.00698696 0.12107 0 0.0023666 0.00937684 0.0115093 0.0420582 0.0352058 0.0715314 0.313648 0.0874335 0.106738 0.490393 0.0483913 -0.0206118 -0.0397008 -0.00279068 -0.0103666 -0.0312412 0.0608537 -0.0172168 0 -0.00298814 0.0064108 -0.0156266 -0.0306149 -0.0387166 0.0561193 0.0136583 0 -0.0101036 0 0.0983315 0.0338316 0.00456342 0.0194752 0.0374173 0.00771749 -0.0146212 -0.00743959 0.00328781 -0.0053522 0.011693 0.158164 0.010721 0.0116366 0.0318842 -0.010769 0.148595 0.108845 0.0526009 0.156437 0.0407777 0.283129 0.158119 0.0582953 0.0155734 0.0260443 0 0.0583152 0.00408326 0 0.0103284 0.0192113 -0.0139042 -0.00112556 0.0186327 -0.00426039 0.0176285 0.065786 0.00448047 -0.0134538 -0.000205575 0 0.0213677 0.00322388 0.0335804 0.0153939 0.0529383 -0.0395168 -0.0329482 0.0189363 0.0185891 0.011424 0.291715 0.00325482 -0.00348477 0.00261952 -0.16225 -0.121295 0.167718 0.0716793 0.443032 0.134779 0.258028 0.993367 0.080834 -0.00667147 0 -0.011344 0.118047 -0.0429698 0.0140954 0.0519456 0.00601439 -0.214954 -0.0380983 0.021965 -0.0498798 -0.00478648 0.0428546 -0.0328111 -0.039448 -0.0495984 -0.00326614 0.0369913 0.0719794 0.0113114 0.218157 0.00675351 0.0430735 0.0111764 0.0162986 -0.00377821 0.0452069 -0.00192192 -0.0107098 0.0363164 -0.0412236 0.0264884 0.280693 0.100265 1.0131 0.293924 0.155548 0.884303 0.225888 0.0292613 0.00553169 -0.341579 0.452671 -0.0282233 0.0365914 0.038529 0.0107086 -0.0777734 0 -0.0285011 -0.0393281 -0.0568527 0.0963047 -0.043167 -0.00352458 0.0733563 -0.624094 0.30509 -0.00216378 0.0774358 -0.0255824 -0.07885 -0.0561538 0 -0.0251969 0.079296 0.0261963 0.0803492 0.0240894 -0.0518385 0.0338501 0.0831509 0.0978493 0.877048 0.277709 0.0745998 1.04427 0.132078 -0.0335888 -0.0117923 -0.107163 0.268254 -0.0698475 -0.0356089 0.836771 -0.00351744 -0.304471 -0.0141789 -0.0151662 -0.179385 -0.0996663 -0.0486152 -0.0537854 0.00104406 0.0355521 -0.187473 0.145412 0.00478598 -0.0337157 -0.0365035 0.00126459 -0.0171663 0.017985 0.197605 0.00562008 0.0286305 -0.0328887 -0.0200075 0.200011 0.0616759 0.0707952 0.116993 0.151622 0.278032 0.297015 0.074769 -0.0149317 0.0161906 -0.0130776 0.0786877 -0.0219749 -0.0049717 0.0258579 -0.0403517 -0.0386896 -0.039326 -0.0156658 -0.0303267 -0.0162456 0.131623 -0.0264746 -0.0334394 -0.0122452 -0.00954103 0.113114 0.00584604 -0.0293038 0.0206232 0.0227533 0.0207019 0.042576 0 -0.0538841 0.0130323 -0.109043 -0.0437454 0.295257 0.12006 0.934671 0.185394 0.0668202 0.769892 0.113448 -0.0135009 0.00242413 -0.275323 0.285953 -0.0974566 -0.0176662 -0.207528 0.00771564 -0.192384 0.00507326 -0.0823865 -0.11728 -0.1144 0.142141 -0.0955813 -0.0316531 0.0444756 -0.634742 0.322797 0.0112799 0.0127657 0.00359788 -0.00743067 0.143181 -0.00474522 -0.00330934 0.0202794 0.00969808 0.0971965 0.0408643 0.0685262 0.191446 0.0569802 0.134189 0.273542 0.079286 -0.000129376 0.0224529 -0.00513677 0.0567081 -0.00696877 0.0213524 0.00845546 0.0057553 -0.00554074 0.759424 -0.00722207 -0.00567977 -0.0011648 0.078585 -0.00234063 -0.0017995 -0.00190327 -0.00522667 0.00146085 0.017781 0 0 0.134092 0.00947405 0.0110537 0.0224095 0.00730605 0.0558119 0.609147 0.030937 1.48124 0.10532 0.0912468 0.899875 0.184098 0.917269 0.0420816 -0.0340842 0.124595 -0.0127415 0.048419 0.115862 0.00372397 -0.0380136 -0.0017167 0.0139962 -0.0226757 0.0178808 0.00023793 0.0320069 0 0.0872168 -0.0443838 0.0806059 0.0239928 -0.0123325 0.0844371 0 0 0.00612212 0.00934699 -0.0243742 0.22397 0.100132 0.63067 0.185249 0.137999 0.683169 0.137292 -0.0239876 0.801142 -0.015094 0.0565902 -0.0205161 0.0480974 0.0550456 0.00568491 -0.0385524 0.000949425 0.0112375 -0.0211771 -8.32667e-16 0.218015 -0.0312367 -0.0714372 -0.0418079 -0.0131914 0.146554 0 0.114416 0.0229716 0 0.0286912 -0.010523 0.041362 0.286826 0.0746671 0.68539 0.055996 -0.00280882 0.507293 0.0318153 -0.0155035 0.00410207 0.00628671 -0.0254353 0.00804175 0.0501446 0.0427874 0.00128435 0 -0.0112609 0.0274206 -0.0160938 0.0280534 0.179145 0.0109949 0 -0.00711886 -0.00703294 0.143407 0 -0.00887926 -0.0125278 -0.0120909 0.0060374 0.0471769 0.130947 0.116131 0.337745 0.0447305 0.0647813 0.427271 0.0297217 -0.00290246 0.0331898 0 0 0 0 0.0138691 0.000196955 -0.00437337 0.0170874 -0.00799749 0 0 0.916998 0 0.00400047 0 0 0.103404 -0.102017 -0.0615963 -0.170307 -0.123413 -0.08865 0.0016375 0.089603 0.131997 -0.0132407 -0.179077 0.114542 -0.0114911 -0.141819 -0.0777494 -0.0641997 -0.0549298 -0.252465 -0.260252 -0.0753586 -0.112319 -0.136119 -0.128474 -0.230066 -0.25806 -0.115919 0.0118639 -0.0203253 -0.101149 -0.0239124 -0.0548897 0 -0.00440444 -0.0085684 0.0074816 0.0606456 0.215771 0.0288968 0.445311 0.0830503 0.0476965 0.344256 0 -0.0132823 0.0105332 -0.0125755 0 0.00394052 0.0184242 0.0332572 0.00461307 -0.013887 0.0031892 -0.0102885 -0.00211789 0 0.0600975 0.00858153 0 0 -0.00791841 0.0601319 -0.00734269 0.00533473 0.0186341 0.17853 0.0614513 0.483852 0.0244804 0.0590525 0.341022 0.0640222 -0.013345 0.00585609 -6.93889e-16 0.130905 -0.00463277 0.0296505 -0.0265744 0.0089459 -0.0365031 0.0111892 0.00791149 -0.00551833 0.00902533 0.19524 0.00891621 -0.00308925 0 0 0.43834 -0.0173836 -0.0157872 0.097307 0.00951538 0.124599 0.348911 -0.243754 0.461521 0.040627 -0.0145763 0.0095304 -0.0507045 0.0983194 -0.0959489 0.0516289 -0.0588786 0.0270233 -0.0902708 -0.0205727 -0.0149254 -0.0904109 -0.142881 0.0184441 0.0160408 -0.058271 0.0629682 -0.0263112 0.111129 0.0841841 0.0346441 0.0190651 0.177684 0.0935965 0.363546 0.370164 0.12582 0.00458762 -0.00991909 -0.00843909 0.0936377 0.0912056 0.0471575 0.0767134 0.0013241 -0.000454937 -0.00820143 0.00782054 0.0229251 0.0197163 0.00859913 0.0358596 -0.0136453 0.0870791 -0.0178062 0.0520815 0.041416 -0.00934182 -0.189651 -0.0919679 -0.020018 -0.189562 0.0466908 -0.0297871 0.00438695 -0.00709154 0.0396734 -0.129684 -0.223214 -0.0456454 -0.0510238 -0.190223 -0.0781659 -0.0957994 -0.170034 -0.0555356 -0.0783856 -0.0502456 -0.034997 0.0173967 -0.00696699 0.00865646 -0.0509154 0.0557364 0.00711285 -0.0470639 -0.152956 -0.0849873 -0.491393 -0.211028 -0.27957 -0.263039 -0.106449 -0.0549186 -0.020811 -0.262591 -0.0075215 -0.0284606 -0.0663472 -0.111087 0.00372512 -0.183267 -0.0798703 -0.00524105 -0.116048 -0.294507 -0.134274 0.244036 -0.0565556 0.00461982 0.215937 0.0705619 -0.0410004 -0.0500044 -0.076711 0.0419682 -0.0701591 -0.00746641 -0.05593 -0.0820589 -0.0572121 -0.0796573 -0.0796311 -0.0937553 -0.0510813 -0.00524671 -0.0222667 -0.0343255 0.0180107 -0.0839852 0.085108 -0.000380396 0.372239 0.00392151 -0.48965 -1.67037 -0.58249 -0.959571 -0.643946 -0.138103 0.0254888 -0.912308 -0.652928 -0.618315 -0.206876 -0.361564 -0.146583 -0.344222 -0.699836 -0.488266 -0.495339 -0.428643 -0.957111 -0.361114 -0.13165 0.635706 -0.0592721 -0.116059 -0.166997 -0.220724 -0.0228229 -0.516229 -0.237646 -0.191603 -0.0957817 -0.284897 -0.0634006 -1.14181 -0.499206 -0.606172 -0.131557 -0.209215 -0.270415 -0.136305 -0.190824 0.172255 -0.0238225 -0.0209127 -0.0589325 -0.137881 -0.156707 0.0273255 -0.344535 -0.0955338 -0.090376 0.0251251 -0.42133 -0.0869728 -0.166975 -0.338958 0.0404882 -0.0949036 -0.103844 -0.165929 -0.0721903 -0.157759 0.0337227 -0.510788 -1.00542 -0.653179 -0.627795 -0.698347 -1.27065 -0.0713495 -0.948391 -0.60003 -0.969067 -0.290614 -0.896339 -1.14949 -0.746077 -0.655368 -0.596446 -0.868876 -0.623169 -0.655428 -0.486915 -0.0969788 -0.143297 -0.20991 -0.0791445 -0.157886 -0.0258395 -0.174954 -0.000190882 -0.168341 -0.0774867 -0.0774373 -0.226274 -0.162551 -0.147147 -0.310103 -0.075354 -0.182191 -0.202844 0.140293 0.0418032 -0.0561788 0.0833784 -0.0386982 0.0390515 0.0714551 0.0335325 -0.0559834 0.0124238 0.00144273 -0.0332772 0.0140942 0.0261696 -0.0124916 8.88178e-16 0.00585164 -0.0645188 0.071857 -0.0115655 0.0610816 -0.0225023 0.0237273 0.0300127 0.000143744 -0.0435324 -0.00303252 0.00408922 -0.0272889 -0.00076336 0.146196 -0.0352139 -0.0637196 -0.0464122 -0.000670422 0.135972 0.39212 0.0092717 0.0519047 0.085573 0.007963 -0.00486375 0.000613314 0.0197633 0.0182631 0.0327652 0 0.0455102 0.000550192 0.122507 -0.954741 0.261661 -0.285211 -0.0997019 -0.307743 0.00871974 -0.198675 -0.0288584 -0.13425 -0.343381 -0.174425 -0.134096 -0.252119 -0.0628239 -0.159502 -0.395228 0.224655 -0.112466 0.0278282 0.0340253 -0.31471 0.0203943 0.0917673 -1.0506 -0.00828413 0.0166788 -0.0173013 0.000178065 0.0798043 -0.0117904 0.176576 0.0270428 -0.0144507 -0.0916309 0.00139691 0.0404759 0.0130615 -0.0637644 0.00215957 -0.078298 -0.059404 -0.0348908 -0.052564 -0.0252246 -0.0218405 -0.38744 0.00679061 -0.0064098 -0.100227 -0.070022 0 -0.119749 0.0047987 -0.000735517 -0.30648 0.0402309 -0.0298982 0.0156138 0.0195883 -0.0247235 -8.71862e-05 0.164048 -0.0116275 -0.0217652 -0.0183838 -0.00598211 0.139611 0.0172708 0 0.121465 0.0188298 0.0541827 0.0208348 0.00491545 0.0827041 0 0.0493504 -0.014814 -0.0203092 -0.00324098 0.0470071 -0.00359311 -0.000564649 -0.00317602 0 -0.0150514 -0.0946781 0.000446981 0 0.0119641 0.00704167 0.0507851 -0.00153409 0.0886555 0.00835672 0.0178331 0.00968804 0.00437921 0.100087 0 0.183283 0.101497 -0.042582 -0.0123217 0.0137669 -0.0393513 0.118588 -0.0658585 -0.266793 -0.059747 -4.44089e-16 -0.0865633 0.00117122 -0.850005 0 0.137026 -0.000797457 -0.00193269 0 -0.10396 0.131703 0.259951
label 0 57 40 53 33 21 9 5 1 15 10 13 18 12 2 38 37 35 44 41 50 22 7 24 49 46 45 3 16 14 27 4 36 39 55 52 8 26 34 29 30 17 20 19 54 43 25 56 48 6 47 23 60 51 11 42 58 31 32 28 59
nr_sv 6 5 5 3 4 5 4 8 1 4 6 1 5 9 10 10 5 6 7 7 5 4 5 5 2 2 7 3 2 4 5 7 5 2 3 5 2 3 4 3 4 6 3 10 2 6 5 7 7 4 1 3 3 2 5 6 4 3 2 1 2
SV
11.34270618739941 2.817681972792388 2.163472386115714 7.532290075412155 24.46801706071577 3.642162740281528 11.05757166273054 15.74946892098544 15.07327513199764 15.0787494800463 3.022794055509335 8.183537401295617 14.09526015133189 27.50985958895234 12.1716193410435 15.28087306090842 3.546874882137913 0.1902437966747339 15.72359880867275 15.69180412379314 15.19256327522386 3.266020829413042 13.25614634851556 1.32424947806281 10.910540794726 15.05098226527402 6.48522975710303 6.533378466726012 2.999330885432905 2.194177734928017 7.179163476843072 11.83856990807315 8.803000276678137 4.785790548500493 3.754659314149142 1.501649233102209 5.834116705848449 10.2410242931907 23.44003478758584 23.86973686981741 21.7529300064002 11.20846869499308 15.36039977037281 10.98524945925971 25.76569112915627 13.910287400561 21.12164702464075 20.20045955062342 4.084385793185536 18.6505448926419 1.630840774056323 6.714838784548913 14.86436727038104 13.49528383743572 15.01319287678437 6.566058933071377 11.83287982796416 11.41787617164603 11.36911433730044 4.328974081546703 1:-0.273424 2:0.730748 3:0.386405 4:0.806451 5:0.319495 6:-0.370608 7:0.248135 8:-0.28144 9:-0.218857 10:-0.125447 11:0.286567 12:-0.061565 13:-0.381142 14:0.00783545 15:0.0478926 16:0.056425 17:0.055785 18:-0.162989 19:0.0887584 20:0.0640289 21:0.474242 22:0.35755 23:0.0266424 24:0.0303467 25:0.0432299 26:-0.0381027 27:0.407693 28:0.400149 29:0.901315 30:0.123697 31:0.158017 32:-0.0462084 33:0.372161 34:0.640737 35:0.316876 36:0.332225 37:0.649497 38:0.192584 39:0.0810191 40:-0.241732 
13.4116713544698 0 0 0 0 0 4.417377772928029 1.851243718042077 8.257646298932512 5.429672986113776 6.133750128672676 1.12899491464308 8.019660818395927 0 7.356234577189315 4.274516445193399 0 5.882643044288786 7.464574987464793 0 8.165901437587983 0 0 1.970625747729273 3.262654686190288 0 0 0 0 0 0.01795367226286834 5.092417211276918 0.3667262150512463 0.05432552190996351 0 0 15.11851042759558 0 8.853637511496954 3.705125734513494 9.85546301266996 4.683464061535343 0 1.856226328602924 2.472757849347582 15.53016328444423 3.44361105875663 0 0 0 1.091503503156319 0 12.86725847752151 3.092756053504702 4.879487615233515 12.10202768893699 11.68815392047085 6.425961090684431 0.4677822633703447 0 1:-0.289393 2:0.732638 3:0.45129 4:0.843516 5:0.221991 6:-0.225427 7:0.257738 8:-0.221728 9:-0.337976 10:0.0678453 11:-0.110442 12:0.122244 13:-0.00503288 14:-0.330442 15:-0.0735954 16:0.210853 17:-0.0832536 18:-0.0756068 19:-0.0367628 20:0.181651 21:0.351049 22:0.279715 23:-0.0675737 24:0.0401085 25:0.103506 26:-0.316555 27:0.114964 28:0.744514 29:0.548383 30:-0.180723 31:0.394864 32:-0.285395 33:0.372808 34:0.206436 35:0.377285 36:0.59336 37:0.389102 38:0.136409 39:-0.132162 40:0.0400458 
0 4.121580469528098 6.179890769928588 9.113796270855543 19.20018878851229 10.63434295184541 0 10.91303318436085 0 0 2.13343062640381 11.63250169390196 0 4.815409209973713 0 0 10.39892663265845 0 4.985154976146998 8.530565384752913 0 6.724686069548469 9.570245557690631 6.914757962241469 5.404038919104766 9.643681766225171 2.705749931053019 7.417970838115854 3.626337503483474 6.373514944682004 3.120439474087209 0 0 5.389958782912069 9.08939599703619 5.965655441408814 0 9.549075878612483 0 7.56966747214126 0 4.64227990080426 8.791942916210136 7.402630215282685 4.408083346316516 0 0 7.19299228898433 6.330777488201145 7.240572776271055 8.412729453909595 10.33499128267772 2.382026994977508 1.604828734274242 7.84404628919531 0 0 0 9.125706189041605 8.224045134015558 1:0.0468752 2:0.11654 3:0.55894 4:0.651191 5:0.386334 6:-0.34046 7:0.315863 8:-0.220654 9:-0.321518 10:0.085667 11:-0.279423 12:0.178963 13:-0.000997073 14:-0.292019 15:-0.120763 16:0.262372 17:-0.0994138 18:-0.20761 19:0.0472505 20:0.00527326 21:0.321573 22:0.279802 23:-0.184631 24:-0.107045 25:0.102261 26:-0.360839 27:0.000611729 28:0.549052 29:0.523654 30:-0.422177 31:0.259186 32:-0.694611 33:0.507126 34:-0.0713136 35:0.367163 36:0.422045 37:0.299998 38:-0.352433 39:0.245525 40:0.173781 
0 1.527706278489701 2.060797850278231 2.417148519046113 2.000817838325287 0 0 0 1.734805575993775 0 0.192132773904623 0 5.33338420375766 8.752050154875132 5.772436646711149 2.027052222747275 0 1.813877169045187 0 0 5.466799212078651 5.11248136542301 1.890386685202116 0.1249032220312888 0.561481170051449 0.1296386552408075 2.644064506596546 0 1.556922117130277 2.252443707584808 3.496445935133172 0.2873871598268374 0 1.079605064135201 0.1936874593682815 2.172527856600229 10.39162341726006 3.492152626273604 0.5317376381060694 2.353195670560453 2.293251640060134 1.188673525191707 0.666512697657725 0 5.744583990982835 13.38308981484114 3.327230177334727 3.455386619571063 2.317641033932978 3.020133106547319 0 0 10.69458297761466 2.207100976555747 0.7239885036409287 0 0 0 0 1.622425779253898 1:-0.15007 2:-0.172581 3:0.48519 4:0.468832 5:0.0902851 6:-0.901141 7:-0.278191 8:-0.74468 9:-0.222833 10:-0.0200618 11:-1 12:-0.302931 13:-1 14:-0.37575 15:-0.152485 16:0.0601317 17:-0.408917 18:-0.681065 19:0.0814007 20:-0.0406499 21:0.0500356 22:0.293136 23:-0.0259418 24:-0.682285 25:-0.147953 26:-0.363343 27:0.0335628 28:-0.0335614 29:-0.0992907 30:-0.223457 31:-0.292201 32:-1 33:0.331049 34:-0.372414 35:0.364797 36:-0.140274 37:0.231367 38:-0.74071 39:0.171793 40:0.380061 
0 2.200584320087777 0 1.926725743982942 9.070207637688535 0 7.549967990739131 3.486254176611638 0 8.269599041857568 0 0.7915491688351912 0.6214723565609027 5.369531605262408 0.9274831395407109 0 0 0 3.458043888101722 11.87441622267665 6.822182382582339 0 6.968464551095907 0 0 0 0 0 2.73188044231869 0 0 0 10.38591667340044 1.00546226860296 0.8331594300644625 0.1330355943776386 4.900167030751097 4.183067300059389 0.0828437957391613 0 9.202859826997091 0 0 2.229308123879214 9.73313749890843 9.947086377558367 0 10.57167972384487 0 0 0 6.359432108170287 10.96546388893145 0 0 14.24443809508349 0 12.98895721134219 2.082191122783989 2.79793522495658 1:-0.0714536 2:0.187178 3:0.54394 4:0.761724 5:0.345151 6:-0.484401 7:0.217288 8:-0.141883 9:-0.304114 10:-0.0735887 11:-0.0418039 12:0.292856 13:-0.460757 14:-0.403571 15:0.167784 16:0.220514 17:-0.216411 18:-0.0901669 19:0.150265 20:-0.156434 21:0.473546 22:0.229227 23:0.182789 24:-0.338777 25:0.192826 26:0.000314276 27:0.083897 28:0.413559 29:0.617027 30:0.338329 31:0.0587682 32:-0.418812 33:0.632827 34:0.0710832 35:0.603922 36:0.216151 37:0.590367 38:0.0593975 39:0.136226 40:-0.349537 
0 0 0 0 0 0 3.384936064341498 0 0.428587720437443 0 1.111617204353931 0 0 2.505869789381212 1.741055254217317 0 0 3.779816944925103 0 0 0 2.807618273237442 0 0 1.997248531858737 0 0.4329351153976096 0 0 0 0 0.2584940275810701 0 13.43392571840008 0 1.020414413199836 4.734428676075647 0 4.066059448598746 1.017438161600513 0 0 0 0 0 4.147127212816825 3.116046480569911 0 0 3.088749224539725 0 0.4609012210244822 2.734699108607224 0 0 0 0 0 0 0 1:-0.452685 2:0.810653 3:0.496542 4:0.602841 5:0.21048 6:-0.488584 7:0.0777476 8:-0.227532 9:-0.279427 10:-0.0513431 11:-0.0869473 12:0.0959446 13:-0.48376 14:-0.146772 15:-0.0958691 16:0.107107 17:-0.0880098 18:-0.0863441 19:0.261257 20:-0.102076 21:0.282287 22:0.41159 23:0.207113 24:-0.0300151 25:-0.253962 26:0.0257523 27:0.229861 28:0.263318 29:0.782597 30:-0.0293799 31:0.203632 32:-0.282962 33:0.457347 34:0.249022 35:0.210329 36:0.60302 37:0.28514 38:0.178278 39:0.036389 40:-0.342649 
-0 0 2.62752687476007 1.999123672736221 4.500567674471057 0 0 0 0 0 0.2467835632871153 10.3277137766977 1.062859430298496 4.232815145132804 3.284334495048399 4.301954991622115 0.6635467051823707 7.396523633678815 0 0 2.108190222820312 6.57336159415704 0 2.509046779867961 0.2054520927314908 3.463888952930953 3.47493108564391 0 0.05090546791008418 2.168640965361666 0 0 0 0 0 0 7.343601044400956 2.778474417890195 0 0.2969481890732795 0 0 4.926802457712734 0 0.8019314928111376 6.205386378080537 0 1.747098400549641 1.181454054359222 5.72979951467781 0 2.005257126618362 6.512934504811694 1.586716228854469 8.474997852318477 0 0 0 0 0 1:-0.0476307 2:0.830196 3:-0.941082 4:0.452491 5:-0.376478 6:-0.0360896 7:0.180393 8:-0.640049 9:-1 10:-0.0934458 11:-0.386336 12:-0.591929 13:0.193893 14:-0.147109 15:-0.558422 16:-0.716449 17:-1 18:-0.529298 19:-0.57058 20:-0.445296 21:-0.16515 22:-0.0354654 23:0.308118 24:0.646178 25:0.287104 26:-0.395403 27:-0.270479 28:0.407751 29:-0.0136417 30:-0.414398 31:-0.153529 32:-0.126835 33:-0.269291 34:-0.0898184 35:-0.197737 36:0.3431 37:0.492644 38:0.306086 39:0.174471 40:-0.492614 
-10.19121360530951 0 1.160820062783966 0 0 15.74138155446548 0 10.1784400631437 10.76515255990237 7.296171302571549 15.00653487516398 11.56164296117902 5.519568183490677 0 4.902148504294682 0 15.65587774940271 8.121383011929913 9.278075391833717 0 0 0 0 3.563620718677955 1.076502084148477 8.710602168924874 2.470884150444573 0 0 0.893784987864067 0 8.033767753063225 4.543398311407824 6.895192369257735 0 0 0 0 10.70811937415455 13.35232051940441 0 0 8.821288907877005 1.81420694036623 0 0 11.96937289113304 0 0 0 4.613012157804959 6.221386896090596 0 1.014714427706048 16.28294658054162 0 4.193978859514365 0 1.519491864320424 0 1:0.0435646 2:0.854149 3:-0.772747 4:0.559044 5:-0.208127 6:0.0966345 7:0.453446 8:-0.422667 9:-0.619423 10:0.15519 11:0.101348 12:-0.272737 13:0.528587 14:0.113588 15:-0.257277 16:-0.509156 17:-0.705319 18:-0.264033 19:-0.292371 20:-0.160648 21:0.0057849 22:0.123761 23:0.445929 24:0.847717 25:0.455119 26:-0.132447 27:-0.0726493 28:0.612288 29:0.188043 30:-0.191298 31:0.15164 32:-0.0183944 33:-0.0530729 34:0.128205 35:0.0504594 36:0.440668 37:0.536233 38:0.366088 39:0.129539 40:-0.50574 
-0 10.55888717486752 0 13.87727923759167 0 0 5.724351027917386 0 0 0 0 0 0 0 0 0 0 0 0 1.370087066916024 2.702057955301021 0 3.589692231684869 0 0 0 5.87039771478648 17.07899055806225 8.512957783266161 0 6.856571845272232 0 0 0 9.506980230233061 8.053561856030919 0 3.985669536924644 0 0.1956781152772141 0 5.913213112335018 0 0 0 0 0 3.298823864527483 7.031315012880834 0 0 0 0 0.9301488993714484 0 0 32 0 0 13.56447959055316 1:0.530597 2:0.831064 3:-0.502514 4:0.508597 5:-0.125299 6:-0.0153067 7:0.42924 8:-0.391707 9:-0.470488 10:0.122946 11:0.0447895 12:-0.0546993 13:0.41173 14:0.2828 15:0.0212121 16:-0.294982 17:-0.48601 18:-0.356856 19:-0.297514 20:-0.352242 21:-0.182284 22:0.0393647 23:0.41252 24:0.931933 25:0.665319 26:0.111344 27:0.178095 28:0.725024 29:0.366729 30:0.0714247 31:0.167169 32:0.0674412 33:0.0907252 34:0.197337 35:0.0613876 36:0.411513 37:0.403365 38:0.217709 39:-0.0584883 40:-0.483636 
-14.56316393655971 3.264858472325301 3.093215685472607 9.197800587863432 18.90292325861937 5.686706280389917 16.73155903856254 9.10408858300033 10.77063030744242 17.6492839405675 0 11.4533691137178 9.045463463585273 22.14379492128002 7.341562655998569 19.05809372041299 6.306408400440922 0 10.02835254030541 16.19218361701049 16.59170342970324 7.270492266981662 12.73140179822559 7.077175628605221 13.69344698886555 12.16926567271676 0 1.397998228187696 5.71982212693779 4.03250623220818 1.393664134406302 11.25633912363152 9.197929239235654 8.910694860667308 4.228750270918384 3.400507572628504 16.96933917655768 18.90510217124903 13.21047802997844 19.04893035347779 16.5837887001038 10.64480180050922 11.23719999044368 10.70035469693429 16.3340759895271 15.64174034285833 11.32496931002841 17.39795000801487 5.075714777275704 10.98904742918182 10.10777843484134 15.78151154812664 17.48532409477643 19.39900916736795 13.09911497103317 19.19616287637818 32 19.87588659624048 11.47615802308762 2.019063305149524 1:0.703821 2:0.665845 3:-0.332595 4:0.511092 5:-0.134596 6:0.00200712 7:0.459782 8:-0.179512 9:-0.379591 10:0.169876 11:0.0454554 12:0.00965082 13:0.289217 14:0.322081 15:0.100966 16:-0.313582 17:-0.38849 18:-0.188058 19:-0.297003 20:-0.343751 21:-0.1058 22:0.0892456 23:0.435448 24:1 25:0.800216 26:0.296952 27:0.285474 28:0.771066 29:0.58315 30:0.306811 31:0.302683 32:0.182272 33:0.293277 34:0.632612 35:0.351922 36:0.479515 37:0.440269 38:0.227765 39:0.0172626 40:-0.331232 
-0 0 0 0 0 0 0 0 0 0 0 0 0 0 0 0 0 0 0 0 0 0 0 0 0 0 0 0 0 0 0 0 0 0 0 0 0 0 0 0 0 0 0 0 0 0 0 0 0 0 0 0 0 0 0 0 27.80602114048563 0 0 0 1:0.36554 2:0.953178 3:-0.674713 4:0.529732 5:-0.235927 6:-0.064882 7:0.364762 8:-0.549635 9:-0.687324 10:0.0818816 11:-0.0832667 12:-0.312381 13:0.446723 14:0.117998 15:-0.139722 16:-0.435066 17:-0.635355 18:-0.375321 19:-0.42395 20:-0.391648 21:-0.186444 22:-0.0120496 23:0.450116 24:0.90813 25:0.64419 26:0.0603711 27:0.122623 28:0.79694 29:0.37251 30:-0.076311 31:0.240176 32:0.137373 33:0.0989848 34:0.245245 35:0.147208 36:0.467753 37:0.518233 38:0.360765 39:0.088384 40:-0.522399 
-0 -0 0 0 0 0 0 0 0 0 0 0 0 0 0 0 0 0 0 0 0 0 0 0 0 0 0 0 20.98776125939829 0 1.084156012730178 2.8010195630472 0 0 0 0 0 0 0 0 0 0 0 0 0 0 0 0 0 0 0 0 0 0 0 0 0 0 0 0 1:-0.0347555 2:-0.438307 3:0.156032 4:-0.101961 5:-0.881487 6:0.762422 7:0.598317 8:0.720073 9:0.74722 10:-0.269203 11:-0.366151 12:-0.122364 13:-0.416736 14:0.367045 15:0.0561738 16:-0.181906 17:-0.329857 18:-0.825515 19:-0.292626 20:-0.22888 21:0.496473 22:0.626382 23:0.609651 24:0.735125 25:0.39197 26:-0.249526 27:-0.720686 28:-0.846109 29:-0.81556 30:-0.290945 31:0.511461 32:0.407194 33:-0.442669 34:-0.733722 35:-0.612577 36:0.166867 37:0.387973 38:0.0441559 39:-0.0583474 40:-0.365924 
-0 -1.815883677039646 0 0 2.637847559947135 0 0.00805126919888889 3.781197500176569 7.549081340490871 6.524534311154277 3.508316832491877 1.068738479535354 5.452345440159294 0 2.93505083786662 2.024702209421036 0 3.826214528270913 5.562425369801987 0.5180815222010521 1.768044898604893 0 0 3.35740281501432 3.330705222751051 0.5165904655684979 0 0 32 0 0 4.027572908930354 2.75268991380013 4.324059414250638 0.8208617902508193 0 6.189167982825571 0 6.304799485704967 9.008903478744035 0.2109124419814112 2.471420226384013 0 0 0.1672320415050884 5.156603057704585 8.429603016661238 0.5904157390614446 0 3.165656246143274 1.030416073936322 0 4.703054585602255 1.703446189605024 0 0.0530458694412746 1.413214880228899 0.04770550198116852 0 0 1:-0.116983 2:-0.413722 3:0.0802219 4:-0.179796 5:-1 6:0.742476 7:0.428944 8:0.755727 9:0.599765 10:-0.431062 11:-0.457813 12:-0.150052 13:-0.608257 14:0.284636 15:-0.0199858 16:-0.301043 17:-0.334632 18:-0.852117 19:-0.326708 20:-0.259867 21:0.567152 22:0.652931 23:0.664432 24:0.784009 25:0.412498 26:-0.146187 27:-0.680753 28:-0.825372 29:-0.881174 30:-0.226078 31:0.564903 32:0.486856 33:-0.543006 34:-0.662849 35:-0.474371 36:0.309802 37:0.375946 38:0.150387 39:0.0194592 40:-0.252937 
-0 -0 0.1606421391054055 0 0 4.356671671114245 0 1.181771951426223 0 0 0 0 1.705587646152117 0 5.776150582472731 0 4.191514861603792 0 2.291203157110131 0 0 0 0 0 0 1.282243369024966 0 0 32 1.685867777614788 0 0 0 0.8688827597889787 0 0 0 0 0 0 0 0 1.576152830216004 0 0.6784780457767964 0.7639063273761577 2.088325654054338 0 0 0 0 3.576336465387657 1.422513721417014 0 0 0 0 0 0 0 1:0.29531 2:-0.744956 3:0.186347 4:0.187208 5:-0.589735 6:0.622244 7:0.929154 8:0.808944 9:0.935756 10:-0.00466961 11:-0.318733 12:0.0355959 13:-0.39785 14:0.532612 15:0.205855 16:-0.201443 17:-0.416073 18:-0.643048 19:-0.309558 20:-0.310235 21:0.429823 22:0.542653 23:0.722572 24:0.632425 25:0.386669 26:-0.233366 27:-0.607978 28:-0.946747 29:-0.594508 30:-0.18459 31:0.559331 32:0.322616 33:-0.138869 34:-0.640823 35:-0.4874 36:0.171211 37:0.448828 38:-0.0197419 39:0.0582781 40:-0.351327 
-7.355878860489333 -12.00786197015317 3.540456049299605 15.86020352149026 7.541956653875912 8.230003718526353 14.8217835113899 8.915320982212746 5.312210431666568 6.686822821560702 3.920268986338581 8.665031777275175 4.933479728193866 14.04138561632427 4.584239469904554 10.25650547199688 7.707624650641917 2.557033989250424 9.065611528878069 10.84284785404914 6.760037392899515 7.007024471425524 11.30692362705658 5.696575370495687 5.80630790360707 9.43233035452835 6.175099551503646 16.77995939492415 32 3.715148102081118 7.831216534321 5.56664881849236 5.902981380104008 4.3855926512886 7.220939721667563 9.044580333110785 8.34320251625309 10.64498383223472 8.061415461452055 10.70836179577548 8.632351706928025 8.28423763091739 9.382941576133462 7.060204971515911 9.345873286386489 8.879076089404851 7.159047638302788 7.645600896673429 14.55943665401724 5.015055655371254 6.462210049526799 8.084201857653902 9.18720814161823 12.02459114734435 18.43780597951045 10.99623008991304 11.94190633628821 11.57811736429756 7.579675400156789 13.81214831011854 1:0.905552 2:-0.391329 3:0.321212 4:0.431864 5:-0.508879 6:0.417615 7:0.619092 8:0.336877 9:0.613773 10:-0.0674338 11:-0.352665 12:0.201587 13:-0.0565074 14:0.94262 15:0.544454 16:-0.0244263 17:-0.326071 18:-0.685105 19:-0.525413 20:-0.851354 21:-0.109244 22:0.0135946 23:0.281897 24:0.406447 25:0.516475 26:0.188992 27:-0.150678 28:-0.110206 29:0.293665 30:0.611382 31:0.926031 32:0.424591 33:-0.175838 34:-0.619552 35:-0.727588 36:-0.0272229 37:0.386176 38:0.00630166 39:0.101825 40:-0.423037 
-3.31167418040863 -0 4.304362191170092 0 0 0 0 2.71320250004931 0 0 6.678012778893859 7.877315077389059 0 0.9279064028400251 0 0 0 7.346668566470705 0 0 0.1154841997727765 6.100172674382368 0.6856142750104367 0 0 0 4.047051801798731 0 11.01223874060171 2.708795760017147 0 0 0 0 2.010327049191639 0.001117629009560318 0 3.547696320614568 0 0.5410195886887356 0 0 0 1.003161571463151 0 0 0 0.6131648161417019 2.022737519435623 0 2.305622655080274 3.606972853906733 0 0 1.895167409203611 0 0 0 0.8748906641628289 0 1:-0.0150913 2:-0.469038 3:0.136459 4:-0.0827748 5:-0.846961 6:0.660986 7:0.653152 8:0.768829 9:0.730488 10:-0.30536 11:-0.323483 12:-0.130809 13:-0.373602 14:0.340593 15:-0.0607051 16:-0.22139 17:-0.268359 18:-0.885667 19:-0.356069 20:-0.262119 21:0.51301 22:0.584724 23:0.607767 24:0.659508 25:0.393516 26:-0.344178 27:-0.726358 28:-0.993335 29:-0.745483 30:-0.513473 31:0.484396 32:0.230292 33:-0.402759 34:-1 35:-0.466428 36:0.109827 37:0.378284 38:-0.0808982 39:0.0672338 40:-0.277947 
-0 -0 -0 0 0 0 0 0 0 0 0 0 0 0 0 0 0 0 0 0 0 0 0 0 0 0 0 0 0 32 0 0 0 0 0 0 0 0 0 0 0 0 0 0 0 0 0 0 0 0 0 0 0 0 0 0 0 0 0 0 1:-0.0378945 2:-0.153199 3:0.0156815 4:-0.48362 5:-0.661429 6:0.329439 7:0.391865 8:0.900732 9:0.257942 10:-0.796763 11:-0.723573 12:-0.579721 13:0.000499044 14:0.625986 15:-0.0851223 16:-0.1449 17:-0.140283 18:0.0916313 19:0.539602 20:0.673358 21:0.956708 22:0.231151 23:-0.364573 24:-0.878052 25:-1 26:-0.608749 27:0.268637 28:0.733803 29:0.31949 30:-0.823319 31:-1 32:0.178315 33:0.664437 34:0.113666 35:-1 36:-0.526085 37:0.23627 38:-0.340061 39:-0.0265388 40:0.202669 
-9.515499987106068 -5.647357549611368 -8.005460379575103 9.014057816958147 4.432285793081238 7.317399284014543 8.904163519882989 10.44020157039717 3.234130848760658 4.599399255064054 7.116051607145737 9.484079498062425 5.874687261012085 9.565528315800062 7.149728491330175 6.40627059928381 7.109856086628643 6.698708148585868 10.01878153478844 8.832239127574443 3.893370933512295 5.701159378005274 9.244022070321321 4.255350711296111 4.610216457009323 10.90619561352555 13.42082067411331 7.880341719758982 7.845271357447064 32 9.249689328674277 5.327080083885665 4.955717822530011 4.200743735506578 8.494173875017186 4.047380630449967 6.131833986848437 8.672646267642211 5.449847862735751 11.19527488852826 6.938348588203484 9.163933820957965 11.22580290767505 8.828273686115946 12.46616635211247 7.366392741025975 6.044357751185722 3.988758138504124 13.38274318056207 3.974480446608838 5.746724733110558 6.317543201452701 8.933259924326244 6.749664572904248 9.97685372956056 7.280143729102184 6.643978875135835 7.281581832433326 9.13511597478551 8.723659836937152 1:0.208183 2:-0.319082 3:0.0519051 4:-0.227725 5:-0.419973 6:0.40675 7:0.659821 8:0.946585 9:0.511987 10:-0.550273 11:-0.763908 12:-0.249756 13:0.0982736 14:0.664762 15:0.110288 16:-0.0340609 17:-0.183466 18:0.160983 19:0.483759 20:0.699657 21:0.898268 22:0.241948 23:-0.516182 24:-0.810102 25:-0.864284 26:-0.567845 27:0.210793 28:0.712247 29:0.420395 30:-0.801075 31:-0.848329 32:0.0127395 33:0.529549 34:0.0779861 35:-0.851677 36:-0.247727 37:0.0112661 38:-0.214384 39:0.262622 40:0.180784 
-0.888661019216467 -1.234205073405273 -0 0 5.121266160948207 0 0 0 4.431813107274849 2.3201578972804 0 0 2.134550281724469 0 1.044045363644672 0.2714783465419102 0 0 0 0.0616967394714947 5.576996453657798 1.943247875929555 0 1.184619353482498 9.370262530689027 1.025395458578783 0 0 0 32 0 0.9091679716239183 1.360311074105405 2.295271345099043 6.151965679295641 1.850569770045705 8.022437816231303 0 2.066712876792826 1.370653747923874 2.870382479079024 5.163961633427289 0 0 0 1.380839405912527 2.192604562928635 5.335122235406186 0 4.934200274019477 0.0718039020314496 1.246817533079166 0 0 0 0 0 0 0 0 1:0.0698066 2:-0.315818 3:0.0434892 4:-0.525151 5:-0.548004 6:0.284634 7:0.510266 8:0.804208 9:0.307887 10:-0.669306 11:-0.803091 12:-0.516033 13:0.0473394 14:0.554873 15:-0.0342029 16:-0.0391375 17:-0.172801 18:-0.017016 19:0.62884 20:0.744467 21:0.897943 22:0.228732 23:-0.381706 24:-0.851156 25:-0.943361 26:-0.510119 27:0.257161 28:0.720873 29:0.348974 30:-0.65956 31:-0.893966 32:0.162756 33:0.560922 34:0.173556 35:-0.906735 36:-0.321836 37:0.141744 38:-0.378437 39:0.113412 40:0.302539 
-11.64984407757921 -0 -0 -7.802724049323627 2.575708764391938 3.282044473212898 0 0 0 0 0 15.01987987277563 0 0 0.3604984460945472 0 0 0 0 0 6.35106617159157 4.760394639537027 3.983462942726169 1.308560819735213 0 0 0 0 0 4.832276730911246 0 0 0 0 0 14.45013685530303 4.571064291949464 27.00464354428086 0 0 0 0 0 0 0 8.500819635758576 0 7.663342894612947 1.695509207135136 0.7815352355306759 0 8.973253879301732 6.786571429944872 0 0 0 0 0 0 20.73463014650676 1:0.877334 2:-0.187657 3:0.292964 4:0.827521 5:0.227778 6:-0.138562 7:0.400694 8:-0.107771 9:-0.281238 10:0.0278298 11:-0.474371 12:0.0239224 13:0.38279 14:0.524568 15:0.535915 16:0.310034 17:0.0284361 18:-0.3414 19:-0.54238 20:-0.511104 21:-0.314931 22:-0.352219 23:-0.34028 24:-0.170435 25:0.376084 26:0.398968 27:0.102554 28:0.505687 29:0.449949 30:-0.103656 31:-0.293955 32:-0.0816781 33:0.478309 34:0.238469 35:-0.317913 36:-0.365408 37:-0.481911 38:-0.623362 39:-0.378132 40:-0.593542 
-9.340116531717543 -14.37353384800852 -4.62029116464842 -1.211333767634521 9.679004794130224 7.513622958308497 5.235639763564079 7.437807985235444 12.78624589760311 13.34047631676243 5.959102561728891 22.58011921091828 8.248372088503098 9.514844179172357 7.894459125994655 19.38527903170041 8.067201473343783 6.083021260085312 7.4792437351943 2.770909534119164 7.832356420360442 7.404106200842955 2.322616954615524 6.681081132387948 5.012297758575123 4.816888386887597 0 0.5954069631802711 4.753401309672936 1.212788319326988 0 12.39421133564765 6.160761380218095 7.007763176070425 3.519012245130706 2.881555847991335 13.01897491419602 29.00131593244653 12.32334908947015 15.80744728135419 4.990936306229997 5.064360971362092 4.947705012421679 1.339025482858027 4.275877560672138 14.10956379747678 16.1174161813877 7.738926202960414 7.48466877264589 8.950883657520915 6.604458987729459 21.08564982093119 13.63118269920552 18.92267707146168 5.413057056637065 6.035022538951191 13.84815458707571 5.609156584306838 1.17825766092518 0 1:-0.473733 2:0.211281 3:0.358334 4:0.565692 5:0.309508 6:-0.233681 7:0.577329 8:-0.220032 9:-0.0833312 10:-0.197253 11:-0.480255 12:0.105827 13:0.429829 14:0.315479 15:0.00372523 16:-0.312824 17:-0.599826 18:-1 19:-1 20:-0.853506 21:0.150992 22:0.228797 23:0.343934 24:0.500197 25:1 26:0.817499 27:0.32713 28:0.202735 29:0.032859 30:-0.121107 31:-0.506631 32:-0.230933 33:0.299157 34:0.712878 35:-0.100554 36:0.0465426 37:-0.0843599 38:0.341625 39:0.0399856 40:-0.264097 
-0 -10.7006696501828 -0 -0 0 0 21.69349199220705 1.285667006567391 3.798651579314276 6.484856586987995 0 0 0 20.85372389851225 0 2.667324326054061 0 0 0 12.91107200863831 7.803765172705836 0 16.62333772996192 0 6.196436568926026 0 17.39916639763658 17.34101915453359 0 0 16.83376060186164 6.907426312373198 0 0 12.54913991737958 0 8.26270177010711 0 4.768059652615555 12.14946854882722 0 7.944327400970612 0 1.52213108465492 5.089494395003215 0.2789664191269695 0 6.974752443257387 15.93684404884613 0 0 0 2.255470117820203 2.430442489895503 3.210480362540927 0 11.39404011765261 1.142149304009135 0 24.0734490309557 1:0.850183 2:-0.122521 3:0.252005 4:0.905622 5:0.207318 6:-0.112615 7:0.363282 8:-0.118831 9:-0.252869 10:0.0253967 11:-0.371866 12:-0.0158951 13:0.353764 14:0.601724 15:0.588855 16:0.263498 17:0.0925392 18:-0.360002 19:-0.468056 20:-0.517021 21:-0.300322 22:-0.320307 23:-0.307818 24:-0.101228 25:0.319667 26:0.49012 27:0.154827 28:0.533224 29:0.380851 30:0.0260652 31:-0.320225 32:0.0974104 33:0.318296 34:0.390842 35:-0.363634 36:-0.24009 37:-0.533184 38:-0.540496 39:-0.409847 40:-0.678926 
-0 -0 -11.23991235684184 -0 5.665405787816744 7.692752919831161 0 6.261574961017519 0 0 2.856135311828594 0 3.928354855519038 10.8162874975679 4.108845673805826 7.012285790532286 11.0225139689328 1.976266095392619 7.045771580172985 5.16769985246637 0 0 0 1.143930364320002 2.982366020425658 14.786151864506 0 0.5744369765143811 11.18591912626774 3.559391628953198 0 0 3.609472338248544 2.355185431597936 0 0 0 0 0 0 15.11274051380195 4.960475343357861 13.36071661395456 11.12989786972973 17.16223253426897 0 3.577771057843371 0 7.493910134390616 4.958761474722299 3.363658167953933 0 1.030322940981999 6.78198464323652 15.78936899093024 11.35879437616164 0 10.54634301284084 13.81691209554271 0 1:0.864478 2:-0.115231 3:0.263567 4:0.92828 5:0.218885 6:-0.0798609 7:0.389228 8:-0.0973328 9:-0.24809 10:0.0369418 11:-0.428055 12:0.00335331 13:0.404562 14:0.588899 15:0.523749 16:0.26056 17:0.08454 18:-0.387497 19:-0.531148 20:-0.512304 21:-0.279873 22:-0.343382 23:-0.348194 24:-0.172364 25:0.323465 26:0.459242 27:0.122233 28:0.454363 29:0.461072 30:0.0499114 31:-0.313802 32:0.0907849 33:0.384235 34:0.366952 35:-0.359707 36:-0.231255 37:-0.480124 38:-0.519497 39:-0.331677 40:-0.617647 
-7.192517390884397 -0 -0 -4.247075504286477 -0.5105347455002215 0 0 0 0.2152707279707905 0 0 0 0 0 0 0 0 0 0 0 2.222971754226803 0.9008399003738325 0 0 0 0 0 0 0 2.733913909289143 0 0 0 0 0 0.8162126916677038 0 2.497049388672963 0 0 0 0 0 0 0.320938736955302 1.870198545551187 0 7.109420635288531 0 4.015410642447222 0 1.893506559846456 0.9960781020086342 0 0 0 0 0 0 0 1:-0.0598042 2:0.288683 3:0.880546 4:0.299488 5:-0.226351 6:-0.431621 7:-0.47213 8:-0.228136 9:-0.572372 10:-0.0940441 11:0.10725 12:-0.0309169 13:-0.0603754 14:-0.841562 15:-0.735326 16:-0.00290551 17:-0.445351 18:-0.347706 19:-0.0945854 20:-0.233494 21:0.344301 22:0.314203 23:-0.0779495 24:-0.124392 25:0.0903186 26:-0.208359 27:0.375676 28:0.694977 29:0.452996 30:-0.498666 31:-0.620389 32:-0.54708 33:0.314755 34:0.361973 35:-0.145806 36:0.243217 37:0.5661 38:-0.176648 39:0.532447 40:0.514185 
-15.54671393435748 -0 -0 -0 -0 0 0 0 8.096007545547636 0 0 0 0 0 0 4.778601955715621 0 0 0 0 0 0 0 0 10.46267436990718 0 0 0 0 0 0 0 0 4.375559073572136 0 0 0 0 2.008980388206606 0 6.02725588508434 0 0 3.163666543913927 7.195526152173445 0 0 0 0 15.89000330662913 0 0 0 0 0 10.98458395049082 0 5.594375932294823 1.416136104229458 0 1:0.199999 2:0.331826 3:0.726218 4:0.434857 5:-0.12679 6:-0.239344 7:-0.242538 8:-0.168634 9:-0.479615 10:-0.0593412 11:0.572647 12:0.124987 13:-0.171559 14:-0.498446 15:-0.492545 16:-0.038166 17:-0.197253 18:-0.262079 19:-0.0509164 20:0.0665401 21:0.378225 22:0.227353 23:0.191222 24:0.0404257 25:0.170493 26:0.139059 27:0.500481 28:0.608343 29:0.670983 30:-0.130781 31:-0.382544 32:-0.101997 33:0.185294 34:0.227723 35:0.209936 36:0.441466 37:0.47232 38:0.154967 39:0.69026 40:0.219549 
-0 -0 -0 -1.853470679462909 -1.577359754931601 0 0 2.173028573329534 15.36128990935442 0 3.771386411694055 6.023285296308499 15.81609366090792 10.84469881599287 15.68484671760655 10.21588424926519 0 5.696642345893635 2.870977961615291 0 0 11.45391183496082 5.563181036280216 0 2.653113412441725 0 2.152357457401209 0 0 1.326524654079845 2.462136766488721 1.233823309874396 0 0 4.522765405840977 0.7020306863830329 21.45948189369284 3.7219928462761 3.234921460430757 16.58819006367458 0 6.677316210694949 0 0 0.1396958755733513 21.56335588060157 13.70956502358179 0 3.704661718003837 7.010162844344983 0 1.561907778198232 17.28680860728788 11.22164276384691 0 0 0 0 0 0 1:0.00669516 2:0.402704 3:0.772849 4:0.391691 5:-0.15305 6:-0.212799 7:-0.358964 8:-0.0539752 9:-0.43194 10:0.084629 11:0.468174 12:0.124133 13:-0.0513095 14:-0.448707 15:-0.601272 16:-0.0769896 17:-0.0820279 18:-0.16811 19:-0.0803187 20:0.0193869 21:0.446505 22:0.245699 23:0.280524 24:-0.0888046 25:0.0408837 26:0.232026 27:0.493673 28:0.395693 29:0.309799 30:-0.208542 31:-0.641971 32:-0.137913 33:-0.255875 34:0.269649 35:0.0321012 36:0.326219 37:0.299837 38:0.149565 39:0.599697 40:0.394538 
-32 -23.40349093309043 -10.17980421382305 -3.453005770280059 -15.83222484590708 14.58792617415396 15.70834048714391 20.40471250956599 0 15.26676272646421 5.983588450170689 16.65355983725451 18.5892915051044 32 17.29577258878512 7.642016745820307 14.56239618619942 5.611381150923521 20.07376680714968 22.80944550818228 15.15079295673399 5.724527413542657 20.46395251597811 9.805892538423569 7.667075756796594 20.85331434407242 2.20257146150707 11.89256917158551 10.62085411902461 5.704573881464309 6.522423184455308 1.986957123718727 17.92567980666098 21.65446220098958 10.37322492695899 6.813307284708315 23.08084335748795 21.39620910069975 26.27572066893241 25.95698826880117 15.95231500555856 16.17572240755527 20.81548163788414 15.26504076831717 16.2442508453344 30.41338480980691 13.40944942840696 23.70768283968439 7.871982988526803 0 10.76946508602002 16.33263363749588 30.93229885811638 11.58101980711519 20.50577402031922 12.64830639042333 22.77481847628082 15.79508937293188 18.28074908080736 13.23410714925373 1:0.522054 2:0.217827 3:0.505603 4:0.430776 5:0.128538 6:-0.156245 7:0.0376006 8:-0.0584043 9:-0.351401 10:0.181126 11:0.372541 12:0.139952 13:-0.233254 14:-0.509815 15:-0.208183 16:0.0339046 17:-0.285691 18:-0.25981 19:-0.0425084 20:-0.0483209 21:0.456118 22:0.232271 23:0.117137 24:0.0311718 25:0.222128 26:0.13284 27:0.436301 28:0.5815 29:0.627099 30:-0.00901394 31:-0.316767 32:-0.152919 33:0.154085 34:0.319107 35:0.370876 36:0.225773 37:0.614338 38:0.266502 39:0.570099 40:0.170773 
-0 -0 -0 -0 -0 0 3.17474576780771 9.422258917104475 5.155337691505147 22.62028950037365 3.004009212885907 2.005103709961695 0 2.863874218942636 0 0 0 0.2932740568021885 15.55105542097954 7.375570719987828 24.6270644628821 0 3.591807620772888 0 0 0 6.295713166314767 0 0 0 1.106024604620901 13.39513072513375 11.68990288747526 0 0.01557593808945523 0 0 0 3.349304406045693 8.999125600027174 0 0 0 2.745977532641191 0 0 5.993590418390045 13.5766321861452 0 5.084423206578663 0 4.148649747640121 0 0 0 0 0 0 2.02107193370301 0.1258843415483995 1:0.1291 2:0.459827 3:0.649047 4:0.575149 5:-0.101511 6:-0.154251 7:-0.237315 8:0.0214592 9:-0.451949 10:0.0346839 11:0.778902 12:0.118237 13:-0.0731476 14:-0.539966 15:-0.370794 16:-0.0195995 17:-0.130197 18:-0.244681 19:0.0615739 20:-0.0793517 21:0.459848 22:0.20811 23:0.190375 24:-0.0226342 25:0.175425 26:0.132019 27:0.394151 28:0.571973 29:0.456064 30:-0.0955655 31:-0.772381 32:-0.0095962 33:-0.0564274 34:0.252542 35:0.0115061 36:0.468691 37:0.396455 38:0.239535 39:0.526453 40:0.136889 
-0 -0 -0 -0 -0 -0 0 0 0 0 6.647322968508507 7.953116115741212 0 0 0 0 32 3.468473214863475 0 0 0 0 0 0 0 0 0.7713645003338712 0 0 0 0 0 0 0 0 0 0 0 0 0 0 0 0 0 0 0 0 0 0 0 0 0 0 0 0 0 0 0 0 0 1:0.258624 2:-0.846643 3:-0.736395 4:0.721805 5:0.839828 6:0.248993 7:0.702526 8:-0.071082 9:-0.318602 10:0.794901 11:0.600748 12:-0.303765 13:0.547682 14:0.457896 15:-0.420655 16:-0.42964 17:-0.457234 18:-0.355218 19:-0.490805 20:-0.36639 21:-0.428887 22:0.0436438 23:0.148174 24:0.239971 25:0.422531 26:0.199643 27:0.0423767 28:0.0652008 29:0.00779937 30:-0.629555 31:-0.189111 32:0.0164645 33:0.154627 34:-0.23967 35:0.0591185 36:0.14397 37:-0.052765 38:-0.228098 39:0.360954 40:-0.106035 
-4.544397109689672 -0 -0 -0 -0 -0 0 0 0 0 0.03485909291798675 0 0 0 0 0 32 1.513609007873543 0 0 0 7.524199023219923 0 3.477772864050204 0 0 0 0.7724780083677359 0 0 0 0 0 0 0 5.318658114502657 0 4.101823904141873 0 0 0 0 0 0 0 0 0 0 0 0 1.98160215692968 3.996862253499723 0 0 0 0 0 0 0 0 1:0.154346 2:-0.761423 3:-0.859507 4:0.695441 5:0.802629 6:0.132658 7:0.626435 8:-0.177521 9:-0.396151 10:0.810159 11:0.556286 12:-0.361511 13:0.505974 14:0.41504 15:-0.397536 16:-0.43169 17:-0.432259 18:-0.361232 19:-0.517094 20:-0.309652 21:-0.431204 22:0.188409 23:0.228662 24:0.346543 25:0.547915 26:0.17287 27:0.153415 28:0.000591542 29:0.114044 30:-0.48438 31:-0.0326385 32:0.0078479 33:0.282891 34:-0.294063 35:0.335312 36:0.110122 37:0.0646753 38:-0.223924 39:0.370961 40:-0.169681 
-3.648194870662819 -0 -12.58667538964059 -7.317399284014543 -13.23530144609507 -3.934278688323004 8.355982253992355 8.525944444517748 0 0.9981839357948412 0 6.652387181749848 5.207925344121789 13.20735239922457 8.313620775241057 7.28410705674965 32 0 8.931804751545418 10.86778525247173 3.679989197659906 2.559196098345336 14.89767999836613 0 5.131292088161724 17.98953237710253 12.95489118077566 14.19149143261816 12.88394266725623 7.755990624696619 9.313967524441857 2.20296029793073 0.4034426620736182 0 9.504102120714295 3.516366887429379 6.549105185033583 10.39267100509731 1.182930572273351 7.940576305618091 6.148093806187327 8.505751219281059 18.90677143810053 10.66925332823265 12.63419569513613 7.575438291448722 4.148729086785808 4.22045768458477 13.35918767756814 1.022349060325332 0 7.023309092946541 7.321240053502189 9.80170195912426 15.36557416170967 1.217570110478128 0 2.567562892466915 11.68040627001714 15.5286318340396 1:0.503706 2:-1 3:-0.525125 4:0.75118 5:0.887273 6:0.276705 7:0.789493 8:0.104366 9:-0.10558 10:0.783014 11:0.66145 12:-0.257619 13:0.416954 14:0.699151 15:-0.342136 16:-0.363871 17:-0.331288 18:-0.385968 19:-0.319238 20:-0.340777 21:-0.438078 22:0.00347642 23:0.14354 24:0.174449 25:0.399069 26:0.224023 27:0.13995 28:0.038065 29:0.19105 30:-0.45969 31:-0.0296799 32:0.17949 33:0.209727 34:-0.0895928 35:0.0173563 36:0.0636579 37:-0.0342308 38:-0.26256 39:0.321324 40:-0.0882948 
-6.08391371177445 -21.4280878348554 -0 -0 -5.253118905257489 -10.65364748583096 3.833847878952507 6.46876288087005 11.85926716270989 13.22156347439035 4.070664971907783 11.71332614277333 7.356593565199296 3.903799155224087 5.490502346159068 8.431290930715123 32 4.980866177716578 5.42244438094451 2.506985850552256 9.378102479460599 0.8584231254562729 0 6.822375369298664 3.949487238615042 4.061469948086216 0 0 0 0 0 10.2684862625538 9.261332068748542 10.28665750705429 1.457253659827182 0 9.540364723643677 8.874717649604607 11.37848882593904 10.36585198440318 4.866534714203594 2.264288651665161 2.975061719036782 0.9295340528005835 1.100407553626071 8.87535557401158 10.60366039279554 10.11234681241121 0 9.953766372756885 10.79881806864531 11.72140141343876 9.951366196938896 7.324250370148175 7.885047865085174 9.119028544063205 19.43886285796384 7.841016566870463 0.5290256395636141 0 1:0.0851957 2:-0.719912 3:-0.941191 4:0.731232 5:0.772034 6:0.145132 7:0.552087 8:-0.209363 9:-0.414058 10:0.842626 11:0.584425 12:-0.411617 13:0.515788 14:0.303918 15:-0.340668 16:-0.52239 17:-0.339141 18:-0.45172 19:-0.42401 20:-0.34599 21:-0.2656 22:0.133322 23:0.387353 24:0.338573 25:0.603585 26:0.388661 27:0.134649 28:0.21659 29:0.0474019 30:-0.424746 31:-0.0364121 32:0.00670811 33:0.187684 34:-0.0630155 35:0.264721 36:0.383094 37:0.118256 38:-0.161446 39:0.493833 40:-0.255292 
-12.82925910472716 -19.79273918922133 -10.77954462377002 -8.904163519882989 -26.92913175577113 -13.4799096698541 -12.18983013294486 9.394225453148508 0 2.278161210118574 3.876728524507595 19.1731868503411 0 23.09297859444909 0 2.68805172548286 12.12942152865799 1.852560198806607 8.751001231980259 4.628906185728736 20.10275941849526 0 0 4.714483866214605 11.37595470764239 19.10367836387611 10.30752776730109 16.22573569519183 10.46755638332031 9.228895366894456 0 0 3.168596741435696 0 16.46188870667687 4.954760323284296 5.165151078470402 25.3818808598962 5.378600139758953 21.93323977200434 10.88757415462353 19.87484785182712 17.9786220345703 10.274866806544 21.6208886611548 3.473989431522862 0 29.21587634759197 20.28063482392927 7.990501145326044 5.319073787827459 11.02141602535426 13.95961532091303 10.18423000964486 28.47157477630958 16.9126554395604 21.82521526183808 12.05466058653484 14.04655569640885 21.83431455277791 1:0.148033 2:0.14692 3:0.209166 4:0.774396 5:-0.3164 6:-0.000783513 7:0.0540631 8:-0.0446439 9:0.404963 10:0.120896 11:-0.187417 12:0.480705 13:0.137198 14:0.323394 15:0.324435 16:0.0471633 17:-0.101872 18:0.2985 19:0.0886688 20:-0.425453 21:-0.0583418 22:-0.402392 23:-0.32117 24:-0.00101069 25:0.214091 26:0.30888 27:0.582011 28:0.760549 29:0.500853 30:0.266761 31:0.1278 32:0.455352 33:0.208856 34:0.226146 35:0.070624 36:0.410571 37:0.245579 38:0.00602711 39:-0.258728 40:-0.982171 
-0 -0 -4.050290156818771 -0 -0 -0 -0 0.3023754389847008 0 0 2.035662128217803 0 0 6.839469690036287 0.4793969382288977 0 0 3.156854647282544 0 7.95039865975015 0 4.401365966217526 12.80443214240812 0 0 0 3.341531228058678 0 1.164597379726772 0 18.02364088543202 0 0 0 0 0 5.854992198686654 0 0 0 0 0 0 0 0 6.921752418086403 0 0 0 0 0 0 2.03810042171596 0 0 0 0 0 0 3.129608399456251 1:-0.048029 2:0.166022 3:0.285429 4:0.78164 5:-0.399784 6:-0.160458 7:-0.114721 8:-0.00883741 9:0.494121 10:0.122068 11:-0.226745 12:0.386746 13:0.00793748 14:0.260975 15:0.349048 16:0.0706943 17:-0.0794618 18:0.296809 19:0.133494 20:-0.360575 21:-0.0655648 22:-0.361053 23:-0.342869 24:-0.076056 25:0.159047 26:0.352985 27:0.522331 28:0.462777 29:0.428611 30:0.467245 31:0.263507 32:0.372894 33:0.0249765 34:0.260136 35:0.184349 36:0.370354 37:0.141823 38:-0.163337 39:-0.21505 40:-1 
-0 -0 -0 -0 -0 -0 -0 0 0 0 0 0 0 0 0 0 0 0 0 0 0 0 0 0 0 0 0 0 0 0 0 0 0 0 0 0 0 0 0 0 0 0 0 0 0 0 0 0 0 0 0 0 0 0 0 9.558260257965786 0 0 0 0 1:-0.152349 2:0.209991 3:0.364721 4:0.827841 5:-0.529954 6:-0.251083 7:-0.0949361 8:0.0316353 9:0.403085 10:0.000929218 11:-0.19908 12:0.252529 13:0.0216161 14:0.201363 15:0.285586 16:-0.00446657 17:0.0101434 18:0.207096 19:0.149943 20:-0.44366 21:0.00835018 22:-0.237967 23:-0.409889 24:-0.080282 25:0.246859 26:0.545447 27:0.556329 28:0.589968 29:0.430073 30:0.579196 31:0.483124 32:0.653042 33:0.160412 34:0.231207 35:0.32914 36:0.617354 37:0.143795 38:-0.216554 39:-0.152519 40:-0.743481 
-9.106336413362381 -2.663170877258592 -0 -0 -0 -0.8472030430749576 -0 0 5.642937452100926 5.298324167803568 0 0 0.9702004953737657 0 0 2.352408603585973 0 0 0 2.30854739113834 0.09459323840621736 0 0 0 3.570360130016001 0 0 0 0 0 0 2.562885159532673 8.887313499581687 4.138607172769117 0 0 0 0 3.653246202609453 0 24.54081907099755 0 0 0 12.14168429132357 0 3.992828642974405 0 0 0 0 0 0 0 0 21.81496671647956 0.2745550190560495 30.10678815914547 0 0 1:-0.223922 2:0.213431 3:0.349358 4:0.738112 5:-0.587868 6:-0.258943 7:-0.212048 8:-0.0356739 9:0.289627 10:-0.066872 11:0.013908 12:0.171954 13:-0.211733 14:0.233392 15:0.313992 16:-0.0175932 17:0.0358648 18:0.225009 19:0.143296 20:-0.33149 21:0.0173894 22:-0.205828 23:-0.328256 24:-0.0674802 25:0.325297 26:0.637552 27:0.579988 28:0.662767 29:0.575277 30:0.642358 31:0.651501 32:0.711931 33:0.271791 34:0.437681 35:0.417816 36:0.646019 37:0.0927553 38:-0.119167 39:-0.0791495 40:-0.754384 
-0 -0 -0 -0 -0 -0 -0 7.994144762874073 0 0 0 0 2.867285072605147 0 0.48327855402953 0 0 0 9.441175514896596 25.76874648094341 0 3.394064110106211 8.976412428084219 0 0 1.401055729478399 0 0 2.411932095026351 0 0 0 0 7.192045324703963 2.517528835589033 0 5.755063448826254 0 0 0 0 0 2.16880516143088 12.61975519881142 0 0.3452965802607418 0 0 0 0 0 3.71021280180629 0 0 0 0 0 0 14.87565424033204 0 1:-0.149387 2:0.237125 3:0.350665 4:0.829316 5:-0.513351 6:-0.254472 7:-0.100972 8:0.0931289 9:0.401769 10:-0.0868652 11:-0.0618866 12:0.291419 13:-0.0441648 14:0.237722 15:0.296468 16:-0.028099 17:-0.00307499 18:0.205773 19:0.149445 20:-0.376777 21:-0.0595277 22:-0.279017 23:-0.401621 24:-0.067958 25:0.27603 26:0.449373 27:0.522839 28:0.590709 29:0.429664 30:0.573472 31:0.488197 32:0.577719 33:0.0916415 34:0.190068 35:0.472299 36:0.604548 37:-0.00871044 38:-0.196144 39:-0.113827 40:-0.709728 
-0 -0 -0 -0 -0 -0 -0 0 0 5.514972813824741 0 0 0 0 0 0 0 0 0 0 0 0 0 0 0 0 0 0 0 0 0 1.684393540471826 0 0 0 0 0 0 0 0 0 0 0 0 0 0 5.652748655742545 0 0 0 0 0 0 0 0 0 0 0 0 0 1:-0.185411 2:0.201234 3:0.344771 4:0.741105 5:-0.518971 6:-0.252197 7:-0.227071 8:0.0319354 9:0.386681 10:0.0490053 11:-0.251206 12:0.199095 13:0.00212113 14:0.282651 15:0.266684 16:-0.0515451 17:0.0157274 18:0.292667 19:0.0490395 20:-0.326671 21:0.0172935 22:-0.342427 23:-0.405786 24:-0.02788 25:0.198991 26:0.473857 27:0.510581 28:0.583988 29:0.380074 30:0.439947 31:0.362425 32:0.658905 33:0.260445 34:0.235675 35:0.127144 36:0.444847 37:0.202479 38:-0.107011 39:-0.22006 40:-0.923854 
-0 -0 -0 -0 -0 -0 -0 0 0 0 0 0 0 0 0 0 0 0 0 0 0 0 0 2.338058970912114 0 0 0 0 0 0 0 0 0 0 0 0 0 0 0 0 0 0 0 0 0 0 0 0 0 0 3.614609741932278 0 0 0 0 0 0 0 0 0 1:-0.0968961 2:0.207578 3:0.32232 4:0.815017 5:-0.453733 6:-0.218989 7:-0.130371 8:0.0706601 9:0.417349 10:0.0958705 11:-0.301024 12:0.260582 13:0.0653275 14:0.280758 15:0.287845 16:-0.0193984 17:-0.0346955 18:0.300256 19:0.0761146 20:-0.392069 21:0.0364644 22:-0.336735 23:-0.385205 24:-0.0712308 25:0.265589 26:0.437766 27:0.594619 28:0.611578 29:0.415305 30:0.546482 31:0.475299 32:0.566887 33:0.0607289 34:0.356975 35:0.233021 36:0.505928 37:0.246479 38:-0.151618 39:-0.315409 40:-0.710998 
-4.474257972649664 -0 -0 -0 -0 -4.555973542022565 -0 0 13.76390394120292 8.739300256240396 2.548921248205497 0 11.04383343090372 11.14498529379175 13.42848938602821 16.06594304939686 0 2.527386808408172 0 5.838779145000345 9.665361727104571 3.010322890478494 18.74588752284924 0.9688702600331045 8.471142854918666 0 0 0 0.4355785757938496 0 0 12.67361964064646 1.386932340594594 0 0 7.364847339613932 22.18454694378021 2.174513716154747 8.628245899536585 9.515069648456642 0 6.498637344147747 0 6.080951314135275 3.864323210788165 15.67327622214101 8.628555844161189 1.747830914428526 0 7.667717781585981 0 3.087498424531329 11.53699220630025 8.892298018393692 0 7.398937024343702 0 11.11548906719003 1.599663500942753 0 1:-0.391691 2:0.300658 3:0.423548 4:0.648652 5:-0.709226 6:-0.308326 7:-0.363748 8:0.0401853 9:0.11217 10:-0.0960146 11:-0.308236 12:0.24557 13:-0.184595 14:-0.0142358 15:0.137853 16:-0.0603758 17:0.0602802 18:0.209009 19:0.0743058 20:-0.533781 21:0.0138337 22:-0.28061 23:-0.441543 24:-0.104796 25:0.260775 26:0.478902 27:0.521838 28:0.579237 29:0.225873 30:0.408884 31:0.717206 32:0.808667 33:0.0620276 34:0.307871 35:0.274107 36:0.442489 37:0.177804 38:-0.139161 39:-0.310527 40:-0.477682 
-32 -19.28252864614403 -16.59149293386485 -10.44020157039717 -14.98504995282035 -32 -14.9947073253878 -17.69074565500728 32 32 24.96969949531406 32 32 32 32 18.27173992903927 14.98709537578237 20.05721199137325 32 24.25571325509881 18.76092612838531 19.46010764203764 25.35366862055673 10.7619934673225 13.92764936261939 20.48130503736306 12.21118781377443 14.34487406943305 16.97297516160807 10.9074487872714 11.34830954505208 16.46123182472705 25.87928665470024 30.09711862577567 12.89111241805938 7.618924891887386 32 22.4334745022865 32 32 15.20470961664721 16.21217312990347 20.32013274470263 15.88198052193932 17.80614727487506 32 32 18.69420911717071 12.41815965180887 26.86598406989518 12.1169621225753 23.0098951164289 32 18.37063952998664 27.51826291662384 17.77583956127877 18.81323516165403 18.21689740165261 16.50787353539647 12.1662133376768 1:0.287746 2:-0.0845315 3:0.483967 4:0.532889 5:0.0663069 6:-0.0314942 7:0.167224 8:0.295547 9:0.35484 10:0.0024113 11:0.535552 12:-0.314006 13:0.0398354 14:-0.192828 15:-0.099748 16:0.029047 17:-0.118543 18:-0.0880486 19:-0.0300176 20:0.0662399 21:0.642048 22:0.602737 23:0.442596 24:0.269353 25:0.00400974 26:-0.277057 27:-0.101968 28:0.31843 29:0.347191 30:0.198098 31:-0.0150459 32:0.0515255 33:-0.323248 34:-0.13938 35:-0.0108371 36:0.369677 37:0.396118 38:0.344435 39:0.184336 40:0.0241753 
-12.99546627839707 -15.21535284165775 -7.170919334136979 -1.858659683446234 -11.95664774340401 -11.4119023760543 -7.800873229464111 -13.50742150958566 -10.41915315147518 32 5.129517737606607 8.981819662463156 22.76489925163356 13.42048095675018 22.69354760390349 31.32363023512066 7.977849608754452 4.262480643494157 12.16461323953485 11.65732104895799 12.86400217045157 5.856420690037624 11.75500923546345 3.606011651258035 8.333150905878844 6.795799769891305 6.0421193084421 6.244028703448142 7.322114284709485 1.89220457604821 4.538102108259706 32 8.837529344617574 8.457151091378584 5.438403658603654 8.912332578677749 17.01244121485214 26.78567026243409 24.39322866075853 32 9.65307588661913 8.401157717507921 6.905494383039419 9.023999419236295 9.581952862041161 17.65845053299912 32 12.96326646637558 5.527926462916149 10.29357875629266 3.958916032970381 26.64235473619613 17.07031952005409 23.05386070015577 9.007658135681957 9.951025729033077 14.50938075858545 10.06999356564166 8.065317378436189 7.985077254377106 1:-0.543163 2:0.77134 3:0.515562 4:0.781559 5:-0.487608 6:-0.137505 7:-0.386523 8:0.0735896 9:-0.326118 10:0.124877 11:0.591856 12:-0.083852 13:0.236149 14:-0.243955 15:-0.111644 16:-0.284951 17:-0.274245 18:-0.41808 19:-0.34491 20:0.00941857 21:0.335776 22:0.510482 23:0.660881 24:0.866915 25:0.850678 26:0.550688 27:-0.0623496 28:0.0350132 29:-0.320456 30:0.174237 31:0.602264 32:0.894055 33:0.722382 34:0.729824 35:0.130947 36:0.0883899 37:0.254249 38:-0.245049 39:-0.152763 40:-0.412329 
-7.918112536950066 -6.320430025687032 -5.69037243802046 -5.807284272589273 -4.62824973351337 -17.12803944948341 -4.058393933245782 -0 -21.58084684852481 11.39804769822799 10.5523129629796 12.74901664979922 32 13.78386700069917 27.55290931314207 0 4.394499118253903 10.57350772783393 32 7.014203426498553 3.951638722123535 12.21980417509844 9.761971144667919 5.839146543289923 2.153808657386914 7.870043481392486 3.243009569906215 3.352104148890954 5.972405071656893 5.97883645493237 3.975082470488704 3.233855578620867 3.704298246899671 12.7007727137304 4.58211298095098 0.4777438418908789 13.42765421871064 10.78347104737623 12.8116939110952 28.54913963790117 0.6953577524534674 4.797188450826946 7.967604881901863 5.789367550537421 0.9660463737233131 11.81756143944648 11.3938666178253 3.985018831627773 5.308984715621889 9.837586995914176 5.904141877589269 9.690599468424379 16.35918642193003 9.256271129477424 2.720761747935094 0 5.120291975116008 0 5.819005329429149 2.59033949417381 1:-0.612575 2:0.0709789 3:0.960611 4:0.498054 5:-0.556438 6:0.129827 7:-0.465482 8:0.0507191 9:0.589463 10:-0.418199 11:0.575362 12:-0.859069 13:0.0699969 14:-0.523304 15:-0.558678 16:-0.667813 17:-0.243749 18:-0.0587363 19:-0.292813 20:0.121494 21:0.436516 22:0.512162 23:0.245231 24:0.431389 25:-0.0300466 26:-0.490423 27:-0.476783 28:0.153303 29:0.506192 30:0.193354 31:-0.186763 32:-0.476165 33:-0.432301 34:0.385762 35:0.0483236 36:0.47514 37:0.548965 38:0.610065 39:0.37739 40:0.617091 
-0 -0 -0 -0 -0 -0 -0 -5.899419883718186 -0 0 0 0 0 0 0 0 0 0 32 0 0 0 0 0 2.554867392705019 0 0 0 0 0 0 7.500000587813641 0 0 0 0 0 0 6.780718677692665 0 0 0 0 0 0 0 8.072568268033312 0 0 0 0 0 0 0 0 2.131499544133955 0 2.682136521413705 0 0 1:-0.711833 2:-0.00310987 3:1 4:0.528311 5:-0.753472 6:-0.192401 7:-0.556181 8:-0.0107108 9:0.429852 10:-0.755744 11:0.50711 12:-0.91308 13:-0.0510587 14:-0.706044 15:-0.447157 16:-0.502163 17:-0.286023 18:0.0143255 19:-0.192666 20:0.283162 21:0.485752 22:0.632741 23:0.428847 24:0.651684 25:0.0661964 26:-0.371471 27:-0.243156 28:0.348163 29:0.822234 30:0.380095 31:0.122425 32:-0.0596072 33:-0.216222 34:0.399395 35:0.0429502 36:0.625136 37:0.602242 38:0.781104 39:0.261289 40:0.322787 
-4.580735912014228 -0 -0 -0 -0 -0.2879640488402821 -0 -0 -0 10.72492064832744 0 0 5.5303397364486 5.301631474988953 7.957876055309033 10.68980230012767 0 0 21.69262113796508 2.855745641995655 2.846647459972277 0 0.6696441335723377 0 0 0 0 0 0 0 0 1.252083677420882 11.09653994042115 4.709888790248737 0 0 2.10356134355755 0 6.962923069796331 1.243797233630125 5.399794197340158 0 0 0 5.233634961666309 5.290838975344476 23.00932408235997 2.673878426120393 0 6.565960191963465 0 0 0 0 6.186089875769051 6.126950463180706 0 5.758791078945952 0 0 1:-0.702045 2:-0.0391504 3:0.93731 4:0.45297 5:-0.674307 6:-0.0782356 7:-0.653142 8:-0.165971 9:0.451383 10:-0.597195 11:0.442605 12:-1 13:-0.123678 14:-0.755681 15:-0.482234 16:-0.555836 17:-0.411567 18:-0.186808 19:-0.281677 20:0.267551 21:0.338347 22:0.551921 23:0.436293 24:0.434721 25:-0.136958 26:-0.341924 27:-0.280737 28:0.165942 29:0.786222 30:0.326957 31:-0.139468 32:-0.205573 33:-0.223455 34:0.424025 35:0.125205 36:0.437618 37:0.570455 38:1 39:0.419919 40:0.0927784 
-14.95889619945032 -8.058737626502319 -3.755433304563641 -3.32174554645977 -3.204957241891242 -23.44651912014722 -4.630261000121817 -8.64592307234931 -19.27815885641078 -16.58989918028717 7.885372121529244 10.61755241861099 26.3136656423774 19.29200785378622 27.43030508963178 8.867437977527389 4.277753098178949 7.83950918556897 22.38450105523899 13.91631536415621 12.42560569992819 6.226097125075652 12.97121170050297 5.397505767025801 6.149480810752416 6.080066183587541 1.645393782986184 3.56106292153844 3.960429895163506 3.542019865301464 3.25487396654023 9.145339993895533 32 20.35473396196307 4.532321431063728 1.101336849418967 16.63496700875223 8.472955361097005 23.36987168605518 26.20804484349704 7.523990074542151 6.337387505638765 6.235046308790511 9.982085970759384 8.308945196098829 20.50166946939469 25.85593362064866 12.15224118750853 2.096193940722502 18.07961635572947 6.03556533562948 9.752404053738715 20.71586130065891 6.926142024813182 7.118285105458396 13.04667018969541 7.455931982350084 12.65739079683987 9.9817147052538 2.339706342352631 1:-0.0444496 2:0.0620545 3:0.828913 4:0.195366 5:-0.237987 6:-0.544434 7:-0.497015 8:0.456991 9:-0.124455 10:0.921115 11:0.60485 12:0.276119 13:0.130448 14:-0.876496 15:-0.210445 16:-0.425495 17:-0.215242 18:-0.309617 19:-0.251925 20:0.281888 21:0.374412 22:0.314151 23:0.398042 24:-0.0805709 25:0.260417 26:-0.00387804 27:-0.17453 28:0.500093 29:0.772086 30:0.851328 31:0.0890442 32:0.246348 33:0.0500798 34:0.119843 35:0.105747 36:0.871486 37:1 38:0.633538 39:0.633032 40:-0.257613 
-0 -0 -1.805844832838132 -0 -0 -0 -0 -1.235565840032178 -0 -4.129094935494326 0 0 0 0 0 0.07794111228387567 0 0 0 0 0 0 0 0 0 0 0 0 1.811543128094829 0 0 22.85466000610447 0 0 0.3674165235654517 0 0 0 0 0 0 0 0 0 0 0 0 0 0 0 0 0 0 0 0 1.164620060542347 0 0.7995669796773768 0 0 1:-1 2:0.795327 3:0.878629 4:0.624181 5:-0.813229 6:-0.423962 7:-1 8:0.0674658 9:-0.488782 10:-0.353961 11:0.321484 12:-0.528095 13:-0.263184 14:-0.539355 15:-0.381417 16:-0.649818 17:-0.668353 18:-0.840436 19:-0.452688 20:-0.0945415 21:-0.106309 22:0.183417 23:0.396352 24:0.588858 25:0.542285 26:0.48615 27:-0.345874 28:-0.373118 29:-1 30:-0.257737 31:0.328624 32:0.668844 33:0.393764 34:0.0373041 35:-0.311205 36:-0.0882803 37:0.430679 38:-0.348747 39:-0.361197 40:-0.742479 
-0 -0 -0.650539507896341 -0 -0 -0 -0 -0 -0 -16.56279639781399 0 0 14.76689762750242 0 24.24069574569556 10.20441634922991 0 0 2.152050565670877 0 0 0 0 0 0 0 0 0 0.2950791031954098 0 0 32 0 0 0 0 12.14218688934103 0 0 0 0 0 0 0 0 8.399376565559114 14.67523212947363 0 0 0 0 0 0 4.99189643278338 0 0 0 0 0 0 1:-0.747614 2:0.773128 3:0.761862 4:0.7454 5:-0.561887 6:-0.168891 7:-0.656366 8:0.151475 9:-0.252786 10:0.0753744 11:0.548982 12:-0.0942434 13:-0.0284751 14:-0.33217 15:-0.191596 16:-0.416186 17:-0.660888 18:-0.597715 19:-0.350356 20:0.0402575 21:0.0578434 22:0.205057 23:0.488347 24:0.773328 25:0.720744 26:0.321651 27:-0.302206 28:-0.252872 29:-0.742257 30:-0.357239 31:0.247243 32:0.717306 33:0.266747 34:0.338932 35:-0.176025 36:-0.108169 37:0.153573 38:-0.273644 39:-0.235037 40:-0.345041 
-0 -0 -4.373185393969827 -1.853457016873554 -8.154252818690381 -14.44053310669064 -9.589486410063378 -0 -12.13397745315243 -0 6.305390649238689 12.47754957834353 9.295923585490074 18.74207194456707 0 0 10.20171884203455 0.9373466586435788 9.09785797696521 8.063920358718999 0.2112103222336489 6.434480825090808 0 1.036657150047263 0 0 7.783735924615162 0 4.814347473521125 1.382358159611977 2.412833363623214 32 2.144002931541568 5.474522914838339 5.546846175425613 0 3.399486398716661 32 0 21.34531438548226 0 0.8740776543020718 0 7.981088665805203 0 12.85285666682882 0 4.719942325187517 6.005653630622171 10.83057088609535 0.456099537006848 32 17.14378608012729 13.65931163836814 0 0 0 0 5.190993190034303 5.863833127148935 1:-0.386119 2:0.718515 3:0.528425 4:0.828726 5:-0.295081 6:-0.0156579 7:-0.209066 8:0.175189 9:-0.220007 10:0.346748 11:0.820359 12:0.0798896 13:-0.0178954 14:-0.124707 15:-0.0738391 16:-0.236005 17:-0.509 18:-0.5058 19:-0.414502 20:-0.0440125 21:0.117821 22:0.394727 23:0.509949 24:0.706118 25:0.629846 26:0.476752 27:-0.28975 28:-0.245282 29:-0.525538 30:-0.1422 31:0.0794081 32:0.520768 33:0.518814 34:0.626217 35:-0.11524 36:-0.200943 37:-0.00376524 38:-0.318498 39:-0.0899768 40:-0.394077 
-0 -0 -0 -0.4240703957963362 -0 -0 -0 -0 -0 -0 0.7462713144232946 0 0 0 0.9894401662087532 0 0 4.808908150589147 0 0.3844019273249447 5.941430111325923 2.350689858591506 6.582091200152128 0 0 0 1.487504104424209 0 0 0 0 32 0 0 0 0 3.746815938509413 3.550619243060963 0 0 0 0 0 0 0 2.340413063734211 0 3.975338147278137 0 0.8432696307130059 0 8.164354850288634 5.584694564823997 0 0 0 0 0 0 0 1:-0.715499 2:0.765891 3:0.768705 4:0.748435 5:-0.483791 6:-0.177125 7:-0.588261 8:0.168696 9:-0.380165 10:0.284591 11:0.798589 12:-0.246176 13:-0.129417 14:-0.086318 15:-0.214414 16:-0.467719 17:-0.678911 18:-0.613988 19:-0.336011 20:-0.078706 21:-0.0223171 22:0.208928 23:0.417291 24:0.568648 25:0.676377 26:0.38239 27:-0.45863 28:-0.427594 29:-0.809374 30:-0.369209 31:0.0495218 32:0.347319 33:0.265339 34:0.261813 35:-0.277091 36:-0.224282 37:0.0461676 38:-0.451894 39:-0.123031 40:-0.471483 
-13.81912530856733 -16.88671761663673 -2.626354093447038 -1.320284193214793 -8.466122843168804 -0 -0 -11.94926953560579 -0.5878636904367953 -16.84117783295995 0 0 0 0 0 21.04731088043464 0 0 1.642871298568178 4.040477070669278 7.622403595868795 0 6.183407343387913 2.443199711612134 7.694372291196301 8.454638968002174 0 6.989673115735927 2.586542709804864 2.219520449566676 3.608584258328926 32 10.75912292372916 2.653772718418325 0 8.630984668976636 0 5.620716510920592 26.08252162029424 25.04980187900769 10.17293676694411 7.033764015788551 8.382923185387334 1.078722586051065 9.683476864085684 0 30.21202410716057 5.174507683862762 2.829825863385218 0 3.168115442529931 3.982426869395999 0 7.413955433378106 10.65743116536347 7.230879808781175 16.40816074883954 7.784392913034253 2.904727041465712 5.11428697937635 1:-0.275224 2:0.759751 3:0.358835 4:0.875548 5:-0.277531 6:-0.033526 7:-0.171562 8:0.110489 9:-0.200676 10:0.36684 11:0.61034 12:-0.0341022 13:-0.00173437 14:-0.0216285 15:0.223643 16:-0.286281 17:-0.348873 18:-0.335429 19:-0.367171 20:-0.190596 21:0.374904 22:0.558527 23:0.564422 24:0.759253 25:0.695065 26:0.511574 27:-0.0940487 28:0.0394097 29:-0.325338 30:0.105412 31:0.336572 32:0.826362 33:0.820576 34:0.907805 35:-0.159828 36:-0.179718 37:0.132358 38:-0.129399 39:-0.198073 40:-0.467856 
-12.59372478884437 -15.25331843845109 -14.10659859772432 -7.116051607145737 -8.815237873557484 -12.75898407475065 -10.75284703333427 -8.461311900930896 -24.96969949531406 -15.68183070058621 -14.93703408519123 32 19.8686111527455 16.59760790721706 20.86445088967859 10.62680425953467 10.96876865545051 32 26.00463787308267 9.300111974633865 8.593892562790122 13.87153649039497 9.907876888079697 10.8140335045732 7.768904165706934 11.54878471418502 10.46596028230653 9.82664142435919 14.06270938675267 7.160518467092728 6.990681003454036 11.21330714885541 12.68548684664195 17.57541575959659 7.514881826810753 6.18183020978442 12.98513002030962 11.35141232205232 20.69837693440311 20.51308059648594 7.482157278783623 8.234813467853815 11.42905327109136 7.901172798312881 8.444118813794592 14.34206281292983 22.78262778899165 8.547073588545448 8.017617659635508 10.33306315916543 11.32097176999335 11.88475414196638 14.13625295115864 10.60288738812883 15.18998346107903 8.186131391844386 12.00793886529767 8.464274380827407 8.052044613233749 7.052670803912288 1:0.0564841 2:0.410237 3:-0.423956 4:0.367249 5:0.378508 6:-0.134631 7:0.626899 8:0.647876 9:-0.0560302 10:-0.100984 11:0.535586 12:0.264299 13:0.132996 14:-0.297642 15:-0.344093 16:-0.741055 17:-0.33689 18:-0.0397205 19:-0.238207 20:0.0506376 21:0.618465 22:0.887616 23:0.425457 24:0.534752 25:-0.0319967 26:-0.785526 27:-0.857139 28:-0.365427 29:0.0297701 30:0.156223 31:0.265927 32:0.109845 33:-0.931434 34:-0.374248 35:-0.497405 36:0.328001 37:0.547004 38:0.464926 39:0.14843 40:0.168912 
-11.79348094068654 -17.85851060669732 -6.914858054250071 -5.098614529032688 -30.56861033113104 -13.9606323532237 -17.30844105338208 -14.27684153137704 -11.83614019825339 -8.750821758046344 -10.8302835685691 -1.923650887891665 7.471234740938272 19.62934265533129 8.1639977583692 13.71152037420996 18.12437141528044 6.543270236509953 11.77758733619254 12.21548013892106 15.69120745052642 7.317333328627882 13.72805376794233 5.995437182030613 11.04742510385094 12.70858619617612 8.441660940559007 7.290912951922335 7.159081915114629 5.545326249693076 5.019031950917876 8.288037641738255 6.988483416729509 5.65690808897125 17.69536745083508 7.193412258189343 22.42287165905567 25.30461556329379 8.63311058263146 24.68244109814366 9.551853352943409 13.37937309017763 12.48820351973565 9.455515660613333 11.68742355860953 14.90014650874235 11.51665452556168 17.71906050470751 19.19051472529527 10.41617223630882 7.553835587733611 18.78450853410089 15.16608500318856 13.81003564792343 13.45538690629612 10.24445532598075 18.82796184813282 9.899376273911528 10.31016262038351 15.70270959019385 1:0.0850705 2:-0.364221 3:-0.0333486 4:0.237568 5:0.0860768 6:-0.0236554 7:1 8:0.483623 9:-0.133278 10:-0.0112904 11:0.0729271 12:0.239985 13:0.84517 14:0.14831 15:-0.324181 16:-0.409195 17:-0.453754 18:-0.540833 19:-0.491723 20:-0.821362 21:-0.552438 22:-0.370993 23:-0.0329332 24:0.0664415 25:0.850259 26:0.780913 27:0.687428 28:0.923175 29:0.413338 30:-0.0859981 31:-0.786487 32:-0.379189 33:0.0718557 34:0.395668 35:0.256021 36:0.03883 37:0.105909 38:-0.246202 39:-0.275045 40:-0.362911 
-7.273343632993013 -0 -10.69622727994952 -4.385464969029735 -7.031388752562863 -0 -3.905436723850708 -4.89634531896407 -20.1638598017466 -2.40566347697262 -7.625494548738461 -28.91572472872801 10.54862013115911 13.16081648640777 14.44524075024949 8.034041511493976 6.109060275635784 32 21.7842809183071 6.090181351501912 0 7.009946868179084 6.915066375594598 5.288757006685102 1.924929974209969 9.035819278875664 7.590269731720643 6.759121972905789 10.61117027209989 3.153913691952372 4.002828560814277 8.200135144567158 4.223191844405881 2.393918795252566 0 3.132087064985052 0 9.207179984249118 12.70344839274357 14.46230076729514 4.052725328611074 4.955742928304854 8.808398666098086 4.495366045215147 5.17903301985918 3.314392606175372 17.10234506008402 0 4.778776819339598 0 8.296206038170796 5.02032903500515 5.683924482013453 8.0137652072777 13.06581302134743 4.291251087422665 2.698869174134501 5.259730971640921 4.619823888389999 3.278356845585515 1:-0.0503703 2:0.471561 3:-0.527874 4:0.328689 5:0.389159 6:-0.212024 7:0.536208 8:0.622336 9:-0.096436 10:-0.217032 11:0.514815 12:0.204075 13:0.0700742 14:-0.295955 15:-0.38665 16:-0.831632 17:-0.403282 18:-0.157762 19:-0.245782 20:0.10086 21:0.620622 22:0.965122 23:0.470626 24:0.48687 25:-0.0658017 26:-0.919873 27:-0.94943 28:-0.428802 29:-0.0364166 30:0.144237 31:0.377818 32:0.0061478 33:-1 34:-0.435874 35:-0.613244 36:0.321827 37:0.607631 38:0.468383 39:0.343444 40:0.14863 
-2.669758604996297 -15.48421524489721 -0 -0 -0 -0 -0 -0 -0 -10.57435107724342 -4.639323879646952 -0 3.870042881448449 0 0 0 0 32 0 0 2.126395177622506 0 0 2.705373364445175 0 0 0 0 0 0 0 0 1.463995036850487 12.53298027866009 0 0 0 0.4294600810404802 4.435660315331092 1.510618744808914 0 0 0 0 0 0 3.516347657878808 5.28158471466218 0 1.487991158266778 0 5.668830059677048 0 0 0 0.6113248376709952 8.098955217712668 0 0 0 1:-0.188351 2:0.525227 3:-0.755911 4:0.243239 5:0.251143 6:-0.355698 7:0.326141 8:0.572971 9:-0.285025 10:-0.284657 11:0.365175 12:-0.0122078 13:-0.0414548 14:-0.615079 15:-0.472128 16:-1 17:-0.524049 18:-0.186539 19:-0.262716 20:0.08785 21:0.683891 22:0.977597 23:0.564182 24:0.520032 25:-0.0119904 26:-0.867379 27:-0.950912 28:-0.430382 29:-0.245511 30:0.00355017 31:0.316909 32:-0.268553 33:-0.876527 34:-0.476688 35:-0.444342 36:0.549309 37:0.673362 38:0.679798 39:0.420857 40:0.118643 
-0 -0 -0 -0 -0 -0 -5.104951663031604 -0 -0 -0 -0 -1.160624383380322 0 0 0 0 3.285557387953646 32 0 0 0 0 0 0 0 0 0 0 0 1.100141624789452 0 0 3.741798079259044 0 0.4342851795643462 0 0 0 0 0 0 0 0 0 0 0 0 0 0 0 0 0 0 0 0 0 0 0 0 0 1:-0.0476379 2:0.417707 3:-0.569857 4:0.384499 5:0.336133 6:-0.198408 7:0.516646 8:0.621637 9:-0.114516 10:-0.18586 11:0.465881 12:0.225368 13:0.142553 14:-0.375743 15:-0.330744 16:-0.874391 17:-0.406925 18:-0.155053 19:-0.222702 20:0.0820769 21:0.650064 22:0.944276 23:0.520753 24:0.446262 25:-0.0797066 26:-0.911576 27:-0.972549 28:-0.447071 29:-0.130109 30:0.155478 31:0.298658 32:-0.0635828 33:-0.958775 34:-0.528435 35:-0.58664 36:0.332834 37:0.565794 38:0.572477 39:0.33072 40:0.152613 
-0 -0 -0 -0 -0 -10.721316490301 -0 -0 -0 -0 -0 -0 1.932203312207727 0 2.678590568540459 0 0 32 0 0 3.39561083430798 4.497561321174813 0 0 2.629000480178427 0 0 0 0 0 0 0 0 0 2.843758862738081 0 11.34063527620833 0 0 4.884361530875821 0 0 0 0 0 9.438351373107412 0 0 0 6.376143739498675 0 0 6.986813667381935 0 0 0 0 0 0 0 1:-0.144375 2:0.44763 3:-0.699562 4:0.234392 5:0.26552 6:-0.326567 7:0.340042 8:0.592521 9:-0.234885 10:-0.278687 11:0.33119 12:0.0859636 13:-0.0891816 14:-0.522871 15:-0.501783 16:-0.950406 17:-0.533562 18:-0.172629 19:-0.271865 20:0.0889836 21:0.689089 22:0.954174 23:0.509561 24:0.539443 25:-0.0665985 26:-0.914714 27:-0.887887 28:-0.542861 29:-0.215043 30:-0.0115544 31:0.153934 32:-0.151594 33:-0.959426 34:-0.5593 35:-0.360181 36:0.382014 37:0.684734 38:0.608425 39:0.409134 40:0.139284 
-0 -0 -0 -0 -0 -0 -0 -0 -0 -0 -0 -0 -0 0 32 0 0 0 0 0 0 5.431187501180959 0 0 0 0 0 0 0 0 0 0 0 0 0 0 0 0 0 0 0 0 0 0 0 0 0 0 1.925051688619702 0 0 0 0 0 0 0 0 0 0 0 1:-0.138461 2:0.524259 3:0.366311 4:0.922783 5:-0.0851058 6:0.0337228 7:0.093874 8:0.265287 9:0.371819 10:0.373228 11:0.630666 12:0.252155 13:-0.876619 14:-0.618551 15:-0.142589 16:-0.54741 17:-0.47196 18:-0.352723 19:-0.198689 20:0.201356 21:0.292317 22:0.529706 23:0.553727 24:0.147783 25:-0.0660734 26:-0.208817 27:-0.277555 28:0.074122 29:0.0958095 30:0.177037 31:0.341409 32:0.338775 33:0.0373187 34:0.394694 35:0.295308 36:0.290466 37:0.351263 38:0.0350778 39:0.406507 40:0.799918 
-0.409072184137009 -0 -0 -0 -0 -8.609626401228759 -0 -4.065111086881068 -0 -12.64627018275337 -20.574526677776 -0 -0 0 32 12.74147008728508 0 0 0 0 6.110154156535232 0 0 0 0.0319944529529386 0 0 0 0 0 0 3.766111956376243 15.27985552491569 0 0 0 12.88234889910191 0 0 7.39316868942779 4.193363195533848 0 0 0 3.167072267987926 2.449806636560936 16.04130846271054 4.773023472103763 0 7.79592485804921 0 0 2.570043373968452 7.968901857887507 0 5.21111824561389 0 4.709805695236314 0 0 1:-0.578356 2:0.462647 3:0.600665 4:0.824962 5:-0.336565 6:-0.290552 7:-0.451586 8:0.15933 9:0.0677509 10:0.20564 11:0.463371 12:-0.138897 13:-0.504464 14:-0.755675 15:-0.411286 16:-0.588215 17:-0.485093 18:-0.350762 19:-0.247319 20:0.282602 21:0.469847 22:0.530874 23:0.65835 24:0.201447 25:-0.12339 26:-0.226496 27:-0.20655 28:0.0545032 29:0.327662 30:0.196466 31:0.322907 32:0.555901 33:0.228524 34:0.228545 35:0.177382 36:0.348195 37:0.393132 38:0.170206 39:0.454018 40:0.604036 
-7.940497407882843 -0.4311651119634654 -0 -0 -0 -0 -0 -0 -8.137820590590348 -32 -16.11784887977807 -4.767846068581854 -7.353678141869714 12.52293837219111 32 0 0 9.581219479768794 32 7.256258105262809 0 6.147667844390907 10.28801095666414 1.232720177066923 0 0 0 0 0 0 0.4480073991740717 8.046276268192173 1.729854196456385 15.57730394372924 0 0.7877494139809949 4.897684119077559 2.581462244607581 26.30736791606072 6.585147097417893 0 0 0 0 0 2.016632361038686 17.07733945980375 0 0 0 0 1.381280511388794 6.442802416173634 0 0.5162608459776445 3.364763256699792 0 1.926913571167569 0 0 1:-0.582514 2:0.448551 3:0.643741 4:0.864724 5:-0.337127 6:-0.282922 7:-0.381831 8:0.109324 9:0.0807172 10:0.171552 11:0.656556 12:-0.156112 13:-0.436334 14:-0.798542 15:-0.447757 16:-0.645693 17:-0.428443 18:-0.337795 19:-0.233922 20:0.125197 21:0.34847 22:0.562001 23:0.567991 24:0.113713 25:-0.00286562 26:-0.495613 27:-0.415532 28:-0.0263697 29:0.226657 30:0.308674 31:0.27569 32:0.197767 33:-0.00742894 34:0.245603 35:0.0958514 36:0.262093 37:0.354603 38:0.0719638 39:0.429534 40:0.480475 
-0 -0 -0 -0 -0 -0 -0 -0 -0 -0 -0 -7.438709335984869 -0.6276790302100129 0 32 0 0 0.445985727032129 0 0 0 0 0 0 0 0 1.523476818369637 0 0 0 1.676245901713211 0 0 0 0 0 0 0 0 0 0 0 0 0 0 0 0 0 0 0 0 0 0 0 0 0 0 0 0 0 1:-0.199818 2:0.457802 3:0.427621 4:0.837926 5:-0.0994614 6:-0.0432173 7:0.135128 8:0.221211 9:0.319428 10:0.304734 11:0.732322 12:0.1579 13:-0.649056 14:-0.783827 15:-0.213878 16:-0.560996 17:-0.413795 18:-0.478832 19:-0.10458 20:0.255087 21:0.344651 22:0.514154 23:0.469006 24:0.0979832 25:-0.0465701 26:-0.282808 27:-0.300554 28:-0.0278855 29:0.00587717 30:0.156099 31:0.335032 32:0.379108 33:0.0763341 34:0.451493 35:0.0576785 36:0.192655 37:0.346627 38:0.100673 39:0.368063 40:0.654227 
-0 -0 -7.570000362202832 -0 -0 -0 -0 -10.81620791200156 -0 -0 -0.5610194626691113 -0 -0 0 32 0.7381153099807012 0 0 0 6.318778070663857 0 0 3.889326202550219 0 5.884999135742527 0 0 6.088254914598175 8.404199041566962 0 2.344765744692908 9.11764463973795 0 0 1.230477211060229 2.493506509487206 0 0 9.470610099219352 10.59494749777106 0 6.685179363153946 0 5.722967140929787 1.843750508065355 7.894155475463418 2.638295076993345 0 0 0 0 0 0 0 9.817211576178401 0 0 1.286780350516269 5.36515894616529 0 1:-0.155919 2:0.435093 3:0.389869 4:0.850346 5:-0.10441 6:-0.082581 7:0.0954471 8:0.234468 9:0.305984 10:0.357534 11:0.530542 12:0.202875 13:-0.831333 14:-0.609511 15:-0.231095 16:-0.477787 17:-0.452403 18:-0.397208 19:-0.091348 20:0.27151 21:0.322883 22:0.529163 23:0.595629 24:0.228183 25:-0.0648144 26:-0.112856 27:-0.183331 28:0.116604 29:0.116747 30:0.265189 31:0.582053 32:0.610621 33:0.155877 34:0.458977 35:0.270521 36:0.240784 37:0.472759 38:0.169853 39:0.368995 40:0.562265 
-9.708574779545119 -10.53142966646523 -0 -0 -1.321038274339517 -0 -0 -0 -0 -0 -0 -0 -0 0 32 0 0 0 0 0 0 0 0 6.807516380347058 0 4.482469445766871 0 0 0 0 0 0 1.713321871761461 17.15417731366411 0 0 0 0 25.37499520634246 0 4.877852562312863 0 6.790678880540342 0 0.718983197653875 0.5250910672737433 0 0 0 0 7.269161173050965 0 5.077350874056658 0 0 3.422129554566107 10.3967018740246 5.537747695559316 0 0 1:-0.139931 2:0.475586 3:0.332052 4:0.911278 5:-0.111515 6:-0.0115175 7:0.078024 8:0.19417 9:0.324027 10:0.442722 11:0.466514 12:0.167768 13:-0.83102 14:-0.616563 15:-0.12445 16:-0.531744 17:-0.513235 18:-0.322242 19:-0.162657 20:0.288212 21:0.383777 22:0.567486 23:0.534774 24:0.245966 25:-0.000259566 26:-0.0402314 27:-0.188914 28:0.0966881 29:0.240661 30:0.327075 31:0.567417 32:0.428802 33:0.239008 34:0.49223 35:0.373929 36:0.405238 37:0.331371 38:0.2059 39:0.464287 40:0.661941 
-0 -0 -0 -0 -0 -0 -0 -0 -0 -12.92851080924592 -0 -0 -0 7.045157639275319 32 0 0 0 0 0 0 1.82555090780795 0 0 0 0 0 0 0 0 0 0 0 0 0 0 0 0 0 0 0 0 0 0 0 0 0 0 0 5.540612600053766 0 0 0 0 0 0 0 0 0 0 1:-0.708915 2:0.456559 3:0.738076 4:0.763895 5:-0.383201 6:-0.373025 7:-0.563698 8:0.0849497 9:0.046234 10:0.0487472 11:0.657176 12:-0.340444 13:-0.467985 14:-0.909884 15:-0.510505 16:-0.625451 17:-0.450269 18:-0.434016 19:-0.355818 20:0.136631 21:0.332695 22:0.581885 23:0.625267 24:0.13354 25:-0.295433 26:-0.37632 27:-0.416495 28:0.0134635 29:0.280165 30:0.246388 31:0.0626379 32:0.288745 33:-0.0869594 34:0.307661 35:0.223845 36:0.157807 37:0.270004 38:0.0794193 39:0.496489 40:0.655886 
-0 -0 -0 -0 -0 -0 -0 -0 -0 -0 -0 -0 -0 0 32 0 0 0 0 0 0 0 0 0 0 0 0 0 0 0 0 0 0 0 0 0 0 5.346248993132216 0 0 0 0 0 0 0 0 0 0 0 0 0 0 0 0 0 0 0 0 0 0 1:-0.275547 2:0.386966 3:0.474027 4:0.789826 5:-0.10246 6:-0.195127 7:0.00822975 8:0.21732 9:0.293976 10:0.205747 11:0.697712 12:0.0570658 13:-0.553459 14:-0.806941 15:-0.256531 16:-0.520923 17:-0.477621 18:-0.461097 19:-0.0701747 20:0.295017 21:0.428602 22:0.515497 23:0.593832 24:0.0932288 25:-0.110871 26:-0.290205 27:-0.11959 28:0.0172488 29:0.106945 30:0.0981302 31:0.415561 32:0.348991 33:0.361191 34:0.449263 35:0.254025 36:0.0453465 37:0.356692 38:0.0806769 39:0.433258 40:0.947005 
-10.01163315848141 -4.665296298945752 -4.521412452302446 -8.009237542736553 -10.85568866968262 -25.79575876478356 -12.56451890932109 -0 -23.86217940940965 -2.72045799608287 -13.12309183514671 -7.662055748178777 -15.84074389367383 22.63399949001865 32 9.347667023908819 12.62836741599916 8.245250237335862 21.09626288724567 6.639506500913777 10.79838413613326 5.347859804873583 6.488647460949604 0.9807811027587481 5.877938371801958 11.32632150309658 7.807680713759767 3.312533699313545 4.220853698809094 8.348419219196975 4.581937473762395 1.840392392765248 10.13835893343734 15.81964990763128 7.40876827446495 3.783726710987084 15.1016606024742 19.4350148530416 17.56985075159641 28.70803171241376 4.948930468330104 5.668437377002375 9.101341872022681 10.24857821975426 8.726824434626884 30.93368771162392 31.45015136405353 13.08598741087483 7.556194042776067 14.4939695381546 2.234492976622017 26.19924040755507 26.7963527169919 14.01041571695415 6.697272616461224 2.601998700903771 4.022343013989213 0.9235950049090053 10.12542252094925 9.351499312342572 1:0.00230438 2:0.00948155 3:0.571785 4:0.538103 5:0.0333391 6:-0.376219 7:0.263157 8:0.0370942 9:0.213812 10:0.264872 11:0.744063 12:0.157282 13:-0.605126 14:-0.74357 15:-0.312144 16:-0.510319 17:-0.514761 18:-0.338935 19:-0.21644 20:0.285478 21:0.378977 22:0.562395 23:0.508693 24:0.250759 25:-0.181661 26:-0.232987 27:-0.24569 28:0.065115 29:-0.04765 30:0.0972824 31:0.0733429 32:0.278611 33:0.239906 34:0.387549 35:0.0441308 36:0.155159 37:0.244209 38:0.175908 39:0.504013 40:0.487604 
-0 -0 -0 -0 -0 -0 -0 -0 -0 -0 -0 -0 -0 -11.64610960563953 10.98126471019137 0 0 0 0 0 0 0 0 0 0 0 0 0 0 0 0.6199315530038082 0 0 8.611710669127955 0 0 0 0 0 0 0 0 0 0 0 9.90268451785961 0 0 0 0 0 0 0 0 0 0 0 0 0 0 1:-0.425393 2:0.533717 3:0.349778 4:0.66092 5:-0.647311 6:-0.410279 7:-0.175763 8:-0.237114 9:0.603721 10:0.186075 11:0.125395 12:0.125476 13:-0.392106 14:0.0734044 15:0.460846 16:0.0541974 17:-0.0664644 18:-0.272979 19:-0.641087 20:-0.582268 21:-0.480833 22:-0.530503 23:-0.244942 24:0.0322579 25:0.408733 26:0.617527 27:0.160344 28:0.750087 29:0.665716 30:0.186068 31:-0.214752 32:0.220824 33:0.186905 34:0.905491 35:-0.00600483 36:-0.25157 37:-0.211996 38:-0.037924 39:0.0962179 40:0.261093 
-0 -0 -0 -0 -0 -0 -0 -0 -0 -15.88989796840119 -9.576516502169426 -0 -0 -0 0 12.46201082123236 0 0 0 12.25807301628373 0 0 22.35433476140387 0 0 0 0 0 0 0 0 0 2.013405524239698 1.895503668285204 0 0 0 0 8.524988385987667 0 6.741847306787479 0 0 0 0 3.146900628477687 14.31907070503703 0.4381240417341892 0 6.294496825392806 0 0 4.013034629278217 8.55323535619595 0 5.103036510226891 0 0 0 0 1:-0.32913 2:0.474423 3:0.327244 4:0.669594 5:-0.614122 6:-0.360953 7:-0.0494288 8:-0.127843 9:0.456509 10:0.239034 11:0.27967 12:0.153307 13:-0.184949 14:0.178598 15:0.412032 16:0.0874945 17:0.0407901 18:-0.178099 19:-0.637353 20:-0.640359 21:-0.408034 22:-0.522049 23:-0.260611 24:0.0936854 25:0.386375 26:0.66793 27:0.248091 28:0.654923 29:0.686961 30:0.205584 31:-0.117729 32:0.249139 33:0.233803 34:0.799694 35:-0.0603272 36:-0.118794 37:-0.205678 38:-0.0818802 39:0.168272 40:0.0390524 
-0 -0 -0 -0 -0 -0 -0 -0 -0 -0 -0 -0 -0 -0 0 0 0 0 0 0 0 0 1.164883157144777 0 0 0 0 0 0 0 0 0 0 0 0 3.221929156332448 0 0 0 0 0 0 0 0 0 0 0 0 0 0 0 0 0 0 0 0 0 0 0 0 1:-0.5937 2:0.338593 3:0.341287 4:0.724944 5:-0.702313 6:-0.505001 7:-0.302056 8:-0.207483 9:0.649059 10:0.474829 11:0.342715 12:0.150671 13:-0.430587 14:-0.0981054 15:0.302998 16:-0.0806069 17:-0.25136 18:-0.56756 19:-0.795558 20:-1 21:-0.80307 22:-0.770252 23:-0.246138 24:0.113923 25:0.440025 26:0.908833 27:0.657135 28:0.714157 29:0.616096 30:0.540644 31:0.344899 32:0.1834 33:0.0754588 34:0.517137 35:-0.349449 36:-0.69437 37:-0.56983 38:-0.370771 39:0.130315 40:-0.479946 
-0 -4.164908013251221 -0 -3.710110932502423 -18.21602364579127 -22.65240943630128 -0 -8.520157609955612 -13.25497431564782 -0 -6.933042750090018 -3.608246485772582 -19.16234488994593 -0 0 2.071302144722301 0 1.84702895638148 10.90458338264755 0 6.622927060933614 0 0 2.28291682557398 11.75979132143211 1.89596098073268 5.434022654699339 0 0 4.42899956665242 0.8637136050402693 7.25724590669054 4.635111967159513 0 10.69856289248704 0.5560639210699836 0 20.53883102355558 0 19.72162257490814 0 17.4074195868962 1.045192681476596 0 0 0 0.10333781713768 3.503817490944799 26.90093095379016 9.677213312008714 4.861347974031808 0 0 8.82957679380967 1.429730358939974 4.307668481713623 8.160147420131274 0 0.09120533975857147 14.81059453162749 1:0.144608 2:0.35999 3:0.149554 4:0.749334 5:-0.380354 6:-0.105493 7:0.233861 8:0.184412 9:0.430687 10:0.132873 11:0.302412 12:0.644174 13:0.221104 14:0.331514 15:0.482121 16:0.32953 17:0.176978 18:-0.238266 19:-0.493512 20:-0.683659 21:-0.415597 22:-0.480905 23:-0.341565 24:0.0860454 25:0.310052 26:0.507232 27:0.378524 28:0.772913 29:0.467833 30:0.12027 31:-0.294139 32:0.297657 33:0.193405 34:0.914553 35:-0.0737417 36:-0.258933 37:-0.143858 38:-0.174058 39:0.104441 40:-0.112098 
-23.88192568563876 -8.436246139243989 -4.264838417176631 -3.034623076558184 -4.271594537648244 -23.05616359863422 -5.639007418429288 -3.394874044347625 -17.52437385744481 -16.61608146403711 -18.25543163468505 -11.88131519540783 -13.13213464515409 -27.000032015666 25.70472604398619 7.49770818535103 5.417849349406404 13.4587821497499 19.64509936002497 14.03349760784332 9.050084569535963 16.14231379109283 12.9261111616784 6.051926393711487 4.502831300846004 7.764709077060967 3.392571654281459 3.145728536617364 4.668878930003173 2.937672184816553 4.955768159298104 6.91992412783548 14.70258555217063 32 2.284282122391324 2.212311230112691 14.6193396315588 11.67510759144542 32 20.89391618698307 6.735525405145252 3.803067182792766 7.420735366047362 6.901291131142631 8.827477037352194 23.9993531546062 21.24877842721362 9.910748312547184 1.036411457649358 16.02828986259848 6.425119829428411 13.02624889336936 23.73945229575622 7.654072293277339 7.650260619136719 5.918407889316669 7.767872430798217 4.988507661844557 6.907517903765691 2.926727182961185 1:-0.351955 2:0.50711 3:0.494167 4:-0.190162 5:0.0144131 6:-0.790386 7:0.266944 8:-0.13929 9:-0.222346 10:0.263385 11:0.679154 12:-0.0915017 13:-0.915203 14:-0.721727 15:-0.99286 16:-0.317349 17:-0.211095 18:-0.472844 19:-0.238811 20:-0.0745226 21:0.280682 22:0.661963 23:0.731533 24:0.468434 25:-0.294244 26:-0.654958 27:-0.647288 28:-0.26587 29:0.794906 30:0.525464 31:-0.26648 32:-0.782424 33:-0.0150885 34:0.112016 35:0.307783 36:0.0262743 37:0.839374 38:0.359007 39:0.771636 40:0.00381472 
-13.55322625888351 -13.77545591391761 -0 -0 -0 -0 -0 -5.547333111127571 -0 -0 -0 -0 -0 -0 2.502420316056896 7.013297404600676 0 0 2.477861797872924 21.76556413876501 0 12.13108908098353 5.598582576024237 2.121318622080766 0 8.18273717654117 0 8.173622693489753 0 0 0 0 0 0 0 0 0 8.516286712668435 7.411809101694335 6.408445936021804 3.170939035977404 0 10.01821717442608 14.78977572785824 6.237742738715776 0 3.966784689501925 0 0 0 0 9.950131303323527 4.685670719099796 2.052042536300142 7.902008883297738 0.68269521921615 10.63602463710518 7.009482463525604 15.01857889971864 0 1:-0.0375732 2:0.383038 3:0.186394 4:0.713122 5:-0.471352 6:-0.179192 7:0.105669 8:-0.0386631 9:0.546529 10:0.246386 11:0.279784 12:0.382626 13:0.0198336 14:0.428944 15:0.543051 16:0.19534 17:0.0694965 18:-0.159933 19:-0.436243 20:-0.625609 21:-0.519494 22:-0.532684 23:-0.180352 24:0.122022 25:0.347036 26:0.490429 27:0.339654 28:0.888253 29:0.575305 30:-0.0898652 31:0.170773 32:0.182582 33:0.259129 34:0.872411 35:0.193577 36:-0.330988 37:-0.160152 38:-0.0914047 39:0.165045 40:-0.0864417 
-8.721550685243184 -0 -1.552865201114501 -2.820794306739454 -8.454779785854925 -0 -4.437169653284252 -6.601031402728066 -1.220651826907373 -0 -0.9203431261126944 -1.108046226036653 -0 -2.400657854338954 1.565809479960956 1.942278903798325 4.785298550271049 0.9355325036293335 0.4880652130692714 12.15010868227876 5.548968794524553 0 12.70664498014527 0.2119818747972999 1.503312505353644 6.978754293403532 6.493244830354072 5.591843238460602 1.501194107835919 2.673322441944766 22.18934578873398 1.540474527157121 0 0 1.667179688698154 8.158119240219028 6.6152500893056 3.637577689099899 0 0 11.24541569271368 0.3535714820182791 5.739730398051579 9.316314688013858 16.15148367141659 8.80544253610414 0 6.446079461405812 3.294502686629957 0 0.1215827394864521 3.02427752502267 8.946885424588169 2.203691222900416 6.584206844284397 5.294103713436282 0 4.486821398015108 9.575985553776396 32 1:-0.0631613 2:-0.659945 3:0.233601 4:0.793993 5:0.110222 6:-0.498524 7:0.132776 8:-0.0925587 9:-0.124944 10:0.212765 11:0.0759309 12:0.491576 13:0.483787 14:0.536636 15:0.84792 16:0.933176 17:0.681951 18:0.170613 19:-0.0433361 20:-0.726021 21:-0.708163 22:-0.810553 23:-0.890903 24:-0.5839 25:0.0466944 26:-0.270151 27:-0.234673 28:-0.0761494 29:0.110914 30:-0.349028 31:0.248154 32:0.68513 33:0.800573 34:1 35:-0.0242733 36:-0.215908 37:-0.150525 38:-0.54388 39:-0.203692 40:-0.275887 
-0 -0 -9.151588400873161 -0 -10.24245760595806 -0 -7.034974482735119 -0 -0 -0 -0 -0 -0.4956796066390374 -0 0 0 7.058165359662696 0 0 0 0 0 0 0 0 0 0 1.132450687927095 9.199813939224626 0 0.3942638916828748 0 0 0 0 1.942817075237127 0 6.087818612357304 0 0 0 0 0 0 0 0 0 0 1.584538120631692 0 0.1217849095941947 5.993179433408256 0 0 1.287744529379978 0 0 0 0 13.5894469933562 1:0.0929186 2:0.067016 3:0.143981 4:0.73231 5:-0.440151 6:-0.0287922 7:0.322738 8:-0.05278 9:0.58448 10:0.56629 11:0.460187 12:0.659024 13:0.0970371 14:0.294083 15:0.559992 16:0.340098 17:-0.0481983 18:-0.452716 19:-0.643252 20:-0.887284 21:-0.607418 22:-0.742852 23:-0.196763 24:0.0265631 25:0.397643 26:0.682894 27:0.56884 28:0.956417 29:0.557971 30:0.185202 31:0.0048148 32:0.234046 33:0.190727 34:0.670486 35:-0.360646 36:-0.42238 37:-0.490863 38:-0.432267 39:0.0311414 40:-0.331839 
-0 -0 -0 -0 -0 -0 -0 -0 -0 -0 -0 -0 -0 -1.155296025840586 0.2315800619068007 0.3574687133391022 0 0 0 0 0 0 0 0 0 0 0 0 0 0 0 2.546369275049832 0 0 0 0 0 0 0 0 0 0 0 0 0 0 0 0 0 0 0 0 0 2.179629115706387 0 0 0 0 0 0 1:-0.442905 2:0.290093 3:0.36076 4:0.793192 5:-0.692642 6:-0.446988 7:-0.0376211 8:-0.206543 9:0.603015 10:0.506385 11:0.404492 12:0.359881 13:-0.398447 14:-0.0853788 15:0.341727 16:0.164099 17:-0.209847 18:-0.476906 19:-0.824898 20:-0.902561 21:-0.618018 22:-0.63901 23:-0.241963 24:-0.026616 25:0.416879 26:0.725536 27:0.723596 28:0.776191 29:0.511256 30:0.122353 31:0.165876 32:0.359245 33:0.154541 34:0.606279 35:-0.370271 36:-0.730692 37:-0.55846 38:-0.196269 39:0.156716 40:-0.17147 
-2.796017718679346 -0 -0 -0 -0 -0 -0 -17.01403741011825 -0 -0 -2.348745785296105 -0 -0 -0 0 0 0 0 0 0 9.54849639946638 0 0 0 0 0 0 0 0 0 0 3.700398226275791 3.115139406240192 0 0 0 17.96827049423301 0 0 0 0 0 0 0 4.423620171690516 10.5068083644219 0 11.13523576478567 0 0 0 0 14.18403341334526 0 0 5.736471347337062 0 9.879019865817739 0 0 1:-0.298125 2:0.444159 3:0.289086 4:0.711897 5:-0.579062 6:-0.450098 7:-0.0263133 8:-0.0678755 9:0.441162 10:0.226182 11:0.193108 12:0.226768 13:-0.229233 14:0.164157 15:0.474242 16:0.0946667 17:-0.0460433 18:-0.261408 19:-0.461507 20:-0.624578 21:-0.49905 22:-0.560575 23:-0.18184 24:0.068722 25:0.445204 26:0.574585 27:0.249278 28:0.733134 29:0.658052 30:0.164562 31:-0.0806853 32:0.305695 33:0.218861 34:0.778911 35:0.109168 36:-0.342813 37:-0.114022 38:0.0218969 39:0.161395 40:-0.143479 
-1.196377950200691 -1.814326246120234 -0 -0.3805625883198427 -1.972920160861585 -7.180630702618793 -0 -0 -3.935612577101153 -5.582412724452911 -16.39790015842214 -0 -0 -0 -3.831933903469015 0 0 0 5.370823906369799 1.176968860901554 7.774928223051906 0 2.649500140845467 0 0 0 0.7997906945046035 0 0 0 1.78866067170345 12.4533892639767 7.165616618018998 0 0 0 0 4.5402973788905 0 20.06532180435102 0 0 0 0 0 0 28.6248657688032 6.726909194813467 0 7.609150921710797 0 3.625573424004139 1.555238975407156 1.554837613599084 2.825814616164417 0 0 0 0 0.3492788236542325 1:-0.702138 2:0.517943 3:0.708592 4:0.817178 5:-0.358046 6:-0.263088 7:-0.645743 8:0.0889731 9:-0.0606655 10:0.422306 11:0.524703 12:-0.284286 13:-0.613577 14:-0.813711 15:-0.447634 16:-0.560786 17:-0.508949 18:-0.402218 19:-0.263094 20:0.0237 21:0.360525 22:0.554183 23:0.703594 24:0.115575 25:-0.266633 26:-0.468967 27:-0.342254 28:0.1558 29:0.1319 30:0.200261 31:-0.00340981 32:0.395745 33:0.0690355 34:0.264659 35:-0.130144 36:0.185985 37:0.456998 38:0.254496 39:0.32069 40:0.307685 
